769 128
1 -0.0020555728 0.0036301948 -0.0027725846 0.0036879843 0.001495086 -0.0021770145 -0.0031522736 -0.0032823244 -0.0025011254 -0.0014975728 0.0038407703 0.0033457153 0.002810769 5.17054e-05 0.0005570896 0.0014828586 -0.0029386785 0.0018845587 -0.003406633 -0.00023601872 0.0036841584 0.0010532129 0.0015138014 -5.5914243e-05 0.0010247986 0.0010069726 -0.0013933254 -0.0029069784 -0.00095387484 0.0014953032 0.0013457824 0.0038842792 0.00069929234 0.00256799 -0.0015885821 0.000651261 0.00092091144 0.0036184576 0.002607081 0.00092526764 -0.0020241502 8.41589e-05 0.002845416 -0.00072269 -0.0023353142 -0.0038037782 -0.00022419056 -0.0014419614 0.0038817183 0.0029683888 0.0020890965 0.0019897833 0.0026094501 -0.0023322883 0.0035013424 -0.0026483212 -0.0027197436 -0.0037953653 0.003342389 0.0034262678 0.0037319716 -0.0035114991 -0.0037329998 -0.0031869442 -0.0032477498 -0.0017055816 -0.0026355607 0.0030279262 -0.0035991226 -0.0033363723 0.0032758957 -0.0008453199 0.002240847 -0.0001414959 -0.0012501354 0.0023990977 0.0015096217 0.0026784404 0.0036432496 0.0014357974 -0.00059858314 -0.002613573 0.0015266399 -0.0028297394 -4.3595373e-05 0.0038605696 -0.00040117762 -0.0020180033 -0.002221051 0.0009282187 -0.00043835133 0.0005957893 0.0035442482 -0.00059168204 0.0027271146 0.0033898226 0.0016808413 -0.003150145 -0.0030510053 0.0028538348 -0.0023696558 -0.0025400692 0.0024416493 0.0037025928 -0.0033280607 0.000110490626 -0.0016214006 0.00018044646 0.0010829612 0.003391976 0.0028914826 0.0010353926 -0.002681841 0.0019504831 0.0018853948 -0.0011165325 4.110565e-06 -0.0029427358 -0.0007921976 0.0031199604 0.0006683232 -0.0026518886 0.0035352872 -0.0016413366 -0.003082446 0.0034765147 0.0013560482 -0.0011313068
16 -0.0017114814 0.003196824 -0.0020643459 -0.0016520435 -0.0021584474 -0.0031275195 -0.0023344324 0.0014838091 0.0038247725 -0.0020419327 -0.002653327 -0.0015360417 -0.0010646171 0.0012469289 0.00078886637 -0.0021871459 -0.0019205234 -0.003658187 0.0018901048 -0.0022149489 0.0018517042 0.003310794 -0.0035417913 0.0035105457 -0.0017170748 0.0031185553 0.00047533662 -0.0029610433 -0.002361776 -0.0031928134 0.0023053063 -0.003666181 0.00089765585 0.003259194 -0.0013801962 0.0018477662 -0.0015906292 0.00299454 0.0011834835 0.0011968792 0.0016699992 -0.001662691 -0.0026043842 0.0007071898 -0.0032543002 0.0036780008 -0.0035987755 -0.0020612862 -0.0037134483 -0.0025745714 -8.25917e-06 -0.00039144128 0.0024312923 6.7232875e-05 -0.0031865202 -0.0037459817 0.0016421778 0.00018323494 -0.0038403647 0.0017315402 -0.0017856915 -0.0017697331 0.003343675 0.00062119524 0.0014215587 0.0030019814 -0.0033427041 -0.0020476768 0.0014928074 -0.00015826736 -0.003156841 -0.0017039799 0.00019731371 0.00043571586 0.0013875457 0.003535367 -0.0013745392 0.0017717504 0.0017107613 0.001492016 -0.0034123145 -0.002289329 0.0015086968 0.0016335627 -0.0023622946 -0.0024480063 0.00133262 0.0014125608 0.0015642927 -0.0020417932 0.0019787778 -0.0031398593 0.0016353127 -0.00029498123 0.0015249936 -0.001483852 0.0039042665 0.001203728 -0.00089412637 0.0024430528 -0.00020751102 -0.0014366743 0.0014019146 7.6274555e-05 0.0034241488 0.0030477962 -0.0025329206 -0.0033126243 0.0022389595 -0.0017393152 0.0035575735 -0.00087656215 0.0024132913 -0.0034019044 0.0010273487 -0.0008145193 0.00035073023 -0.0019212136 0.002262795 -0.003108871 -0.0027957705 0.00011363945 -0.0026870044 0.002882339 0.00049145834 0.0032704554 0.0034003027 0.0009636231
90 -0.0029423807 0.0027389952 0.0025493945 0.0035854615 0.0017622635 -0.0009376807 0.0033472287 0.003200689 -0.00014376183 0.0010538581 0.0025620789 0.0021297976 0.0032710957 -0.00052177435 -0.003540018 5.5693123e-05 -0.0026512009 0.0037744727 -0.0018087776 -0.00010904492 0.00047435664 -0.0009373014 -0.00083327596 -0.003444138 -0.0026679372 0.003106554 0.00048822892 -0.0025737267 -0.0020465225 -0.0005076352 -0.00039010524 -0.00014012498 -0.0026837252 -0.0019908706 -0.0006540213 -0.0003422822 0.00046771276 0.0012427468 -0.0037554314 -0.0014585623 -0.0021281296 -0.002590513 -0.0016722559 0.00016851083 -0.0029619078 -0.0010287215 -0.0011903387 0.0017580203 0.0028379727 0.0010349236 -0.0034482717 -0.0017366909 -0.003042353 -0.0031040863 0.0027442838 -0.0018754001 -0.0038235865 -0.0026481731 0.0010000187 -0.0021999727 -0.002737618 0.0015830614 -0.002114538 -0.00033862196 0.0003408287 0.0023018473 -0.0019875257 0.00015020861 -0.0008046243 0.0037626922 0.0026012808 -0.0034617814 -0.002705694 0.0025257266 0.0019438424 -0.00031175336 0.0034357065 -0.000336634 0.0029759957 -0.0022371733 -0.0013663353 -0.0033852293 -0.0029061153 0.002772306 0.0031282993 0.0011034332 0.0019382016 0.00088098523 0.0026073807 -0.0010438182 0.001825473 0.0015522132 -0.0031150675 0.0035612015 -0.0033069542 -0.00021932943 -0.0011448001 -0.002496826 -0.00084709877 -0.0022781899 -0.002884759 -0.0033335718 -0.0021934258 -0.0015637872 -0.0019279696 -0.0005353924 -0.0006770093 0.00014256881 0.0025708203 0.003605069 0.0032147232 -0.000822905 -0.00023609483 0.003865953 -0.003204022 -0.00014875857 0.0029195081 0.00036502918 0.00031555013 0.001711878 0.002170972 -0.0023565406 0.0025647855 -0.0011325734 -0.0034989105 0.00048842805 0.0006698445 -0.0016727791
2 4.921789e-06 -0.0023499627 0.00343182 0.0007475888 0.0036015601 -0.0037237767 0.003874259 0.0025997702 -0.0027089287 0.002717726 0.0035823907 0.0023866307 -0.0031637137 -0.0022745216 -0.0036802816 -0.0002551469 -0.0019980748 -0.0027007402 0.00024772115 0.002641317 0.0017846447 0.0016636634 0.0034083137 0.001960865 0.0021178857 -0.00071444834 0.001492856 -0.0011830251 -0.0016907678 -0.0024554017 0.0006613028 0.0032249615 0.001887003 3.305461e-05 -0.00069677935 -0.0014750689 -0.00013831719 -0.0009587151 -0.00041872862 -0.003437693 0.003561083 0.0032543472 -0.001930531 0.0016406951 0.0037103638 -0.0006973616 0.0034092069 -0.0038252245 0.0014799151 0.002143133 0.003697108 0.0035424333 0.00051352876 -0.0037428783 -0.0021135104 0.0019428579 0.0010420543 0.0033875315 0.0032933783 0.0023822847 0.0034730565 0.00012321003 0.0029537347 -0.0015299185 0.0011001913 0.0016429011 0.0013507021 0.0024563014 -0.0033063572 0.0021903508 0.001703354 0.0008802207 0.003738093 0.001800576 -0.00097316835 -0.00055421813 -0.0016424289 0.0019840635 0.0028132307 -0.0007085628 0.0030556738 -0.002564905 0.0038698928 0.0030622836 0.0024458964 -0.003181266 0.0014558804 0.003082486 -0.0005564393 0.0019010111 0.0012521424 -0.0033550533 0.0016975985 0.0018324326 -0.002701568 0.00079625327 0.0027061834 -0.002278778 -0.0010355824 -0.0024050777 -0.0008861503 9.586181e-05 -0.0016149614 2.4588779e-05 -0.0005750292 0.00010681077 0.0033161347 0.0011527026 0.002651788 0.0005777169 -0.0010201021 -0.003775737 -0.0035072423 -0.0021265275 -0.0024532708 0.0036857466 -0.002687795 0.002035609 0.000819345 -0.0018546755 -0.0014891046 0.00089635985 -3.6224014e-06 0.0002117453 0.0011122937 -0.0028148487 0.00036839632 -0.0011609284
31 -0.0020366274 -0.00069529115 0.002650691 0.0023333568 0.0021786287 -0.0017639073 0.0018108706 -0.0014711783 -0.0018113812 -0.0011769328 -0.0033635139 0.003662323 -0.0019332084 0.0008626442 -0.0009179109 0.0020172112 -0.002826785 -0.0018590769 0.0002935902 0.0026527117 -0.00174037 0.001366509 0.0010532473 -0.0018653986 0.0031546685 0.0011092767 0.0033632568 0.002850138 0.0029141826 -0.0028689513 -0.0026990974 0.0038407238 -0.0018663941 0.0028824245 0.0038988683 -0.0030882591 -0.0030401498 -0.0019175056 -0.00364055 0.0008707586 -0.0022443617 -0.00052769564 0.00019283287 -0.0035224918 -0.0030850468 9.779407e-05 0.002903981 -0.001600098 0.0015963021 -0.0014817901 -0.0013486646 -0.00136087 0.001983055 -0.0013358551 -0.00056966604 -0.0011868334 -0.00039773737 0.0004921274 -0.0012912157 0.00031157088 0.0030694504 0.0028733672 0.0029326607 -0.0013805246 0.0013979898 0.0027039596 -0.0023929938 -0.0008944602 0.00034505982 -0.0013172164 0.0012584446 0.002179943 -0.0016634476 0.0024978896 -0.00095714343 -0.0022097805 0.0014410006 -0.0027512196 -0.00322056 -0.002268609 0.0020557558 -2.5799749e-05 -0.0005569397 -0.0027941999 -0.002978783 0.0029726187 0.0024194322 0.0009101001 -0.0017600617 -0.0024852904 0.0023164253 -0.00027040945 0.0035520429 -0.0008577718 3.803144e-05 -0.00061020313 0.0033665625 -0.002235536 0.00358253 -0.0015211652 -0.002418335 0.0014827226 -0.0027176028 -0.0021214746 0.0034416614 0.0023149431 -0.0034930762 0.0030359684 0.0015410051 -0.0016472834 0.0035626334 -0.0026366385 -0.002217445 0.0032362728 -0.002668682 -0.0015764455 0.002774889 0.0014738276 0.0026743966 0.0005920793 -0.0035011556 0.0028689038 0.003740441 0.0026810332 -0.0019092044 0.0011949567 0.0036735488 -0.00052534905
5 0.00065005635 0.0027781306 -0.0014319506 0.0017071316 0.00068390736 0.0026349344 -0.00030639212 0.0017666722 -0.0024350167 -0.001158863 -0.0024794282 0.00028017233 0.003391708 -0.0029780222 -0.003010277 0.00056117855 -0.0022355416 0.0018931691 -0.0018480251 0.00083244685 -0.0013487883 0.0009121597 0.002474099 -0.0018731487 0.0021300022 0.0012782988 -0.0024571447 0.002007713 -0.002111762 0.00063754956 -0.0014613941 0.003417182 0.0005863083 -0.0011807925 6.559475e-05 -7.087643e-05 -0.0016057917 0.0017045074 0.0037571755 0.0033108955 -0.0010564625 0.0014495748 -0.0031564776 0.0006306525 0.00022203296 0.0020874974 0.0011377875 0.000833671 -0.0016741031 0.0012201344 -0.0034351796 0.0031671291 -0.0017773774 -0.0014672244 -0.0032166212 -0.0027890499 0.0027383887 0.00029962594 -0.0037506265 -0.00046517115 -0.003485786 -0.0003254087 0.0031549192 -0.0011120789 -0.0007573759 0.00086398795 -0.00010733397 0.0038667363 0.000524679 0.0031170167 -0.0029249405 0.00040261215 0.00062466966 -0.0030061833 -0.0027231248 -0.0014962213 -0.00044079853 -0.00012427167 -0.0011160115 -0.0016175709 -0.0010533539 0.0018229397 0.0010954938 0.001776966 -0.00017072806 -0.002954925 1.033516e-05 -0.0029813773 -0.0014923806 0.0026454392 0.00021044486 0.0025419628 0.0037122257 -0.0029520118 0.0035572406 -0.002531249 -0.0002503007 0.0024731026 0.0015127728 0.0007554753 -0.0013929371 -0.0032823668 0.003730565 -0.000426911 0.0007713531 -0.0026075589 0.00017160758 -0.0035600264 -0.0032436058 -0.0021218825 0.00027718826 0.0035395238 0.0026866589 -0.0037243697 0.00365813 0.0025210446 0.0027471872 -0.00052877096 0.00037509698 0.0016047367 -0.00079762115 0.002303583 -0.0036943997 -3.4536264e-05 0.0032077774 0.001614868 -0.00083169877 0.0032204636
223 0.003131834 -0.0025746312 -0.00056692894 0.0008298853 0.0018497085 -0.0010097434 0.0005920352 -0.0034792328 3.2107808e-05 -0.0015791641 -0.0037909988 -0.001207955 -0.0020841795 0.00044511064 -0.00096832437 0.0005253025 0.0010338362 -5.801176e-05 0.00017578015 0.002752029 -0.0006724769 0.0021989439 -0.0031607586 -0.0004301525 0.0015115207 -0.0009170067 0.0024134433 -0.002098172 -0.0012636464 0.002231375 0.003529381 -0.0016750142 0.0026543692 -0.0013533272 -0.0021834963 0.0016055858 -0.0002421164 2.6689713e-05 0.00020789522 -0.0020520298 -0.00051392533 0.0009521902 0.0033118199 -0.0008655399 0.0013559617 -0.0025552302 -0.0017182481 0.00076902774 0.003139399 0.0005792853 0.0013275692 0.00021863898 0.003084312 -0.0017063092 -0.0031729569 0.0031656944 -0.00068067573 -0.00052928 0.0030383607 0.0017678619 0.0036462508 0.0012072303 -0.0017092071 -0.00078578875 0.0016985396 -0.00020040867 -0.0001921586 -0.00024796187 0.0032571934 0.0018791641 -0.0006951917 0.00360097 0.0034527928 0.0002809315 -0.00037923144 -0.0019084497 -0.003183887 -0.002639241 4.5677993e-05 -0.0036963734 0.0006217782 -0.0036633355 -0.0023730993 0.00052855007 0.002594162 -0.0018868336 0.0031568406 -0.0017628765 0.002953363 0.0030675137 -2.7040445e-05 0.0018777814 -0.0022601625 0.0034952895 -0.0012208355 0.0013295736 -0.0026057137 -0.0036684482 0.00057206454 -0.0017962015 -0.001146584 -0.0016853324 -0.00069994683 -0.003159082 0.0018554308 -0.002566154 -0.0012081551 -0.0013262973 0.0012127606 0.00016285211 -0.0027049806 0.0018854319 0.0033548858 0.00017498065 -0.0016500287 0.0008840754 0.00271483 -0.0035890683 0.00029307438 0.00025787114 0.0014096961 0.0010144929 0.0029503806 0.0003792492 -0.0022445132 0.0003999552 0.0022208942 -0.0008697902
18 -0.0011079998 0.0022116795 0.0024557216 -0.0026099654 -0.0021930959 0.0035314807 -0.0007456477 -7.244589e-05 0.0015466714 0.0006516827 -0.0020443865 -0.0012439726 -0.0010446273 -0.0028631748 -0.002205647 0.0010348916 0.002532295 0.0015101114 0.0027536247 0.0009696639 -0.00197882 -0.0032836564 0.0036924162 0.0011326508 0.0025120806 0.0007123272 0.001009712 -0.0025577606 -0.0012145524 0.00105099 0.0027250722 -0.00013797566 0.0028530294 6.514477e-05 0.0010671815 0.0016424519 -0.0037604538 -0.0032224199 -0.003256325 -0.002034781 -0.0010358967 -0.0033620216 0.0034953076 -0.0022038778 0.000290961 0.0025255592 -0.0026405035 -0.0007146017 -0.0007716783 -0.0033120792 0.0015353007 0.00034518095 0.0036526914 0.00022677598 -0.00257046 0.0025659164 0.0017097238 -0.0028692477 -0.0017147757 -0.0010336813 -0.003522716 -0.0019855844 -7.139935e-05 -0.0027847954 -0.002873236 -0.001961501 0.0023398001 0.0005827078 -0.0007328732 -0.0015039758 0.0033395488 0.0029457416 8.947385e-05 -0.0022640568 -0.0006811147 -0.0026366361 0.0026905977 0.0022355134 0.0013973034 0.0010435736 -0.0007075793 -0.0025033215 -0.0015101366 0.0007575663 -0.0034631677 0.0034539823 0.0029005478 -0.0013697518 0.0019288865 0.0022606496 -0.0028731523 0.0037107924 -0.0024888478 -0.00226465 0.0014218958 -0.003694801 0.002017987 -0.0034374648 -0.00021431467 0.0024841416 -0.0021364824 0.0011575919 0.0032673997 -0.00074535655 0.001988595 0.0012245699 0.0033616868 -0.0025062328 0.003784358 -0.0007739988 -0.0033506816 -0.001413726 0.00033951807 -0.0019171461 0.0014703393 0.00012984942 -0.0021308472 -0.0014911807 0.00014104684 0.0006781678 -5.102528e-05 -0.0021746065 -0.0030774665 -0.003812616 0.0025363134 0.0015040863 -0.0014507724 0.0030165974
12 0.0017397066 0.0019422215 0.00049640576 -0.00043786052 0.0007039682 -0.0032266672 0.0020929857 -0.0025949043 -0.0018313694 0.0012391432 0.0013667952 -0.00074881373 0.0023295733 0.00062707113 0.00214868 -0.0019964192 -0.00044060004 -0.0030023772 -0.0035135746 -2.6068576e-05 -0.0006487994 0.003389864 -0.0019344856 1.145694e-05 -0.0014464725 -0.00028320376 0.0016408749 -0.0017050923 -0.003837394 0.0034607786 0.00015195474 -0.0017779978 0.0026661842 0.0029906884 0.001662752 0.00013120809 0.0032950465 -0.0035833372 -0.00082884484 0.0023565579 -0.003406081 0.00067799195 0.0034284177 0.00269308 -0.0019854151 0.0030268368 0.0010880549 0.002690939 0.00040332729 -0.00110661 0.0015061432 0.003769164 0.0011349927 0.002492114 0.0031616979 0.0018315776 -0.0016227016 0.002876707 -0.0019718022 0.0029971132 -0.0035448275 0.0015878693 0.0033288603 0.0013162534 0.0027214123 -0.0026391384 -0.0014472764 -0.0010608183 -0.0034034478 0.0022220716 0.0017056232 0.0006093511 0.0038491942 -0.0030804195 -0.0022382408 0.00034377855 -0.003000088 -0.0020837833 -0.0037442537 0.000857256 0.00046058543 0.0014449984 -0.00054169784 -0.002503165 0.0026190528 0.00037133673 0.0027634364 -0.0014002811 0.00014714841 0.0032023548 0.0028764138 0.0031131092 -0.0028410982 0.0023453045 -0.0013138049 -0.0031647363 -0.0038564717 0.0007117649 0.0030480092 -0.00267848 -0.00041919018 0.0024293864 0.0021198678 0.0030057617 0.00064938376 -0.003419917 0.000337388 -0.0012315965 -0.0010992985 -0.00033787466 -0.0022690755 0.0016249625 -0.0027222494 0.0018363837 0.00045741347 -0.003381137 0.0036366961 0.00078373845 0.0035851859 -0.0038772582 0.00013773664 0.003632376 0.0018344555 0.0033078415 0.00056143064 9.887508e-05 0.0016476274 0.0019049025
709 -0.0012603968 0.0007338001 -0.0033097395 0.00056198635 -0.001338537 -0.0024531574 -0.0032116242 0.001582248 0.00020423779 -0.002876901 0.0035388176 0.0026409517 0.0021327343 -0.000883837 0.002025155 -0.0023409787 0.0028571468 -0.0038741985 -0.0019633274 -0.002196062 0.0022688103 0.0008422764 -0.0023015193 -0.0017691464 0.003753446 0.0023625463 -0.0016167688 -0.0037245094 0.0020732353 0.0010090357 -0.00258782 -0.0024508634 -0.0016872868 0.0034290547 0.0032276579 -0.0022818565 -0.0024249011 -0.00041789963 0.0015994177 0.0020445944 -0.0009264571 -0.0012127741 -0.0018661201 -0.00235637 0.0032902292 -0.0020523923 -0.0027460097 -0.001883442 0.00037453513 -0.0019802495 -0.0003613791 0.001133895 -0.0019354973 -0.002188736 0.00045986753 0.0029908123 4.046913e-05 0.0025374312 -9.617667e-05 -0.0011246591 -0.00256046 0.002557849 0.0005039313 -0.0024464068 0.0017993249 0.0022009816 -0.001665725 -0.0013187127 0.00022255702 0.0020622057 0.0015678395 0.002017423 -0.0013572156 -0.0012721698 -0.0008891375 0.0023906778 0.0037150383 0.000114033835 -0.0010684772 0.0020902075 0.0036370773 0.0011696559 0.0017740105 -0.0027581286 0.0019235425 -0.0034374485 -0.002986982 -0.002363368 -0.002110241 0.0009843648 -0.003593436 -0.0035168058 -0.003217541 -0.0001689432 -0.0023247926 -0.0019124392 0.00245937 0.003202118 0.0032452655 0.0023227055 0.0025531687 -0.0030686234 0.0017283453 0.00247619 0.0036830714 -0.0023852293 0.0029480509 -0.00076585 0.00039113892 0.00037362732 0.0029533785 -0.003168143 0.0010637773 0.0009582778 -0.003053092 -0.0024247407 -0.0027508081 0.00371664 0.0023257833 -0.003220682 0.0023868692 -0.0021205987 0.0029569352 0.0012341221 -0.0012362618 -0.001672864 0.0020092318 -0.00084799767
85 0.00048809152 -0.0021564635 0.0007887718 -0.0030822307 0.0028453055 0.0014156644 0.0016666008 -0.00058195455 0.0019040678 -0.00080356846 -0.0026089766 -0.0018565456 -0.0009632846 -5.318771e-05 -0.00011280692 -0.001423753 0.0016333793 0.0022266684 -0.001611922 -0.0029170807 0.0033891357 0.0029954703 -0.0020957051 -0.002087187 -0.0006970349 -0.0010578481 0.00022036777 -0.0025855643 0.0014366718 0.0019870424 0.0017198494 0.0017137339 0.00027019647 -0.0036159777 0.0026478826 -0.0035246469 -0.00049760885 0.003053532 -0.002607691 -0.002069195 0.00023492052 0.0004354046 -0.002602669 -0.00028308446 -0.0012217854 7.4268314e-06 0.0005488724 -0.0024056623 0.0027613055 0.0013261084 0.00064057676 -0.0035022823 -0.00038436678 0.0015322702 0.00048403203 -0.0018645595 -0.0033359758 -0.0030684618 -0.0037489813 -0.0008901652 -0.0033828265 0.0018155205 0.0016075908 -0.00081165007 0.0029211114 -0.002959965 -0.0026507431 0.002065225 0.00094634603 -0.0023592578 0.0020847907 0.0024939645 0.0012580968 -0.002755335 0.0030860796 0.00014114268 -0.0015417894 0.0014437546 -0.0017487583 0.0028307922 -0.0033286486 0.0020545637 0.003133711 -0.00031290902 0.0005000094 0.0002485242 -0.002181767 0.002147165 -0.0018521398 0.0006228279 -6.909618e-05 0.0034705962 0.0025932672 -0.0018533549 -0.0030552642 0.0021740291 -0.0036643036 -0.0019616578 0.003535468 -6.0941486e-05 0.0026802223 -0.0027125631 0.00014472763 0.0037055605 0.00024260562 -0.0025307436 0.002080084 -0.0017233165 0.001220576 -0.000717479 -0.0025401784 -0.0035391243 -0.0005685044 -0.0029361253 0.0032637992 0.002874142 0.0032423527 0.0003325883 0.0016717603 -0.0024931761 0.0030304173 -0.0014254262 0.003002588 0.0036600325 0.0021951345 -0.0016762463 0.00040496225 0.0035648516
116 0.0021933396 0.0027362388 -0.00017380694 0.0012359626 0.003528284 -0.002225415 0.0019840694 -0.003039567 -0.00011451082 0.0035654574 0.00087590044 0.0020141585 -0.0022772723 0.0020841612 -0.0015595951 -0.0002830933 0.0029989402 -0.0015493219 -0.0010415481 -0.0014222402 -0.0039016563 -0.00018696135 0.0033561457 -0.0031372479 -0.002229867 -0.0022369714 -0.00018886503 -0.001420899 -0.0012734979 0.0014230188 0.0022267122 -0.0020653324 -0.00095795654 -0.0030773634 0.0013205741 -0.0007390765 0.00025007303 -0.001926681 -0.0010022315 -0.00066516845 0.0035262492 -0.0007807382 -0.0030372594 -0.0031097569 0.00093201187 0.0006943632 0.003316557 0.00046192924 -0.00014588016 -0.0036111835 2.67685e-05 -0.0034735491 0.0027466724 0.0030337432 -0.002313604 2.2497714e-05 0.0012931657 -0.00037800972 -0.00025354428 7.7097386e-05 -0.003495402 -0.001025851 0.0026721589 0.0033121663 -0.0018805393 -0.0036636896 0.0013560447 0.0030550635 -0.00092146726 0.0006954003 -0.0025654272 0.00252358 0.0029000423 -0.0001237015 -0.0009654856 -0.00031020792 3.122095e-05 0.0009858692 -0.0012336826 -0.0014834739 -0.0003983277 -0.0006937276 -0.00014556955 -0.003053106 0.0011222246 0.0019355989 0.001510246 0.0014949453 -0.0035559835 0.0038699235 -0.0024692335 -0.0011966776 -0.0014896266 -0.0011281598 -7.6145356e-05 -0.0034342376 -0.003356783 0.0037304806 0.0008999563 -0.0014643631 -0.0033190602 0.0021633306 0.0035617994 0.00038737114 0.0033409023 -0.0012475513 0.0013434155 0.0034016254 -0.0013949212 -0.0023400441 0.00027803506 -0.0004770453 0.001856446 -0.0015355464 0.0025104128 -0.00015895843 -0.0012687093 -0.002455445 0.00065384974 0.000281539 0.00136805 -0.002094756 0.0036155302 -0.0016050473 0.0030746288 -0.00057645305 -0.0038599286 -0.0029629245
78 -0.0027690143 -0.001076947 -0.00014793377 -0.0028764233 -0.002845016 -0.0027617381 0.0024313556 -0.0016551941 0.0009068737 0.0027378858 -0.003330249 -0.0025036712 -0.0019459843 0.0018533793 0.00081251585 -0.0035038 -0.0012009447 -0.0034088292 -0.00088966393 -0.00037284935 0.00045522398 0.0037713398 0.00071072526 -0.003711601 -0.0011220033 -0.00097640755 -0.0029940682 -6.363775e-05 -0.0019391677 -0.0023455208 0.002020788 0.0033632098 -0.0004283231 -0.0012487047 -0.00091940374 0.0030885711 0.0017855592 -0.0017599852 0.0035446985 -0.00069475465 -0.00094034214 -0.0035818848 -0.003891036 0.0028699678 -0.00042330462 0.0007478792 0.0033654717 0.00023596664 -0.0035472214 -0.0015087854 -0.0025609522 -0.0021514453 -0.0015442773 -0.0021053893 0.0027373382 -0.0006336068 0.0031990837 0.0017643829 0.002964602 -0.0035622953 0.0023920767 -0.00030393843 0.0034782323 0.0003048045 -0.0030266182 -0.0024753967 -0.0011838551 0.00019394964 0.0033513014 0.003606829 0.0015706661 -0.0019401097 -0.0021663925 0.0011312321 0.0019018052 0.0022318822 -0.0014983393 -0.003430666 -0.0019326429 -0.002642873 -0.0034848368 0.0011609624 0.0016644219 0.0011380281 -0.0032784378 -0.0038477508 0.0019165347 0.0033011832 0.00161943 0.002888066 -0.002966112 0.0034907588 0.0032258253 0.002295458 0.0020626674 0.0008207594 0.0001907764 0.000113352704 0.003032683 -0.0030136788 0.0036478827 0.0033842411 0.0032690133 0.00065037986 0.0023346655 0.0010055265 -0.0021160361 0.0003515565 0.0011562502 -0.0013847362 0.00023607232 -0.00024284367 -0.0018728513 -0.00018726834 0.0020909251 0.0020041107 0.0011506164 0.0006282841 -0.0018080728 -0.0006709674 -0.00056523626 -0.0038367277 0.0038033552 -0.0020785811 0.0012860848 -0.0006305311 0.0032618404 0.0035085937
278 -0.0011678538 0.0023437815 0.0021016323 -0.0019070697 0.0013620171 0.0011985973 -0.0014987795 -0.0021656689 0.0017247336 -0.0020933966 0.0014735905 -0.0011680442 -0.0012582035 -0.0015713078 -0.0030234405 -0.002723978 0.003471515 -0.00021393404 0.0036976093 -0.00013209895 -0.0025473584 -0.002671167 -0.0018590526 -0.0028302227 0.0013100777 -0.0035979135 -0.0016290111 -0.002338526 -0.0026546393 0.00072028436 -0.0024702577 -0.00046936775 -0.0015395291 0.0003230482 0.0025846786 -0.00073815335 0.00013175754 0.0026651872 0.0027366697 0.00028841355 0.0033860088 -0.0032761497 0.00049911096 -0.0005710689 -0.001306168 -0.0023020674 0.0037935611 -0.0011138605 0.0026660825 0.00033252352 -0.0022353192 -0.0037502437 0.003845561 0.0028849093 -0.002978489 0.0020591572 -2.2047363e-05 0.0012530806 0.0005111229 -0.00027417674 -0.0033809461 -0.0020196668 -0.0012382406 0.0027899696 -0.0012977801 0.0015892002 -0.0016294091 -0.00081466313 0.003641818 -0.0010624888 -0.003059787 -0.003048691 -0.0034235816 -0.001784275 0.00021331648 -0.002301479 -0.0017969823 -0.0010916549 -0.002584933 0.0019991477 -0.0017105266 0.00093144947 0.0010310602 7.832559e-06 -0.0011886953 0.0016970205 0.0013392823 0.0015523782 0.0019491488 0.0024606409 -0.0019320104 -0.0023431035 -0.0020349168 -0.00041790822 -0.0025662198 0.0027736118 0.0022385023 -0.002471297 -0.0031183877 0.0028341592 0.00022094545 -0.0031325482 -0.0032540788 0.0028990714 0.00091853004 -0.0010936362 0.0021392228 0.002053827 -0.0038376166 0.0033797505 0.0034463145 -0.0032780648 -0.0026032892 -0.0035876597 0.0010496939 0.0024983261 0.0036766576 -0.0036502443 -0.0036698803 0.00032610405 -0.0011107562 0.0023628948 -0.0015732804 0.002725973 0.0036329427 -0.0017778943 -0.0037078992 -0.0032013555
257 0.0013676164 -0.002298676 -0.0020849786 -0.0015206684 0.0024663592 -0.00058884977 -0.0006533916 -0.0032055187 0.0038594597 -0.001280662 0.0006734359 -0.0033900216 0.0029992121 0.0029680268 -0.0015714874 0.0023613158 0.0008785008 0.0015489319 0.0017847491 0.001671775 0.002431864 0.00222939 -0.003574216 0.0018921351 -0.001864069 -0.0011908123 -0.0022461938 0.0005610496 0.0021438298 -0.0024566161 -0.0014969351 -0.0012090353 0.0003392284 0.0038302005 0.0010974357 0.00094587577 0.0009253772 0.00024863047 -0.0020753278 -0.0036688957 -0.00033662803 -0.0014509308 0.0017025303 -0.0020469793 0.00053996773 -0.002401564 0.003440981 -0.0026121992 -0.0034879188 0.0026168176 0.0015642375 -0.0032097024 -0.0013472422 0.0021327008 -0.003790029 0.00262668 -0.00070837414 -0.00073703675 -0.0032965941 0.0010723746 0.0028815102 0.00016354973 -0.0022211499 -0.002217171 -0.0017736601 0.003765818 0.0012883369 0.0010804286 0.00347899 -0.0036743253 -0.0022053253 0.0018720205 0.003526617 0.0016718439 0.0028805071 -0.0016931765 -0.0025529063 0.0038140018 0.001436908 0.0037504334 -0.0018230169 0.00074305316 0.0025490331 -0.00047161605 -0.002516437 -0.002090581 -0.0022324177 0.0015495217 -0.0026484635 -0.0035960425 0.0021672975 -0.0018657472 -0.0038258978 -0.0016119009 0.0030789964 -0.0034655547 -0.001364429 0.0029066869 -0.0035543675 -0.003526422 0.0025743465 0.0018877349 -0.0009982403 0.00096297835 0.0018155862 -0.0021749728 0.0034632059 -0.0036064943 -0.002457134 -0.0025407842 0.0011662665 0.0020798123 0.0038378781 0.003564777 -0.0010682512 -0.0015477345 -0.002149751 0.0009755801 -0.0008624341 0.0009690004 -0.00089144625 -0.0038663698 0.003793204 -0.0031871013 0.0018315075 0.0009579752 0.0009948319 -0.0010025427
27 0.0038098292 0.0002959954 -0.003759467 -0.0018065292 -0.00081852864 0.0028224415 -0.0011443846 0.0035586045 0.0015639765 -0.0034826044 0.00076643226 -0.0035699115 -0.002663994 0.002962659 0.00018610932 0.0008179108 0.003512147 0.0029322496 -0.0028514736 0.00038577826 -0.0016771152 0.0032719441 -0.003395827 0.0010005999 -0.0027779422 0.0033733132 0.0034552452 0.0031290972 0.002177943 -0.0011339592 0.0029756946 0.0028716715 0.0005705852 0.0008555138 0.000436387 -0.001674214 -0.003696193 -0.0011035469 0.0032272947 -0.001384916 0.003027117 -0.0003633612 -0.0021240336 -6.9701906e-05 -0.003683907 0.00066267146 0.0019064258 0.0018573714 -0.0007553381 -0.000619298 -0.0028411634 0.0021741425 -0.0012312736 -0.0002403909 -0.0007471126 -0.0031628606 -0.0023893157 -0.0011578995 -0.00023378916 0.0025779903 0.0023669726 0.0020797087 -0.0022386708 -0.0004515973 -0.0035789832 0.0035846457 -0.0014684874 -0.0006147859 0.0011020254 0.0027518864 -1.7177306e-05 -0.0015665434 0.0016512221 0.002799122 0.0019461752 0.0024225132 0.0016899145 0.0013358742 -0.002631462 -0.002042535 0.0017607536 -0.003158989 -0.0001741135 -0.00018193183 -0.0036700133 0.0005483632 -0.0016395878 0.00060442655 0.0030816665 -1.0452194e-06 -0.0026619814 -0.0026116297 -0.0012275103 -3.919759e-06 -0.001969154 -0.0023617118 0.0013055458 0.0018185171 -0.003228995 0.0031224103 -0.0019896033 0.0005644099 -0.00048337824 -0.0010512609 -0.003502663 0.0011959302 -0.002789834 -0.003525994 -0.0009599164 0.0005786592 0.001960161 -0.002092119 0.002787613 -0.0028435087 0.00024100965 0.0034726553 -0.0018698854 0.0038613782 -0.0014919201 -8.9541165e-05 -0.0005366974 0.0037792325 0.0007686737 -9.7241136e-05 0.0013873555 -0.00055462314 -0.0017881363 -0.000460096
14 0.00094527117 0.0019744646 -0.00075226335 -0.0034693973 0.002577251 0.0034158707 -0.0028961585 -0.0033572444 -0.0026381067 -0.0016284373 0.0037707128 0.0006770998 -0.0004810379 0.0022607064 -0.002877018 0.003784315 0.0005729433 -0.0038007856 4.5365705e-05 0.0024790468 0.00059212773 0.0034115645 -0.0015407876 0.00093543617 0.0025504928 0.0030470272 -0.0010451614 -0.0016501108 -0.0029712236 0.0021837652 -8.4659485e-05 0.0021840418 0.00067731977 0.0028856692 -0.0021549505 0.00050246035 -0.0031126975 -0.0016785107 -0.0019434958 0.0028137092 -0.00065920217 0.0030547911 0.0035451166 0.0019556554 -0.0034223795 0.0019354348 0.0010498117 0.0010216568 -0.0035779777 -0.0007610109 0.00068509055 -0.00089431205 0.00014096887 0.0033263878 0.0023609824 0.0022866286 0.0016971873 -0.0018127429 -0.0038756265 0.0018785697 0.0008820901 0.0029935713 -0.0019615346 0.0024541742 0.0026720255 -0.0035960258 0.0013825187 0.0015074603 -0.0026449144 -0.003138187 0.0003575851 0.0017992036 -0.0032190152 -0.0032789407 0.0019347604 0.003426935 -0.0031192924 -0.002295848 0.0019128062 -0.0023915693 -0.00086665194 -0.0023866547 -0.0008899274 0.0023098027 -0.002911635 -0.0033802937 0.0033142387 0.0035718177 2.6050093e-05 -0.0027212957 0.0014999313 -0.0036292712 -0.0013372444 -0.0014164902 0.0024073056 0.00044227607 -0.0029038878 -0.00055809563 -0.0013755992 -0.0038033435 3.531398e-05 0.00041895514 0.003425714 -0.0013830496 0.00066241896 0.0025688445 -0.0026479824 -0.0013744273 0.002112383 0.0012857219 0.0027160472 -0.0030938697 0.0036709914 -0.0017763398 -0.0011959871 -3.8531807e-06 -0.0006799355 0.0033357223 -0.0024957908 0.0031715883 0.0033119954 0.0036484222 0.00061340694 -0.00011700499 0.003334084 -0.0034006238 -0.002750112 0.0025152524
6 -0.0015264306 -0.0027853914 -0.0038791709 -0.00053702306 -0.003098022 0.0016759019 -0.00029861619 -0.0026592815 -0.0031652038 -4.3543223e-05 0.003623175 -5.012228e-05 0.0016548428 0.00073358294 -0.0015572478 -0.0032199132 0.0034215515 0.0037337313 0.0022965467 0.00056272146 -0.0039005154 -0.0015713075 0.0028775646 -0.002717845 -5.2973315e-05 0.0025384668 -0.00119586 -0.0021697427 0.0028355622 -0.0013535039 0.0037991954 -0.0015680455 0.0027604518 -0.0030676543 0.000312636 -0.00050802116 0.0034002862 0.0009977804 -0.0012548736 -0.0010720814 0.00022184392 0.0019924466 0.0017463629 -0.00082944706 0.00017016663 0.002640194 -0.0021722002 0.0014153655 0.0026166798 -0.00055290735 -0.00091058825 0.0037209736 0.001042625 -0.0023183858 -0.0023065375 -0.0008803297 0.0027908902 -0.0023667205 -0.0024750545 -7.624987e-05 0.003176895 0.00021229079 0.002377812 0.0030762868 0.0016330015 -0.0008869782 4.2857337e-05 -0.00030172517 0.0022404117 -0.0011236987 -0.0013322454 -0.0006333348 -0.00096495403 0.003721006 0.0032481113 0.0024779995 5.2317006e-05 0.0010196317 -0.0012879851 0.0024314034 0.00169565 0.003532222 -0.0010944045 0.001589755 -0.0005028109 -0.0033613092 -0.0033843482 -0.0011131135 0.0012760853 -0.0003139562 -0.0009494224 0.0013424542 -0.0013757658 0.0031316793 2.853556e-05 0.0016202693 -0.0028734966 -0.00256703 -0.001686109 -0.001019661 0.0030576105 -0.00068521354 -0.0014686103 -0.0020748193 0.00068436726 -0.0029575303 0.0029390508 0.00055217656 0.0037889655 0.0032188597 0.0036550174 -0.002919866 0.0011339565 0.0026419219 0.000694346 0.0028971508 0.0012297644 0.0030943532 0.0025686023 -0.0028336747 -0.0029136194 0.0018416677 0.0029925476 0.0028821372 0.00041849617 0.0013281042 0.002835688 0.0027827052
30 0.0028589233 0.00076905836 0.003030776 0.0029594619 0.00025641735 0.002394827 0.00020324068 -0.0021887328 -0.0018347398 0.00016718254 0.0036625203 -0.0025344233 0.00037852649 -0.0012602548 0.0004888738 -0.0035192645 -0.0038287316 0.0033106836 0.0023506393 -0.0034310676 -0.00073763984 -0.0011522485 -0.00091976597 -0.0019240096 0.0024677212 0.0011886505 0.0017405701 0.001603741 0.0013553636 -0.00042089864 0.003259625 -0.0009947602 0.0016179483 -0.002294877 0.00230651 -0.00052023854 0.00275249 0.003758732 0.00033287387 -0.00031881582 0.0032621454 0.0038857574 7.326913e-05 0.00045721873 -0.0021960551 0.0011626928 -0.0010522145 -0.00066027074 -0.003236138 0.002448505 0.0035824098 -0.00087176193 -0.0035457022 -0.0006704943 0.0029535869 -0.00033960372 0.0026133582 -0.0014522747 -0.00097147777 0.0017542201 0.0008154063 0.0022876223 -0.0011033382 -0.0010733523 -0.00386968 -0.0011798991 -0.00046182168 0.0014666335 -0.0030471014 0.0029238118 0.0028928046 0.0010365865 0.001010624 -0.001426377 -0.00025165107 0.00071854284 0.00069135433 0.00020135939 -0.0031012674 0.0031351047 -0.0021510168 0.0009476369 0.003403651 -0.0026576035 -0.0032138382 -0.0014793088 -0.0014293726 0.0036558532 0.00014178088 0.0031788147 0.0020409776 0.0038624571 -0.00025430875 0.0036019543 -0.0014525559 0.0010338657 0.00377366 0.001747005 0.0021452846 0.0019793739 0.0012036309 -0.003905827 0.0029592374 -0.003145882 0.003469988 -0.0008074133 0.00051762804 -0.00299909 -0.0019513433 0.003816887 0.00018438244 -0.0031073429 0.0036939397 0.002863534 -0.0023583665 -0.00159068 -0.0027893905 0.0034233828 -0.0008519746 0.00195592 -0.0036767595 -0.0027922497 -0.0035388544 8.5231004e-05 0.002924978 0.00035994887 -0.0026871003 0.0026983658
20 -0.0016087492 -0.0016057428 0.0032877263 0.0016550313 -0.0030296103 -0.003800904 9.653113e-05 0.0018686672 -0.002477144 0.0037624887 0.0012078102 0.002101477 -0.00013275135 -0.0010867885 0.00032459156 0.0005454746 0.003549222 0.0023757839 0.0028187756 0.0030474267 -0.0032863314 -0.0039030048 0.0020763394 0.0015139205 0.00038907185 -0.002199449 0.003454034 0.0003706266 0.0021389832 -0.002752528 -0.0024931228 0.0029727719 0.003259629 0.0019175896 -0.0036702633 -0.003001698 0.0028547721 -0.00013004175 0.0003808851 -0.003407554 0.001054305 -0.0013245872 0.00095473416 0.0014264203 -0.0005439475 -0.0038452179 0.0017183869 -0.0015426971 -0.0032955208 0.0038026206 0.0027725457 0.003440099 0.0022451635 -0.0015557576 0.0011383768 0.002724383 -0.00048310272 -0.002459535 0.001862011 -0.00070357707 -0.0008717778 -0.0026719747 -0.002219778 0.00030117642 0.00081886677 -0.0024257298 -0.00081810623 -0.001731547 0.0018359662 -0.003051107 0.00074367377 0.002881847 0.003796485 -0.0016087327 0.0024617382 -0.0008041946 0.0010582877 0.0031196817 0.0016272401 0.00082326395 -0.0017866754 -0.0013671917 -0.0001258977 -0.002044606 0.002078445 0.00044366124 0.00077079004 0.0007097516 -0.00323275 0.0035621251 0.0035346677 0.0031804387 0.0034851918 -0.0024957238 0.0014172457 -0.0024170834 0.0013606148 -0.0015057191 -0.0011189493 0.0035336849 0.0011740208 7.690454e-05 0.0031599014 -0.0013837881 -0.0017580738 0.003308607 -0.0032243084 -0.0003016064 -0.0007774716 0.00047332156 -0.00026946212 0.0024354118 0.001251404 0.0038194666 8.998069e-05 0.0016795695 -0.0029895846 -0.0013380238 -0.0010590449 -0.0010207342 -0.00092186 -0.0034922417 0.0037598633 -0.00044725035 -0.003050748 0.0005601834 -0.0024389357 0.0006098758
25 0.0002506118 0.0026006661 -0.0014804079 0.0037352648 -0.00063603825 -0.00068469177 -0.0012597513 -0.0026056536 -0.0022125456 0.0008508394 -0.0036371488 0.0018099232 0.0025581864 6.7611225e-05 0.0020194228 -0.0012088106 0.0015649025 -0.0012574104 0.003578353 0.0008608204 -0.003324083 -0.0031370153 0.003822446 0.0020613961 0.0035591703 0.00019806642 0.0027685713 -0.0019414007 -8.7318906e-05 -0.00023550952 -8.420722e-05 -0.001996611 0.0012114402 -0.0006631869 -0.0026184225 -0.002558376 -0.0018737306 -0.0031838887 -0.0019637416 -0.0006629781 -0.00094330765 0.002455705 1.742763e-05 0.0024570404 0.00091501 0.0031945992 0.0038157443 -0.0023764782 -0.001593871 0.000654718 -0.0023708567 0.0013420449 -0.0031979627 0.00047394872 0.0029625688 -0.0024271167 0.0032718605 1.0821731e-05 -0.0037107528 -0.00029662365 0.0032736533 0.002840902 0.0034237895 -7.287232e-05 -0.00050892343 -0.0037804546 -0.0017400052 0.0025545566 -0.0028794177 0.0030487063 -0.0018805052 0.0001599784 0.003582993 0.0025613182 0.0031987121 -0.0009320544 -0.0010001815 -0.0014996765 0.0035957114 0.0015515534 0.001444953 0.0018612654 0.0036950638 0.0033504274 0.0037171438 -0.0010430561 0.0028788534 -0.0022400122 0.0022769452 -0.0009615669 -0.0033322403 -3.421429e-05 -0.0015467508 0.000984733 -0.00080875977 0.0016581462 -0.00013583712 0.0013828352 -8.979495e-05 -0.0032339403 0.0017668402 -3.2586366e-05 -0.0013679662 0.0006087511 0.0014907416 -0.0005891643 0.0012138418 -0.0008879032 -0.0025632735 0.0036403802 0.0009881606 -0.0023339286 -0.0037280605 0.0009742118 -0.0023552182 0.00347125 -0.0035699774 -0.0026399868 0.0017151963 -0.00098384 -0.0012117013 -0.0002711956 0.0029353339 0.0014836044 -0.0013763064 -0.0016542264 0.00079587667 0.00010524876
151 -0.0022676708 -0.0032867636 -0.0013430775 -0.0030228975 -0.0012982748 -0.00037237283 -0.0025321343 -0.0027116805 -0.0005555004 0.0037013446 0.00010044569 -0.0018013343 -0.0009647359 -0.0015856626 0.0019758726 -0.00047982932 -0.0026152558 0.0013431598 0.00068027724 -0.0013126078 -0.0031864513 -0.0004278284 -0.0032574926 -0.0035594665 0.00040835585 0.00032590685 -0.0005042929 0.001784769 -0.0024713844 0.00351327 0.0014698587 0.0007487536 0.0010039702 -0.0003029967 0.003188597 -0.0020659233 0.0003076907 -0.0023704614 -0.0031114074 0.003806889 0.0037859792 0.0007601136 0.0035697133 0.0014695397 -0.0014112886 -0.0022924223 -0.0028049764 0.001312425 0.0025228984 -0.0004754706 0.0009921561 0.002482135 -0.0027836016 -0.00068202725 0.001654066 -0.0015668538 -0.0030324925 0.0013810347 0.0018172519 0.0030644282 0.0033700769 -0.0030929942 -0.003525211 -0.0035018767 0.0033602088 -0.00082543783 -0.0019683617 -0.00012435368 0.0031681089 0.0009155271 0.0019891209 0.0014023986 0.0006569577 0.0038644779 0.0023133103 -0.0021540942 -0.0005505789 0.0032195079 -0.0025409763 0.003390324 -0.0020652695 -0.002827632 0.0004799491 0.0016142281 -0.00121488 0.001499217 0.0015768914 0.0015547631 0.003818972 -0.003534749 -0.0035223507 0.0009901265 0.0028061455 -0.0006847133 -0.0025149963 0.0005460133 0.0013704615 0.0031576315 0.0016124232 0.0015656007 -0.003657832 -0.0013883659 -0.0021584127 0.00096542155 -0.0030705093 0.0033111204 0.0016266595 -0.0033628966 0.0018656551 -0.0019421364 -0.0021825808 6.587642e-05 -0.001149297 0.0012840063 0.0011746457 0.0009528931 -0.0026071665 -0.0028701772 0.0031179588 -0.00038472543 -0.00061636284 -0.0021854343 -0.0012522094 -0.0016241391 0.0005607634 0.0012939975 0.003367532 0.0034681193
330 -0.00013474446 -0.0016327826 -0.0018035476 -0.00094407797 0.003261589 -0.0016307441 -0.0033773072 0.0011791021 0.0038752875 0.0031725336 -0.0007879845 0.0021030714 -0.0011239976 0.00051762775 0.00014492442 0.0034763787 -0.00148145 -0.0038989591 -0.00095806754 0.0027629805 0.00075867784 0.000305997 0.001155537 0.0019843436 0.0010087389 0.00025743348 -0.0033803561 0.0015373735 -0.0015670506 0.0024941058 0.00047148828 0.0028027836 -0.0011440724 -0.0035954907 -0.0021621443 0.0011118235 0.0020790184 0.0003351232 -0.002164247 -0.0022428904 0.0031911435 -0.002223943 -0.0025087125 0.0011736987 -0.0033549594 0.0010000854 0.0035759478 -0.00066808285 -0.0012105511 0.0007926337 0.00014942669 -0.0026924892 -0.002804481 0.00049293024 0.0022730718 -3.0044901e-05 0.0012667328 -0.0004131059 0.0011107768 0.00022316228 -0.0018033797 -0.002377002 -0.0013507609 -0.00050405675 -1.3975735e-05 0.0026181166 0.0036615776 -0.0032681734 0.0028869493 0.0024117974 -0.0003950842 -0.0011064188 -0.0014099905 0.0026719968 -0.0012865207 0.003357143 0.00016146178 -0.00013495475 -0.0029836763 0.0006039887 0.0019515448 -0.003302841 -0.0022650552 -0.0021516914 0.001422054 -0.0028150931 0.0032206732 -0.0007244818 0.0038995626 0.002345895 0.0031876776 -0.002406486 0.0021880656 -0.00052140624 0.0015841809 0.00067445607 -0.002208963 -0.000119690376 0.0010337818 0.0030791704 0.0014240919 -0.0035099927 -0.00030576438 -0.0012747404 -0.0037681526 -0.0011795057 0.0015091064 0.0015086387 0.0035730512 0.0032507037 0.0037972967 -0.0021161195 0.0024536818 -0.0015689513 -0.0011809891 0.0019617788 0.0027111908 -0.0015998231 -0.0015806495 0.0021546646 0.0036558926 0.00083092647 -0.0018804375 -0.0031340667 0.0030327698 -0.0031612613 -0.00066837494 -0.0009347974
64 -0.003798583 0.0021179488 0.0010960271 0.0022690261 -0.0030923407 0.0008494245 -0.00120678 -0.0011881808 0.0024091164 -0.0024797618 0.0033472334 0.0022222945 -0.0033940792 0.0032960933 -0.0004025183 0.0024923487 0.00039646303 0.0037486954 -0.0006954019 0.0023269483 0.0006367284 0.0036846115 0.0031811183 0.0009961904 -0.0028278325 -0.0020195823 -0.0009002313 0.001959515 -0.0022870756 -0.0017665382 0.0015313944 0.0037666594 -0.00029011595 0.0014520324 -0.002366531 -0.001998047 0.0006253985 0.00025119385 -0.0018398203 -0.00010636447 -0.0031923405 0.0030014378 0.0025729253 0.0034680164 0.002734453 -0.0022055896 0.0031717254 -0.0023748123 -0.00028893957 -0.002302238 0.0013380477 0.0021826199 -0.0013096221 0.0034337167 0.0031049238 -0.0028382854 -0.00063351 -0.0020531085 0.0037324538 0.0018884991 0.0036650237 -0.0014413325 -0.00158574 -0.0025326607 0.0016473177 -0.0023655011 -0.0014033001 -0.0035422337 -0.0036989476 0.0015703151 -0.0019351752 0.0024283493 -0.00054603687 0.0035011682 -0.00187394 0.0029515729 0.0011582767 -0.001984073 -0.0029470485 0.0008493883 0.0024200303 -0.0025016891 0.0012111019 -0.0017635111 0.0008936572 -0.0018350864 0.00251819 0.0033466753 0.003553092 -0.0029342368 0.0009703693 -0.0008415702 0.000115572126 -0.0021258106 -0.00013767715 0.0038099058 -0.0017237802 -0.0037367782 0.00034482253 0.0007616678 -0.0009536988 -0.0013046061 7.488623e-05 -0.0003143509 0.002997456 0.0037752271 -0.00017343539 -0.00023610101 -1.27104195e-05 0.0005469568 0.0025673858 -0.0022658221 -0.00019234855 -0.003102476 -0.002671894 -0.0018964525 0.0022731437 -0.0020583381 -0.0035235777 0.0007090476 -0.003261926 -0.0012636816 0.001898939 0.0010736419 0.0010312668 -0.0019538454 -0.0032438783 0.002324199
664 0.0006854312 -0.00042041723 -0.0018765167 0.001739306 -0.0010467023 0.0017506988 -0.0033802404 -0.0016862358 -0.0017774368 0.001086269 -0.0005780344 0.0012955944 -0.0015187247 -0.0025888123 -0.0031610283 -0.00070458703 -0.00023324741 0.00081258884 -0.003156205 0.00017897558 -0.0017009098 0.0017675192 -0.0011441205 -0.00017254792 0.0009979522 0.00076250685 0.0020180608 0.00035198848 -0.0006251203 -0.0024798233 0.0032968961 0.0027486777 -0.00063617143 0.0025360077 -0.003599287 -0.0011771353 -8.784457e-05 -0.0010906472 0.001859826 -0.0014297677 0.00089135923 0.0031118197 -0.0013917373 0.0017724552 -0.0025984405 0.0037703738 0.00037313593 0.002461754 -0.00049780915 0.0027551858 0.0034860708 -0.0018233233 -0.0014373931 -0.002944186 -0.002220849 -0.00012700382 -8.5233405e-05 -0.0030390054 -0.00034138982 -0.0010577934 0.0023138837 0.00092122384 -0.001629397 0.0013271336 0.0029825757 0.0037184223 0.0025457512 -0.0011492599 -0.0017521519 -0.00039799136 0.0021053546 -0.0005621043 -0.0037970382 0.0014647988 -0.0002009721 2.596452e-05 -0.000607787 -0.0010366716 -0.0034859085 -0.003548144 -0.00069843093 -0.0029690624 0.0016797036 -0.001866344 -0.002082586 0.0004859274 0.0027175562 0.0016365757 0.0022089037 0.0005960373 -0.00032556965 0.0037090448 -0.0006936194 0.0035892986 -0.0017485785 -0.0033429635 0.0025365471 0.0033412902 0.0033126823 0.0009493227 -0.0008031956 -0.003088432 -0.00053341524 0.0028812499 -0.0030987915 0.001611486 -0.0019213834 -0.0017148119 0.0028072505 -0.0035453655 0.003217308 0.0030902158 0.001193668 -0.0014196305 -0.001313514 -0.0018287642 0.0036874765 -0.0014056598 0.00079571235 -0.0016793547 -0.00028591772 -0.0021025552 -0.002860286 -0.0021731257 -0.00097121514 0.0035329442 -0.0012284806 0.0033078117
355 -0.001190352 -0.0033001895 0.00087342627 -0.0018122671 -0.0028850832 -0.0032711802 -0.0033888763 -0.0022318268 0.0027510275 0.0036380428 -0.0025419237 0.0018128138 -0.0018868862 -0.0012914009 -0.0027859786 -0.002964146 -0.0030220288 0.000977753 0.0037882777 -0.00036687663 -0.0036179873 6.747671e-05 -0.003136194 0.00058305636 0.002550004 -0.00044434585 0.0015664066 -0.003531973 0.00082089694 -0.002022062 0.0036858765 0.0014014138 -0.0027802147 0.0022914812 -0.0013517987 -0.0018017563 0.001102787 0.0022412362 -0.0029112857 0.0025601226 -0.0038134966 -0.002428593 -0.002707097 -0.0035465683 0.0015365909 0.0021859654 -0.00020365002 -0.0016171909 -0.0026511801 0.00032619515 0.0032286386 0.0021561196 -0.0028141597 0.0036426252 -0.0023154495 0.0035113753 0.0034619947 0.00019778618 0.0011493447 -0.00036685492 -0.0023247637 0.0025415777 -0.0037196677 0.0014331627 0.0012936092 -0.0021343085 -0.0028169225 0.0017348788 0.00028940797 -0.0032512343 0.0032554823 0.0012688048 -0.00039958983 -0.0018923624 0.0007225772 -0.00016921855 0.0025919143 -0.00094011874 0.0037449203 5.736925e-05 0.0028399145 -0.0005075328 0.0016642584 -0.002579753 0.00043629407 0.0028655126 0.0013746835 0.0031383943 -0.0011968219 -0.0019388372 -0.00025155826 0.0016655797 -0.0028603282 0.002970438 0.00029413152 -0.0037171948 -0.001652732 -0.003884276 -0.001122429 -0.002173146 0.0023576082 -0.0031730009 0.0011009374 -0.0037378909 -0.0015459381 -0.0038956401 -0.0035391788 0.0032432429 -0.0011792234 0.002762658 -0.0020551404 0.00049194694 0.00081314583 -0.0025140177 0.0031827344 0.0020188375 0.002478004 -0.00034183857 0.00058436225 -0.00273176 -0.0017898268 -0.00059669156 -0.0012145543 -0.0030963055 0.0013632147 0.0033591308 -0.0035951452 0.0014040457
373 0.0010117065 0.00096213043 -0.0017767511 0.0022088916 0.0017122341 0.0034309635 -0.003329846 0.0031509465 -0.002443096 -0.0039052204 -0.0013460221 -0.003347031 0.0034172565 -0.0005376048 9.6925294e-05 0.00083265535 -0.0024549633 0.00028619362 -0.0008291066 0.00065758935 0.0027206542 -0.0034632953 0.0008165003 -0.0019863474 -0.00058385433 -0.0007520695 -0.003370335 0.0034909952 -0.0016039312 0.0010673824 -0.000187064 -0.002951457 0.00071708823 -5.2201576e-06 0.0015210871 -0.0035538333 0.0018012918 0.0016467234 -0.0012414794 0.0010551171 -9.991491e-05 -0.0005777554 -0.0024635682 -0.00068674155 -0.0025886635 -0.0017984022 -0.00029077881 -0.0012315504 0.0005484573 -0.0018301083 -0.0037286894 -0.0018842594 -0.0034159236 -0.002127758 0.0017129518 -6.977796e-05 -0.0031872564 -0.001359615 0.0032023855 -0.0015829512 0.0020632928 -0.0023994613 6.806707e-05 0.0023635433 0.0030314114 -0.0038833763 0.00021150368 -0.0015105248 -0.0011857932 -0.00043551248 0.0023397075 0.0018047753 0.0015704377 0.003673715 0.0015866577 -0.0033905418 -0.0021527011 -0.0024503209 -0.002302824 0.0027697005 -0.00036302907 -0.0023684185 -0.00054190576 -0.0023847986 0.0030714972 0.00013524776 0.0035565165 -0.0037923066 -0.0012627272 0.0018953884 -0.0025991227 0.0011521792 -8.9995934e-05 -0.00023016134 -0.0017356094 -0.0018021943 -0.0017429234 -0.0013687264 0.0016793802 0.000664428 0.0030665826 0.00042925845 -0.00249543 -0.0004928897 -0.0027626709 0.00078550534 -5.0213283e-05 -0.0038456728 -0.0015793992 -0.0011660315 -0.003533041 0.002251101 -0.000917014 0.0038987235 -0.0033275117 -0.0026918137 -0.003793437 -0.0026163945 -0.002781959 0.0023093417 0.0023494784 0.0009524378 -0.0008763923 0.0032985099 -0.000242973 -0.0020267102 0.002082137 0.0004002528
42 -0.003418056 0.00075793604 -0.0011302982 0.0031223453 0.0004297775 -0.0035303342 -0.0036894293 -0.00023733881 -0.0026526179 0.0002546719 0.0029764604 -0.0036330288 0.0019305203 0.0026335618 0.0035883433 -0.0014749962 -0.002820738 0.0035499127 -0.00168677 -0.00017299203 -0.0024447257 0.0011974778 -0.003374956 0.0022113367 -0.003658574 0.0028081913 0.0007540211 0.0016595873 0.0018958367 0.00087971945 0.0010323387 0.0038648043 -0.0014708085 -0.0017598807 0.0031693985 -0.0033715817 0.0029628468 0.00016621077 0.0037949288 -0.0007228361 0.0011503309 -0.00033150832 0.0036702377 -0.0028078437 -0.0034701237 -0.002965418 -0.0020219132 -0.0031575407 -0.002820466 0.003636144 -0.002254189 0.0029745046 0.003891252 -0.00095016096 -0.00360256 0.003154084 0.0009853519 0.0023397156 0.0019709899 0.0037083717 -0.0032090507 -0.0033822027 0.00371359 0.0006154845 4.7766964e-05 0.0010482628 0.0024307491 0.00012674149 0.0018181279 -0.0027267276 -0.0020353005 0.0011161173 0.0016113945 0.0015712412 0.0031663284 -0.0030947288 0.0027981405 -0.00085920247 0.0009842647 0.003568774 0.00015058984 0.0017072913 -0.0026283087 -0.0031663538 0.0028002746 -0.002470804 0.003226858 0.00060800486 0.0026293015 -0.001159671 -0.002260035 -0.00202384 0.0012279676 -0.002528819 -0.0027452968 -0.0013137971 -0.00091531343 -0.00085990014 -0.0033466653 0.0035120496 -0.00022647488 0.0004803482 0.0002955072 0.002289729 -0.0034171387 0.0037184805 -0.003232087 -0.00017696658 0.0025357935 0.002784372 0.0005048777 0.001906995 -0.0026606515 0.0016661604 -0.003749535 0.0018992041 -0.0025497486 -0.0005552326 -0.0015337965 -0.00023675783 0.0012018401 0.001289715 -0.0031931414 0.0015492633 -0.0036759295 0.0035180317 0.0038285656 -0.0009864742
377 -0.001504621 -0.0035277198 0.00017350311 -0.0032976612 -0.002866895 0.0037001686 -0.0035705045 0.00106963 0.0011836613 -0.0005213611 -0.0005986361 0.00027838256 -0.0026656697 0.0016461303 -0.0032758787 0.002575278 -0.00050795276 0.00064282364 -0.0014420686 -0.003076212 0.0007349642 -0.0012988276 -0.0011366366 -0.00047132315 -0.0009040119 -0.002922481 0.0018865883 -0.00077877723 -0.0014107614 -0.0020970285 -0.0031990153 -0.0015997231 0.0028847614 0.0023575434 -0.001575755 0.0032758557 -0.0004201413 0.003353433 0.0014214129 0.00037920728 0.0022035704 -0.0028274462 0.0034789413 0.0012385026 -0.0033137882 -0.0016712125 0.0025734631 -0.001470109 0.0022309374 0.00017319586 0.0015352594 0.0036127635 -0.0036537983 -0.0010973378 -0.00022204756 -0.0013039012 -0.0018624876 -0.0035303093 -0.0036480278 -0.00040420354 -0.0022720324 -0.0017921384 0.0006961989 0.00050581974 0.0016179673 -0.002406125 7.1698174e-05 0.0021813419 0.0012603932 0.0009923591 -0.0027340604 0.0011317711 -0.0033914857 0.003783918 -0.00016403364 0.0009215515 0.0008499041 0.0027858566 0.002308353 -0.0027187753 0.00046033587 0.0032162534 0.0028426193 -0.0038895237 -0.0028472363 -0.00014634838 0.0015692067 0.0013083419 -0.0025642628 0.00015830979 -0.0019716031 0.0036122592 -0.00151081 0.0030886654 0.0009292774 0.0017158352 -0.001756734 0.001496399 -0.00073722797 0.0025818662 0.0032886025 -0.0017540571 0.0011751909 -0.00015456497 0.0036151225 -6.700693e-05 0.0029565573 0.0031268434 -0.001871686 0.0029795328 -0.0032866185 0.0015855492 -1.1868704e-05 -0.0029651122 -0.00048587067 -0.002529225 -0.0029193526 -0.002337883 0.0009098726 -0.0021630488 -0.0019008069 0.0022740003 -0.0030993929 0.0004108893 0.00062574795 3.4237946e-05 -0.0015305637 -0.0035809376
265 -0.00020575718 -0.0017364457 -0.0013751305 0.00282187 0.0038039982 0.0005226541 0.0020993282 -0.002383011 -0.0020887002 -0.00069455017 -0.0037110746 0.0009006954 -0.0030715854 0.0009919765 -0.0025101574 -0.00097259914 0.0031332946 -0.0019385875 0.001592545 -0.0039031813 -0.0018328815 -0.0026784628 -0.0015890547 0.0016698447 -0.0029086887 0.001457523 0.0016208448 -0.0037189096 -0.0023139932 0.002552291 0.003299586 0.0024049059 -0.0033720057 0.0011431413 0.0038246613 -0.0029706398 -0.0024137618 -0.00049148663 0.0022757459 0.0027955165 0.00024828053 0.0027636846 -0.001231156 -0.0015011393 -0.0037645635 0.003054607 0.0017177465 0.0031762412 -0.0016762048 0.002030074 0.0024293745 -0.00032614853 -0.0029090645 -0.0028299638 0.003168029 -0.0028699166 -0.0022031702 0.003155311 -0.0031564692 -0.0012437755 0.0016738294 -0.0021714424 0.0036035907 0.0011672844 -0.001281427 -0.0015126099 -0.0023683682 -0.00048184287 0.0027752428 0.0015805265 0.0025358426 -0.0038210568 -0.0022164697 0.0014712898 -0.0010400988 0.0014264801 -0.0016256127 0.00066753634 0.0024661736 -0.00047132847 -0.00026335323 -0.0002444764 0.0015072717 0.0034984667 -0.0019016612 -0.0023270787 -0.000510695 0.00035463698 -0.0024223581 0.0013012993 -0.0038763937 0.00018172347 0.0021101164 0.0009301813 -0.00201248 0.0010648548 0.0017533248 -0.0027921163 -0.0020406244 0.003587839 -0.001344537 -0.00054488966 -0.0030265662 0.0018958675 -0.0030213664 -0.00255552 -0.00015210421 -0.003708826 0.0029896894 -0.000850462 -0.0017972643 -0.00021765182 0.0006572265 -0.003881712 0.0036790415 -0.00056044065 -0.0028036693 0.0013068169 0.00059422065 0.0016673941 -0.00074582524 -8.588989e-05 0.00010575421 -0.002330928 0.003141811 0.002218788 4.962954e-05 0.0007681676
62 -0.00375142 -0.000670285 0.0031985305 0.0019342003 -0.0035621696 0.000721168 -0.0028226362 0.003312562 0.003084545 -0.00049413653 0.00075078686 0.0037292724 -0.0019285226 0.00043854432 -0.00043800764 0.0009605874 0.0032607778 -0.0030703528 0.0024654919 0.001018074 -0.001688751 -0.0034727124 -0.0036992223 -0.0010834659 0.0038452582 0.0005411663 0.0014982278 -0.00028543267 -0.0018854924 -0.00294945 -0.0003739516 -0.0016788677 -0.0018432138 -0.0006937619 -0.0017361512 -0.0036756345 0.0010275665 0.0011731633 0.0020364793 0.0035839968 0.0019998965 -0.0028982516 0.0037883578 -0.00048862706 0.0004885953 0.00173099 0.0020953917 0.00069071405 0.003817717 0.0013472189 0.0028722412 0.0029070172 -0.00039477067 -0.0019880983 -0.0002474446 -0.0029371849 0.00069586036 -0.00091475324 0.0017070718 -0.0018221784 0.0011814543 -0.0019523316 -0.0029872183 -0.0027813455 0.00058089156 0.00032446417 0.0015014964 0.002576499 7.246253e-05 0.003342289 -0.0011275086 0.00086043327 0.003702822 0.003031008 0.0033866728 0.003750481 0.00055371673 -0.000554555 -0.0019390897 0.0022196888 0.0032528401 -0.0014530354 0.002213749 0.0033154557 -0.0015589703 0.0035541868 0.0032838655 0.0036507982 0.002199947 -0.0008361307 -0.0012093801 -0.00034606273 0.0020198277 -0.000984022 -0.0026765612 -0.0032365134 0.0030584172 0.0026122334 0.0015847222 -0.0014665662 0.0005457007 -0.0005540823 -0.0035155688 -0.0015934302 0.0022667474 -0.0027600732 0.0013487977 -0.0018972965 -0.0021127951 -0.00074594916 -0.0031048541 0.002065923 0.0015555515 0.0037293322 0.0007910533 0.0036508841 -0.0034049945 0.002694087 -0.0007233824 0.0022828772 -0.0014583274 -0.0024629566 -0.0001430378 0.0024243717 -0.0011773169 -0.0025706207 -0.00057655526 0.0006502784
152 0.0010912812 0.0026597984 0.0004946205 -0.0013899088 -0.0007588609 0.0017945243 -0.0006567418 -0.0017229845 -0.0032932824 -0.0013428475 -0.0010440187 -0.00018398125 0.0003113055 -0.0022710294 0.0025872516 -0.0010595326 -0.0013476136 -0.0022060326 0.0024347564 0.0014681856 -0.003326973 0.0021873345 -0.0027535749 0.0021574553 0.002255304 0.0018193247 0.000633822 -0.0035813234 0.0035708067 -0.0038761683 -0.0017188545 0.0010167467 -0.0005060218 0.0029609853 0.0023055978 5.602286e-05 0.0004087568 0.0029991288 -0.0017910638 -0.00049758865 0.003431837 0.0021309787 -0.00020970289 0.002820416 0.00096780085 0.0002439031 -0.00032490576 -0.0018561762 -0.0034191003 -0.0019523299 0.00032458338 -0.00047285546 0.0016063312 6.8838934e-05 -0.002688808 0.003272445 -0.0036209803 0.002559817 0.0034776009 -0.0038097927 1.9145367e-05 -0.0002101308 0.0021668503 -0.0007515517 0.0025811372 0.0025435786 0.0038639677 -0.0018881303 -0.00014053224 -0.0035818713 -0.0020465325 0.0013572713 0.0012163734 -0.0013484206 -0.001890697 -0.0037700078 -0.0028479032 0.0031379652 0.0030894927 -0.0028441052 0.00022385165 -0.0014606622 0.001995947 0.0027925377 -0.003271532 -0.00033434815 0.0024369997 0.0021916889 0.0021406023 0.0019812773 0.0014444208 0.0026824942 -0.0028925827 -0.0035741695 0.0021370433 -0.003253083 -6.8737136e-05 0.0020841442 0.0021198157 0.003301354 0.002714638 8.1469734e-05 -0.0036292335 -0.0031150603 0.003485887 0.0012602214 0.0028184457 -0.003234971 0.0019404381 -0.00086506543 0.0022359982 0.0013874752 0.0001139885 7.910408e-05 -0.00015221711 0.00086037605 0.003856125 0.0028337059 0.0005276752 -0.0015706058 -0.0013030419 0.0016372077 0.0016259344 -0.0028762207 0.00043660277 -0.00061881496 0.0034778847 -0.0004204728
638 -0.0021312882 0.0019545408 9.669878e-05 -0.0008830696 0.0003097728 -0.0019719098 0.0027301647 0.002339834 -0.0014012294 0.0017174643 0.0038434088 -0.0011030778 0.002858917 -0.0029244295 -0.003527479 -0.0019557131 -0.0034557583 -0.001286646 0.0029370848 -0.003086679 -0.0032262823 -0.00071676995 0.0009474751 -0.00036928215 -0.0007230831 0.00058869284 -0.0017879248 -0.0014511531 0.003856238 5.748374e-05 0.000667702 -0.0003924292 0.0012052538 0.00031763426 0.0021722144 -0.0009911117 0.0021929352 -0.0010729111 0.0038366183 -0.000256166 -0.0010278977 0.0020727625 0.0019022407 -0.0037188407 -0.0007461119 -0.0027268622 -0.0022738522 -0.0008782673 -0.0001440684 -0.0031747795 0.0014409267 0.0034897262 -0.002872889 -0.0012679615 -0.0021144531 0.0034706274 0.0023525492 -0.001953565 0.0002132222 -0.0010847833 -0.003077141 0.00033773642 -0.0027554433 -0.0029447519 0.00055258477 0.0024125394 -0.003622914 0.0037574973 0.003477165 -0.002104627 0.0037409514 0.003283873 0.0037301844 -0.0020700353 0.0033302398 0.0029000305 0.00097362907 0.0018812529 0.003717477 0.0004995306 0.0003473161 0.00022249094 0.0007763305 0.003379426 0.0038871923 -0.0009841276 -0.0018963801 -0.0028095434 -0.001920812 -0.0030418017 -0.0010889354 0.0010011229 0.0027808803 -0.0036786816 -0.00017303355 0.002520138 -0.0026999172 -0.0025450133 -0.0021391981 -0.0002315076 -0.0021248248 0.0010087597 0.0030504884 -0.0014175231 -0.001225648 0.0006367656 -0.003281886 0.0036276276 0.0004313517 0.0023228722 0.00086535234 0.0027410013 -0.0031288008 -0.0036867696 0.0024888674 -0.0030634261 5.148206e-05 0.0028051957 -0.0033172404 0.0016163363 -0.0038224896 0.0033433859 0.0017556195 0.00064515456 -0.0020798817 -0.00034435734 0.0017593969 0.0022847813
132 -0.0016084682 0.00056548446 0.002403341 -0.0034879565 0.0028279999 0.0033287243 0.0001632904 -0.0031159737 0.0021418403 0.0023278922 -0.0023677405 0.0020613137 0.0004701833 -0.0018695443 -0.002788521 -0.0021604414 -0.00085575215 0.0006102431 0.00024848062 -0.00035531312 -0.0036776846 -0.0029393176 -0.0037574798 0.00048214124 -0.0029050496 0.0027887926 -0.0018317502 0.0005010329 -0.0004545903 -0.0025114971 -0.00073530484 0.0036543356 -0.003268039 -0.0037021174 0.00045638264 0.0030378408 -0.0032384393 -0.0022737074 0.00026436686 0.00013547466 -0.0009747649 -0.00081066514 -3.9476294e-05 -0.0019334429 0.0015771636 0.002940556 -0.002206207 -0.0026722837 -0.001146981 -0.0017509802 -0.003500618 -0.0016694224 0.0036828895 0.00069256 0.0010565803 -0.0029640042 0.0005023712 0.00054641603 -0.0035731008 -0.00091206055 -0.0005273308 -0.002796949 0.0016160663 -0.0033797838 -0.0037567473 -0.0012553299 0.003038801 0.0014972682 0.0007872214 -0.0011255817 -0.0019016035 0.0032059124 0.0017697831 0.003466348 -0.0004351406 0.002592663 0.0013464773 2.5163754e-05 0.0007088079 0.0037978045 0.0022670953 -0.002182522 -0.0022121912 0.0013509281 -0.0033027614 -0.003015058 -0.0005083887 0.0017112782 -0.0022667586 -0.0013574029 -0.003633568 -0.0013530708 0.0018501354 -0.0035852424 0.001199832 -0.0031841232 -3.8747083e-05 -0.0025742336 0.0022959774 0.0010163572 0.0020950453 0.0035795034 -0.0015640939 0.0006480021 -0.0020284692 0.0027515714 0.0022096178 0.0031716754 0.0032871962 0.0007442095 -0.0026092662 0.002263458 0.0011736488 0.0021508944 -0.0026481212 -0.000173668 0.0034827194 -0.0021551724 -0.0012083249 -0.0008676953 -0.0027120744 -0.001477209 -0.0032714165 0.0026542556 -0.00016945237 -0.00036029608 0.0021027802 0.0014728055
532 0.0028625503 -0.0025868942 -0.0033223687 0.0015452009 -0.0036832213 0.0012682093 -0.0023530307 0.001854727 0.0012189768 0.0028561736 0.0028803824 -0.0036041595 -0.0030209972 0.003548025 -0.0014101057 -0.0014661151 0.0011649136 0.0031537653 0.0014423786 0.0033665448 -0.001779453 -0.0007346959 -0.0022695984 0.0032149535 0.001509654 -0.0035643044 -0.001046861 -0.0008014367 0.0029850807 4.6563746e-05 -0.0031295312 0.00043226007 0.00012755273 0.0035064123 -0.002729736 0.00056656345 0.0034507005 0.0032042481 0.0017486161 -0.002405746 -0.0038822046 -0.0014979517 -0.0030273136 -0.00039598023 -0.001977808 -0.0017003999 1.148773e-05 1.1286405e-05 -0.0015878024 0.0021334558 0.0028880022 0.0029343062 0.0032210797 0.0035154107 0.0010291488 -0.0025782315 0.0017256731 0.0020315568 -2.8179315e-06 -0.0021203083 0.0011903262 0.0031804473 -0.0015793478 0.0021729288 0.0014472448 0.002137877 0.002105355 0.0014364104 0.002351216 0.0024032262 -0.003647699 -0.0019006678 0.0031905535 0.0018005664 0.0026012857 0.0037078129 0.0031222503 0.0012642393 -0.0016575158 0.00041298178 -0.0018791868 -0.002661815 0.0015643766 0.001146068 0.0007422969 0.0013994178 -0.0029839268 -0.0015939714 0.0021018828 -0.0034774013 0.002427535 -0.003621585 0.00064515386 0.0035780135 -0.0016492622 0.003879546 0.0002971547 0.0010489123 0.0035975138 -0.0023139685 0.00095180306 -0.001350632 -0.0010428785 -0.00010667137 0.001592327 0.0028614134 -0.00093428796 -0.0027812698 0.0032829326 0.00046192392 -0.0018755927 -0.00259723 -0.0028064584 -0.0007577909 0.0014248597 -0.0010857806 0.0026664282 0.0021258986 -0.00069163187 -0.0012980435 0.0032012868 -0.0020895174 0.0026430443 -0.001892346 -0.0038695526 0.00079113536 -0.0026719754 -0.002657691
10 -0.001156993 0.0007037809 0.0003709922 0.0037718008 -0.0035022423 0.0008680803 0.0018054097 -0.0012714689 0.0026180975 0.0028225593 0.0035268725 -0.0031397429 -0.0014021837 0.001592112 0.0037823291 0.0005746466 0.0002840745 -0.0019633274 -0.0038841018 0.00027340997 -0.0028429434 2.6013202e-05 0.0020614737 0.0038683338 0.0018057817 0.0028046856 -0.001984449 0.0035037904 0.0017256108 -0.0033323676 0.00083329657 0.0032020307 -0.003421933 -0.0036318384 -0.0021575566 -0.0014224328 0.00023624621 -0.0033736492 0.00222793 -0.000803793 -0.0007232478 0.00061974855 -0.00019666603 0.0004835385 0.0012299485 0.0032762836 -0.0024237977 -0.0023890287 -0.0025349678 5.5214638e-05 -0.0021246294 0.0032568928 0.0007908005 0.0023866883 -0.0015346158 0.0005361259 0.0024136836 0.0031435832 -0.0015231225 -9.862608e-05 0.0008317309 -0.0036522087 -0.0007128651 -0.00012382831 0.0015695704 -0.0016787162 -0.0022486197 -0.00056299206 0.0017436983 -0.0024391275 0.0023866158 0.0009012919 -0.002838179 -0.00040725002 0.0010853396 -0.00089412276 -0.0015891718 0.0031176847 0.0031317403 -0.0026696082 0.0038112488 0.0011210749 0.0019227259 -0.002152379 -0.0005745755 0.0004992789 2.7676737e-05 -0.003702959 -0.0032221843 0.002683287 0.003679942 0.0026020738 -0.0024844192 -0.00014571924 0.0033028203 0.0006327773 0.0030344517 0.0024165264 -0.0018834779 -0.003032285 0.0038594012 0.0036094494 0.0030669137 0.0023390988 9.026998e-05 0.002232076 -0.0038954276 0.0035799278 -0.002507279 -0.00056014385 -0.003068895 0.0023531395 -0.0020834869 0.0024610874 -0.00075322605 0.0030567353 -0.001407019 -0.0010890014 -0.0027590643 -0.0038377084 0.0016595419 -0.002839044 0.00084395276 0.0012587007 -0.0002602682 0.0038550112 0.0009299674 -2.853645e-05
15 0.0011855554 0.0006609687 -0.002950033 0.0025204613 0.0032768329 0.0034345675 -0.003901751 -0.00064361375 -0.0021341662 -0.0016073489 -0.0009234173 -0.0018676793 0.0020971142 0.0010561271 -0.00018558814 0.0018292642 0.000117134754 -0.0022952051 0.00082820386 0.00038095808 -0.003330057 4.3995205e-05 0.00051472825 0.003690231 0.00043519808 0.00065180636 0.0018307752 0.0034978515 -0.0031292439 0.0010017885 -0.0022467226 0.0023440234 -0.0033505256 -0.0037547352 -0.0030116383 0.0017217348 0.002584961 0.0018922819 0.0008951171 0.0020477904 -0.0011572134 0.00010827104 0.0011895209 0.0003694308 -0.0014481595 -0.003025101 0.003626813 -0.002826079 -0.0016668348 0.0010519351 0.0011512608 -0.000836581 -0.0020965275 -0.0001138702 0.00096134964 -0.003732453 0.003340563 0.000734883 -0.0026343823 -0.0033455584 0.0011816528 -0.0034898722 -0.000484958 -0.0006725724 0.0010822935 0.00043362685 -0.0024981648 -0.0032155905 -8.0189835e-05 -0.0029127134 -0.0013943339 0.0029528388 -0.0014204122 -0.0011146691 -0.0017062349 -0.0036063709 -0.0017134551 -0.0022682687 -0.00013085952 0.002233856 -0.0037349705 0.0036810315 0.00050452224 0.0026953616 0.0028568148 0.0021631985 0.0018863709 0.002195196 -0.0027966567 -0.0024857447 0.00016385286 -0.0030803597 0.00096976134 0.0004717895 -0.0030826114 0.003723612 0.0017089006 0.0009396087 -0.0025343767 0.00038572046 0.0012835809 -0.0031598348 -0.0023890983 0.0006299153 0.0020395573 -0.001621364 -0.0025989371 -0.00042299504 0.0030078245 -0.002497988 -0.0021815042 0.0034263907 0.0010500003 -0.0034545045 -0.0027795269 0.003091581 0.0038714958 0.0006911595 0.0022205224 0.0013560599 0.00080736884 -0.000106849875 -0.0038608976 -0.003675739 -0.0026083777 0.003807605 0.0009824419 -5.276953e-05
188 -8.251009e-05 0.003123353 0.0038102905 -0.0036988049 -0.0031549816 -0.0015386407 0.00088275655 0.00091477856 -0.0032694014 -0.00073228485 -0.0011022304 -0.0020095725 0.0011113138 -0.0022528102 -0.001672685 -0.0023857837 -0.0026209909 0.000343069 -0.0005739369 0.00024803786 -0.0018494 0.0015907062 0.0014815221 -0.0008880472 -0.0024996924 -0.0020565502 0.0003372141 0.00092484505 -0.0025085597 7.221168e-05 -0.0020151993 0.00040687012 -0.0035725941 0.0028616588 0.00049200444 -0.0031534238 -0.00065516523 -0.003155667 -8.9251116e-05 0.0006152037 0.0025921268 0.0029602996 -0.0016287247 0.0030709086 -0.003781192 0.002419169 -0.0036517507 -1.9914274e-05 -0.0011637108 0.0014171737 -0.0020519535 -0.0035902401 0.0019790477 -0.00012084734 -5.9646783e-05 -0.0002202027 -0.0014044469 -0.0013691301 0.0037047297 -0.0012638104 -0.0016845444 -0.00350291 -0.0013798387 0.0038559325 -0.00303242 -0.0023122174 0.0023027563 0.0034257919 -0.0032189726 0.0027459974 -0.002581118 0.0009112708 -0.0034676746 -0.0031720465 -0.0008357403 -0.0019715999 0.0020503618 0.0016674292 -0.00043574782 -0.0015189481 0.0037596864 -0.0036166054 -0.002546281 0.0014959486 -0.0038301507 -0.0003297959 -0.0011065945 0.00038712154 0.0022290002 -0.000742205 -0.0011592254 -0.0010836564 -0.000348905 -0.0017892509 0.0013673098 0.0028556145 0.0030306363 0.00023745946 -0.0033767656 0.0009352454 -0.0026171496 -0.0009670598 0.0002635198 -0.00020205624 -0.0025606512 0.0031753343 -0.003834027 0.0030337402 -0.0023944564 -0.0018213606 0.0009884489 -0.0035466338 -0.001987425 -0.0016250199 -0.0018857549 -0.003113617 0.0031695294 -0.0035598383 0.0023232962 -0.00035760915 0.0016413374 0.0036685562 0.0033124408 -0.00050383504 0.0016476639 -0.0035678474 -0.0021483863 -0.0007938719
36 -0.0009978764 -0.0017869796 -0.002944457 -0.0011685953 -0.0013842223 0.0038759068 -0.0038439531 0.0026087007 0.0015992996 0.002993492 0.0013004134 0.0031056565 0.0027350783 0.0022932305 -1.8681449e-06 -0.00068337604 -0.0032738568 -0.00020899627 -0.0023847725 -0.0012861782 -0.0033889266 -0.0009429265 -0.0006641445 -0.0017567709 -0.0004048399 0.0026359844 0.0010228746 0.0015810363 0.002040482 -0.00014368992 0.0008958361 0.00077612064 0.00026464649 0.0030091417 0.002160815 0.002476474 0.0017326055 -7.730424e-05 -0.0012980016 0.0025760534 -0.0027655158 -0.002871745 -0.0033498013 -0.003800823 -0.0039037168 -0.0007959983 -0.0017413892 -0.0035736433 -0.0008435733 -0.0035554334 0.00064757274 0.001769262 -0.0015464532 0.0008771425 0.0014243164 0.0027842678 0.0017951331 -0.0023866906 -0.00351433 -0.0032058617 0.0032590793 -0.0028870716 0.0013073402 -0.0013493849 -0.0025706901 0.0009828169 0.0028736803 -0.003075111 -0.0037613993 -0.0033579487 -0.00031830178 -0.0022530376 0.0010964893 -0.0028780364 -0.0033007502 0.0007055998 0.0004756891 -0.001822474 0.0020162433 0.00039791086 0.0032721378 -0.0031438905 -0.00126749 0.0034628252 0.003202993 -0.0037964114 0.0031047761 -0.0011398724 0.0002791024 0.0015079848 0.00032434872 -0.00046777414 0.00323159 0.0021516278 -0.0011927956 0.0028047645 0.00047223383 -0.0018085984 0.0031673147 -0.0019493336 0.0014046867 0.0012710149 -0.0014258211 -0.0035247395 0.0009919541 -0.0024487257 0.0012693283 0.0035365226 -0.0035011962 -0.0036803442 0.00066602527 -0.0015829693 -0.001085344 -0.0022223715 -0.0019124692 0.0022193214 0.002015653 -0.0011965573 0.0029710808 -0.0006059617 -0.0017186309 0.0016265418 -0.00046482787 5.756223e-05 0.0012367838 -0.0014983851 -0.0026720823 0.0016674547
626 -0.0030050275 -0.0035593896 0.0024832576 -0.0026528616 0.00028561373 0.0018304469 -0.00030783995 -0.0018652602 -0.0003073627 -0.00021354518 -0.0017772969 0.0034645065 0.0016078021 -0.0006596579 0.0016407238 -0.0017500517 -0.0013884142 0.0014905693 0.0034483394 0.0006028459 -0.0038278177 0.00026739796 -0.0007216083 -0.0028222208 -0.0028517677 0.0027411373 -0.003535172 0.0030151678 -0.00017832719 -0.00051629165 -0.0002299361 -0.0013451301 0.00014103648 0.003872698 -0.0012768285 -0.0005898825 -0.0028279158 -0.0026283395 0.0030117405 0.002877248 0.003616648 0.0012913335 -0.000114335046 0.002266561 -0.0015324478 0.0024035345 -0.0015955213 0.002097456 -0.001775832 -0.000117867945 -0.0013862688 0.0012732822 0.0035713858 -0.0017129382 -0.0019958436 -0.002974106 -0.0038459012 0.002591616 0.00013878426 -0.0028046397 -0.0016711768 0.0016230071 0.0031632045 0.0007966997 -0.0031504775 0.0019799997 0.0026035174 0.0024979764 -0.0028545237 -0.00016523237 0.003221512 0.0021690244 -0.000988854 0.00077120756 0.0031966423 -0.0006419977 0.00051728747 0.0020570122 0.0034950234 0.00028440132 -0.0019209188 0.0016727414 0.0037551923 0.00025140462 0.00059498555 0.0019553748 -0.002586618 0.0034489133 -0.0015875987 -0.002206902 -0.00015730131 -0.0020755485 0.0035944306 -0.0018333726 -0.0020704393 -0.0033263394 -0.0022145994 -0.0037818921 -0.0020069832 0.0026277343 6.9009446e-05 -0.0017434984 -0.00035554756 -0.0025932752 -0.0014778625 0.002262807 -0.003205801 -0.0034870598 -0.0026048664 -0.0024623412 0.0015647647 -0.00036438045 -0.0011013387 0.0018744571 2.4484525e-06 -0.0008622401 0.00029506066 0.00061556627 7.06377e-05 0.0012551018 -0.002651035 0.0021254844 0.0006594366 0.0026368394 -0.003177119 -4.875625e-05 -0.001369971 0.0034447727
420 -0.0024262564 0.0028592413 0.0021540541 0.002074879 -0.002446341 -0.0021005762 -0.001363124 -0.0038402602 0.0009779292 -0.0010283553 -0.0002821425 0.00086703565 0.0024425539 -0.0023103668 -0.0030899222 -0.0014170733 -0.0032797365 0.0030151464 -0.0007905 -0.0025797496 -0.0030111936 0.0017580646 0.0019079573 -0.0030573148 0.0009285549 -0.0009771422 0.0021289287 0.0026199655 -0.0021702389 -4.874384e-05 -0.0013368225 -0.0025305094 0.0013500307 -0.0033748029 -0.0004972279 0.0012524991 -0.00038231022 0.0037037125 0.0035035685 -0.0004691206 0.0020192706 0.0007707043 0.00027118734 -0.0012493163 -0.0023869935 0.0002890559 -0.0017098193 0.0005669303 0.0009338953 -0.0028616004 0.0018479403 -0.0007658351 -0.0015594834 0.001411373 0.0015721824 0.00078569556 0.00032152893 -0.002674158 -0.0007329012 0.0005587857 -0.0017387057 0.0019112993 -0.0028747432 -0.0008814513 -0.0019326161 -0.0004229338 -0.0038673694 0.0018208973 0.0016016549 -0.00049716583 -0.0004263383 0.0016502251 0.0012201549 0.002539682 -0.00051141926 -0.0018160909 0.0017080412 0.0019104232 -0.0029476564 0.002623626 0.0028204105 0.0028629277 0.00021216193 0.0017245376 0.0031261004 -0.0028457206 0.00015514182 0.0036075744 0.0009822975 0.00387667 0.0030484654 -0.00029570292 -0.00357177 0.00047605654 0.0019709354 0.0006951641 0.0009307199 -0.002847328 -0.0010508723 -0.0033407495 0.003087003 0.0017552122 0.0021021352 -0.0036612817 0.00013280437 0.00078655506 -0.00038851824 0.002566293 0.0027331423 -0.0037470486 -0.0019963998 0.0015351005 0.003005633 0.0031857924 0.0033239874 0.00020378876 -0.0029291438 -0.0009113646 0.0015413592 -4.859532e-05 0.0036860853 0.0030083142 -4.8759106e-05 -0.0034885248 0.0017895247 -0.0018971069 0.0007797503 -0.00033155087
424 0.0029080743 -0.0035561873 -0.0027833583 -0.0018432072 0.0030241755 0.0037738546 0.0038634262 -0.003752417 -0.00213621 0.0012641323 0.0008511501 0.00039378705 -0.0029842795 -0.0035626756 0.0037447396 0.0027279337 0.003709292 8.2407765e-05 -0.001183111 -0.0017242712 0.00072485727 0.0029443142 -0.0034179285 0.0019782544 0.003518648 -0.0013430531 -0.00097582577 -0.00015919625 0.0033257063 4.0398725e-05 0.003893793 -0.0011945202 0.00044419317 0.003414711 -7.2204464e-05 -0.0008812922 0.0037875324 -0.0016738232 -0.00091007265 0.003529041 0.0020667508 -0.00030969072 -0.0028841014 -0.0028787574 -0.0036047944 0.00030366844 -0.0002982506 -2.5029009e-05 0.0001843344 -0.0022872388 0.0033927078 -0.0015816619 -0.0029253776 0.0006604877 -0.0028064596 0.0036579731 -0.003649839 0.0013650393 -0.0037047856 0.0032405842 0.00048376643 -0.0011850054 0.0037844542 -0.0021655415 0.003054908 0.003749099 -0.00017881748 0.0014640045 0.0020133369 -0.0010877531 0.00025290958 -0.003073486 0.0037183492 -0.0017939244 -0.003860726 -0.0022213373 0.0007097665 -0.0030357179 -8.940758e-05 0.0020853626 1.3925625e-05 -0.0021902903 -0.0025924444 -0.002291331 0.003808626 0.0036274733 0.0005669818 0.0027446977 9.495685e-05 -0.0015984203 -0.0002208116 0.0020524971 -0.0010723432 -0.00041348155 -0.0020722416 0.0031909011 -0.0038658539 -0.0014724475 -0.0009873539 0.0036618914 -0.002338122 -0.0027702267 0.002837 -0.0008891738 0.0037549092 0.0017273328 -0.0007488368 -0.00033671866 -0.00027460867 -0.0036773535 -0.0032886635 -0.003195899 -0.0011153796 -7.07578e-05 -0.0014057033 0.003482258 0.001995717 -0.0015405286 -0.00031880577 -0.0038377524 -0.0035541765 -0.0020908173 0.0016551655 -0.0028864553 -0.0016388394 -0.0010081194 -0.00238511 -0.0029163626
145 -0.003269888 0.0006190977 0.0036151912 0.0036851405 -0.0015136194 -0.00018536217 -0.0007070967 -0.0035860385 0.0035928236 -0.0017260239 -0.0027902497 0.0013284448 0.00028224717 0.0013546322 -0.0004298327 -0.00074342877 0.0036510827 -0.0010411578 0.0018644015 -0.0013970278 -0.0005680278 -0.0035718612 -0.0037997453 -0.0019205606 -0.0021913215 -0.0019030644 0.0035091485 0.0001227232 -0.0017771745 0.00091760856 0.0003301483 0.003343897 -0.0015727249 -0.002420558 -0.0028458126 -0.0012844845 0.0034784025 0.0013116383 0.001971749 -0.0011603404 -0.0010153243 0.0032011624 0.0011086615 -0.0026490951 -0.0031383366 -0.0007667313 0.00043644093 -0.0039024632 -0.0004906166 -0.0029478339 -0.0004037899 -1.4246722e-05 0.003201049 0.0036916044 0.0014249479 -0.0021310009 0.00014443394 0.0028747793 0.0025655585 -0.0015607796 0.0022354028 -0.0022967681 -0.001109687 -0.0016401596 0.0014348008 -0.0022720925 0.0014042679 -0.0007288894 0.00023374912 0.0008412926 0.0011462104 0.0023249516 -0.00054251094 -0.001801927 0.0015390078 -0.00017138007 0.0029074147 0.0012900454 0.0036051176 -0.00307459 -0.0018658431 -0.0038634117 -0.0024093199 -0.0028258238 -0.0038222943 -0.0004746278 0.0014504682 0.003118397 0.0013098984 0.0034231362 -0.00013497217 -0.0012652044 0.00302268 0.00014148757 0.0017099251 -0.00030052426 0.0037124085 0.0037404771 -0.0015066974 -0.0029763086 0.0021609806 0.0026778139 -0.0010591777 -0.00066464546 -0.0001178803 0.00081475225 -0.0017649361 0.0037734613 -0.0033919625 0.0039046812 0.0017650274 0.0034686027 -0.0038289237 -0.0035258024 0.0029493922 0.0026937346 -0.0037797894 0.0021532096 0.0006915465 0.0022525676 0.002629821 0.0025628032 0.001319176 -0.0031126142 -0.0021192275 -0.0009170405 -0.0037062592 0.0013607033
252 0.001794455 0.0033680627 0.0026016599 0.0018475081 0.0024955426 0.0012590074 0.0009569019 -0.0027039908 0.0015439182 -0.0035910248 -0.0026731319 0.0018486134 0.002570722 0.0013217239 -0.0019992695 -0.0029136545 0.0006148659 0.0016515019 -0.0025010786 -0.0013572905 0.0019188512 -0.0029746795 0.00059779774 0.0026910987 0.0014143087 -0.0006291814 -0.0004275723 -0.002379696 -0.0019599947 -0.0038295386 0.001992225 -0.0037983863 -0.0012874119 -0.001173218 0.00079729885 0.0036309361 0.00019252833 -0.0019634909 -0.00090812595 0.002698351 0.0033473356 0.0011809032 0.0022278759 -0.00052631414 0.0023226195 0.0007893198 0.0013899495 -0.0011102281 -0.0024588485 0.0007199067 -0.0012543708 0.0026525168 0.0028693187 0.001579947 -0.0030554943 0.0004856614 0.0013580152 -0.0036189342 0.0022966869 -0.0023617619 0.00079038995 0.00059143215 0.0030625437 -0.0005578674 0.0036286644 -0.0016157109 0.0016002208 -0.0031581335 0.0014659308 -0.00080367515 -0.0034107591 -1.6381524e-05 0.0028511232 -0.0010554027 0.003073522 0.0026905811 0.0021547386 0.0034905237 -0.0035720372 -0.0014358303 0.0032784028 -0.00086941244 5.29661e-05 0.00075789785 0.0025241585 0.0006927913 -0.0020308392 -0.0031710698 0.00086971413 0.0013821918 -0.0036493381 0.0005782357 -0.0019072341 0.00021429308 0.0031496915 0.0020385901 0.0019153974 0.0018475788 0.0026552372 0.0036854444 -0.0008782573 0.0016088609 0.003728481 -0.0008553133 -0.00067568466 0.0029996715 -0.0021493996 0.0023357002 -0.0017737296 -0.0018157756 0.0035545921 -0.0003011583 0.0021247913 0.00050846435 0.00047630657 -0.001298144 0.0021356144 -0.0029525482 0.002443059 -0.0028837968 0.0036546073 -0.0034613616 -0.0030003805 0.0012698831 -0.00223846 0.003287229 -0.0003048501 0.0037818684
82 -0.00019678965 0.0027604336 0.0002108588 0.0022740155 7.791504e-06 -0.00029271093 -0.0026410578 0.0027004292 -0.0016824136 0.0016377366 0.00020634047 -0.0025946733 -0.0020400714 -0.0020431678 -0.0028095064 -0.0036016516 -0.0019481461 0.0015710697 0.0011422632 -0.0023669256 0.0005588284 -0.0029950412 0.0025816886 0.0037452285 -0.0036115984 -0.0031403566 0.0023178372 0.0022927613 0.0035303205 -0.0030150455 -0.0018672871 -0.00059847353 0.00095280336 -0.0035039606 -0.0033740469 0.0019051844 -0.00023714919 -0.0026662245 0.0013649144 0.0003527775 0.0017463014 -0.00031449422 -0.002702666 -0.002373352 -0.0027614215 -0.0013276923 -0.0022434136 0.0012591532 -0.0010337871 0.0014047858 0.0013966039 -0.0002024609 0.00022151777 0.0037299076 -0.0017466124 0.00020497182 0.0020121671 0.0018285338 -0.0019879383 -0.0029062126 -0.0014307521 -1.3744359e-06 0.0013828777 -0.00233402 -0.00061403064 -0.0036491023 -0.0027715203 0.0024028814 -0.0026529727 8.3866435e-06 0.0029085646 0.00021487282 0.0033290803 0.0015106325 -0.0021626144 -0.00050228706 0.0035861577 -0.0033934421 0.0006537283 -0.0016376812 -0.0031357626 -0.00056627434 0.0038722209 -0.00030561435 -0.0029320698 -0.0009800749 0.0035487753 0.0026819746 -0.00043397472 0.0025123372 0.0034679587 -0.0038424332 0.0035690821 -0.0022705074 0.0012588335 0.00043884807 0.0028580746 0.0022050287 0.0037051856 -0.0017322925 0.001249592 -0.0021748892 -0.00049248873 0.0001908936 0.0023984252 -0.00021188529 -0.0012575383 0.0036990354 0.00014991149 -0.0022302077 -0.0031543542 0.002261795 -0.0026076967 0.00045500443 0.0031039012 0.0014262968 -0.0012247803 -0.0027126456 0.0015966408 -0.0001078664 0.00097485224 -0.0012883326 -0.001627194 0.0036267175 -0.0007115797 0.003812984 0.0014745301 -9.5473304e-05
623 0.0036897215 0.0036362235 0.0035671345 -0.0006064967 0.002239497 -0.00023924264 0.0022016717 0.0007324909 0.00142655 -0.0034154158 0.0018040937 -0.0028791113 0.0015174991 -0.0008219675 -0.000464288 0.0007079432 0.0019192254 0.00075613474 -0.00025552863 -0.0024593535 0.0032305156 0.0016145647 0.00078724336 -0.002643659 -0.0013478008 -0.0023082818 0.00094545656 -0.0027443448 0.0024777094 -0.0033880826 -0.0024060926 -0.002780751 -0.0035021948 0.0015677178 -0.0016586717 0.00048183007 -0.0012017607 -0.00314947 -0.003417474 -4.186238e-05 -0.0028121597 -0.0018653707 -0.0020810203 -0.0015717681 -0.00050700485 0.003198768 0.0037335416 -0.0020248971 2.775344e-05 0.001000846 0.00010286843 -0.003144944 0.0020337678 0.0033007695 0.00078374415 0.002421187 -0.0004979162 -0.0033333385 -0.0029310004 0.00093306694 -0.0035363988 0.0032274197 -0.0015835526 0.0033780143 0.0015414787 -0.0022541762 3.2569762e-05 0.0035902231 0.0027704195 0.0026875846 0.0015109266 -0.00091806904 0.0035526156 -0.0009977834 -0.00027509098 -0.0009190894 0.0008224803 0.0025427951 -0.0023210312 -0.0021629238 -0.0034617882 -4.857169e-05 -0.0032331715 -0.0037722078 0.0027412188 0.0021480934 -0.0014802862 -0.0029864153 0.0016531842 -0.00028193992 0.0038534855 0.0030906529 0.002073729 -0.0006394726 -0.0028023853 0.0018950183 -0.0023859257 0.0015394631 -0.0035884029 0.0022210972 -0.00229711 -0.003345433 -0.0021103132 0.0020594336 -0.0038914874 -0.0022785435 0.0028116498 -0.00014010447 -0.0038176836 -2.3885146e-05 0.0018800688 0.002885353 0.0011982254 0.0012156403 0.0034321216 -0.0026734604 0.00033524886 -0.0031453844 0.00013168452 0.000112503025 -0.0031434328 0.00057745655 -0.00023354706 -0.002668213 -0.0017197994 0.003893178 0.00070656935 0.0022877296
735 -0.0028168033 0.0020213176 0.001919573 0.0013972934 8.673372e-05 0.0018982935 0.0037918075 -0.0010443827 -0.0031202587 -0.0032570383 -0.0032258825 0.003751397 0.0029287431 0.0020755238 0.000180691 -0.0033645916 -0.0027065973 0.002107487 0.0034456702 -0.0021249307 0.00338029 0.003162912 -0.0016392285 -0.0024374975 0.0032545868 0.0015137807 0.0028135255 -0.0027435767 0.0018470018 0.00012384116 -0.0002281014 0.0033443514 0.0015357188 0.0022276454 -0.0019560482 -0.0007056221 0.0020032236 -0.0019950767 -0.0023165904 -0.00097138464 -0.0016748606 0.0006948455 0.0012620231 0.0011570766 -0.0016541227 -0.0019785524 0.0012164209 0.0027640997 0.0009890619 0.0007690192 -0.00010634068 0.0006018484 -0.003450413 0.0011235273 0.0030109745 -0.00092307775 0.0024097797 -0.001120819 0.0012288792 -0.0031309654 -0.0019878133 -0.0021142769 -0.0026402958 0.0008379993 0.0010441111 -0.0012406368 -0.0036379436 0.0015184295 1.649032e-05 0.0028100424 0.0029194735 -0.0029743942 0.0035287326 -0.0010093556 0.0022791168 0.002912723 -0.00032572006 -0.00097131706 -0.0034690194 0.0023080443 0.0038790372 0.0015264787 -0.003219176 -0.0023741103 -0.0020667512 -0.0035004981 0.001711293 -0.0034385119 -0.003779458 0.0004453329 0.0030557993 0.0029053008 -0.00068110187 0.0029656913 0.0021861284 -0.0027719056 -0.0022967462 0.0035259065 0.0006563394 0.0005169555 0.0032162326 0.0030576691 0.0013840528 -0.002681057 0.0030855574 0.0003484367 -0.001820704 -0.0021082202 -0.0025801477 0.00044182982 -0.0038499034 -0.0020467828 0.003395937 -0.0017534355 0.0010302138 -0.0035312045 0.0031402935 -0.002830089 0.0010997073 -0.00028008185 0.0021123334 0.00089005963 -0.00086751656 -0.0011097263 0.003602701 0.0021919664 -0.0013810663 0.00044721097
481 -0.0034869818 0.00077118055 0.0013013146 0.0019073299 -0.001348499 -0.0022535105 -0.0016645766 0.00216758 -2.0690506e-05 -0.0019072366 0.0013780459 0.0034642927 -0.0017527285 0.0023918569 -0.0015161294 0.0038241753 -0.0022083293 0.00087930827 -0.0028875335 0.0022973984 0.0023747366 -0.0037538183 -0.0018091032 0.0007943841 0.0014671478 -0.00077015534 -0.0009793793 -2.5496254e-05 -0.0012368538 -0.0037212493 0.0031954264 0.00039015381 0.001564259 0.0028817635 0.0021688663 -0.0019310571 0.0012186934 0.0011100221 -0.0018037327 -0.00021642912 0.0026223976 0.003662744 -0.0034265912 0.002678217 -0.003816408 0.00034158226 -0.0021258232 -0.00209443 -0.0023943312 0.0011656578 0.0024003536 0.0001004021 0.001611109 -0.0011826793 -0.0016516274 0.003851643 -2.8702689e-05 -0.002156933 -0.0002966498 0.002031031 -0.00018253921 0.0038265544 0.0033062012 -0.0026220852 0.0005350233 0.0021499565 0.0026641137 -0.0014717104 3.532729e-05 -0.0009796664 -0.0014627384 0.0034715335 0.0006131536 -0.00079662836 0.0027243043 0.0009183768 -0.0017721083 -0.0009694712 -0.00025806372 0.0016155634 -0.0029694282 -0.0029455048 -0.0014994667 0.0020694335 -0.0026029672 0.0012053514 -0.0031238047 0.00063283165 -0.0016912386 0.0020424554 -0.0010147975 -9.139199e-05 0.0038312157 0.001199031 -0.0030463717 -0.0022607886 0.00056924426 0.0023635295 -0.0006616693 0.0020606455 -1.10912515e-05 -0.0006471626 -0.0027373072 0.0018445117 0.0025047904 0.0038557702 -0.0022521506 -0.002205628 -0.0005115987 0.0037353516 -0.0014722988 -0.0013134998 -0.0009398951 0.0009932924 -0.0013391793 -0.0012905378 -0.0017520091 0.0038372579 0.0037336093 0.0029451216 0.00031768184 2.0143605e-05 0.0024202368 -0.0022709419 0.00079132145 -0.00077059807 0.00236555 0.002765353
69 -0.0012733095 -0.0038247497 -0.0037053453 0.0036503887 0.0010137451 0.002850057 0.0033334782 -0.000531928 0.0024038507 -0.00068943214 -0.0021101022 0.0011997401 0.0038770866 0.0015691111 0.0014468305 0.0038720495 -0.0038531304 0.0008348381 -0.0026606934 -0.002110719 0.0029328128 0.00027278217 0.001675867 -0.0032980486 0.0037516083 0.0013987451 0.00033001084 -0.0025590928 -0.0031043172 -2.1383767e-05 -0.0016871524 -0.0027057643 -0.00214683 -0.0027835185 -0.0020809942 0.0034783976 -0.0035334553 -0.0026950054 -0.0022702175 0.00062880444 -0.0033970308 -0.0006269962 -0.0013038779 0.0016472171 -0.0011938219 -0.0004180767 -0.0031188473 0.0011569926 0.0017969946 -0.00024535155 0.0008567447 0.00063472457 0.0019303765 0.0032395788 0.00049904204 -0.00068620004 -0.003532847 -0.000839363 -0.0019702376 -0.003278444 -0.00022504693 0.0011532191 -0.002300013 -0.0036002246 -0.0020165376 -0.0021649436 -0.0001862595 -0.003767362 -0.003801927 0.0020769455 -0.0020621507 0.0021489179 -0.0009139222 -0.00066557934 0.0002861015 0.0029734166 0.0019572233 -0.0009611703 0.0011733887 0.0027701317 -0.0011427638 0.0002330622 -0.0013281755 0.003660676 -0.0038458062 0.0004909265 0.0006831648 -0.0005647708 -0.0011715421 -0.0021005434 -0.0010865694 -0.00039185572 -0.0012278772 0.00055198686 -0.0007980504 0.0030376536 -0.0029956507 -0.0018132408 -0.0038007426 0.0028899934 -0.0021289038 0.0029973874 0.0003351076 -0.0036454545 -0.0016168372 0.0010089155 0.002459294 -0.0012912825 0.003301195 0.0001687133 0.002471225 0.0013435684 -0.0016292416 3.374433e-05 -0.0023471217 -0.0029496718 -0.0022097144 -0.002877471 0.0010528733 0.0014249281 -0.001894617 1.5182763e-06 0.0005936474 0.0019583597 0.0027370895 0.0024224247 0.00054693193 0.0034223914
8 -0.0038536512 0.002030792 -0.001603752 -0.002748814 0.0009516048 0.000985593 -0.0012226155 0.0013279248 0.002078261 -0.0009579331 0.00050230476 -0.00030289212 0.0020018828 -0.0015015221 -0.0033805303 -0.0017601433 -0.0021338908 -0.0021179107 0.0007847806 -0.0029674037 0.0027415443 -0.0010773838 0.0032318674 0.0008885435 -0.0011789115 -0.0020169516 0.0008685047 0.00072622753 0.0024998456 -0.001750512 -0.0014331132 0.0014170107 -0.003194697 0.0022110653 -0.0009971906 0.0026182604 -0.0035911233 4.975341e-05 -0.0013833487 -0.00043894732 0.0014031039 0.0028974055 -0.0024330246 0.0016333902 0.0029413702 -0.00040111027 -0.0005959933 0.0036316696 0.0023986485 0.0006995714 -0.0017030213 -0.0024071343 -0.0021090664 -0.0009110953 1.8717563e-05 0.0026518707 0.0028845596 0.0027046637 0.001323879 0.0030747605 0.0018158284 -0.0028134394 0.00033100237 -0.0036580083 -0.0025259587 0.0038475865 -0.00048720252 0.0012199569 -0.00094009086 0.0013845847 0.0018762874 0.0039010993 0.0021696412 -0.0027089734 0.0030719144 -0.00056421675 0.0028708382 -0.003619742 0.0033542158 -0.0037631595 0.0017375518 0.0012373426 -0.0037055651 0.001619444 0.0013214973 -0.0027095084 -0.0029725174 1.7143988e-05 -0.0009595239 0.00091825065 0.002318989 0.0035356982 0.0002160622 -0.002310416 0.002993652 0.00035663208 0.0036513153 0.0004374566 0.0005552898 -0.002891844 -0.00021840856 0.0023212952 0.0033261366 0.0037147617 -0.0029969458 0.003021628 0.0031740367 -0.002235809 0.0038398155 -0.00014303933 -0.0026848891 0.0026478767 0.0029723146 0.0010129794 0.00025328036 0.0013276548 0.003735364 -0.0010653264 -0.0010483459 -0.0010685523 -0.00027905338 -0.0027039228 0.0032649927 -0.0020663918 0.0023258866 -0.00094347855 -0.0007433127 0.0020813753
687 0.002032414 0.0014453186 0.0031460782 -0.001116654 0.0003405378 0.002122625 -0.0035793455 -0.0037331667 0.0033819315 0.0030913267 -0.0011897146 -0.0029273732 0.0030202777 0.0006552242 -0.0006963299 0.0020985631 -0.0009995367 -0.0001550876 -0.0034375521 -0.001715171 -0.0018371809 -0.0017185858 0.0037606212 0.002901652 0.0012297978 -0.0006546942 -0.003849656 0.0012978333 -0.0004545217 0.0011121557 -0.00051412696 -0.00046471675 -0.001936493 0.0008573032 -0.0036270947 -0.0010394042 0.0031340516 -0.003372534 0.003653913 0.0011740252 0.00054623524 -0.00070875284 -0.00081086555 0.00032914968 -0.001797923 0.0011287469 0.0016096282 0.0012170711 0.002684872 -0.0009027825 0.002685417 -0.0037946524 -0.002814963 -0.0033695174 -0.003723267 0.0030138618 0.000691558 0.0030948406 0.0011716582 0.001199386 0.00017746493 0.00031550074 0.0017687872 0.0028403495 0.0014568454 0.0029077125 0.0033667062 -0.0035688141 -0.0033765512 -0.0035305033 -0.00034968057 0.0023076048 0.002416705 0.0019142301 0.0016030679 -0.0013264964 -0.0037917048 0.003391192 0.003752509 0.001898425 0.000593705 0.0005076378 -0.00031292342 -0.00248001 -0.0011258317 0.002046573 0.0019405059 0.0028853097 0.0026166888 0.0025871855 -0.002194735 -0.0017915913 0.0014068186 0.0006602581 0.0005152581 -0.0038672877 -0.0006447657 -0.0035224673 -0.003395149 0.0027647547 -0.0007282982 0.0032073148 -0.00066054886 -0.002620486 -0.0028272464 -0.0025260865 0.0027086146 -0.0038774712 0.0012432033 -0.0023896033 -0.0019977412 0.0012555928 -0.0025046677 -0.00056139374 0.0014214981 0.0037860605 -0.0020497115 0.0020129937 -0.0029895622 -0.00201879 0.00035294893 -0.0017205408 -0.0004012135 -0.0031216159 0.00065848505 -0.0009960146 -0.0028609727 0.0024842499
279 -0.0029695856 0.0016394529 -0.0014684951 -0.00023340611 -0.00096534844 0.001684827 0.0033081255 -0.0023397307 0.0025662284 0.0014494089 0.0023389654 0.0020637624 -7.643789e-05 0.0005899699 0.0027598955 0.003366895 0.0020696663 0.00355374 0.0037550093 -0.0006133088 -0.0011475096 0.0030297192 0.0012216823 -0.0004994436 0.0031738002 0.002518932 0.0034286065 0.0032543733 0.0024266525 -0.0019398431 -0.00045318968 -0.0019726676 0.00055778807 -0.0014739925 0.0013928956 -0.0017281026 0.0037102608 0.001495981 -0.0031643675 0.0024651876 -0.00045975271 0.0030853755 -0.003513401 -0.0018959151 -0.0017392803 0.0024743718 -0.0018123619 0.0035985585 -0.0021289228 0.0018229145 0.0020818731 0.0038429033 -0.0022247306 0.00034819107 -0.0032746692 0.0011643316 -0.0011856157 -0.001978201 -0.0017320638 -0.0005256334 0.00055901776 -0.0017710527 -0.0009939527 -0.00015167931 -0.0024197754 -0.0037695738 0.0035782314 0.0015263679 -0.001626649 0.00053852843 0.0012730507 0.002654143 -0.0032463216 0.00024792703 -0.0027893211 0.0028748813 0.0028734633 0.00029342534 -0.0017075251 -0.00063981215 -0.0027260857 0.0019383241 0.0024205516 0.0011778538 0.001915869 0.0035566215 -0.0037715284 0.00060625694 -0.0006219152 0.0010915428 0.00010270594 0.003753158 0.0029918158 0.0033769775 -0.0025368943 0.0011542545 0.0028952535 3.537033e-05 0.0033780637 -0.0017582346 -0.0028610844 0.002720041 -0.0027788074 -0.0031498233 0.002859631 -0.0023290475 -0.0032455786 0.0021037678 -1.8523802e-05 -0.0022354748 -0.0011447881 0.0001893583 0.0002555961 -0.001180858 -0.0023640494 -7.215784e-05 -0.0010536023 -0.0038392856 0.0017043378 3.6435893e-05 -0.0005170949 0.0025307934 0.0020351398 -0.00064809626 0.0024214324 0.0025579657 0.0016643446 -0.0013320704
670 -0.0027724314 0.003428395 -0.0019140013 -0.0017501079 -0.0014300308 0.00029536287 -0.00075318647 -0.0025421737 0.0012473774 0.00045807194 0.002301051 -0.0011656733 -0.0022424594 0.0024916348 0.0024855759 0.0018814628 0.0019247246 -0.0030911763 -0.002309535 0.00028082836 -0.0033042957 -0.0024337976 -0.0029132208 0.00035306625 -0.003391527 -0.0011597181 0.0010736055 -0.00058832555 -0.00027116286 -0.00040782194 0.0030545953 -0.0035984546 0.0008581471 -0.0005315456 -0.00045551787 -0.0029579257 -0.0030604668 0.00071523077 0.002190429 -0.003286548 -0.0008209162 0.0018031518 -1.04041055e-05 -0.0030258354 -0.0035507558 -0.002879471 -0.0028659028 -0.0029052712 0.003135726 -0.0015837131 0.003049899 0.0031047356 0.0008701001 0.0013585053 0.00090588373 0.0017014816 3.283469e-05 -0.003613272 0.0027729291 -0.0007063789 -0.0038496146 -0.0016422438 -0.001311908 -0.00062944385 -0.00013059213 0.0021426787 0.0018705487 -0.001681051 0.0028478215 0.002721275 0.00053971005 0.0012163674 -0.00023371153 0.001066496 -0.0037328 -0.0001851781 0.0018814832 -0.0020552867 -0.0021370943 -0.0035785013 0.0028649173 -0.0025734454 -0.0023428474 0.0035636486 -0.0013472826 0.0032831838 0.00034698079 -0.0009775738 -0.00046087304 -0.0033480013 -0.0026954208 -0.0018571634 -0.00022113719 0.00083550165 -0.0018347095 -0.0017957123 -0.0002684753 -0.0011855036 0.0027537115 0.0032265096 0.001967854 -0.0014736884 0.0002398526 0.003697483 -0.0008171597 0.0023421145 -0.000371552 0.0013819175 -0.002221225 0.0037397945 -0.0026394557 0.0003931275 0.0029598325 0.0012349009 -0.002201074 -0.0019718232 0.0020674614 0.003292374 -0.003050064 -0.0027888604 -0.0014066856 -0.00052555854 -0.0016454221 0.00041685117 0.0038721934 -6.357467e-05 0.002416257 -0.0008181493
453 -0.0025404466 -0.0010864799 -0.000718524 -0.00226036 -0.0033353511 0.0028186282 0.0036910395 -0.0013409352 0.0027339743 0.001975246 -0.0037540852 -0.0014653496 0.0034635942 0.00016538703 0.0009207556 0.0010756225 -0.0007953173 -0.0010663836 0.0018160644 0.00032784182 0.0024395238 -0.0029011685 0.0024965412 0.0036809328 -0.0031312641 0.00038358383 -0.0005528762 -0.001703512 -0.0023492037 -0.0033651143 0.0029968398 -0.0025869745 0.0011668046 0.003759765 -0.0017826167 0.0037432988 0.0036922786 0.0037816456 0.0003514773 -0.000229993 0.0026338194 0.0027200445 0.0008767674 0.002966942 0.00080981135 -0.00095418456 0.0010384254 -0.00085171027 0.002281767 0.0008963256 -0.0037971342 0.0023555504 -0.0024863991 0.0028003512 0.0038509795 -0.00020036288 -0.00016931 0.0006809841 -9.1115246e-05 -0.0007158193 -0.0025470115 0.0012735883 -0.0021115148 0.0015292605 -0.003893836 -0.0010158846 -0.003354091 0.002543939 0.0025467111 0.0015716492 0.003855966 0.0004833777 -0.0007845777 0.00052078464 -0.0026065568 0.0011273164 -0.0012283031 -0.0010713204 -0.0028322446 0.0014106972 -0.00061360496 0.0006745057 -0.00047151247 0.0005077602 0.0027953205 -0.0005275492 0.00072618714 -0.0013404059 -0.0005956528 -0.000104880644 -0.0025722492 -0.002079083 -0.0037246805 -0.0037003397 0.0038302783 -0.0020008686 -0.0014152541 -0.002590517 0.0024783383 -5.726389e-05 0.0027725738 -0.0013688665 0.0016904976 0.0013228692 0.001729782 0.00029108598 -0.00032694498 -0.0024557442 -0.0020860685 0.0019139231 0.0038505252 -0.0014178938 0.0012921127 -0.00070115103 -0.003560787 0.0009990849 0.003699245 -0.0031858366 0.0005595192 -0.0036349273 -0.0028195172 0.0021245335 0.0037549504 -0.0023237986 -0.0007191167 0.0020665538 -0.002698954 -0.00013874304
275 0.00247484 -0.0026451694 -0.0020672511 0.0021717534 0.00074471865 0.00047578517 0.0011375168 0.0007363871 0.0016293577 -0.0006475088 5.2864223e-05 0.00170407 0.0033435596 0.0024390963 -0.0030926252 -0.0028691075 0.0006013456 0.0015689282 0.0026902037 -0.0012606811 -0.00017560087 -0.0014643263 -0.0010747174 -0.0026458842 -0.00028859693 0.0008659073 -0.0017849122 0.0008996268 -0.002769489 0.0008650384 0.0025663835 -0.0037138008 0.0020013435 -0.0023167953 0.0009876059 1.5953323e-05 -0.0025804834 0.0016119024 0.0034101554 0.0024641932 -0.0027969966 0.00021539412 0.0026612326 0.0026802418 0.0033505687 -0.0018889204 0.0009852491 0.003258013 0.00343044 -0.0020269607 0.0010838745 0.0036451544 -0.0017415622 -0.002758991 -0.0032262946 -0.000874994 -0.002139426 -0.0004631503 1.6644955e-05 0.003822897 0.0030953162 0.00013775489 0.0033314577 0.0006698448 0.00110819 0.0012223101 0.0018026278 -0.0012829391 0.0022126252 -0.002939668 0.0027780815 0.00016763853 0.0015513608 -0.0022019837 -0.0032569924 -0.0025074682 -0.0038165993 -0.003539158 0.0031130572 0.0032902148 0.0010669356 -0.0009108662 -0.0011995556 -0.0036418869 -0.0024433804 -0.0027068427 -0.0031926888 -0.0013444294 2.9325538e-05 -0.00014766515 -0.00021326882 -0.0023613865 -0.001239676 0.0028602483 -0.002661376 0.0009494391 -0.0038871276 0.00059510634 0.0027335929 0.00091380114 -8.541231e-05 0.0031722544 0.0035074572 0.0037263285 -5.384317e-05 0.0007116177 -0.0036305224 -0.0031299188 0.0003569552 0.0008437211 0.0001478574 0.00054600555 -0.0029900377 -0.0026408902 0.0009205862 -0.0010812797 0.0034568254 -0.0034377638 0.0017165889 -0.0010159106 0.001049046 5.2102037e-05 0.0023723037 -0.003699063 -0.0008142743 -0.002020275 0.0026245445 -0.002662136
487 -0.0013842509 0.0015330261 0.002068598 0.0019821478 -0.0023130812 0.0032728217 -0.002632387 0.0028953548 -0.0026608845 -0.003497085 0.0011382443 0.002782334 0.003570218 0.0018994531 -0.0010438828 0.0014362286 0.0011892108 0.0014528289 -0.003594986 0.0016773277 -3.971192e-05 -0.001974566 8.800865e-05 0.0010750827 0.00029810955 0.0036351618 -0.0012784513 -0.0032209284 -0.0029632028 -0.0026226626 -0.0030784116 0.0022742264 0.001926501 -0.0012999984 -0.0033879122 -0.0035070397 -0.0036116182 -0.002913817 -0.0029978135 -0.003167176 -0.0036313662 0.00132568 0.0030408187 0.0012291553 0.003566223 0.0025572495 -0.0021928647 0.00015103228 -0.00018333351 0.00045360342 0.0015712265 0.0016974888 0.0037806917 0.0034544957 -0.0011098008 -0.0036761458 0.0019188126 0.0020235744 -0.003175694 0.0003041505 -0.0032639527 -0.0016782833 0.0016270726 0.000272171 0.0020316462 -0.0020730165 0.0035963885 -0.0006964572 -0.0031685454 0.0033178446 -0.0021886083 -0.002409138 0.0025731546 -2.197932e-05 -0.0029391877 -0.0031948686 -0.0018901606 -3.5034467e-05 0.00152417 0.0025468855 0.003499552 0.001155833 -0.0033606593 -0.0029045672 -0.00024900856 0.0022177054 -0.0021123427 -0.0024327147 -0.00014034646 -0.0021274358 0.003770084 -0.0028275691 -0.0006495114 -0.003595902 -0.0024306464 0.0019196107 -0.00019080342 0.0035871018 -0.0010895459 -0.000979288 0.0025609562 0.0011831549 0.0006700038 0.0016059247 0.0008695667 -0.0005790331 0.00012413684 -0.0033046368 0.0029169142 -0.003734157 0.0024642944 -0.00010233338 -0.0015234012 0.0024047722 -0.00085558847 -0.0034104353 -0.0005854499 0.0037114227 -0.003505969 -0.0025068265 0.0024144582 0.0038807455 -0.0009712747 -0.0016553334 -0.00058636366 0.002309401 -0.0020421466 -0.00015591648
255 -0.0007523513 -0.0007369209 0.0023593658 -0.00060763006 -0.0022997903 -0.0035005573 -0.0020825514 -0.00020384125 0.0010731345 0.0020140489 0.0012576963 0.002444788 0.0007191743 -0.0012389394 -0.0019567944 0.0023652585 -0.003233576 -0.0026871439 -6.634523e-05 -0.0012352071 -0.0020762458 0.0038447315 0.0017637719 3.305822e-05 0.0025276244 0.0009927194 -0.0032886178 0.0025803945 0.0004551936 0.0016931433 0.0038882853 -0.0035432708 -0.0021529042 -5.2120027e-05 0.0016176602 -0.00089391903 -0.0021929918 0.00036549478 -0.0027211145 0.00036643905 0.00064558006 -0.0038832282 -0.0037139894 -0.001231748 0.0024309545 0.0033975632 0.002493617 0.0015764342 -0.002150474 -0.0019590515 0.0014370126 -0.001765715 0.0033308687 -0.0008229168 -0.0033715423 0.0011677975 -0.002355166 0.0036741896 0.0016899225 -0.00355529 -0.00388451 -0.003750578 -0.00015719175 -0.0023783906 -0.0027747096 0.00013243461 0.0004093184 0.003479621 -0.0012601312 0.0010750061 0.00053609314 5.368581e-06 -0.003743168 -0.0036612835 -0.00011505742 -0.001082694 0.00080936664 0.00039038164 -0.0005842625 0.0002994799 -0.00036707122 0.0012383851 -0.0029496853 -0.0022673893 -0.0016593238 -0.0032394626 0.0029835433 -0.001311243 -0.0012625582 0.0003342013 -0.0011713107 -0.003597463 0.0013647545 5.8075057e-05 0.0023570664 0.002661805 0.0035472317 -0.0031364802 -0.0023222684 0.0005977079 0.0018804539 -0.0030830712 0.00028894527 -0.001844977 0.00065082376 -0.002753499 -3.2919963e-06 0.00078827253 0.002166831 0.0030092502 -0.00057911495 3.2548607e-05 0.0021935618 -8.740661e-05 0.003716212 -0.0019072533 0.001617328 -0.00045335852 -0.0008269485 -0.002843411 0.00013482789 -0.0018956651 -0.0009876838 -0.0019826759 -0.0035969417 -0.002314117 0.0025701632 0.0014090085
