1446 128
5 -0.001268308 0.0007410538 0.0014090707 0.0030737498 -0.0016135194 -0.003295683 0.0005369955 0.0015243898 0.0028001973 -0.0004946818 0.0032264448 0.00095762796 0.0016053553 -0.0030067451 0.0025303478 -0.0036822893 0.0023672981 0.003545189 0.0029864816 -0.0024775167 0.00274708 0.00029005966 0.0034691237 -0.0026441945 0.0034973861 -0.0028400596 -0.00092443905 -0.00074527005 0.000112634465 0.002538668 -0.0016112741 -0.00041438206 0.0036291282 -0.0027041356 0.0011348784 -0.0009387707 0.00259028 -0.0036744394 0.0020821148 0.0029805256 -0.0017479961 0.0032164524 -0.0012395509 -0.0007880425 -0.0038219392 -0.00031855938 -0.00040221 -0.0035338989 -0.00063386763 -0.0020709455 -0.0031603954 -0.0034669316 -0.0038720856 0.0006356243 0.0023995203 -0.000251211 0.0016415225 8.592017e-05 -0.0037721759 0.0014338867 0.0031241793 0.0034138146 -0.0013395944 0.00192755 -0.0012768396 0.0011216518 0.001848148 -0.0024460782 0.0012052635 0.0021884479 0.003798705 -0.00057214027 0.0010712282 0.002288346 -0.0017195898 -0.003781608 -0.0029065611 0.00045415788 -0.0010987673 -0.0014489478 0.0013165467 -0.0037765226 0.00010969638 0.0034383426 -0.0014812814 -0.0035950954 -0.0036537757 0.000114644245 -0.0034172693 0.0027135191 0.0018446362 -0.0025465519 0.002406932 -0.0033791296 -0.00385952 0.00019591575 0.0034743303 0.002427896 0.003799595 0.0015454335 -0.0028754612 9.0055175e-07 0.0037592447 -0.0037155952 0.0011523515 -0.00089177146 -0.0025376899 -0.000729675 -0.00019397418 0.002202924 0.0010551639 -0.0029503177 0.0031358206 0.0014885912 0.0009182214 -0.0022096573 -0.002356925 0.0003842039 -0.003262755 -0.0036148462 0.0025287718 0.0024243467 -0.0022466427 -0.00065850397 -0.00352364 -0.00096577674 0.0028823698 0.00023207127
15 0.00069847336 -0.0017460654 -0.0005642614 -0.0025339127 -0.0020329393 0.0027149152 0.0027115876 -0.0029342894 -0.0023296801 -0.0024554457 -0.0014755045 0.0015322311 0.002078338 -0.0038423107 0.002530743 0.0038257316 -0.0001937853 0.0015471176 -0.00028261365 0.0037878153 0.00042551552 -0.003140898 0.0018435516 -0.00012001736 -0.0014125503 0.00014765353 0.0036876376 -0.0029980098 -0.0001600327 -0.003467585 0.0010345656 -0.0005990373 0.0038921414 0.0032854325 7.800882e-05 0.0013724369 -0.0003215906 0.0034218743 0.0015874959 0.00080143916 0.0002018803 0.0033557112 0.002137412 -0.001382298 0.0028388624 -0.0006858014 -0.00079380727 -0.0017317415 0.0021242262 0.0030815692 0.0038064462 0.0038701277 -0.0024372293 0.00086077856 -0.0028279687 -0.0032686172 -0.00018176295 -0.0031102574 -0.0004435177 0.002562417 0.0026436055 0.0031654874 0.001994298 -0.00096381555 0.0025476122 0.0006764581 -0.0032241847 -0.00026527856 0.0021125765 -0.0026999717 -0.002812817 -0.0032555473 0.0033857066 -0.0018916402 0.0032928085 0.0032251952 0.0025914204 0.0029253087 -0.0019420144 -0.0025536444 -5.666776e-05 0.0008005571 0.0033361372 -0.0013058088 0.0020390511 0.0037821664 0.0002813235 0.0022505391 0.0017399793 0.0019434647 0.0026882684 -0.0037126006 -0.0028586083 0.00084667606 0.0031508205 -0.0035764836 -0.001576746 -2.9216839e-05 -0.0019386219 0.002878377 -0.0010561473 -0.0014104733 0.0035505346 0.00011757216 -0.0009924093 0.0025060677 -0.0032684745 0.0033199352 -0.00058643846 -0.0031116859 -0.003259049 -0.0010912484 0.0034898394 -0.0032728782 -0.0026464707 -0.0017962407 0.0015234677 0.0020141592 -0.0033173766 -0.0038954413 -0.003097485 -0.0006549616 0.0034216105 -0.0015087306 0.0025257622 0.0016031144 -0.00054209714 0.0023577157
13 0.0026761193 -0.00046370056 0.00056296453 -0.0014098536 0.00017770103 0.002041052 -0.00029634612 0.0023791692 -0.0029722608 0.0020361654 0.0020972614 0.0010380228 0.003132814 0.00028811628 -0.0029421616 0.0012777678 -0.0029216688 0.003075493 0.0017205052 -0.002082634 -0.001501179 0.0027812363 0.0031637386 -0.002198905 0.0015351807 -0.0028873992 0.00205842 -0.0007908574 -0.0025695318 0.003191172 0.00046784838 0.00026927225 0.002784193 0.0016834206 0.0029980694 -0.0037283811 -0.00034660182 0.002338384 0.003604164 0.00069208734 -0.0021984256 0.0019789902 0.0006493791 0.003060355 -0.0015680973 -0.0037343234 -0.0004832328 0.003419722 -0.0010227924 -0.003736904 -0.0012713876 0.0002030414 0.0012393986 1.4465304e-05 -0.00048362103 0.0029688966 -0.0011927867 -0.0004114191 0.0023836088 -0.0032745926 0.002732181 -0.0034466556 -0.0011493965 0.0034847697 -0.00054675626 -0.0004516797 0.0026735861 0.0021416764 0.0037424935 0.0031741096 0.0028715944 0.0024154338 -0.0029019362 0.0017288355 -0.0033107898 -0.0010422583 -0.0014003346 0.0034289928 -0.0036806865 0.00018871651 0.0012288421 -0.003497264 0.003276765 0.0013755442 0.0008102457 0.00083234214 0.0035362125 0.0001009556 0.0025499251 -0.0008230747 -0.00039539492 0.0034201841 0.0032169418 -0.0038021896 -0.0029803235 0.0002569372 -0.002484462 0.0036961343 0.0023013472 -0.0029181116 -0.00093719637 0.0022851971 0.002677656 -0.0029296835 -0.0023106856 -0.001962724 -0.00016916418 0.0024245272 0.00076765707 -0.0020166596 0.0012331739 0.0012533908 0.0020152738 0.0003716388 -0.0010260812 0.00025383537 0.0013759218 -0.0028811602 0.00031759587 -0.00038401657 0.0009576475 -0.0034828966 0.0030905607 -0.0030994334 -3.506186e-05 -0.0010832882 0.0010814808 0.00090382854
3 -0.0025970628 0.0014257119 0.00048407895 -0.0029611462 -0.0021357809 -0.0028060505 -0.0025387127 -0.0036580581 -0.0015946962 0.0019043185 0.003853402 -0.0021394312 -9.465822e-05 -0.0021057099 0.000569811 0.002215804 0.0031113029 0.0036751141 0.0003391019 0.0030927642 -0.0036970535 -0.0017406614 0.0016665228 -0.0015161874 0.0028605955 0.0025900959 -0.002953574 0.0017819457 0.0018637754 0.001931882 0.00037722875 -0.00029232082 0.0019295017 0.0014438693 -0.00013389315 -0.0014999082 0.0019576007 0.0029067616 -0.00016963322 0.0017388571 0.00230457 0.00036917996 -0.0012543102 0.0035137867 -0.0029662244 -0.0011698648 0.0014049184 0.00041317378 0.0010095789 0.0031089643 -0.0033262628 0.0021502231 0.003151729 -0.00028184138 0.002645945 -0.0026205601 -0.0005447757 -0.0013797935 -0.00288055 -0.0032415814 -0.0034538237 -0.0001674353 0.00140661 -0.0013085603 -0.0020095303 0.0039002143 -0.0036305625 0.0038060644 0.0013706695 0.002051297 -0.0016363643 0.0022621474 -0.0025562302 -0.0013856301 0.001884191 0.0010211098 -0.003586733 -0.0019941023 -0.0033944147 -0.0038428938 0.0027128903 0.0025774764 0.0023225162 0.0021771004 0.0006839222 0.0020608858 -0.0015267599 -0.0028975438 -0.00014342031 -0.0037506442 0.0026972885 0.00033398523 -0.0016173706 -0.00380235 -0.0033367784 -0.0016780866 0.001986961 -0.0005617906 -0.0018033041 -0.002287211 0.003843491 0.0017591467 0.0015005002 -0.0025588614 0.0014765171 0.00042711003 -2.455415e-06 -0.0015075207 0.0021609492 0.0014225916 0.001068073 -0.0021776024 -0.0033953413 -0.002797345 0.0038533013 0.0023854289 -0.0034515148 0.0028749045 3.7046288e-05 0.0006885127 0.003480565 -0.0031666218 0.0035079229 0.0038553986 0.00021300955 0.003795788 -0.0012794391 -0.0036885552
4 -0.00061816565 -0.0018121186 -0.0022985411 -0.0022217764 -0.00019248929 0.0023072546 -0.0003108541 0.0014980808 -0.00094208424 0.002004928 0.001748086 0.0030187084 0.0023087582 0.0017526639 0.00031985468 -0.00044763196 0.0004043244 -0.0028359059 -0.0024834445 -0.002227228 0.0021956398 0.0015604463 0.0029607397 -0.0015181032 -0.0032085604 0.0010982458 -0.0017306993 0.0024832394 0.002678731 0.003872724 -0.0031636837 -0.00012303641 9.930298e-05 0.0035628267 0.00094596104 0.0018428627 -0.0013223949 -0.0029013322 0.0026227734 -0.0038221008 0.0019873464 -0.0026015225 -0.00010606676 0.0026938007 0.0028143565 -0.0021104796 0.0003590633 0.0026282948 0.0002151268 0.0010402096 -0.0005955654 0.0014172953 -0.0034117051 -0.0021541542 -0.00067306176 -0.0003368185 -0.0033787088 0.0010883138 0.0007430645 2.489184e-06 0.0011467992 0.0023900121 -0.0002917691 -0.0032150352 -0.001255741 -0.0024137169 0.0015763217 0.0009225964 -0.0018997324 0.0001205503 0.0009476044 0.0015848553 0.0025337955 -0.0033105547 0.0026892154 -0.0023887393 0.0019318638 -0.0001130162 0.0005406642 -0.0027727543 0.0009920237 -0.0014695519 -0.0038832997 0.0024836834 0.0016982135 -0.003042444 -0.0019968566 0.0031397962 0.0007959837 -0.00033968987 0.00039715058 -0.0002550415 0.0033884335 -0.00088493037 -0.0022351213 0.0022888212 -0.003430297 0.002091872 0.0031108123 -0.002977372 0.0035427331 -0.002435093 0.00157248 -0.0009991339 -0.0005388798 0.003890854 -0.0005418876 0.0019346303 -0.001800555 -0.0007587435 -0.0010317557 -0.00034930324 -0.0005991046 0.0020959869 -0.0023610897 -0.0021673457 -0.0033423514 -0.0029939776 -9.9848745e-05 0.0034865323 0.003679475 -0.0013206294 -5.602948e-05 0.0025965604 0.0038611302 -0.0003358814 -0.0033409467 -0.0014481193
8 0.0034729214 0.0030972953 -0.00035477724 0.0019900124 -0.0038824694 -0.0032710966 0.0030121405 -0.00089531275 -0.0017242888 -0.00071873405 0.00017873998 -0.0017410713 0.00076661387 0.0035402286 -0.0021415476 -0.0009808778 0.003539405 -0.0015950201 0.0017759501 -0.0019976331 0.0032660072 -0.00058578193 -0.0015543676 -5.4986704e-05 -0.0018879577 0.0027000143 -0.0032386251 0.0005933758 0.0032488112 -0.0039032048 0.0019732171 -0.0013494374 -0.0009862118 0.0026920105 -0.003710128 0.003384272 -0.0026015746 0.0010921012 0.0029342421 -0.0010818752 0.0023570885 0.0022141228 0.0012368003 -0.0030675575 0.0016038942 0.0027040164 0.0020547146 -0.0035217078 0.0010727406 -0.003376253 -0.0009324513 0.0033405803 0.0004934962 0.002917982 0.0009350765 3.2947002e-05 0.0014140907 0.0026660573 -0.0025399805 -0.0013650378 -0.0010568582 -0.0037884936 -0.0012875469 -0.0026321702 0.0018927448 -0.0015737456 -0.00078890903 0.0024343284 -0.0038452123 -0.002163686 -0.003294664 -0.0025349176 -0.0027744402 0.0018150916 -0.00025315917 -0.0014165682 0.002558993 -0.0020125082 0.0034531385 0.0019943775 0.0034456218 -0.0021804175 0.0010060053 -0.0012565746 0.0006697687 -0.0035114328 0.0036872814 -0.00047648893 0.0008927122 0.000915031 0.0027665598 0.002859729 -0.002295538 -0.0027163022 -0.0018034473 -0.0038127063 0.0010103149 -0.002623569 -0.0021435556 0.0018469127 0.003313048 -0.000304916 -0.0025736364 -0.0009409212 -0.0014800067 -0.0024938884 -0.0028768075 -0.0034109629 6.731279e-05 0.00023181151 0.00075467036 0.0036428308 -0.0033799398 -0.0036182622 -0.0016590792 -0.0031237453 0.001212642 0.0025978156 -0.0004505834 -0.0029551212 0.0019210182 -0.003850441 -0.00090462295 0.0030316757 0.0020162978 -0.0035173185 0.00034416557 0.0018951284
11 0.0029795535 0.0023711736 0.0027148232 -0.00043885398 0.002692711 0.0008859774 -0.0033524914 -0.0036032728 -0.0011372122 -0.0022877224 -0.0028077948 0.00341541 0.0030263353 0.0021514944 0.0011891216 0.003749035 -0.001441159 -0.0035088456 6.448519e-05 -0.0011620285 -0.0022884482 -0.0033126664 0.0016222447 -0.0008957195 -0.0005907424 0.00091260567 7.391502e-05 0.0016689701 -0.0030420192 -2.6558464e-05 -0.0017273533 -0.002269298 -0.0014939775 -0.0016224842 -0.0038518838 0.0036471453 0.0010875701 -0.0031628257 0.002595094 0.001476071 0.0030283532 0.00040623985 0.0010345604 0.00043922383 -0.0005571971 -0.002863976 0.0033957758 -0.0033060864 0.0014785668 -0.00015404522 -0.0030374236 -0.0028999613 -0.003823524 -7.329338e-05 2.9565563e-05 0.00011930821 0.00086835434 -0.0006818027 -0.0010724172 0.0004636215 0.0037216772 0.0016157259 -0.0014464961 5.672261e-05 -0.0013520005 0.0018769449 0.003703317 -0.002723901 -0.0030262163 0.002977601 -0.0004526351 0.0008673597 0.00027788372 -0.0037243236 0.0025751286 -0.0005031245 -0.003426267 0.0031721753 0.0010959149 -0.0026469366 -0.0017165999 0.0037053053 -0.0034964138 0.0030885702 -0.0013705235 0.00027061527 0.0037794765 -0.00064017525 0.0013429058 -0.0032844327 -0.0015411581 -0.0030574878 -0.0027943193 0.0017294233 -0.0007270198 0.000522274 7.5186486e-05 0.00018541749 -0.00050377415 0.003379565 0.0031390176 -0.0029136823 -0.0012080397 0.0011267978 -0.0028096605 0.0025529782 -0.0011813891 0.001243391 0.001861689 0.0021476578 0.0027444304 -0.0027101615 -0.0011395636 0.0020018006 0.0036546965 7.8884106e-05 -0.0033012936 -0.00081259094 0.0036387576 0.0033218353 -0.0031689135 0.0010486057 0.0009013378 0.0030281192 0.0027263046 0.00071913656 0.0014753791 0.0023413626
12 0.0002137105 0.0027068395 0.0023161576 0.0014296285 0.0017447453 0.0016449026 0.0033885718 -0.002303886 -0.00095219736 -0.0038913745 -0.0034196293 0.0012860307 0.00054643746 -5.057714e-05 0.0038893267 -0.0006186278 -0.003333524 0.0034774404 0.00075782783 -0.0023351128 0.0038956613 -0.0035836182 -0.000102582206 -0.002769667 0.0025115092 0.0027575444 -0.001658142 0.002193512 -0.0010025128 -0.0018282962 0.002876789 0.0010552759 0.002985546 0.0026562084 -0.0031260632 0.00040412406 0.0022138471 0.0015340353 0.0004059249 0.002507561 -0.001126737 0.0030417375 0.0017691349 -0.0026088117 -0.003671049 -0.0033668005 -0.002971832 0.00077325717 0.00085410813 -0.0027542745 0.0027446956 -0.0008436843 -0.0023459517 0.00024923685 0.0024528885 -0.003220477 6.6658824e-05 0.0017613177 -0.0010393905 0.0030798798 0.0021151395 -0.0017627198 0.0027276897 0.0007695038 0.0017193783 0.000205649 0.003332188 0.0008924695 0.0029131724 0.00364112 0.00035438949 0.00057756563 0.0008987565 0.0026537578 -0.0025005832 0.0013678834 -0.0021333373 -0.003289901 -0.00091986754 -0.0015603614 0.0009634206 0.00034154556 0.0001744143 0.001112028 -0.0020576033 0.0037330112 -0.00013508451 -0.0013691888 -0.0010377745 0.0039042481 -0.002264185 -0.0026418956 8.918896e-05 0.001675923 -0.0021529614 -0.003778424 -0.0017729466 0.002916992 0.0002615914 -0.0012418645 0.00043232995 -0.0011908689 0.0014908663 -0.0011447289 0.0021073716 0.0037588852 -0.0031093406 0.00015679066 -0.0009871335 -0.0018132577 -0.0003962689 -0.0025581 -0.0025851403 -0.002530298 0.0022390166 -0.0019501193 0.0034054026 -0.0027578506 0.00076459895 -0.003327438 0.0002801843 -0.0002520276 0.0013324395 0.0023970718 0.0029353518 -0.0026574105 0.0020112079 0.003780702
257 -0.0036124687 -0.001634854 -0.0013251073 -0.0017564016 0.0037708634 0.0019945025 0.0031349994 0.0013441149 0.0022067223 -0.0010726061 -0.002885051 0.0037993244 -0.0032905259 -0.003584214 0.00018530113 0.0006183952 -0.0031762884 0.00020915792 0.0019138897 -0.0022250728 -0.0018334866 0.0028625545 0.002090455 -0.0033908326 -0.00010314765 0.0029317725 0.00071199954 -0.00084371393 -0.00021733243 0.00054499676 0.0020086695 0.0010885319 0.002061745 -0.0023322166 -0.0033528735 -0.0006035584 -0.0032167418 -0.0003524201 0.0027086881 0.0026918163 0.0013131954 0.00016341574 0.0030338478 0.0021459907 -0.001519382 -0.0025994757 -0.0014211365 0.0029351024 0.0035121744 -0.0004660606 -0.000421036 -0.00040395698 -0.0014914024 0.0003666109 0.0029443528 -0.0010236991 0.00200154 -0.0025655015 0.0019490188 -0.00021478916 0.003450489 -0.0010903797 0.0033121097 -0.0036364065 -0.0009792282 -0.000516025 0.0031680306 0.0021915713 -0.00076025573 -0.0032116445 0.002481218 -0.0013093475 -8.463574e-06 -0.003194597 -0.0029872889 -0.0011353586 -0.0029979844 -0.003364413 -0.0010659978 0.0036621673 0.0020635505 0.0033991807 -0.003129437 0.0021059376 0.0008597274 0.0034259504 -0.001297647 -0.0034840843 -0.0026935134 0.0017572184 0.00033572357 -0.00060657447 -0.00036929702 0.003766686 0.0015139824 0.003602598 0.0022850689 -3.1394185e-05 0.0029540649 0.00025013447 0.0026196877 -0.0028675878 0.0028443749 -0.0031151928 0.0004949244 0.0025665544 -0.0023731946 -0.0012878844 0.003596329 -0.0012734773 0.0036725125 0.00087850867 -0.0010994785 -0.001456881 -0.002314328 0.0023379435 0.0030943523 -0.0028471716 0.000111000925 0.003498472 0.003874544 0.00087491964 -0.0002496567 -0.00038629284 0.0030254752 -0.00040398363 -0.0007727358 0.0020668053
6 0.0015888449 -0.00035415738 0.0013050805 -0.0004186442 -0.0019631884 -0.0036005124 -0.0029538246 -0.003620617 0.0035463944 -0.0035154074 -0.0014378795 0.0011191805 -0.0023637393 0.0015205006 0.00028276135 -0.0007507155 -0.0009977896 0.0018840164 -0.0018641173 0.0009807087 -0.0010210057 0.0035514706 -0.003069438 0.002269768 -0.0030855013 0.0017658131 -0.003414015 -0.0005013737 0.0020411287 -0.00062400143 0.001076835 0.0020085147 -0.00041761578 -0.0009837318 -0.0034943682 0.0024607542 0.0033613215 0.0028761805 -0.00029999166 -0.003551764 -0.00041736223 -0.0021181637 -0.0031544731 -1.4205028e-05 0.002509518 0.00045605563 -0.0029658512 0.0010189423 -0.0031700088 0.0025681264 0.0010194451 0.0036272437 -0.0015209239 0.00022046689 0.0011558996 -0.0012481861 0.0006574121 -0.0030018282 0.0009693831 0.0013235311 0.0031722866 0.002541118 -0.0026625965 -0.0031675994 -0.003332132 0.0029480131 -0.0025757104 0.0004792296 -0.003448383 -0.0038709065 -0.00063214276 0.00069920847 -0.001110759 0.000996546 0.0001027122 -0.0031157387 -0.0030786116 -0.0033305506 -0.0025294283 0.0027193471 -0.0029123137 0.0037153969 0.0006397379 -0.0037681765 0.00012991698 0.0011292232 -0.0009988837 0.0028873985 -0.0018199512 0.0037419205 -0.0002236386 0.0014881677 -0.0033367607 0.00083113235 0.0029951818 0.0004392565 0.00049395306 0.0027590971 -0.001877865 0.0023864547 -0.00013788333 -0.0016074136 0.003510258 0.0019103661 0.0033823643 0.003711825 0.0022305213 -0.0008099114 0.003326993 -0.0029034999 0.0029993556 0.002176169 -0.0037497857 -0.0036840225 -0.00052541826 -0.0038570983 -0.0011817341 -0.0026427784 -0.003605221 -0.003328198 -0.001422294 0.001451049 0.0021386074 0.0024388633 0.001085569 -0.00349932 0.0016714357 0.0018057327
192 -0.0027971247 -0.0017256374 -0.001474457 0.00043645018 -0.0022076936 -0.0001647369 0.002737621 8.441291e-05 0.00044997223 -0.0030235585 -0.0029646854 0.0028903529 -0.0015373916 -0.0036362053 0.0023403575 0.00015455202 0.0007526295 -0.0030041179 0.00053724175 -0.00060928805 0.0038064925 0.00084227684 -0.0013203729 -0.00021736947 0.0016317485 0.002975437 -0.0017674479 0.0008743235 -0.0017324509 0.0036505505 -0.0018305124 0.003262923 0.0010786572 0.0023862245 -0.0030039202 -0.00067190954 -0.0020160042 -0.0012494867 -0.0020063233 -0.0028434685 0.0010654541 0.003154429 0.0035587563 -0.0012005537 0.0023462218 0.0035095064 -0.00079707644 -0.0018806352 0.0028439765 0.00018091688 -0.0035379722 0.002198928 -0.0015762133 0.0026596815 -0.0028975299 0.00066169346 0.0023537609 -0.0010032067 0.003710529 0.0024934825 0.0007704398 -0.0031608117 -0.0036498408 -0.0013998024 0.0034225842 -0.0009089618 0.0008603826 0.0017837237 -0.001722991 -0.0006025451 -0.0017905842 -0.00048765552 0.00023792248 0.001170343 0.0026925157 0.00068236096 -0.0016042026 0.0008426758 0.0036029299 0.0002469676 0.0011361863 -0.0027738095 -0.0032904225 -0.0018641843 0.003856124 0.001249867 -0.00016207279 0.002162695 -0.0014920215 -0.0035935023 -0.0006007037 -0.001168141 0.0019303989 0.00012486984 0.0024299084 0.00023271337 0.0013685538 -0.0024367105 -0.0017590611 -0.002700572 -0.00075405283 -0.0030028266 -0.0009889347 0.0035450808 -0.00072382356 0.001438218 -0.0024696873 -0.0030610713 -0.0019957933 0.0023404292 -0.0034525522 -0.0029318205 0.00364003 -0.0030447384 -0.0031759345 -0.000932111 -0.000108150925 -0.0004140029 -0.00212466 0.00027436356 -0.0028052249 0.0024821674 0.0036513894 -0.00043172468 0.0017111831 -0.0025945846 -1.0972641e-05 -0.0019510239
16 0.002866681 0.003839369 0.0015943268 -0.0019770146 0.00096161437 0.0027214414 0.00093113387 -2.004029e-05 -0.003395826 0.002937282 -0.0020288927 0.00024935807 0.0037217878 0.002058112 0.0006681157 0.0011966142 -0.00105974 -0.0037053532 0.00095845666 0.0008467413 -0.00075363985 0.0033503727 -0.0025081683 0.003060107 0.00020224148 0.0037785296 -0.0021911904 -0.003225702 0.0006092576 0.0010304272 0.0011280879 0.0007157526 0.0018420371 -0.0036828804 -0.0023678197 0.0016026811 -0.0019670276 0.0018003589 -0.0022934661 -0.0033689823 -0.003016874 0.0028107085 -0.0012343301 0.0034382849 0.0017025082 0.0015897179 -0.003541812 -0.0014006533 0.0025819265 0.0017415348 0.003680537 0.0038124912 -0.0028680519 0.0005079343 -0.0028952118 0.0036912009 -0.0030223073 0.0027505548 -0.0012912047 0.00069672626 0.0032842753 0.00025676776 0.00089614175 0.0006821262 -0.0029166513 -0.0030759405 -0.0010541742 0.00033345635 -0.0021195377 -0.0022346228 0.0018232642 -0.0032971632 0.0024937126 0.0036962887 0.0007134096 7.7716555e-05 0.0028046062 -0.0036243815 0.0018357765 -0.0009806966 0.0034164868 -0.0015277655 -0.00064476824 -0.001592209 -0.0035378325 -0.0010008669 0.0026796474 -0.0035257777 0.0029764846 0.002068396 -0.003361019 0.003719671 -0.00078326126 0.0028806166 0.00092142285 0.002898983 1.6270216e-06 -0.0027614604 -0.00068631326 -0.00067838887 0.00056698 0.00043001882 0.0006295775 -0.00024179346 0.0032566478 -0.0036887433 0.0019170583 0.0016076935 0.0035152442 0.0037398941 1.8361568e-05 -0.002901809 0.0013552 0.00038711476 0.0026110765 0.0022092827 0.0030752101 0.0022640822 -0.003156332 0.00096368336 0.0031121066 0.00010550578 -0.0033268286 -0.0020348215 0.0028251393 -0.0038407173 0.00075665023 -0.00022182254
9 0.001677118 -0.0038737364 0.0009889256 0.0029159947 -0.0010697186 -0.001287901 0.0016754097 0.0022230134 -0.0023958043 0.003903183 -0.0023984623 0.00053365825 0.00095161516 0.0024895212 0.000570196 -0.00091382 -0.0023545944 -0.0012698444 0.00063073996 -0.00025028037 4.075873e-05 0.002757828 -0.0016271388 -0.0009702846 -0.0019011897 -0.0034602247 -0.0027044043 0.00083054375 0.0028096966 0.0025878665 -0.0011525274 0.0001375429 0.0028233335 -0.002231866 0.002966969 0.0021887328 -0.0029877229 0.0016232262 0.00041174638 0.0007671903 -0.0017500573 0.00075261894 0.0024701701 0.0026397053 0.00023670172 -0.0017539478 0.0003412022 -0.0030928294 -0.002038109 0.0017798675 -0.0021586798 -0.00040375255 0.00013872802 0.00053914357 0.0008270959 -0.0024478699 -0.0023597856 0.0012833867 -0.00049549225 0.0032123232 -0.002919157 0.0008019861 0.0011253548 0.00096298655 -0.00031885857 0.0032338595 -0.002177643 0.00037737557 -0.0028104149 0.0026895339 0.0037977858 -0.002577121 0.0008019603 -0.00045315415 -0.0022062594 -0.0034180586 0.0014512558 -0.0037548575 0.0033207457 0.0034034932 -0.0037348734 0.0035358288 0.0010760396 0.0038547812 -0.0010912428 -0.00061817194 0.0012627059 1.6490367e-05 0.0008512634 0.0008489768 0.0011030727 0.0019240316 -0.0004291368 -0.00065862347 0.0035861498 0.0032620993 -0.0009833052 0.0020802268 -0.0020317966 0.00088515907 -0.0020305228 0.0032778939 -0.00242082 -0.0019793694 -0.003670273 -0.0020694202 -0.0020897284 -0.0010091248 0.002296314 0.00050205836 0.00035202503 0.0034823588 -0.0001846399 0.0013769714 -0.0010580361 0.0024275822 -0.003701002 -0.00093975 -0.0026144984 -0.0034696253 -0.003812051 0.0032327685 -0.000313503 -0.002796923 -0.0036908546 -0.003005865 0.0028291724 0.0010373851
92 0.0022117912 0.0032779698 0.0028597398 -0.0030939633 0.00036401296 -0.0009052291 0.0010137408 -0.00040025526 -0.00021217685 -0.0008468738 0.0020535584 -0.002425102 -0.0011976692 -0.0019438936 0.0009919823 0.0017150908 0.0023795948 0.0020287496 -0.0029527082 0.00026040385 -0.0023075948 0.0034753312 -0.0006421983 0.0016778791 -0.0015900426 0.0025654477 0.0017443886 -0.0016611151 0.002695394 0.0003858339 0.00024126416 -0.00029383972 0.0015121781 -0.002827483 -0.002197176 -0.00082369143 0.0005462337 0.0016000672 0.0009883614 -0.003327868 0.003499707 0.0028224327 0.0009456462 0.0021338647 -0.003529635 0.0013378485 -0.0025720831 0.0019319776 0.002907436 0.00043189977 0.0029389777 -0.0015690419 -0.0013825179 0.0036771582 -0.0007034578 -0.00073004625 0.0003866133 -0.0023555658 0.0023590631 0.00025977814 0.0025873776 -0.0031120349 -0.0033427493 0.001734926 0.0017055114 0.0027520307 -0.0012872017 -0.0028999487 -0.0020451474 0.0006249715 -0.003389961 0.0016344107 -0.0027516934 0.0018308553 -0.0033573573 -0.001448759 -0.0011275574 -0.0033154553 0.002317077 -0.003256917 0.00040690292 -0.0020534056 -0.0023434302 0.0019025771 0.0028870918 -0.001301469 -0.0017879342 0.0027469858 0.0022870465 0.00019097638 -0.0022356673 0.0026305239 -0.00094926974 0.0036099441 -0.0028077215 0.00040061586 -0.0021364188 -0.0036126284 0.00015590346 -0.0015750678 -0.0037590454 0.0030445964 -0.002313178 0.0004951357 -0.0026993041 -0.00263754 0.0032306423 -0.0020993429 -0.003637279 -0.000362659 -0.0011880359 0.0009401853 -0.0024647422 0.0016458845 0.0011107457 -0.0014039588 0.002665134 -0.0026723014 -0.0028863882 0.0035465127 0.00083062524 -0.0015195924 0.0017540971 -0.0008611554 -0.0006404387 0.0013758916 -0.0030153582 0.0029994044
30 -0.0015677339 0.001641608 0.0015093288 0.0022630554 -0.00043213772 0.00035975894 0.0030046224 -0.003605046 -0.00027132966 -0.0035873218 6.723464e-05 0.0035902876 -0.0015974018 -0.0011152764 0.0026148558 -0.0020855826 -0.0027160656 -0.003800677 -0.0018570025 -0.00086797716 0.0022694534 -0.0035465334 -0.001806313 0.0037917902 0.0022246314 -0.0026542677 -0.0011297265 0.0010490513 -0.00011803985 -3.834476e-05 0.0010694495 0.002280628 -0.0014017705 0.00033787423 -0.0010548353 -0.0022693104 -0.0012661342 -0.0016331462 0.0029783451 0.0031059727 0.0026339963 0.0019406069 0.00192722 0.0015064039 0.000379077 0.0008342794 -0.0013858808 -0.0027407757 0.0012915658 0.0014636886 0.0007651089 0.001076422 0.0031180887 0.0014268823 -0.0013710834 -0.00277776 0.0009896554 -4.3860828e-06 -0.002487374 -0.00040275752 -0.0029103735 0.00037791196 -0.000257964 0.0029556951 -6.61914e-05 -0.00020444764 -0.00032268994 0.0033598386 0.00074322213 -0.0005162758 -0.0010816285 -0.0026927292 8.39022e-05 0.0031783155 -0.0037299935 -0.00077957835 0.0009104648 -0.0001667276 -0.0012962902 0.0010429118 -0.0018285511 -0.0015993564 0.0029861908 -0.0028929429 -0.003615991 0.002948162 1.1037656e-05 0.0025477537 -0.0030882685 0.00024097288 -0.0035116738 -0.00059330143 -0.0010872508 0.0018578301 -0.0003669996 -0.0035587905 0.0001720657 0.00079331454 0.00020811817 0.0012510743 0.0029794727 -0.002017485 -0.0017602161 0.0029551405 -0.0032353962 -0.0016446637 -0.0005608044 -0.00097169454 -0.0020847518 -0.0019589947 -0.0019360164 0.0016138952 -0.0007842465 0.00083413575 -0.0035677804 -0.0015855544 -0.0022324454 -0.001169038 0.0023192011 0.00029358725 -0.00054645346 0.0025504061 0.002632876 0.0011633415 -0.001612977 -0.003706113 0.0030868498 -0.003865096
24 -0.00148295 0.0017310533 -0.0025693001 -0.0027343046 -0.003566049 0.0034786756 0.0028899643 -0.0005088044 8.660818e-05 0.0016526129 -0.003376945 -0.0016797888 0.003589743 0.0027782826 -0.00083853037 0.003317355 -0.00053193443 -0.0007940071 -0.003630305 0.003288003 -0.000685463 -0.0022676862 -0.0020228433 -0.00054655963 0.0026309534 -0.0034871977 -0.00076310267 -0.0006962872 0.0029475733 -0.0015670819 0.0032533247 0.0017445745 -0.0038025475 -0.0033073307 -0.0006163268 0.0022199145 0.0024326397 -0.0022845168 0.0006341219 0.00071444066 -0.0010285752 0.0029002873 -0.003008821 0.00355639 -0.0033861103 -0.0015217162 -0.0033646654 0.0014655533 0.002467302 0.00030505922 0.0013226683 0.0009895152 0.0029900442 0.0034968818 -0.0011735735 0.0027995144 0.0031728342 -0.0033681951 -0.0017072834 0.0038285374 0.0038795404 -0.0037559173 -0.00018165188 0.0013220889 -0.0015310578 0.0013132178 -0.0007474359 0.0030607174 -0.0013595294 -0.0037169321 0.0031367706 0.00059793546 0.0008536405 0.003273363 -0.00027370037 -0.0033478537 0.0033045213 0.00054634403 -0.0007744211 0.0010918174 -0.0028383394 -0.0011076942 -0.00321368 0.0031694975 0.0031264494 0.0036738166 -0.00055551645 -0.0038462707 0.001811348 -0.003465701 0.0013494091 -0.0015352718 -0.0018468032 0.0038290208 -0.0012917224 0.0034662944 -4.021453e-05 -0.00068498275 0.0018464534 -0.0018298785 0.0005616968 0.0027273886 0.0006063931 0.0038931088 -0.00065580447 0.0006141733 0.002352574 -0.0009789353 0.001391114 0.0028290753 0.0002255591 0.001904024 -0.00066228595 -0.0034006336 -0.0006605151 -0.0013188865 -0.0012520927 -0.0037283166 0.0025437453 -0.0011679 -0.002703033 -0.00012713387 0.00011133885 0.0030567076 -0.0027043994 0.0023921465 -0.0011858225 -0.0019895146
18 -0.001831374 -0.0034129145 0.0017860382 0.003413265 0.0022154772 0.00023755059 -0.002988352 -0.0019448171 -0.0015441213 -0.0005225764 -0.0012696191 -0.0008571682 0.0012058184 -2.9754305e-05 -5.037524e-06 -2.803047e-05 -0.0035874993 0.0029254663 -0.0014633442 0.002302495 0.00018289161 0.0022845971 -0.0013609767 -0.0004643095 0.00046814868 0.0036341012 0.002605719 0.0028977257 0.0027751662 0.0025498718 0.0036074037 -0.0015811239 0.00053311273 0.0033092026 -0.0038282434 0.0005157042 -0.0037388885 -0.0020244739 -0.0006011502 -0.002410245 0.0024885265 0.0018424543 0.0009102466 0.0016048927 -0.0024334115 -0.0023484444 -0.003506254 0.0026546235 0.0011829654 0.002775024 -0.0029435363 -0.00047295817 -0.0012825122 0.0024816312 -0.0037745226 -0.0021371436 -0.0019239017 -0.0011120087 0.0032742785 -0.00016346597 0.00054544024 -0.0036594283 -0.0019250375 -0.0013294994 -0.0011825177 0.00037133737 -0.0019540607 -0.0008507826 0.001462547 0.0006527464 -0.002224061 9.4210576e-05 0.001452343 0.00080996944 -0.0028054733 0.0038263458 -0.00046349398 0.0027875656 0.0038517506 -0.0017017348 -0.0008379764 0.0020868173 0.0014508065 0.0032169463 -0.0034527746 0.0006503298 -0.0035106835 0.00050924293 0.002362451 0.00087360456 -0.0034802759 -0.0019510632 -0.00039698675 -0.0016899649 0.0011324212 -0.0016050955 0.002662101 0.0021512005 0.0034828626 -0.0020926965 0.0003607157 0.00039713422 -0.0023848738 0.0015211989 0.0032254518 -0.0022798395 -0.0013925973 0.0013294966 -0.0012985306 0.0021572898 0.0032130806 0.0029565392 0.0029898572 0.003678536 0.0018795374 0.001820825 -0.0021121805 -0.0004223461 0.0028754177 -0.0007474197 2.8247512e-05 -0.003660092 0.00080868736 0.0019506719 0.0025475791 0.0010040336 0.0018705163 -0.003437794
22 -0.0021508364 0.0038761056 -0.00015763911 0.0031877854 0.0014467792 -0.002533641 0.0014095278 -0.0022580037 -0.0017488411 -0.0030528675 0.0036215372 0.000752851 0.0024332486 0.0019209766 0.0035818582 -0.0004428815 -0.00050141703 0.003392513 0.0004716185 0.0019603877 -0.0008535537 -0.002884397 0.0033288563 0.00022847657 -0.0031095967 0.002160832 -0.0011148585 -0.0010124582 -0.0013082095 0.0030542386 2.4888983e-05 0.0016933875 0.0017134333 -0.0007590966 -0.0037426795 -0.0024291242 -0.0023454565 0.002413573 0.0009045263 -0.0028503814 0.0010227268 0.0010844633 -0.0016761513 -0.003241976 -0.0022922659 0.0012588324 -0.0038151175 0.0036545868 0.0037906885 0.0010234836 0.0012820283 -0.00051062123 0.0036740568 0.0021840846 0.0018515657 -0.0012511581 0.00079765596 -0.0013959147 -2.2472275e-05 6.770978e-05 -0.0029440473 -0.0027498666 -0.003244747 -0.0013433734 0.003227014 0.002200841 -0.0007144531 -0.0011504655 -0.0007841031 -0.0014190548 -0.00038816434 -0.0007377019 -0.00023160114 0.0027355228 0.0038161736 -5.561024e-06 -0.0035239763 0.00025232267 -0.00091190904 0.0008269559 -0.0007550591 2.0921361e-05 -0.003780483 0.0036099134 -0.0010271518 0.0032544204 0.0019589004 -0.001945553 -0.0036471516 0.0033823093 -0.0015550496 0.002062549 0.0018935676 0.003380556 -0.00013294272 0.0011383125 -0.0035153183 0.0009125378 5.3186468e-05 -0.0033316105 -0.0034186146 0.002320737 -0.00052792346 0.0028494813 -0.0010737225 6.447621e-05 -0.00077434664 -0.0029515137 0.0022864672 0.0022815485 0.0028270388 -0.0028605764 0.0037866123 -0.0021538544 -0.0016917343 0.0031797108 0.0006811146 0.0023006282 0.00031150004 0.0034200894 -0.0006106732 0.0010411295 -0.00043432004 -6.144565e-06 0.0009775391 0.001271048 -0.0015898652 0.0035261854
768 0.0017514891 -0.00038740525 -0.0010285873 -0.0018788676 0.00334496 -0.0033395742 -0.0012170477 -0.0005084895 -0.002252884 -0.0035942362 0.00012752239 0.0030017998 -0.0014148998 -0.0002477417 0.0007682438 0.0036342368 -0.0016179222 -0.0022056869 -0.0006273296 -0.002024281 0.00023473547 0.0013847189 0.000295129 0.0032587126 -0.0027459688 -0.002027085 0.00097380683 0.0003501902 -0.0011708658 0.001029218 -0.0009190384 -0.0008332643 0.00022459979 -0.0029767193 0.0025438701 -0.0014287167 0.0037169107 -0.002923682 -0.00026993005 -0.002722777 -0.00086287194 0.00027174884 0.00076087064 0.003770217 -0.002318786 -0.0022761836 -0.0037932638 0.0015767806 -0.0028192205 -0.0027111482 0.0036920444 -0.003223238 -0.0031016865 -8.5660904e-05 0.00038729946 -0.0014473019 -0.0002556826 0.0023206947 0.00305536 9.6728196e-05 -0.002349113 -0.0014565388 -0.0023046664 -0.00046770612 -0.001930357 -0.0032499686 -0.0010855267 -0.0011325869 -0.003586818 -0.002036783 -0.0005858748 -0.0036130936 -0.0021741977 0.000980445 0.0032385197 0.00045497247 0.0029230227 -0.00024278421 0.0034377573 -0.0026671533 0.00066937576 0.003453666 -0.003388614 -0.0019502594 0.0028028344 -0.0030010066 4.065633e-06 -0.003136177 -0.0017322967 0.0032801735 -0.0033463803 0.0012771771 -6.954899e-05 -0.0034302876 0.0016460962 -0.0011246003 0.0013779128 -0.00012639005 0.0032781803 -0.001481554 0.0036280619 0.0010829848 0.0019384532 -0.00050199556 0.0015109814 0.00088490546 -2.8160941e-05 0.002223036 -0.001561217 0.0027766898 -0.0023852584 -0.003701999 0.003240998 -0.0017455881 -0.003112573 0.0036374775 -0.0011532673 0.003375104 0.0022907972 -0.003305477 -0.00022792339 0.0020869107 -0.0017192961 -0.0022472236 -0.0005436703 0.0011442445 -0.0025924975 0.00053735165
23 0.0034507196 0.0033411053 -0.0007932985 -0.0031351133 0.0013271546 0.0034215786 -0.0011351672 -0.002639928 -0.003067751 -0.0028358158 -0.0020648004 -0.0035532536 0.0023629174 -0.0009027024 -0.0035456687 0.003116491 0.0010008292 -0.0010334098 -0.0034379675 -7.6221055e-05 -0.00088254747 0.0004945388 -0.0015259811 0.0030446385 0.0027571947 0.0010566162 -0.0022084094 0.000648853 0.00019801529 -0.0020047077 -0.00023950663 -0.0019192243 -0.0014409872 -0.0004815371 0.0035673222 0.002141452 0.0009420209 -0.003245676 -0.0019461146 -0.0015798158 -0.0016073524 -0.0020324984 -0.0006613372 0.0032452415 -0.0030865395 0.0019105024 0.0019078637 -0.00033079885 -0.0033304873 0.0033150953 -0.002304011 -0.00042638264 0.000739516 -0.0015053749 -0.00060614344 -0.00020781999 0.0006540631 0.0038179306 -0.0036036118 -0.00063939544 0.0027257912 -0.0011250628 -0.002151856 0.00240112 0.002200211 -0.0014434023 -0.0007546091 0.0018418347 0.0019494717 -0.00026673448 -0.0027635791 -0.0019444803 0.002651443 0.003753229 0.001965488 0.00059543387 -0.0019181528 0.0036525463 0.002530579 0.0038184952 0.0014046411 -0.0011684682 0.001909355 -5.8589703e-05 -0.003142354 -0.0019420842 4.419843e-05 0.0006198632 -0.003732387 0.0015202552 0.0019349512 0.001096065 0.00078408653 0.0028993443 0.0006885248 0.0003528341 -0.0013551102 0.0037693884 -0.0038058914 0.00051938504 0.002799091 -0.0031980383 -0.0022094026 -0.0033911685 0.00081080484 0.0009635913 -0.001708787 0.0030695444 -0.0030664233 0.0014613415 0.00072587247 0.00013614265 0.0030735144 -0.0023596415 0.0019632496 0.0005391677 -0.00053126685 -0.002741685 0.0030792449 -0.0004951315 0.0036241382 -0.0015844599 0.0016282371 0.002266168 0.0021135767 0.0036424363 -0.00031801543 -0.0013889881
2 -0.0027017775 0.0022376108 -0.0018763611 -0.0009465536 -0.0010781664 -0.0026976697 0.0020312043 0.0019768113 0.0013679514 -0.003730165 -0.001080946 0.0038469748 0.0026871124 -0.0033848877 0.00125604 -0.0010924498 -0.0009967327 0.002132064 -0.003165557 0.003838301 -0.0032328118 0.00164068 0.0022967136 0.0023206966 0.0027569437 0.000783439 -0.0024243412 -0.0013821054 0.001185087 -0.001718629 -0.0021407173 -0.0020932055 0.0032984451 -0.0022460886 -0.0027738856 -0.0031974704 0.0034497466 -0.0012385118 0.0011257782 -0.001790887 0.0025304034 0.0036649706 0.002564035 0.0029791757 -0.0005767164 0.0017027133 0.0021822988 0.0002290379 0.0018275606 0.0038876208 0.0014778808 -0.0008581949 0.0011367989 0.0030895893 0.0015526025 -0.0009043401 0.0010926523 -0.003017683 -0.0023278517 0.0023072786 0.0015270265 -0.00054900534 0.0007839754 -0.0032113884 0.002441127 2.04937e-05 0.0031857714 0.0027276697 0.002461933 -0.0023858133 0.0028243563 -0.003264481 0.0033242046 0.002365961 0.00028693245 -0.003035035 -0.0019140511 -0.0019378996 -0.0011348991 -0.0021224024 -0.001617709 -0.0007762021 7.7630255e-05 0.0005751254 -0.0020258357 -0.003604584 0.0019672166 -0.0017318296 0.00016475371 -0.0025924377 -0.0036632475 0.0035840827 -0.0017061598 -0.00040041035 0.0009776416 0.0023009437 -0.0035907377 0.0013415595 -0.00018373482 0.0026362464 -0.0003681789 0.0018832481 -0.0033138616 0.0017189137 0.00030504953 0.0024807432 0.0033613103 -0.00014298102 -0.0015100689 0.0006222849 -0.00068770297 0.0009520376 -0.0030089777 -0.0019213223 -0.00016380455 0.002037936 0.0026989519 0.00042271867 -0.0016511958 -0.003202393 0.00089637015 0.0020746307 -0.00050129584 0.0038147608 -4.8744998e-05 0.0008213655 -0.000841585 -0.0028194746
27 0.003884708 0.0015431393 -0.0013950418 -0.0020132745 0.0024373296 0.0038346006 -0.0018390283 -0.0018520913 -0.0007056715 -0.001046167 -0.003156371 0.0019117651 -0.003163294 -0.000443242 -0.0001846487 0.0027343633 -0.0021331212 -0.003361848 0.0010176103 0.00044033694 0.00075798936 0.0024461276 0.0012954551 0.0020436356 0.0022603495 -0.0031811763 -0.0028261964 -0.0012179129 0.0011954624 0.00039336167 -0.0017973171 -0.0033238966 -0.00039796275 0.0023381987 6.539313e-05 -0.0014010088 -0.0037978962 0.0022165899 0.0027445161 -0.002470697 0.0009825206 -0.0036628803 0.0016083141 0.0006059864 0.0028892697 0.00036756476 0.0030463063 -0.0004566451 0.0016330178 0.0009903391 -0.0014253819 0.001400346 0.0027060872 0.0028711155 -0.0035883212 0.003792738 0.0014526774 -0.0037420471 -0.003870002 0.0007814729 -0.00093538506 0.0015837399 -0.0005462015 -0.00026421173 0.0022573213 0.0018223145 -0.002869858 -0.003054208 -0.003201075 -0.0018923412 -0.0032908258 0.0030467426 -0.0029839543 -0.0023806412 -0.0022427016 -0.0015098649 0.0008268995 0.002646873 -0.0009838061 0.0029015946 -5.8831338e-05 0.0008851174 -0.0025811547 0.0002541248 -0.0022925988 -0.002096807 -0.0038335663 0.0038750737 0.0016706234 -0.0020732728 0.00095330883 0.00026694595 -0.0030288107 0.0021387471 0.0005740336 0.0032555182 0.0032094542 -0.0009854538 0.002085957 0.0023475063 0.003189456 0.00046820103 -0.00239362 0.0010057912 -0.00013656134 -0.0022336731 0.0013802386 -0.00073406886 0.0005639916 -0.00176587 -0.0009785744 -0.00257474 0.0031643915 5.8774353e-05 0.0019584775 -0.0036948896 0.0005088454 0.0004599152 -0.0023023002 0.0015906089 -0.0026905432 0.0024387166 -0.0003480886 0.0016481078 0.00022988113 -0.0030136257 -0.0011909689 0.002713491
619 -0.0023310117 0.002014916 0.00082219456 0.0025399504 0.0022018224 -0.0007267325 0.00088491105 -0.0014690068 0.0007210136 -0.0022113363 0.00083883107 0.0005212192 0.0031674888 0.0023203036 -0.002264277 0.0023358853 0.003700082 -0.0022568298 -0.00176684 -0.00018652568 0.0007283921 -0.0010986073 -0.00059756375 -0.00039473758 -0.002331684 8.380464e-05 -0.00039612188 -0.00035403194 -0.0027738714 0.0037670867 0.0022343155 0.00178708 0.0010840751 -0.003076192 -0.001888447 0.0013035528 -0.002224958 -0.001829053 0.0023083177 0.00085273525 -0.0019095247 -0.00095990545 -0.002963845 -0.0010885084 -0.00036319924 -0.0024377531 -0.0022035725 0.0012953578 -0.0025749388 0.0011819118 -0.0026405696 -0.00064894673 0.0027923782 -0.0031017738 0.0011109989 0.0025573622 -0.00040389318 0.0013101851 0.0017964538 0.0017660899 -0.0024210666 0.0015193676 -0.003180969 -0.0027703412 -0.0022136176 0.003505973 -0.00061838725 -0.0027640867 -0.003868745 -0.002594425 -0.00040640583 -0.0034842645 0.0018354837 -0.0004299718 -0.0025039548 0.0025098165 0.0015200329 -0.0007619408 -0.000522177 -0.0034567467 0.00019255043 -0.0016139549 0.0025422056 0.00070680096 0.0037973234 0.0028257915 0.00014796155 0.0028164973 0.0034695733 -0.0038607973 -0.00095890573 -0.0019402652 0.0018825451 0.0014406517 -0.00232471 0.00014314962 -0.0013754047 0.0020289978 0.0016132783 -3.9738727e-05 -0.0008624823 0.0016504786 -0.0027328108 0.0015801521 0.0016220282 0.0014015515 -0.0005420968 -0.0023198156 0.0033682613 0.0028277996 0.000598177 -0.0029072755 0.0019045261 -0.0018402581 0.0010030419 0.0010369275 -0.0027111776 -0.0032175097 0.0022385665 0.0021113993 0.0020093522 -0.0031921417 0.002512515 -0.0036839242 0.003724045 0.00040646354 0.001799375 -0.00076699484
860 -0.002785273 -0.003332061 0.0019830058 -0.0030694508 -0.0008899941 -0.0032131465 -0.0017587716 0.00020327262 0.003021311 0.003615421 0.0032438736 0.0021478985 0.00041490374 -0.0037970608 -0.00020388878 -0.0031327528 -0.0031810862 -0.0033046731 0.0036584765 0.0029739765 0.00038455715 -0.0010366736 0.0004099092 -9.024168e-05 -0.0036599392 0.0033652144 -0.003165001 -0.0018678696 -0.0032472766 -0.0013199148 0.003212205 -0.0018641038 -0.0023174158 0.0020725115 -0.00052974204 6.717172e-05 -0.0038228934 -0.00068444444 -0.0029461007 -0.002286252 0.0020114526 0.0024522748 -0.0022411703 -0.001240334 0.00039460108 0.00037759208 -0.0032414738 -0.00031941867 0.0008285552 0.0030896063 0.0025170122 -0.0011709777 0.0028469835 0.0037814665 -0.0016221734 0.0020507302 -0.0030608864 0.00028995908 -0.0015530293 -0.0034323856 0.001885354 0.0014427141 -0.00034916803 0.0007398005 0.0031365836 -0.0018287968 -0.002908764 -0.002094914 -0.0021205696 0.0017903139 0.0023029752 -0.0015737825 -0.00078730844 -0.0006072132 -0.0005907906 -0.00012919282 -0.0033693116 0.002068551 0.0006024288 0.0008669125 -0.0010962074 -0.0004457643 0.0038913458 0.0033986715 -0.001095798 0.0023640357 -0.0020266937 0.0021245996 0.0021720654 0.002857107 -0.0027969007 0.000733915 -0.0029949066 -1.2672597e-05 -0.002466981 -0.0021250255 -0.0019163799 -0.0014557237 -0.0028991236 -0.0024841994 -0.00087116985 -0.00028321578 -0.0034343393 -0.0017593484 -0.0010778646 -0.00335887 0.0023735166 0.0013194676 0.0005227718 -0.00273746 -0.0017077575 0.00014547954 0.0022571038 0.0013122906 0.003123334 0.0032771977 -0.0005183329 -0.0032379406 -0.0033673616 -0.001351482 0.00095130457 -0.0031672698 0.0020926273 -0.0022751829 -0.0022671504 -2.1059317e-05 0.0016015299 -6.4522996e-05
47 0.0036015885 0.003768292 0.0021008458 -0.0030684657 8.004491e-05 0.0005570547 -0.003096258 -0.0033657732 0.0021128862 -0.0013499816 -0.0013706728 -0.0015159931 0.0037841378 0.0002223238 0.0038895067 0.002990731 -0.00068527064 0.003867889 0.0005426941 0.002375438 -0.002099198 -0.00094945694 0.0023235509 -0.003711166 -0.000343551 0.00321616 0.0033455493 -0.0029797603 0.0032204913 -0.0019975759 -9.7027405e-05 0.0035819097 0.0024139616 -0.0018265061 0.0035753597 -0.00015667827 0.0036060698 0.0013332131 0.0024621938 0.0037003902 0.00071074686 -0.0031793297 -0.0016944602 0.00067034 -0.00023279492 -0.001988151 0.001587655 0.0014194575 -0.00015285902 -0.0010376062 0.0034023745 0.0036244337 0.0001439352 0.0026919816 -0.0038498943 0.0008742454 0.0004876454 -0.0018855638 -0.0036517447 0.0022926491 -0.0011822232 -0.0013884935 0.0012663973 0.0025693912 0.0022670007 -0.0015577235 -0.00269564 0.0033794588 0.0032430731 0.0015140444 0.00032356704 0.0024142396 0.002034136 0.0005070174 -0.0025143016 0.0010436287 -2.1651217e-06 -0.0018925918 0.002588141 0.0010971904 -0.001939505 0.0031159816 0.0026726064 -0.0036947553 0.00025976583 0.0027264254 -0.00017980346 -0.003215031 0.00084372517 -0.0001748204 -0.0014410967 -0.0027733603 0.0011023112 6.8253605e-05 0.0038814158 0.00012239044 0.0003509953 -0.00078787154 -0.0016835948 0.0013695891 -0.00087602594 -0.0028654297 -0.0017065845 -0.0038399699 0.0023232885 0.00078633643 -0.0010642709 -0.0028812622 0.0036781938 -0.0017343771 -0.0006731119 -0.0006887817 -0.0011498051 0.0021732259 -0.0014856058 0.0017191805 0.0036775814 -0.003324853 0.003863825 0.00073816755 0.000819274 -0.00082431996 0.0010713558 -9.777373e-05 6.467618e-05 0.003878305 -0.00037476115 0.00051054097
122 0.003789846 -0.0022556125 -0.0031326963 -0.0005484206 -0.0011639195 -0.00035762225 0.0030451054 -0.0037654487 -0.0028485523 0.0031812137 -0.0034637502 0.0037067458 -0.002132688 0.0017977961 -0.003755124 -0.0026538 0.0015265842 0.0033034044 0.0012109622 0.00066573854 -0.0011684546 0.0037109982 -0.000928738 -0.00016986055 0.0038712493 -0.00046903573 -0.0008057611 0.00015273715 0.0027676914 -0.0036651576 -0.0021133758 -0.0031360942 -0.0011745861 -0.003649352 0.0011620811 0.0011322884 -0.0021674843 -0.00066096016 -0.0036285631 0.0008462331 -0.0019555192 0.0035716845 0.002168715 -0.0026564281 2.422699e-05 -0.0035775509 -0.0030551818 0.001867616 -0.0010426646 0.003712288 0.0032777365 0.00062948745 -0.0033484586 -0.0004333081 0.0005606556 -0.0010582645 0.002505738 -0.00188058 0.0027599875 -0.0030292564 -0.0014407235 0.0020474237 -0.0010267642 -0.0020692484 -0.0033693083 -0.003198089 0.0025182168 -0.0027491003 -0.0011891716 -0.0037305309 -0.0005103981 0.0025695902 0.0013180407 0.00084038224 -0.0010960454 0.0024768296 -0.0017958264 0.0027783609 0.0036693031 0.002801004 -0.0019633744 -0.002191163 0.0017706071 0.0017395242 0.0005347013 0.00067360885 0.0011309652 -0.002754716 0.0019536656 0.0035135667 0.0010394977 -0.0011469263 0.0038396395 -0.0014039422 -0.0021759507 -0.0017298333 -0.00012856767 -0.0034521867 -0.0015669956 -0.0015153394 -0.0012062836 0.002357502 0.0012160913 -0.0017556554 0.0006850611 0.0034179017 0.00071555906 -0.0036187149 0.0016240734 -0.0020259211 0.0029062524 0.002432213 -0.0036962046 -0.002114536 0.0012261464 0.0034067524 -0.002828519 -0.00234292 0.0012200933 -0.002448596 0.0012775733 0.0015817523 -0.0038115617 0.0031281158 0.0028661818 0.0028267263 0.001604918 -0.0023166584
112 -0.00021112556 -0.0014609626 0.0013063923 0.0014081603 0.0027266655 -0.0028396011 -0.0031672106 0.003667545 0.002204176 0.0038783909 0.0022670773 -0.0021201747 -0.0010426618 -0.0020882736 0.001417129 0.0013057061 0.0016806093 -0.0006468687 0.0034556487 0.00023057524 -0.0003268456 0.0015529594 0.0028277822 -0.003638472 0.0005263349 0.001787453 -0.0030063852 -0.0031831726 0.0018160498 -0.00074111787 -0.00033508195 -0.0018013811 -0.0023357514 0.0033903057 -0.00034172877 -7.586966e-05 -0.0026020105 0.0010502905 -0.00082314725 -0.0026553757 -0.00043136775 0.00027462246 -0.0023438458 -0.001668552 -0.0012317903 -0.0024189397 -0.0038477248 -0.0013860717 0.0037717633 -0.0017852306 -0.0005271634 0.0026167743 0.001954789 0.0032265203 0.0016093184 0.00028076864 -0.00048205612 0.0009074103 0.002664477 0.0007116276 -0.0017375856 0.0015403006 0.0036618952 0.0026572896 0.0026478686 0.0034343642 0.0036796671 0.0026072455 -0.0017326176 -0.0035611142 0.00337246 -0.002961245 -0.0037703575 -0.0026861695 0.0036971516 0.0035584897 -0.0038169904 -0.00056585885 0.0030830677 -0.002098275 -0.0007707369 0.002548538 -0.0029265564 -0.003645974 0.0024625415 0.0027628643 -0.0015772862 0.0023547092 6.218974e-05 0.0013964293 -0.0035662574 1.5715728e-05 -0.0009582649 0.00018755243 0.0035511823 -0.0034776507 -0.0031451916 0.0015636203 0.0035481318 0.0016609059 0.0030017395 0.0011389353 0.0030476935 -0.0031083154 0.002795469 -5.5070122e-05 0.0023669198 -0.00095757656 -0.0006290184 0.0032197507 -0.0022992138 0.0036648337 -0.0025135442 0.0011272585 -0.0033446865 -0.0023314864 0.00013858231 0.0024920076 -0.0028267922 0.0027582664 -0.0009821111 0.003586101 -0.0024031326 0.0008288473 0.0018462349 -0.0008400801 -0.0008340894 0.00024408358
26 0.0029966095 0.001734317 0.00059189927 -0.002662199 0.0025387122 0.0010057818 -0.0036405409 -0.0019451337 -0.0010821614 -0.0020444319 0.001103954 -0.0017839873 0.0015684766 -0.00089802465 -0.002342059 0.0032963601 0.0037828707 -0.0030140653 -0.001289223 -0.0019669842 -0.001753807 -0.0039033594 0.00029411272 -0.0034020084 0.00026048033 -0.0019379717 0.003381143 0.00072832394 -0.0020956958 0.00097376463 -0.001913795 0.003032536 0.002776293 0.0030503385 0.0031720446 0.0016876289 -0.0008372054 0.0005574175 -0.0024937578 0.0014562948 0.0013305532 0.0021894576 0.0038757008 0.00026357413 -0.00016499685 -0.001951895 0.003400383 5.4362732e-05 -0.0013272641 -0.0014044931 -0.001597741 -0.003021644 -0.00061618374 -0.0026568533 0.0014306667 0.0011057376 -0.0029915164 -0.003751 0.0014975969 0.0019134566 0.0011434628 0.002911709 0.0008884107 0.0005463591 0.0030676688 -0.003843856 -0.00021738597 0.0009016502 0.0016567748 -0.002961369 -0.00056515564 -0.0036868388 -0.00021374543 0.0010147413 -0.0036583384 -0.001128472 0.0036798292 0.0015441403 0.002805847 -0.003290614 0.0029860302 0.001416055 -0.0008729691 6.7501445e-05 0.001244841 0.0034312708 -0.0027521064 -0.003023892 -0.0008160508 -0.00059751136 0.0009066178 -0.0033053393 0.0019893085 0.00072177843 0.00096890534 0.00090135523 -0.0014829689 0.0030695528 -0.0024164321 0.0010530562 -0.002164371 0.0024158196 0.0008369359 0.0025209738 -0.0034218878 0.0025472029 0.0025498054 8.485507e-06 -0.0037931334 -0.0036117078 0.00023782667 -0.00064342294 -0.00056244637 -0.0013108349 0.0029787773 -0.002382284 -0.0036887217 0.0022179792 -0.00059765606 -0.002419819 0.0020668753 -0.0017715576 0.0028196545 -0.00042436086 0.0033303758 0.0007359887 -0.0032607496 -0.00071816327
491 -0.0021212595 -0.0030506083 0.0023821814 0.001562401 0.0031511413 -0.0028805546 -0.0034679384 0.0018413096 0.0028737322 0.0009408149 0.0029310582 0.0021688878 0.0038339468 -0.0012944619 -0.0010164131 0.0008025388 0.001853996 0.0029880386 0.0006813078 0.0012315138 0.000932727 0.0019248737 0.00036981175 0.0019214652 -0.0007387701 0.0014430523 0.0020802824 0.0010486252 -0.001977466 0.0024700894 -0.0027158903 -0.0009057512 -0.0013922178 0.0018386327 0.00023326791 0.0012928486 -0.0027475462 0.0030329814 -0.0021358954 0.0007193062 -0.0007490274 -0.00072527904 0.0010366127 -0.0013011734 -0.002062198 -4.886332e-05 -0.0037923164 -1.2424427e-05 -0.0036595752 0.0033204162 -0.0029593464 -0.0008802062 0.0035146682 0.00038269532 -0.0034606596 0.00055782584 -0.0035958297 0.0010396835 0.003763987 -0.001332875 0.0034710877 0.0025020319 -0.00090902817 0.0024448317 -0.0014917699 0.0009076918 0.0021244527 -0.0016566736 0.0007705886 0.0038950662 0.0027440141 0.0010616526 0.003106192 0.00031295556 -0.00053660036 -0.00086111884 -0.0028029513 -0.0019174294 -0.0034442174 -0.0038525087 0.00076949975 -0.0019339868 0.0036384487 -0.0009962333 0.0014664885 -0.003218128 -0.001081478 -0.001475939 -0.0036312067 0.0006610942 -0.0031815951 0.0028943482 0.0024065024 0.0008755102 -0.000935535 -0.0010590976 -0.0014716276 -0.0032820553 -0.00033053543 -0.0037098518 0.0012310728 -0.003319364 -0.00095208106 0.0019564151 0.0030843401 0.0021096796 0.0034452477 0.0004982543 -0.0038886624 -0.0025465016 -0.0032937694 -0.00083056797 0.0028601228 0.0008059829 0.0035062227 -0.00016412356 0.0027874438 0.0038846445 0.00018623246 0.0038303344 -0.00067238073 0.0018321839 -0.0031849886 0.0025250453 0.0022108576 -0.0011732924 -0.00030191086 -0.001055803
296 0.0011160378 0.0007204566 0.0016498775 -0.0022973076 0.0010991486 0.00025065916 -0.0007286382 -0.0024064481 -0.00063966285 -0.0021147493 -0.0038571528 0.0019482734 -0.00075663987 -0.0027412628 0.0025219906 -0.0025665816 0.0018022631 -0.0022098336 -0.0032826867 0.0015689583 -0.0020669114 -0.0028158012 -0.003885283 0.002481925 -0.000701248 0.0012747559 -0.0005947729 0.0020866857 0.0033748897 0.0027478237 -0.0029429814 -0.0016052008 -0.0031793222 -0.003467469 -0.0029499938 -0.0013433497 -0.0013212909 -0.0023325693 0.0037769638 0.0030705556 0.00057126145 0.003547153 0.0020764363 -0.00045967018 -0.0007203047 -0.0017428534 0.0035077678 -0.0017494806 0.0005424774 0.0005980416 -0.0033426543 -0.0014819771 -0.002568626 0.0033021888 0.0029269606 -0.0031347342 -0.002400475 0.00041625978 -0.0027717666 -0.0010283041 0.0024145602 -0.0034293504 0.0010942144 0.00045298072 -0.0017671132 -0.0029630356 -0.0016378246 0.0023161091 0.0015765531 -0.002348546 -0.001343214 -0.003626844 -0.0004647955 -0.0033422261 0.0024473448 -0.00080228766 -0.00069477333 -0.00038785007 -0.0017351083 0.0011668104 -0.0014431357 0.0013605013 0.0038066576 -0.0036474373 -0.001199395 0.00031242502 -0.00041168937 -0.0005150507 -0.0010926556 -0.0019696136 0.001278222 -0.0012518647 -0.001364836 0.0034591195 0.0022889911 -0.00208011 0.0018272189 0.0011798869 -0.000587087 -0.0025832497 -0.0017656414 0.00024135072 -0.0012103106 0.0022222963 0.0010109819 -0.0007957476 -0.003195496 0.0015471715 0.0030069074 0.0029342344 0.002670559 -0.0024690279 -0.0010364883 0.0017390999 -0.0037652021 0.0012053935 0.001188992 0.003554487 0.0021928316 -0.002146173 -0.00091305765 -0.002027542 -0.0020108141 -0.0010193564 0.0036869678 -0.00052867323 0.0033766492 0.00052892964
352 0.0016249612 0.0033516474 0.00046081704 0.00010215627 0.0020792284 0.0025057292 -0.0028833628 -0.0002291846 -0.0036938577 0.0009627904 -0.0030303188 -0.003073177 -0.0027807679 -0.0013827708 0.003521422 0.0026783817 0.0034550165 -0.0008337274 -0.0034112318 -0.0011485881 -0.0018534487 -0.0011599904 0.0025936898 -0.0025831638 -0.0015213963 0.00036798086 -0.0033621585 0.0033643844 -0.0014603924 -0.0035993308 0.003510444 0.0004101275 0.0025870996 0.00048597137 0.0034954576 -0.003427153 -0.003039582 0.00022467316 -0.0036383553 -0.0024142144 -0.0019296482 0.0037271308 0.003418158 -0.0029614165 -0.0034366965 -0.0031950315 -0.0006348924 0.0025463558 -0.0020657121 0.00078015367 -0.0011879546 0.0025672386 0.003488924 -0.00236555 -0.001338988 -0.00010763511 0.0007573865 -0.002634175 0.0009733239 -5.5845867e-05 -0.0015867263 0.00080677355 0.0021773211 -0.0008916601 -0.0037365681 -0.00018646383 -0.003799335 0.002901638 -0.0008625797 -0.002596071 -0.0011230322 -0.001604414 -0.0032263247 0.0030061048 0.0008860347 -0.000484748 -0.0033424052 0.0027988679 0.0006671057 0.0011564713 0.001804295 0.0011175603 7.009853e-06 0.0010633277 0.0016165469 0.003394546 0.0034662248 0.0017650791 -7.3241313e-06 0.0026783026 0.0010390597 0.0017154623 0.0030112474 0.0025866332 0.00023395018 -0.0013916336 -0.000603292 0.002676304 -0.0019082405 -0.0014526435 0.0018821349 -0.0030812835 -0.0004295978 -0.0016887767 -0.0005100938 0.0029648757 0.0038680097 -0.0012772167 -0.00074680755 -0.00010835252 -0.0012488178 2.0480434e-06 -0.0024456913 -0.0017938749 0.0036520374 0.0013099309 0.00025113128 -0.0005701197 0.0013877902 -0.002489438 0.0006098015 -0.0037715859 0.0024665904 -0.0006416074 -0.003376918 0.0027068101 -0.00037583345 -0.0038836
336 0.00085008395 0.0030607523 0.001100042 -0.0037715945 0.0010254954 0.0027274382 -0.0038209013 -0.0012183081 -0.002852876 -0.0028458922 -0.002568786 0.0034621123 -0.0037274142 -0.003898008 0.0015761955 -0.0022486292 0.00014120313 -0.0013405139 0.0006069242 0.00093429966 0.00023092583 0.0034123214 0.0034001577 0.0020907493 0.0037936538 -0.0034225087 0.00240259 0.0032888942 0.0024445374 0.001995802 -0.003869626 0.002159378 -7.217794e-05 -0.00083289057 -0.0015053577 0.0036039955 0.0030963034 -0.0028259628 -0.001759474 0.00019695285 0.0027730074 -0.0009905257 -0.0026912338 -0.00017211668 0.0013443464 0.00023991993 0.0022974976 -0.0027881647 -0.0023981838 0.0024106225 -0.003568735 0.0030761436 -0.001973446 -0.002945529 0.0024286243 0.00374555 0.0004821908 -0.002355371 -0.002813462 0.003350136 0.002880072 0.002746618 0.0015238677 -0.0035020388 0.0025085674 -0.0012832638 -3.5724726e-05 0.0011970232 0.0013474134 0.0038521527 0.0026601385 0.0016427304 0.002003155 -0.002933713 -0.00040780645 0.0022219152 -0.0004056446 0.00039476645 -0.0039003254 0.0033374315 0.00089833105 0.0038802566 0.00015971402 -0.0013933422 -0.0015448142 0.0034686245 0.0033093637 0.003865122 -0.0002340041 -0.0023575798 0.0033259392 -0.0033568246 0.0017220115 -0.00020059713 -0.0023470928 0.0033062655 0.0015819657 -0.0016544893 -0.0001833056 2.7176817e-05 0.002051765 0.0004118694 0.0014087198 -0.002940943 -0.00031271187 0.00019780375 0.002263271 -0.00029791106 -0.002111669 -0.00037362805 0.0038224056 -0.0016150428 0.0034212894 -0.0012972002 -0.0017713738 0.00045220106 0.0001710388 0.0020405727 -0.0023734693 0.0010721361 0.0033452602 0.00020485531 0.0020001573 -0.002974723 -0.00047030373 -0.00261519 -0.0034985098 0.0034100576
345 0.0013148305 -0.003266463 0.0027968143 0.0013332948 -0.001811633 -0.0012602495 -0.0015007056 0.0010250474 0.0034722108 0.002476738 -0.003594498 -0.00067383156 -0.0022268153 -0.0011248046 0.0010232426 0.0003470356 -0.0012415246 -0.0034619635 0.0033762613 -0.0034321125 0.0006053567 -0.002068964 0.0023045172 0.00094330066 0.0024716745 -0.001171837 0.0016540274 0.0027382683 0.0016244127 0.0017248963 -0.0027697638 0.0012503536 0.0036340428 0.00013927445 -0.0020602 0.003005154 0.0007675163 -0.003738871 -0.0012041637 0.0038773345 -0.00037864473 -0.0032786469 0.0022767638 -0.0016891786 0.0008755851 0.0020384737 -0.0005078236 0.0021806764 0.0026700161 0.0034111706 -7.2044884e-07 0.0038071105 0.0019074834 -0.0019387519 -0.0020523262 0.0025457859 0.0037331122 -0.0013693454 -0.0032395176 0.003329137 0.0019068117 0.0011149835 0.0034971677 -0.0011375988 -0.003749147 0.0020857553 -0.0012723387 -0.003444441 0.0033057858 -0.0035895815 -0.002355762 0.0022771566 0.0030134777 0.0013900575 -0.0024486303 -0.00042857387 -0.001998518 -0.0030258433 -0.0019271147 0.0007161195 0.0022868295 -0.00091685855 -0.0020740414 -0.0030952664 -0.0026386534 0.001390867 0.0012343207 -0.00090884086 -0.0017974068 0.002022124 0.002081082 0.0017207768 -0.00034500062 -0.002896654 0.00095014385 0.0005152091 0.0015645244 0.002957856 0.0020717818 0.0032168746 0.0020506892 -0.0008698733 0.00286806 0.0027440446 -0.0024976488 -0.002933679 -0.0037108401 0.0035174775 -0.0025194879 -0.0038076823 0.0016505244 0.002884757 -0.0036227216 0.0023004296 -0.00293933 0.0004129715 -0.0025739677 -0.001475952 -0.0012021875 0.0035304453 -0.0014738468 0.0033879038 0.00012948162 0.00030440727 -0.0032736114 -0.0032828518 0.00025047275 -0.0018114118
38 0.0023358122 0.000666881 0.0011047147 0.0029322908 -0.00017787478 0.00013771928 0.0022283853 -0.00020642523 0.002336199 0.0020068996 0.0027876778 0.0003234682 7.854083e-05 0.00013641875 -0.0010439629 -0.0011419774 0.0013155127 -0.003887594 0.0004476498 -0.002630419 -0.0013482264 0.0023784137 -0.00207129 -0.0026609092 -2.4070556e-05 -0.0020843423 0.0038609947 -0.0024509917 0.0027021158 -0.0020518613 0.00015813834 -0.0029474979 0.0033967625 0.0014610917 -0.0028899086 -0.0012779231 -0.001960301 -0.0015515096 0.0011751946 -0.002068677 -0.0034195 0.00030237067 0.001084666 -0.0031961878 -0.0019434857 -0.0025852 -0.00065116805 0.0031495735 -0.0037792018 -0.0011926108 0.0007789756 3.8854356e-05 -0.0021273368 0.00039594143 0.0036384927 -0.002684463 -0.0023462432 -0.0012563716 0.0009051219 -0.002817558 0.00086109684 0.0031268357 0.0014101575 -2.300639e-05 -0.0022202316 -0.0001990063 -0.001736549 -0.0026826467 0.0005664039 0.00240096 0.0014001625 5.9498536e-05 0.0018980937 0.0030952902 -0.0016546815 0.0021813335 -0.0008110733 -0.001925929 0.0025569308 -0.0024242855 0.0011849421 0.0012856657 0.0025960633 -0.0007719747 0.0006854936 0.002683632 -0.0011326364 0.00014714958 0.00035890262 0.0001278189 0.0032661045 3.285222e-06 0.0026634913 0.0032712007 0.00040675077 0.0035929095 0.0030361577 0.0011012125 -0.00014321748 -0.0038955698 0.0035134915 0.0003429342 0.0013234004 -0.0038441338 -0.0033733014 0.0020246434 -0.0033323027 -0.0005681037 -0.0019468403 -0.003686377 0.0037423929 0.0022874293 0.0005895206 0.0020483762 -0.0028556024 -0.001797018 -0.0008406302 -0.0011278102 -9.9201876e-05 -0.003645373 -0.00018559406 0.00037255092 -0.0031298916 -0.0017920594 0.0027887125 -0.0011849864 -0.0020632423 0.0001028281
270 -0.0027774025 0.0003784574 -0.00087986415 -0.0021872695 0.00050477305 0.0018600508 0.00042173272 -0.0023414094 -0.00021543945 0.0023130383 0.00020481073 -0.0007633833 0.00071075757 0.0015800804 0.0010640706 0.0038372332 -0.0024207658 0.0033433905 0.0009141305 0.0031145334 -0.002487443 0.001745484 -0.0020879307 0.002057371 0.0018010379 0.002506746 0.002802963 -0.001780265 -0.0024341505 0.0017478566 0.0019115008 -0.0004163211 -0.0015780885 -0.0022174953 -0.003409841 0.0011600747 0.001734961 -0.0034788384 -0.0036789414 0.0014788422 -0.0011579355 0.0022583115 0.0028668456 -0.00044817664 0.0030145543 -0.0026232367 0.0012437566 -0.0033808479 0.002669441 0.0014981602 -0.0019851127 8.1616665e-05 -0.0021658554 -0.0001724908 -0.0012271875 0.0018593657 0.003285636 -0.0024837456 -0.00086556346 0.0031934523 -0.0008979033 -0.0029362806 -0.0011626637 0.00302003 -0.00053563016 -0.0022633248 0.00032070727 -0.00344767 -0.0034070609 0.0007007547 -0.0032693124 -0.0015694078 0.002902563 -0.0019126714 0.003133448 -0.0038062113 0.0033047348 0.0011757948 0.0010183657 0.0032795523 -0.0036258616 0.002708257 -0.0008088507 0.0014880183 -0.0029905639 -0.0021109038 0.0026269888 0.003580955 0.0017316319 0.00074009615 -0.002140811 -0.0028616237 0.003221364 0.00025662786 -0.0005453092 -0.0033138318 -0.0019145192 -0.0014700912 0.00094247586 -0.002187454 0.0024485006 -0.003005293 0.0022505536 -0.0031004904 -0.0025510655 -5.9130107e-05 0.0002654808 -0.0031171693 0.0031827197 0.00042851834 -0.0021740254 0.0021425092 -0.0037918661 -0.0036412461 0.00021422247 -0.0013165375 0.003411449 3.08e-05 0.0002731839 0.0020169644 0.0026449063 0.0010587637 -0.00093940843 -0.0010489654 -0.0015783792 -0.003569479 0.0018163167 -0.0017314921
276 0.00014060538 0.0029028694 -0.0028951822 0.0020508864 -0.003470751 0.0033618747 -0.0007339283 0.0006677425 0.0016132441 -0.002726367 -0.0032861885 -4.342547e-05 0.0026702378 -0.0029388894 0.0013683478 -0.0015668609 0.001559486 0.0008727989 -0.0021974433 -0.0012248593 -0.0003910352 -4.3933596e-05 -0.001213683 -0.00019622943 -0.0032093746 0.0027989103 -3.7468522e-05 -0.00095059595 0.0008771313 0.00035364393 0.0017829719 -0.00045336556 0.00080885674 -0.00017560789 -0.0010460691 -0.0009858067 0.001509523 -0.00082119263 0.001297282 -0.0032283885 -0.0014721395 0.0014217149 0.00016740621 -0.00010323624 -5.222828e-05 0.003270158 -0.00017430732 -0.003416374 -0.0022651264 -0.0035618292 0.0010882507 -0.00083545235 0.0027817206 0.0018628138 -0.00051488524 0.0028941506 0.003564583 0.0033209075 0.00048104685 0.0031272501 -0.0038278836 -0.0030791615 -0.0037903925 -0.0012093736 -0.0031414393 -0.00033605672 0.0010120603 0.002732592 0.003368618 0.00024537233 0.00021004709 0.0016500094 0.003253 0.0020358765 -0.001916734 -7.736201e-06 -0.0012283012 0.0009883445 -0.00055828167 0.0021834294 0.0025494746 0.0020372313 0.0023996765 0.002709454 -0.0011989186 0.003256087 -0.0036428256 -0.0003410998 -0.0026604247 -0.0005418487 0.0020325691 0.0017711137 0.0007029249 0.0022982985 -0.0038471739 0.00013695082 0.0022992736 0.002832065 0.0031367645 -0.0017464659 -0.003572102 -0.0013944331 -0.0013000276 0.0025514727 -0.0036960125 0.0032347862 -0.0021903927 -0.0019767063 -0.0008748158 -0.003201851 -0.0037072345 0.0034992304 -0.0031539828 -0.002562764 -0.0005176927 -0.0030247902 0.0027368674 0.0014849205 -0.0029603818 -0.0007499028 -0.00012151944 -0.0013578514 0.0027614206 -0.0025450953 0.0025935948 -0.0031990525 -0.0028018432 -0.0010818145
679 0.0019989242 -0.0036909706 0.0034104558 0.0008182976 0.0007335794 -0.0018566742 -0.0010017285 0.00084047805 -0.0028111388 0.0015344049 -0.0021580965 0.0012358854 -0.0008424022 -0.0003595745 0.0021998968 0.00013819941 0.0036965152 0.0035511751 0.0021114338 0.003550771 0.0023567043 -0.00090324925 -0.00013165327 -0.0028060924 0.0029416012 0.0014365002 -0.0015063559 0.00012479896 -0.0012252838 0.00081095385 0.0020374642 0.0023910527 -0.0015515849 0.0010657449 -0.0028484578 0.002666169 -0.0023323563 -0.0028513274 -0.00291117 -0.0037084098 -0.0009360734 -0.002256996 0.00313255 0.0025463474 -0.0019792814 0.00031730335 -0.003271431 0.0030210903 0.0009581974 -9.4189054e-05 0.0006432782 0.0019997603 -0.0020784794 -0.00313453 -0.002044049 0.001711295 0.0007121885 -0.0035228396 -0.0035623387 -0.0015930156 0.0028274164 0.0027774035 -0.00019136621 0.0007831698 -0.00026608494 -0.001969099 0.0021957639 0.0038975729 0.0023015032 -0.0021630875 0.002726723 -0.0024216454 0.00239504 0.00221503 -0.0016741531 -0.00033580916 0.002791301 0.003410174 -0.00237753 -0.0012269194 -0.00042437413 -0.003640997 0.001194205 -0.0032770569 0.0026845795 -4.6382276e-05 0.0003424944 -0.0012529243 0.0033590747 -0.0029233568 -0.0013375204 -0.0033793724 0.0023670662 -0.0020131057 -0.002675312 0.00056768436 0.00034358446 -0.0021052859 -0.0014443516 -0.002162258 0.001265753 0.00040675007 -0.0010808962 -0.00016125888 -0.0026096962 0.00073809514 -0.0031451501 0.0009959256 -5.4724514e-05 -0.0036850697 0.0021527493 -0.00044043217 0.0011046438 0.0018867564 0.0019195913 -0.0036623136 0.0021737649 -0.002044437 -0.00035795552 -0.0022990496 0.002638569 0.0002665438 0.0009282918 -0.0014362474 0.0020773248 0.0006880335 0.002173904 -0.0033443333
61 0.0036869594 -0.0026343905 -0.0024265705 0.0013454799 -0.002031481 0.001245808 -0.0014516382 -0.0028416708 0.003148915 -0.0008800872 0.002252768 -0.0036504366 0.0031532762 -0.0014974583 0.00046946958 -0.00030334765 -0.002203728 0.0024308094 -0.0019268834 -0.003151253 0.00091425364 -0.0012028321 -0.000914334 -0.0019263958 -0.00073155283 0.0007508338 -0.0019818489 -0.0038060197 -0.003122686 -0.002265639 -0.0002702782 -0.0018452063 -0.0036933369 -0.0028040546 0.0024031901 0.002638541 -0.0033835487 -0.0011267453 -0.003380507 -0.0006241807 -0.0033062438 0.002065257 0.0023059193 -0.0020654511 0.0037829892 0.0015752406 -0.0035973843 -0.0008284268 0.002674327 -0.00011378464 -0.0035217637 0.0015586184 -0.002655782 0.0019368143 -0.0023891195 0.0033060072 0.00323291 0.0023282121 -0.0027845423 0.0016778536 0.0025607024 0.0029397735 -0.0027188247 0.0005642343 0.003351596 0.0014034772 -0.0027162263 0.0008622589 -0.0016298095 -0.00089250744 0.0037487743 0.0024454596 -0.0031358164 0.0017288032 -0.00074760994 -0.0025145782 0.0010734468 0.0004970134 0.00011681618 -0.0029868886 0.002919687 0.003144369 0.0030996406 -0.0037754313 -0.0006257261 0.002393363 -0.00029433487 -0.0028273433 -0.0033375253 0.00102009 -0.00057532423 -0.0026944065 0.0008840652 0.00084959413 -0.0017109155 -0.001960671 0.000570528 -0.0004841038 0.0032934833 -0.003612245 0.0035281524 0.0018368263 -0.0012897464 -0.0007850687 0.00021308757 -0.00080502377 0.0037765186 -0.0013780091 3.3573644e-05 0.0023776388 0.0018993475 0.0022129326 0.0023272631 -0.0016616202 0.00021150734 0.0017109206 0.002968199 0.0035417813 0.002949608 0.0003229642 0.0023692872 -0.0004950008 0.00015444907 -0.0035702975 0.0010431539 -0.00062454643 -0.003647616 -0.0018500057
120 -0.0016376069 -0.002845827 0.00086134253 0.0011261657 0.00020436817 0.0023325165 0.0030004024 -0.0036186748 0.0014175348 -0.001532769 -0.0004864741 0.0032851049 -0.0031308269 -0.00034879684 -0.0014743935 -0.003172667 0.0038878007 0.0029943583 0.0032156603 0.000351863 -0.0012134672 -0.0037808204 0.00062293414 -0.003414214 -0.0024999932 -0.0019654832 0.001771451 -0.0038635407 -0.0035788368 -0.0031546918 0.001945894 0.0016789858 0.0024386023 -0.0032397301 -0.0013461951 -0.0018060935 -0.00018569184 -0.0013640483 -0.0011115146 -0.0008454752 0.00023838623 -0.0010207302 -0.0007933711 0.00015873477 -0.0030534207 0.00023998691 -0.0027245588 -0.0023530375 -0.0024817633 -0.0031224703 0.0036408522 -0.00036413598 -5.68552e-05 -0.00011593871 0.0011058141 -0.0004981794 -0.00047072044 -0.0013254649 0.0023732092 -6.076014e-05 0.0038089 -0.0007168843 -0.0021136312 0.00042486997 0.001203601 -0.0030957956 0.0013588837 0.0028366903 -0.00041572526 -0.00036970183 1.1605213e-05 -0.000793715 -0.0028132636 -0.0033852549 0.002412963 0.0013161091 -0.0028026202 -0.0014466636 0.0032639923 0.0009871742 -0.0035366649 -0.00205393 0.0009192416 -0.00089454994 0.003105989 0.0007916942 0.0022459317 0.002248316 -0.0012862255 0.0002979585 0.0028187502 0.0021028388 0.00073029654 -0.0036098156 -0.002472072 0.0013686235 -0.0018252016 -0.0017856711 7.49511e-05 0.0012118492 -0.00024709487 -0.0013130617 -0.0022035614 -0.0014618343 0.0014745644 0.003314304 -0.0005954126 0.0030323823 0.0028941014 -0.0005273224 0.0015401558 -0.0031644918 -0.0022884714 -0.0017174445 0.00083160173 0.0031372595 -0.0017068385 0.0022792548 0.0029139263 0.001283266 0.0010947821 0.0002935985 0.0015101574 -0.0024805393 -0.003646555 0.0023401936 -0.00080270215 0.0026201187
46 -0.0029610393 0.001429876 0.0013851979 -0.0009068574 0.0038386523 -0.0016471863 -0.0015562125 -0.0026350908 0.0034182642 -0.003217815 -0.0022608591 0.00040992262 -0.0026968655 0.0009121552 0.002908402 0.0013209681 0.0027554787 -0.0011778062 -0.0038374919 -0.0024083215 -0.0017108514 0.00053469196 0.0021805451 -0.0037444802 0.00014486481 0.0004838246 -0.00093245134 -0.0030068478 0.0025816865 -0.0016246507 -0.0038424276 -0.00026766866 0.0020338953 -0.00054299616 0.00038251522 -0.001025617 0.00017135864 0.0006932306 9.357225e-06 -0.0002011966 -0.002839119 0.0013112118 0.0024257847 -0.0027855956 0.0018623781 0.0019880182 -0.0028192848 -0.0031145872 -0.0006770271 0.001772463 0.0034325605 -0.003468499 0.0015804614 0.0016511662 -0.0038064844 0.0032845577 -0.0037966238 -0.00061476685 -0.0031740677 -0.0037000128 -0.0029435356 -0.0006520397 -0.0028178082 -0.002214064 0.0016152445 -0.0011602093 -0.0038672257 -0.002811566 0.0035414388 0.0023707843 0.0020155676 -0.0020525497 0.0026819406 -0.0032753428 0.0027624597 -0.0013072264 0.00015689027 0.00019560145 0.00027324742 0.0011744988 0.0037588812 0.000527377 0.0018149884 -0.0027607433 -0.0024692374 -0.003788942 0.003633956 -0.0016619897 0.0021812622 0.0027914946 0.00074709614 -0.0026927195 0.0037111961 0.00028914685 0.000257503 -0.0008184563 0.0012334221 -0.0016373326 0.0031417897 0.0019954 0.0018741072 0.003673928 -0.0038686984 -0.0030007919 0.003122191 0.0011758915 0.0024402456 -0.0021104866 0.0013463495 0.0017548075 0.003474925 -0.0004086935 0.0008981912 8.221544e-06 0.0038569015 0.0031030069 0.0021246164 -0.002365975 -0.0024702286 0.0024473432 0.0030797631 -0.0023813425 0.0017872642 -0.0032173183 0.0036547168 -0.00022207931 0.00037626165 0.00029505015
54 0.0031790594 -0.0037569753 -0.0011969776 0.0008262328 0.00091081014 0.0035719152 -0.001236483 0.0011609938 0.00019793332 -0.0027754877 -0.0024612586 0.0010278522 0.0038062083 0.0029206167 0.0019243719 0.0034080525 0.003143497 -0.0037807445 0.0030002878 0.0030372224 0.0020380758 0.0013307317 0.0009840919 0.0016837652 0.0032792795 -0.003294112 -0.00070351735 -0.0005489969 0.00094730867 -0.0014501791 0.0027441548 -0.0035052309 -0.0037436127 -0.0024478503 -0.00065385277 -0.0005176865 -0.0004390125 0.002343226 0.000119243756 0.0002094836 -0.0034052804 0.003581054 -0.0038011943 -0.0013502341 0.0016266486 0.0025488413 0.0032110026 -0.0005368448 0.003200015 0.0014961865 -0.0019629956 0.0030713647 0.0032453786 0.0038175094 -0.0033291318 0.0018943363 0.0008579717 -0.00049229973 0.003410002 -0.0035819055 0.0018199515 0.0019882508 -0.0007670463 0.0012942409 -0.0011954644 -0.0034328788 0.002254225 0.0015103567 0.0028768838 -0.0010383717 0.0015044428 0.0016155066 0.0031478775 0.0034666734 0.003051072 0.0028164568 0.0003847472 -0.0001435314 -0.0029003075 0.0034043186 -0.00045850512 0.0014497278 -0.0037442374 0.0011917602 0.0012706358 -0.0014023508 0.00024718157 0.0027135515 -0.0011385932 -0.0022477633 -0.0010576306 0.0033697202 0.00035041443 -0.0002242624 -0.0006716079 -0.003485318 -0.0030079486 -0.0037896188 0.0008180108 -0.0005390261 0.0026130858 0.0037977842 -0.0024067953 -0.0038744872 0.0022266787 0.0026980354 -1.0573044e-05 -0.0011619885 -0.0028520671 -0.0033430667 -0.0018458879 -0.0002628449 0.0022297932 0.002741663 -0.00107303 0.003499581 -0.0032120463 -0.0019783129 -0.0012662433 0.0028042048 -0.0012736341 0.00096347724 -0.0027126754 0.0022257445 -0.0037451028 -0.0015312652 -0.0022290163 -0.0024861095
318 -0.0014208924 0.0031614865 0.0036165374 0.0029177824 0.0024415874 -0.0031940464 -0.0027773578 0.0015137702 -0.0032429276 -0.0026924415 0.0024821148 -0.0005789675 0.0037839396 -0.0032201915 -0.0016786514 0.0030491166 0.0019208725 -0.000717652 -0.0016011742 0.0034669961 0.00024055054 -0.0004959853 0.0002461467 0.002526347 0.003783831 -0.0033694562 -0.002304412 -0.0010674361 -0.0018826156 0.0012365468 -0.0012264954 0.0019647528 -0.0029201028 0.00036009547 -0.00025426428 0.00038858328 0.0018481638 -0.0036605923 0.00016777714 9.522296e-05 0.0034943894 0.0023492572 -0.0028371927 0.0012521669 0.00074890396 -0.0013103423 -0.0015257589 0.0038771785 -0.0025430971 -0.0024318858 5.9965896e-05 -0.0037981109 0.0021279552 0.0032559342 0.0011179677 0.00027339402 -0.00094952964 0.0022534437 0.0013427639 -0.0032020577 0.0013815609 -0.0022561087 0.0007540143 0.0022046107 0.0011842828 -0.0029697758 -0.0015135244 0.0021535375 -0.0022419202 -0.0027679214 -0.0018010914 0.0030689617 0.0019097376 0.00076791417 -0.000793443 0.0015892982 -0.003829205 0.0034031058 0.0015982139 0.0014878507 -5.1940042e-05 0.0036143332 -0.0002743327 0.0017035302 -0.0035882343 -0.0010365321 -0.0019646634 0.0024062183 -0.0019392545 -0.0008727722 0.0003423916 6.952368e-05 -0.0004341843 -0.0014590692 0.0031208904 0.001749895 -0.0031331272 -0.0011260193 0.0037286605 -0.0014515029 -0.00056405016 -0.0019203402 -0.0020323214 -0.0027845996 0.0034312918 0.0021698608 -0.003709274 -0.0018852986 0.0006050521 0.0009773875 0.0029470734 -0.002363535 -0.003264036 -0.002021291 -0.0022988773 -0.00255608 0.003270328 0.0030199736 -0.00052397803 0.0022619586 -0.0006467448 0.0011791697 0.0022268116 0.0006385016 -0.0028971545 0.0031102905 0.0015964446 0.0005959957
346 -0.0004816161 -0.0016161224 0.002102078 0.0025292533 0.00056206115 0.00039838284 -0.0023262133 0.00018466223 -0.0007146033 0.0008581012 0.0034342255 -0.0011642302 -0.0015401212 0.0019214593 0.00054717466 0.00046619837 -0.0036668093 -1.6993028e-05 0.0020741222 0.0029457302 -0.000411586 -0.0021410875 -0.0011068782 -0.0011432591 0.0029365353 0.0019941966 0.0011430024 0.0008273011 0.0030676925 0.0024343706 -0.0009095959 0.0006993473 -0.0012948526 -0.0024024423 0.0007708352 0.0012752454 0.0028204857 -0.000770079 -0.0008145188 -0.0015137654 7.50713e-05 0.0036224884 0.0026885015 0.0012733453 0.0029116531 -0.001923552 0.0027350679 0.00036902755 0.0018663018 -0.0013364519 -0.0008376156 -0.0017131707 -0.000987573 -0.0015297832 -0.003060445 0.002465705 0.0022991903 -0.0016812272 0.0035403694 -0.0015978463 0.0014910961 0.002349379 0.0021671988 1.4139829e-05 0.0024422782 -0.001779327 -0.0025072426 0.002026096 -0.00040706532 -0.003626517 -0.00016706219 -0.00083347934 -0.00280061 -0.0023206626 -0.0016458725 -0.00029321873 0.0018795576 -0.0014463906 0.0019576848 0.001082089 -0.0013231201 0.0013400144 -0.00031839623 0.0034862766 -0.0013540797 0.0022998475 -0.0017926504 -0.0029920687 0.0014625527 -0.003389202 -0.0012453365 -0.003104739 0.00064131286 -0.0021357716 0.0013095754 -0.0038676525 -0.0027863712 0.0029142683 0.0034034175 -0.0028074384 0.001510763 -0.0036902346 0.003783782 0.0018745641 0.0034933765 0.0038432379 0.0014257178 0.0035087175 -0.0016858194 0.00016011088 -0.0022987607 0.0031842242 -0.002727324 0.0029517899 0.0021971061 0.0008010911 0.0017656661 -0.0034381468 -0.00013962989 -0.0014761126 -0.0024676248 0.00060849404 -0.0036795677 -0.0024669662 -0.0036236483 0.0023794596 -0.00038817906 0.0014459944
371 6.8820525e-05 -0.001255443 0.002825956 0.0011037595 -0.003423964 0.00236375 0.0016670557 -0.0038612692 -0.00027545416 -0.000832291 -0.0035480203 -0.0028588427 0.0038584664 -0.0016732082 -0.002779881 -0.0021433143 0.0034309637 -0.0021254783 -0.002655521 0.0038320036 -0.0026722283 0.0006980979 0.0036187866 -0.0027510284 0.0007616222 -0.0013804027 -0.0038784987 -0.0011342914 -0.0025590945 -0.0038545171 0.00047179437 0.00013735169 -0.0015828403 0.003562778 0.0025609224 0.0016636562 -0.0011209147 0.00019445959 -0.001839766 -0.0012646734 5.97932e-05 -0.0035201455 -0.003377883 0.0028256183 0.001281264 0.003243145 -0.0023490943 -0.0030764814 0.003507716 -0.0009944531 0.0025275156 0.0020670611 0.002427954 -0.003261359 0.0029386627 -0.0007668587 -0.0017708846 0.00031567033 0.0029732387 -0.0007110734 -0.0033220896 0.00020494292 -0.0020842801 -0.0034705258 -0.0030777853 -0.0017033394 -0.0006244256 0.00019320239 -0.003289892 0.0019126411 0.0012290258 -0.0013848703 0.0030230707 -2.2646569e-05 -0.0024481844 0.0038265088 -0.0037433503 0.0010951706 -0.002937821 0.0005709885 -0.0013044777 0.00079723727 -0.0026031975 0.0026570442 -0.0016645638 0.0013809308 -0.00044517984 -0.0012893662 -0.001712906 -0.0029382217 -0.002641554 0.0020864012 0.0031220303 -0.0022795866 -0.0018722871 0.001188083 0.0007728612 -0.0004966594 0.002294306 -0.0038830573 0.0016597945 0.0017853971 -0.00054088247 0.0017262588 -0.0022163366 0.0006596618 -0.0038296457 0.0030427792 -0.0022015711 0.0033330263 -0.00075842545 0.0009981119 0.0004204866 0.00021586241 0.0024264066 -0.0008286847 -0.002741305 0.0024052088 0.0018554105 -0.0024747506 0.0035631082 0.0022583492 0.00227035 0.0010273017 0.0027231881 0.0013384698 -0.0012828608 -0.0023930997
35 -0.0015369504 0.0025424822 0.00048646738 0.0029671623 -0.0010118939 0.0032738114 0.0034999622 -0.0024406137 -0.00049214094 0.0037092324 0.0015895688 -0.002343493 -0.0017478655 -0.0027732013 0.00034560738 -0.0027819015 -0.00043246298 0.0019998383 -0.0039061746 -0.0017706853 -0.00035978656 0.0011562796 -0.0033766986 -0.0009436498 -0.0028707385 -0.0015217748 0.0028142093 7.383647e-05 -0.002174098 -0.0010070618 0.002311669 -0.002387916 -0.0031986085 6.842307e-05 0.0012345541 -0.0024292893 0.0021476788 0.0009735153 -0.0012964907 0.0011040329 -0.0019749836 0.00043294657 -0.00023693733 -0.0023149778 -0.0006470064 -0.0020380665 -0.00094918447 0.0012221141 -0.0029628817 0.0008838854 0.0006038755 0.0032244208 0.00331331 -0.0027261912 -0.00290984 0.0006141095 -0.0012241001 0.00186797 -0.002281879 -0.001062391 0.001190296 -0.002904801 0.0003876907 -0.002585383 0.0024077944 0.0032860362 -0.0013869596 0.00052954594 0.0005129251 -0.00081244524 0.001986792 0.0022106487 0.0023508247 -0.00091275905 -0.0026774236 -0.0026109011 0.0014529596 0.003279376 -0.0026993798 0.0026679172 0.0012242502 -0.0017321629 -0.001932606 -0.0027595141 0.00044064876 -0.0002370444 -0.00071687653 -0.0038690977 0.0023327623 0.0023569595 -0.001695446 0.0004281832 -0.0003342269 0.0002081305 7.2673743e-06 0.0034341277 0.0023011202 -0.0027704537 0.0006805753 -0.0027037198 0.0007672447 -0.0020968225 0.0035611156 0.0006720165 -0.0013385249 0.0027943184 0.001230516 -0.00082937645 -0.0010859171 -0.0024998325 0.00030892377 0.0011835091 0.0035617684 0.0013548833 -0.00077283947 -0.0013160709 0.0031270997 0.0030487468 -0.0016925609 -0.0009800004 -0.0033735335 0.002152214 -0.00035472534 0.0018044147 0.0034366716 -0.00090481504 0.003505856 0.0038760884
452 -0.0012556043 0.0032417807 -0.0036144676 -0.002468119 0.0020600513 0.0027906348 0.0023289963 0.0022055795 0.00046241118 0.0027118996 -0.0009869874 0.0028750573 -0.0025056454 5.264309e-06 0.0001717357 0.003315224 -0.001435585 -0.002843271 -4.2768126e-05 -0.0038297544 0.0008061341 -0.0029509983 0.0022011455 -0.0018308252 0.0003819651 -0.0011464125 0.0021092417 -0.0009794835 -0.00201354 0.0016845835 -0.0007043651 0.0024077592 0.0015131353 -2.3272261e-05 0.003049409 -0.0035053857 -0.0015892556 -0.00023016121 0.0016953575 0.002864186 0.0027521462 0.0022701842 -0.0014212927 -0.002984522 0.0022317872 0.003164694 -0.0015793929 -0.0038528598 0.0001199644 0.0011594294 -0.0028694402 0.0002287903 -0.0013925984 -0.0026304943 0.0034863425 0.0034385677 -0.0013284117 0.0031151236 -0.0035597493 -0.002921799 0.00027976118 0.0034114146 -0.003117768 -0.0025987749 -0.0021837081 0.0031100702 -0.0029780096 0.001345637 -0.0020022197 -0.00039817175 0.0034791674 0.00060903525 -0.0011111061 -0.0034252903 -0.0017301288 0.002450053 0.0032841193 -0.001497583 0.0019608873 0.0019905174 -0.0030518894 0.002944359 0.00064534607 0.0014740295 0.0017988187 -0.0028534653 -0.0025522609 -0.0031007417 0.0033962126 0.0020512622 0.0010757726 0.0020967335 8.9502e-05 0.0004157028 -0.0028907717 -0.0009611762 0.0012025478 0.0018990729 -0.0038566599 0.00036865746 0.0007913852 0.0025741318 0.0014140811 0.0035088821 0.0036366507 0.0034641721 0.0021784646 -0.003689731 -0.0027094777 0.0029307762 0.0021641394 -0.0011216959 0.0033425048 -0.0036173658 0.003412214 0.0021576684 -0.002973697 -0.0016362129 -0.0035540077 0.0028604358 -0.0034875819 -0.0006109693 -0.003156041 -0.0037415873 -0.0026675595 0.0021675995 -0.0033069442 0.0022231524
508 0.0033868183 0.0020360914 0.0036491181 0.0005929068 0.001614033 0.0030615965 -0.0010754949 0.0021085194 -0.003291773 -0.002975477 0.0031535411 0.00016455501 0.0030801897 0.0013161948 -0.0029066913 -0.00390094 -0.0032273983 -0.0030426434 0.0018638844 -0.00089925696 0.0024411436 -0.0031526205 -0.003114315 -0.00044891392 -0.00042062724 0.0037206253 -0.0005310227 0.002145989 -0.0026213774 -0.0031208573 0.0020672572 -0.0004244307 0.0038512163 -0.0032840169 -0.0012052393 -0.0013931321 -4.4632925e-05 -0.001440296 0.00242867 0.0024943345 -0.0036726333 -0.0008766382 -0.0016008832 0.0031681205 -0.002731644 -0.0037697183 -0.003142444 -0.0007682688 0.0008057873 -0.0028625708 -0.0010215939 0.000906963 0.0003737755 0.0028775462 -0.002750051 0.002388917 -0.0005522321 -0.00057388487 -0.0013521581 0.0019837245 -0.0034852042 -0.001123305 -0.0018679124 0.0026828963 0.0018419729 0.0019409499 -0.0008125973 -2.3754275e-05 0.0036023066 -0.002599104 -0.0023882755 -0.0021895356 -0.0036495614 -0.00041186382 0.0015141559 -0.0010604844 0.000114361406 0.00091180636 -0.0004296044 0.0010826053 0.003076696 0.0028368244 -0.0014327626 -0.0010361918 0.0028347825 0.002858494 -0.00022926343 -0.0002855296 0.0021550439 0.0026761882 -0.0020374705 0.0001572329 -0.0005158648 0.0006120069 0.0034625486 -0.0007995238 0.0009847826 -0.0019902478 0.003833032 0.0007699712 -0.00068919203 -0.0034917337 0.0009299645 0.00029901546 0.00049583823 0.0021301224 0.0027437024 -0.0010371773 -0.0035184843 0.0029652594 0.0018792821 -0.0029643672 4.455711e-05 -0.00309167 -0.0033112292 -0.0018231851 -0.0036835028 0.0030862943 -0.0036345085 -0.002920954 -0.0035417 -0.0019181637 -0.0034593644 0.0026809494 0.0016404382 0.0022045835 -0.0031998232 0.003778874
672 0.0034175073 -0.002458097 -0.0013820413 0.0030329574 0.00334396 -0.002117728 0.0004893291 -0.0022781254 -0.00017001964 0.0030387351 0.0036246618 0.0035040155 -0.00016457227 -0.0018434551 0.0022351753 -0.0019249705 0.00037282097 0.00026792538 -0.0015425606 -0.0025143023 0.0027580333 -0.0024050106 0.0011807994 0.0011142825 -0.0032549135 -0.002800332 -0.0010739424 -0.0035832094 0.0029515747 -0.0021774452 -0.0023172512 0.0023882352 -0.003452545 0.0013193 -0.0011953453 -0.0035412416 -0.003113742 0.0006453229 -0.0006974971 0.0026311378 -0.00112462 -0.0034738358 0.00079388527 0.00018918268 -0.002575096 -0.0030722094 0.0018051544 -0.00082950527 0.00322186 0.0006619776 0.0019201653 7.737252e-05 0.0015485566 -0.0007285027 -0.0027724884 -0.0010400162 -0.0024880886 0.0033549545 -0.002584469 0.0033836698 0.0006656633 0.0027128805 0.0021581445 -0.001974453 0.00075153017 -0.0037711146 -0.00032725645 -0.0012341297 0.003435079 -0.0032834318 0.00076866796 0.003889221 0.003665273 0.00092574 -0.0035647708 -0.003851651 0.002581368 0.00065026915 0.002207716 -0.0009655966 0.00025543786 0.0030276154 0.000901747 -0.002286658 0.0028165593 0.001960622 -0.0004082653 0.00025871256 0.0023891358 0.0016286692 0.0003376202 0.0031473257 0.0035485388 0.0021691902 0.0005803294 0.0030133082 -0.0016616377 0.0023386232 -0.0018929658 0.0014862963 -0.0029045641 0.0011766127 0.001480906 -0.00202921 -0.002059245 0.0016950762 0.0036216695 -7.529941e-05 0.0015550961 0.0011560392 0.0038692504 0.00061199116 0.0018505622 -2.3484426e-05 0.0027795625 -0.003640318 0.0009383317 0.002692906 3.5238103e-05 -0.0010410651 -0.002382799 -0.00059413345 -0.0031199425 -0.00091078604 0.0016531425 -0.0031477457 -0.0015339298 0.0037961097
510 -0.0020089883 0.0009286735 -0.0028707904 0.0038149466 4.8459704e-05 0.0031762419 0.0017982629 -0.0029573236 0.00244676 -0.0013615269 0.0018269978 0.0011869484 0.002554906 0.000679137 -0.0021181505 0.0035942427 -9.017391e-05 5.5926503e-05 0.0034240568 -0.0014541921 -0.002783495 0.0032630425 -0.0020781234 -0.0033497086 -0.0035372989 -0.0031964013 -0.0019184749 -0.0023052732 -0.0012521759 -0.00089532457 -0.0016754016 -0.0033808632 -0.0010106043 0.0038214335 -0.0018773228 0.003467764 -0.0031735504 0.0024029915 -0.0019099884 0.00059545634 -0.003458658 -0.002298272 -0.0026316177 -0.0009991457 -0.0017490333 0.0025058673 -0.00037527079 0.0026557297 0.0025492574 0.002458983 4.8306792e-05 2.3756735e-05 0.0014413721 0.00224004 0.0012483415 0.0033612025 -0.0001814345 0.0007346135 -0.0025105954 -0.0012805318 0.003545887 -0.0034535825 -0.00023369411 0.002740529 0.003063271 0.0035770654 0.0037753957 2.8046652e-05 -0.0029017294 -0.0008314293 -0.0014942369 -0.0019458133 -0.0023612748 -0.0013532363 0.0021649655 -0.00094507745 0.0035645487 -0.0025064142 0.003191225 0.0022201815 0.0030119366 0.0019694914 0.00015459226 0.0017175371 -0.0032136545 0.0011736228 0.0022934482 0.00077849417 0.0008548434 0.0029697933 0.0009811667 0.003738614 0.0029796688 -0.0030307015 -0.0031170289 -0.0021829095 -0.0014322699 -0.0025559717 -0.003763201 0.0022576237 0.0008102624 -0.0014790954 0.0037603383 -0.0020702784 -9.496256e-05 -0.0035471993 0.0010850937 0.0020484335 -0.003083856 0.0003637745 0.001164079 0.003049451 0.002462393 -0.001464536 0.0007024696 0.002803145 0.0012511242 -0.0035835481 -0.0020590953 -0.0017749398 -0.0007831862 0.0036033164 0.0011838594 -0.003041866 0.00052706205 0.00056178065 -0.0016226929 0.00018896486
566 -0.00090730644 -0.0010886126 -0.00053985696 0.0001585953 0.001920019 -0.0013666564 -0.0017643854 0.0025690796 -0.00069604436 -0.0029770436 0.0023607537 0.00059332687 -0.003168466 -0.000967327 0.001091057 0.0012239692 0.0031040784 -0.0027959931 -0.00096671283 0.00020547626 0.001998601 -0.0011131866 0.0005413258 0.003496418 0.0018006111 -0.003225892 0.003092485 0.0023986376 -0.002162702 0.00064374536 -5.0031977e-05 0.0038356213 0.002757642 -0.00018158491 0.0007305293 4.6971887e-05 -0.0031446347 0.00068860926 0.00370689 -0.0025736375 0.00021128858 0.0021719183 -0.00040767412 -0.0032709152 -0.0003582033 0.0029931962 -0.0015560493 -5.545764e-05 0.0024578436 0.001782072 0.0012437379 0.0010652312 0.0023201588 0.0030361658 -0.0023895015 -0.0010494423 0.0028348742 0.0019646224 -0.0036305606 0.0023566193 0.003608304 -0.0016974288 0.0031324818 -0.0020687217 -0.0027880373 -0.0006733222 -0.0008419629 -0.0012134415 -0.0002698239 0.0034354157 -0.0005510874 -0.0022694007 0.0013833985 -0.0032947024 0.002596674 -0.0033122194 -0.002585742 0.0017990854 0.002619115 -0.00019600758 -0.0011082498 0.0013482588 -0.0007918701 0.003205668 0.0020575754 0.00047161285 0.0023966464 0.0028743786 0.0030253422 -0.0005310821 -0.0035925335 0.0032797088 0.0031230787 -0.0031147324 0.0019708548 -0.0035045983 -0.0022571723 -0.0038645426 0.002199652 -0.00013107677 -0.00051863375 -0.002056135 -0.0027912776 0.0034719256 0.0027935945 -0.0027414558 -8.398939e-06 0.0037884258 -0.00062845036 0.00028585573 0.0021415479 -0.00086478906 -0.0025101518 0.0025624996 -0.0038841155 -0.0037169997 -0.0025968608 -0.0030780234 0.0033184043 -0.000608436 -0.00028800868 -0.0026740204 0.002280534 0.002942159 0.0017578091 5.952745e-06 -0.0021217938 0.0038558391
330 -0.002883256 0.003689897 0.002625402 -0.0037093242 0.0019858952 -0.002359676 0.00066912285 -0.0014660798 -0.002853027 -0.0020154535 -0.0005548755 0.0017310174 0.00091167795 0.0032097115 -0.003608846 0.0001868723 0.0027448938 0.0015963893 -0.0031661366 -0.0019643607 -0.0032509202 1.18688795e-05 -0.00017997711 -0.0018722186 0.0033935169 0.000933995 0.00092646916 0.0008109252 -0.0036113942 0.0006770901 0.0008688842 0.0007218796 0.0034394988 -0.002391831 -0.0009906085 0.001604 0.0028420398 -0.002925316 -0.002331505 0.0022935772 -0.0021610481 -0.0033906884 0.0009833027 0.0009742307 0.0022019132 0.0015641423 -0.0008175651 0.001828527 -0.0020941175 3.7230482e-05 -0.0014014213 -0.0035869002 -0.0011398284 0.00067908486 0.0006724827 0.0036344128 0.0012276082 0.0016251068 -0.00027139913 -0.0013229892 -0.0033847236 0.0015912283 0.00044119154 0.0005229152 0.0019991784 0.0030300075 -0.00078927656 -0.00041239854 0.0005091389 -0.0029946463 0.002276264 0.0023011176 -0.0018044094 0.001606174 0.0007674873 0.0029060277 -0.003027028 -0.0016996355 0.00016888518 0.0031975356 0.002388302 0.00039269234 -0.00083267613 0.0022097707 0.0010942982 0.0012994423 -0.0035615198 -0.0017849403 0.0028321599 -0.0017398697 -0.0024412568 0.003556123 -0.003321968 -0.0018743142 0.0010781817 0.0038631456 0.0019817615 0.0015837587 0.0027095543 0.0016002933 0.00049219286 3.0207242e-05 -0.0025709139 0.001567466 0.0015572637 -0.0031247002 -0.0023158886 -0.0022990166 -0.0026694015 0.0036997916 3.0799867e-05 -0.0026136667 0.000582327 0.0038019856 -0.0027542438 0.00040182256 -0.0014400223 -0.0028262343 0.0022509794 0.0035064032 0.0021804087 0.0016640745 -0.0019247927 -0.0038513648 -0.001621284 -0.00038848122 0.0023321197 0.0021073637
88 0.003741197 -0.0037398762 0.0034072609 0.0023245811 0.0014509846 4.707804e-05 -0.0011134607 -0.0032485565 0.001401059 0.0001780359 0.001601451 0.00094808015 0.001385669 0.0022802711 -0.00198494 0.00083007547 0.0034548107 0.0011769118 -0.0024282609 0.001434313 0.0010298345 -0.0034406572 0.0018522113 -0.0018268111 0.002800475 -0.0028649464 0.0013184145 0.0032478655 0.002742272 -0.00081358314 0.0020839649 -0.0027001246 0.0035188005 0.0010124145 0.0029027062 0.0029653504 -0.0026436918 0.0007458255 0.0033503764 -0.0026453638 -0.0031251563 -0.0012997465 -0.0025126291 0.0023611563 -0.002710219 0.003120884 -0.0022908682 -0.0011889442 0.0012265805 0.0031861118 0.0015720668 -0.0035429364 0.0005146755 -0.0026450965 -0.0018966089 -0.002630361 0.003327483 0.00040935777 0.0033514695 0.0011219563 0.00059307326 -1.4519079e-05 -0.00042948106 -0.0021647695 -0.0037630964 0.00047987816 -0.0033526975 0.0004122809 -0.00067117414 0.0028673646 -0.00071083615 -0.00140065 0.0022129223 -0.0006486671 -0.0010048152 0.0027601463 -9.6383716e-05 -0.0038224966 0.0035615591 0.003663576 0.0032057846 -0.0019555406 -0.0013311 -0.0001268253 0.0030715049 0.00090688455 0.0015166627 -0.0019918568 -0.0013023496 -0.001977929 0.0001725159 -0.0021019864 0.002577115 -0.0019772789 0.0021970405 0.0027725848 0.0029016738 -0.0016621813 -0.0030404136 -0.0038619419 0.00040542742 -0.00019498641 -0.00361409 -0.0018578036 -0.0032942973 0.0029202616 -0.00076283305 0.0030985454 0.0031068653 -0.0008024124 -0.0033978664 0.0008664866 -0.0022982883 -0.0006005075 0.0030650485 0.0010939192 0.0011191167 -0.0026485967 0.0024041561 -0.003192855 -0.0005825911 0.0015291166 -0.00019213403 -0.0026123396 0.0019147431 0.0028656395 -0.0019294828 -0.0012498043
331 -0.00034559434 -0.0012429291 0.00217503 -0.0030290703 0.0028051173 0.00011764016 0.0015463748 0.0012147073 -0.0016652596 -0.0018876187 -0.0022723197 -0.0035749956 -0.0028650858 0.0038823255 0.002174648 -0.0011397497 -0.0038245013 -7.028348e-05 0.0016978799 -0.0016466668 0.0014272437 0.0034384453 -0.0017054675 0.0015252624 0.002440823 -3.870511e-05 -0.0016733077 -0.0011356273 2.6973528e-05 0.0015134263 0.0018226381 0.00054821995 0.003240895 -0.0037315295 0.0009462102 -0.0025985998 -0.003658297 0.0024293019 0.0026407724 0.0021657657 0.003113993 0.0035424028 -0.0029998664 -0.002463834 0.002916657 0.0012563464 -0.0018680304 -0.0019711996 -0.0034616813 -0.00036280352 -0.00019766127 0.00031151212 -0.0018193813 -0.0033661611 -0.0018478528 0.0028531025 0.0015402195 -0.00057240005 -0.002008848 0.0031696674 0.0011236072 -0.00077438506 0.0016047898 -0.0004852297 0.0022121095 -0.0016726344 0.0023528936 0.0023502691 0.0010640442 0.0008680847 0.00235572 0.0013164228 -0.0038806568 -0.0010271639 -0.0015583851 -0.001058246 0.00012546655 0.0026317067 0.000873555 0.0037404203 0.0017758489 0.0033213133 0.0027103284 -0.002110024 -0.0005196384 0.0015162551 -0.00261692 -0.0022185952 -0.00047804936 -0.003260621 0.00026075434 0.0008738692 0.0033317422 -0.0009935808 0.0014081479 0.0007976883 -0.0008191617 0.0012611618 -0.002439668 -0.0028231002 0.001602139 -0.0023427538 -0.002227419 -0.0016549276 -0.002800068 0.002497798 -0.0019125207 -0.0013111528 0.0010053242 -0.0029773696 -0.00077344594 -0.0018794085 -0.002663294 -0.00010346559 0.0015028464 0.0036458375 0.00024946302 -0.0008246727 0.002074433 -0.0006254234 0.001619529 0.0014592891 -0.0010286167 -0.0027851518 -0.00032017488 0.0031599053 0.0033451528 -0.0030829208
612 0.00379907 0.0026499794 0.0030347712 -0.001895605 -0.003836079 0.0019178862 -0.00025915453 -0.0034441964 0.0017759252 -0.0035949256 -0.003360325 -0.0022706313 0.0011893698 -0.0026660496 0.0038581588 0.0023579432 0.0015207483 -0.0034121491 -0.0038977033 -0.0026311753 0.003805443 -0.0018452327 0.0016856022 -0.0013745812 -0.003006159 0.00010715551 0.0025307524 -6.251162e-05 0.00063918444 0.0035420475 -0.0005876146 0.0011601138 0.0036703919 -0.0005230067 -0.0028977965 -0.0010725609 0.0017050059 -0.0030940748 -0.0023002254 0.0024371878 0.00087475486 -0.0032766901 0.0027295377 -0.003020905 -0.00041573698 0.002086897 -0.00018387916 0.0016679403 -0.0036003108 0.0034406867 0.0032114887 0.0007229963 0.002564158 0.00052742613 -0.0004225286 -0.0029101858 0.0008851003 -0.00012040596 -0.0035657436 0.0009094838 -0.0033354417 0.0023558214 0.00055910554 0.0031596504 -0.0013141742 0.0025779502 -0.0035226524 -0.0020181506 -0.00055576046 0.0013016295 -0.0034749068 0.00019095748 0.0011292949 0.0016097606 0.002684171 0.0022673956 -0.0016968688 -0.0022915676 0.0007083807 -0.003341541 -0.0015104422 -0.0021307303 0.0015595243 -0.0011888777 0.0018485967 0.0030465496 0.003349415 -0.003396207 -0.0030780425 -0.002716381 0.0034399661 -0.0019123532 -0.0031796114 0.003874247 -0.0001238178 0.0038679903 0.0035570676 -0.0028966286 -0.00014626606 -0.0034783636 -0.0012386312 -0.0014749578 0.0011631297 0.0018972069 0.00059917284 0.0028610392 0.0015712517 -0.00090770336 0.0011171638 -0.0039018425 0.0023425992 -0.0019022372 0.00021641309 -0.00044420306 -0.0019420667 -0.0021135383 -0.0008427417 0.0025797647 -0.0016644335 -0.0009340314 -0.002791546 -0.0023823094 0.0013372037 0.0029326773 0.00069555145 0.0015927728 -0.001853869 0.0013573205
1190 0.0014052748 0.0015810251 -0.0033284973 -0.0020022793 -0.00016850262 0.0031487122 0.0020077876 0.0011477978 -0.0030451259 -8.6353706e-05 0.0007726586 0.0009084566 0.0021274288 0.0033794993 0.00034347293 0.002366884 -0.00079743966 0.002045115 0.0036496548 0.0029755717 0.0015646699 0.0024611042 -0.001072553 -0.00035605117 -0.0029283764 -0.0015242373 0.0026756513 0.00080923823 0.0005125566 -7.4143594e-05 0.00039062934 -0.0026031286 0.001918741 4.9189534e-06 0.0034416458 -0.0036829642 -0.0012026076 0.0009076826 0.0019764744 0.00223874 -0.0016596704 0.002645482 0.0019852088 -0.0015311902 0.0030948005 -0.0034913758 -0.0021351594 0.0017553393 0.0034986502 -0.000120932484 0.0012472647 0.0035535945 -0.0005541494 0.0030148905 0.00289295 -0.0036195088 -0.0027901724 -0.003498985 0.0027349002 -0.0037760471 0.0035801297 0.0024883826 0.00070203404 -0.0011603283 -0.00025989182 0.00042156366 -0.002379659 -0.002569515 -0.0010562777 -0.00057624845 0.00331265 -0.0032830166 -0.0011276235 0.0036449567 0.00267166 0.0012213157 0.0016288016 0.0027473269 0.0007975769 0.0014687591 0.0011647176 -0.0012941863 -0.00040063058 -0.001993126 0.0018836649 -0.0002551222 -0.0018522126 -0.0031527441 -0.00074114284 -0.00206659 0.0030499967 0.0038788726 0.003146169 0.00037944465 0.0005708454 0.00055538904 0.0018397295 0.0023603453 0.002205741 0.0018594762 0.0035177968 0.002975752 -0.0039013661 -0.0028083473 -0.0017291385 -0.0010944654 -0.002373713 -0.003696077 0.003359666 -0.0033068445 0.0013038964 -0.002670971 0.0035227167 0.003695123 -0.00071901 0.0034355188 0.002310323 0.0007855164 0.00026880618 -0.0018617818 -0.002437856 -0.0025495728 -0.0016023446 -0.0034058103 0.0006054321 -9.069011e-05 -0.0003666975 -0.0035572029
151 0.003839669 0.0003556919 -0.0009144614 0.0019727463 0.0030484188 0.0032438089 -9.528877e-05 -0.0038451855 -0.0004023244 0.0025958584 0.0032235559 0.003085733 0.0011866943 -0.00018464914 -0.0021613059 0.0020711187 0.0002198606 0.0021921555 -0.00014470816 0.0020516624 -0.00228856 0.0012745649 -0.00335402 0.0010449195 -0.001314633 0.0038418013 0.0012210562 -0.00073783885 0.00071594067 0.003118818 -0.0015522022 -0.0014400923 0.00092483946 0.00012542566 0.0026799967 -0.003438334 0.00046022903 -0.0014838254 -0.00061308703 -0.0028329173 -0.0011178503 -0.0014478567 -0.00025065176 0.001333988 0.002696037 -0.0017066364 -0.0027171038 -0.0009293969 0.0017879516 -0.003060652 0.003475487 0.0013116695 0.00046200867 -0.0035053003 0.0035326516 -0.003119672 0.00036430842 -0.0022016065 -0.0021223603 -0.00046288897 0.0012223759 -0.0017744809 -0.0024849975 -0.0020310166 0.0031251593 -0.0011756638 9.721966e-05 -0.0019227002 -0.00045045806 -0.00032441443 0.0037415884 -0.0036921487 -0.0011904676 -0.002821779 -0.0013086542 0.0035918993 -0.0015410623 0.0010038657 -0.00044701918 0.0013113902 0.002441398 -0.0024832701 0.0032500655 0.00056801405 -0.0011917895 -0.0004824545 -0.0019602454 -0.0035817674 -0.0020016711 -0.002123135 0.0011227076 -0.00017563743 -0.0022946517 -0.0008890365 0.0034066692 -9.126918e-06 0.0011939653 -0.0038347195 -6.548773e-06 -0.0011014579 -0.0015434426 0.00087920023 0.0018034276 -0.002043155 -0.00057699654 0.001501746 -0.0015522977 -0.0021899957 0.0025024342 0.0019963365 -0.00041969086 -0.003447496 0.00267188 -0.0013144757 0.0020654693 -0.0022098082 -0.00342902 -0.0031965675 -0.00016307598 0.0029206995 0.00078098546 -0.00079284905 -0.0016649173 -0.0032103423 -0.0035706274 -0.00076373585 -0.0019947875 0.0038082963
1078 0.00071414997 0.0014132916 6.320805e-05 -0.0034830496 0.0032480254 0.001858791 -0.003692821 0.0026895977 -0.00033535043 6.513308e-05 -0.0026494798 0.0009527436 0.00012308014 0.0016668247 -0.00077384844 0.0017772937 -0.0015386909 0.00030613857 0.0008685525 -0.0012606635 0.0017370747 -0.00016096061 0.0035499565 0.003879181 0.00033432577 0.0027493166 -9.3736315e-05 0.003023721 -0.002199918 -0.00017507942 0.0014894799 -0.00051728263 -0.0020448829 0.0010163598 0.0026077281 0.0018355527 0.0035869647 0.00058286096 0.00091800536 -0.001291633 9.534629e-05 -0.0036823405 -0.0027854675 -0.00012705087 -0.0024366833 -0.0014957918 0.0013371885 0.002011124 0.0037620035 -0.002211338 -0.0015912916 -0.0037923625 -0.0022038103 -0.003688296 -0.0037682296 -0.00065482315 0.0029988477 0.0025949965 0.0009849195 6.718394e-05 -0.002301454 -0.00206977 -0.002961861 0.0022370205 -0.0037889567 -0.003640506 0.002818334 0.0027426619 0.0022148346 0.0023121634 5.5103523e-05 -0.00090809085 0.00076630537 0.0020532971 -8.207674e-05 -0.0022562644 0.002779077 -0.003714776 -0.00011192186 -0.0037721947 0.0017238446 -0.0012682639 -0.0031249607 -0.0015876574 0.0018500028 0.00041512336 -0.0031456514 -0.0012655709 0.0033981013 0.002605088 -0.0037890582 -0.0029337788 -0.0021709388 -0.0033189293 0.00043771 0.0028861875 0.00075577013 0.0032822909 -0.0016820839 0.0023909253 -0.0035352227 -2.4317897e-05 -0.003137552 -0.0007501963 -0.0032457318 0.00025917476 0.00040520032 0.0018783123 0.0033004477 -0.00053515786 0.003430393 0.003584467 -0.0035682172 0.003615466 0.001534587 -0.0011317091 0.0017912629 -0.0008530512 -0.0020414398 0.003620168 0.0009800842 0.0026308352 0.0010609225 0.0010109561 -4.0360843e-05 5.1971063e-05 0.00011983897 0.0032971408
