1659 128
1 -0.0951277 -0.2641061 0.08535253 -0.095841885 -0.010770277 -0.27224952 -0.062046774 -0.07396906 0.051977936 0.09974585 -0.10593352 0.18483552 0.12841786 -0.09970156 -0.08747232 -0.004605312 -0.22126691 0.08976213 -0.19039717 0.21931325 -0.114623435 0.22088893 -0.0073783244 0.1520985 0.0036009331 -0.099482656 0.045497447 0.01883835 0.09465494 0.0014952305 0.20621276 -0.038714778 0.040828187 0.19910066 -0.09889245 0.0537086 -0.2103423 -0.20972674 -0.032238785 -0.093945 0.060061175 -0.14796749 0.16197957 0.10886459 -0.1668579 -0.37126547 0.10643198 0.19289725 0.08941643 -0.36568427 -0.16411448 -0.050162267 0.27705944 0.46442857 0.017722264 -0.096462324 -0.21907225 -0.035625104 -0.28262419 -0.19961125 0.23994991 -0.19593105 -0.02023671 0.1116625 -0.0046249097 -0.020345544 -0.28050056 0.33897197 -0.18807754 0.104451425 0.2813667 -0.03367643 0.17198943 -0.19382156 -0.15371597 -0.14139052 0.09051981 -0.080701925 0.21393077 0.15641612 -0.14050637 -0.22467458 0.15772496 -0.25544822 0.30400857 -0.3183733 -0.1952863 0.027875483 0.01664686 0.07767194 0.11017952 0.36779803 -0.16982618 0.11856711 -0.11748957 0.29698026 -0.1292774 0.18312421 0.027405547 -0.048586957 -0.049812093 0.17643632 0.30704644 0.15908854 -0.112429366 -0.010655022 0.25136012 -0.10291188 0.19486059 0.032121763 -0.008054102 0.048462853 0.21914448 0.20669441 0.09900224 -0.15553354 -0.0665398 0.14589909 0.043496393 -0.08352889 0.054492075 0.19939761 0.103905804 -0.034151834 -0.0027819208 -0.30403316 -0.07163787 0.11284517
2 -0.12104573 -0.3392596 0.0821619 0.085901536 0.09136479 -0.08307684 -0.088025175 0.06986011 0.020885171 -0.09595258 0.3123898 -0.3660377 -0.07277463 0.043020766 0.06788743 -0.096552685 -0.15405409 0.046971187 0.28141582 0.12893024 0.23603827 -0.09347297 0.10388377 0.37713796 -0.025076814 -0.1078524 -0.059295267 0.034811504 0.11589019 -0.14977524 -0.17450076 0.07718783 -0.21451226 0.09954315 -0.08219561 -0.38135937 -0.057459936 0.045039985 -0.27172825 -0.088336706 -0.09025115 0.42141944 0.026315391 -0.011132023 -0.08068949 0.05723307 0.09104138 -0.23712438 0.04012899 -0.15905885 0.15796597 0.13435075 0.20786943 0.086368494 0.05111051 -0.03499967 0.18362218 0.26273763 0.0063898754 -0.106233 0.2094543 -0.19970284 0.08376652 -0.25930187 -0.019828007 0.084899 -0.16613585 -0.034533013 -0.02466819 0.13207926 0.124288104 0.07359464 -0.027085612 -0.11306931 0.17273702 -0.17422275 0.05380225 -0.07835161 -0.067910045 0.005486422 -0.13095054 -0.109787926 -0.17339769 -0.068871744 0.24231748 -0.11972862 0.14785515 0.09703278 0.29593584 -0.06624825 0.1736934 -0.15071878 -0.03725967 0.17365637 0.018562581 -0.060972337 -0.06932944 -0.08217902 0.49404806 0.170517 -0.28323275 -0.107450545 -0.04594674 -0.04809684 -0.16099674 0.15785208 0.33031115 0.2786515 -0.11738882 -0.20123442 -0.042760078 0.2406494 0.15930279 0.025903944 -0.16129546 -0.096319415 -0.3847614 -0.12750925 -0.15479894 -0.13794455 0.046746664 0.044040255 0.05355883 0.010822336 0.16583228 0.16519006 0.07056809 0.0037541091
112 -0.16984841 -0.2811393 0.19682683 0.22347468 -0.07525228 -0.038602166 -0.030442622 0.033338033 0.25896618 -0.015031203 0.12371141 0.07021675 0.0375707 0.06597994 0.17141458 -0.14432727 0.0034247353 -0.15406764 -0.186483 0.26074743 -0.015539882 0.024603227 0.010914446 0.097706646 -0.033840887 0.05779303 0.17075273 0.05196984 0.03460073 -0.06374855 0.06445234 0.050603654 -0.13991353 -0.011306053 -0.060009595 0.052408606 0.08352073 -0.38793516 -0.14447886 -0.03397994 -0.063650675 0.07951554 -0.021583647 0.055582333 0.11327103 -0.10896108 0.16548033 0.1411585 0.050346617 -0.25110444 -0.20335178 0.16467656 0.016432576 -0.037010517 0.13682915 0.08524958 0.031993095 0.0014080091 -0.1745794 -0.17482208 0.27109832 -0.011645705 -0.1026094 0.34639898 0.0070626754 -0.11295084 -0.21221943 0.28068426 0.031357948 -0.17516123 -0.11046887 0.12401178 -0.18210667 -0.163232 0.11280592 0.05278998 0.27143225 -0.1560255 -0.033679236 -0.03467256 -0.06325096 0.12692535 -0.014916327 -0.10116464 0.006420125 0.28025338 -0.08914712 0.03537928 -0.049269956 0.082881056 0.41139677 0.16331562 -0.032388944 0.13088483 -0.03543651 -0.12019619 0.08123037 0.11505 0.12462121 -0.031067956 0.085287884 0.19178988 0.011339215 -0.054716807 -0.24840549 0.04864346 -0.006577812 0.23601969 0.11519055 -0.10682321 -0.0030083559 0.16838261 0.06857347 -0.1188887 0.09387012 -0.0711167 0.13611552 -0.2135225 -0.055651687 -0.08913109 -0.17908639 0.13951528 -0.1388811 0.010589215 -0.15628499 -0.07890973 0.040598903 0.081187576
3 0.10912351 -0.07645041 0.18980369 0.04978998 0.3001891 -0.4280029 0.22130297 -0.048986435 0.08450896 -0.21159375 0.16947074 -0.21881539 -0.04039468 0.07367759 0.12735297 -0.07936835 -0.124671325 -0.03905757 0.23567761 0.006098701 -0.15255302 -0.10718823 0.012705194 0.12133908 -0.0017991397 0.10253834 0.07050931 0.12082694 0.083936155 0.22101334 0.16012752 0.11803663 -0.31601483 0.050327733 0.48083368 -0.1764732 0.05364796 -0.25652552 -0.2692175 0.13659103 0.14774092 0.06482241 -0.094496146 -0.050385736 0.08482058 -0.014849244 0.07821369 -0.037297603 0.18559699 -0.08684509 0.017158289 0.02822912 -0.17579564 -0.2052149 0.013562312 -0.1585016 0.05462396 -0.2114452 -0.094880916 0.023889415 0.29694492 -0.4581584 -0.09031343 0.27821192 0.017340483 -0.088351145 -0.3741702 -0.03897284 -0.038535 0.24426472 0.34552374 -0.21874915 -0.12333143 -0.14724232 0.010543866 0.16839994 0.03868652 -0.15541857 0.24915776 0.042677414 0.035632044 0.105917946 -0.22047108 0.07039267 -0.05996439 -0.053700145 -0.08740601 -0.011386767 0.008227952 -0.18801732 0.18098444 0.09778676 -0.18472902 0.058179427 -0.08352351 -0.073553145 -0.3038729 0.15860505 -0.039268237 0.27221444 -0.06417472 0.16853677 -0.071402155 0.27542067 -0.09917733 -0.21470489 -0.40529707 -0.036999546 0.06523557 -0.11921262 -0.18967405 0.046962548 -0.02365583 0.15281181 0.11187362 0.11842793 0.010424732 -0.12249578 -0.07828193 0.05696651 -0.18936874 0.16725667 0.47131157 -0.4617693 -0.19370036 0.042606376 -0.26188004 0.13074924
6 0.22420883 -0.19887392 0.33269516 0.12649162 -0.028472476 -0.22380489 0.21035622 -0.09195908 0.22255008 0.3154564 -0.054959178 -0.2835669 0.12649211 -0.04221623 0.18833648 -0.15610969 -0.121435784 0.124296606 -0.13566491 0.024327502 -0.14311379 -0.18325765 -0.023254387 0.028394612 0.007486247 -0.13795781 0.045962088 0.07105313 0.12901141 -0.55395395 0.18761155 0.18213187 0.030937701 0.16257218 -0.12108907 -0.113530144 0.361721 0.016829327 0.12624596 -0.17335972 0.21986361 0.5039713 0.11459448 0.09186026 -0.3684169 -0.15273835 -0.08194805 -0.09628273 0.24587323 -0.113040864 -0.032450728 0.1267959 -0.036311135 0.26369685 0.16543256 0.032116428 -0.14943033 -0.07454724 -0.13745561 -0.13227357 0.0060255625 -0.124681175 -0.15860547 -0.11895108 0.018879406 -0.39804247 -0.34284362 -0.060093082 -0.2943956 -0.114364184 0.028214803 -0.08159183 -0.019211553 -0.0012879424 0.09986897 -0.05935334 -0.12184516 -0.29455242 -0.106744625 -0.02482389 -0.2393145 0.4252453 0.08568054 0.056797083 -0.021755038 -0.26953313 -0.17438395 0.03925085 0.05264746 0.019336395 0.24828322 0.17405374 -0.052258488 0.011969643 0.13331027 -0.04926851 0.37894824 -0.16541003 0.019726433 -0.19304417 -0.0069149965 0.2867637 0.16220413 0.2185079 -0.27802113 -0.042543128 -0.08137401 0.1447492 -0.008986994 -0.2901514 -0.05999806 -0.15184645 0.17981118 -0.0657821 0.32907477 -0.11509388 0.2830959 -0.04100774 -0.15391831 0.15632577 0.077546336 0.12345123 0.3241825 -0.09464168 -0.0013990625 0.32048324 0.19351754 0.13197026
12 -0.59145236 0.02148592 0.22021662 -0.060868468 0.18206891 -0.077597894 0.15553604 0.11220466 0.12910515 0.18500255 -0.23061608 0.33579293 0.11620227 -0.06256443 0.4217903 -0.15998818 -0.08948086 -0.16882046 -0.27212694 0.029358175 0.21565102 -0.24139592 0.26216656 0.1257793 0.10442773 -0.09059324 0.25226268 -0.03271599 0.1273174 -0.3160047 -0.22165465 0.2586897 -0.38234368 -0.034306925 -0.007946379 0.06469703 0.19410414 0.18610483 0.09604613 -0.21731974 0.08811838 0.03635641 0.31291336 -0.0122857485 -0.07767724 -0.11128669 0.09921249 -0.0031978323 0.18131179 -0.15575379 -0.010350006 0.06764067 -0.038278077 -0.26518035 0.3587459 -0.13666609 -0.022938715 -0.05982461 0.02828691 -0.19014464 0.11765023 0.080710605 -0.028653108 -0.30575788 0.03245302 -0.020474691 -0.31471384 0.28836897 0.043164495 0.0147464955 0.12029314 -0.19910452 0.15471865 -0.0659205 0.31146872 -0.16769329 0.044204086 -0.08666172 0.08305509 0.08373254 -0.3619752 0.1856703 -0.21277939 0.06881534 0.037785407 0.06964933 0.28329688 -0.07643001 -0.0050762934 0.2636599 0.13768154 0.30473912 -0.035227194 -0.06826062 0.16047058 -0.12927212 0.13778275 -0.1547081 -0.098995805 0.036448926 -0.09069927 0.1631958 0.01850292 -0.005930345 -0.1399191 -0.13976277 0.21652526 -0.13353631 0.08489507 -0.024923397 -0.26639664 -0.35299018 0.14565764 0.24797328 0.071078815 -0.09742401 0.058337197 0.06651891 -0.06981912 -0.11811529 -0.053499926 0.12921171 0.12392748 -0.11429469 -0.26284656 0.20801058 -0.21495174 0.2295668
32 0.14769197 -0.3085886 0.026056066 -0.08797417 0.07931177 0.024471212 -0.16352226 -0.032057494 0.05296253 -0.0672484 -0.124564365 -0.07824346 -0.27935115 0.18284507 0.14017247 -0.16802256 -0.0010610068 -0.08924983 0.17417085 0.123320565 0.019437775 0.2106952 -0.13772008 0.27334097 0.061859205 -0.078066185 0.08686396 0.11471926 0.30621755 0.040626366 -0.09467261 0.13865632 -0.47194064 0.06774203 -0.19352864 -0.29751 -0.02237735 -0.017751101 -0.28785774 0.13907894 -0.13367486 0.120419584 0.1479874 0.18103635 0.20605132 0.07364041 0.17538923 -0.24404092 0.22743419 -0.1862634 -0.058784008 0.16079596 0.28775135 -0.119653225 0.17453359 0.03183129 0.032390185 0.15403712 0.010101737 0.027446892 0.16153048 -0.13757752 0.28380734 0.036520552 -0.2757121 -0.045655183 0.049082357 -0.13361797 -0.14735487 -0.20610957 -0.07830912 0.007360145 0.028591352 0.071500696 0.24853663 -0.058750056 -0.24607624 -0.10656553 -0.10158774 0.080124706 0.06854877 -0.060583673 -0.1741531 -0.39679617 0.20317364 -0.13124652 0.2998785 0.21249656 0.3596016 0.034715597 0.14974311 0.078561865 -0.15068966 0.20934753 0.16382378 -0.08600083 0.119491614 0.019149821 0.21689478 -0.004651578 -0.55475813 -0.04813982 -0.085863024 0.189518 0.08415514 0.44403547 0.2694514 0.32237557 -0.14769955 0.0054619955 -0.11691209 0.056191828 0.12545158 -0.09132614 0.12153497 0.1732922 -0.18704475 0.049611587 0.09228564 -0.14462699 0.07582479 -0.0064205984 0.13016856 -0.040654395 0.32216513 0.04502196 -0.043042053 0.023658574
15 0.121858075 -0.42959717 0.2002743 0.1273337 0.22076514 -0.00223904 -0.29807398 -0.43650463 -0.048768822 -0.0133004375 0.18558325 0.15839884 -0.09489248 0.15384567 0.016550945 -0.13789152 -0.2693947 -0.23527454 -0.05517973 -0.30434245 0.1727386 0.14477184 0.033286095 -0.20263322 0.22197586 -0.2526499 0.14305615 0.0094816 -0.31618994 -0.036045995 -0.21853153 -0.03262336 -0.2470026 -0.1481403 0.047397424 0.15601398 0.18771023 -0.15703225 0.2299083 0.10164265 0.24722987 0.07348733 0.41161907 0.103325695 0.0853318 0.1710811 -0.35043788 -0.06513219 -0.2245575 -0.25414813 -0.009323247 0.17419505 -0.028857337 0.37560895 -0.13218917 0.2245249 0.0009141818 0.06698693 -0.35097128 -0.2666074 0.24946566 0.0012237995 0.19787975 -0.047492247 -0.01803417 0.21057111 0.04870227 -0.108977504 0.086807996 -0.06283443 0.15270299 -0.067246646 -0.16317706 -0.1691376 -0.11665486 -0.14295143 -0.042710654 -0.25791672 -0.05828459 -0.13950461 0.12054814 0.097497396 -0.08452525 -0.18787801 -0.18009298 -0.32526252 -0.07434968 0.20876107 0.12366132 -0.15676744 0.4968275 0.42454097 -0.1964763 0.1542577 0.10838749 0.05827955 -0.23905933 0.015606428 -0.09748736 0.29783395 0.011649672 0.056360826 0.050180275 -0.07356868 -0.2824498 -0.1784348 -0.12241138 -0.007988576 -0.07856433 -0.10837066 0.09599304 0.13517019 -0.049830463 -0.25806135 0.14038338 -0.01495988 0.084953204 0.08203118 -0.3747542 0.3038498 0.025838388 0.062129255 0.18108602 0.2900725 -0.23354778 -0.03307154 -0.18236786 0.28784356
14 -0.21115334 -0.24480988 0.30053484 -0.14410864 -0.1119878 -0.35401326 -0.06130413 0.045880847 0.14950685 0.33313036 -0.12752631 0.18179023 -0.041013017 -0.143829 0.075975664 -0.1522663 -0.23171885 0.010883727 -0.23726968 0.194468 -0.021190396 -0.19870014 0.24193692 0.112550855 0.033556465 -0.30812562 0.12873504 0.08464042 -0.09334071 -0.1287127 0.2665736 0.29125392 -0.19509083 0.06538511 -0.054792173 0.24221994 -0.14295311 0.03568387 0.044426836 -0.12723604 0.05047071 0.06155408 0.29729146 0.11976257 -0.4056624 -0.4186235 0.07397478 0.08900484 0.20389795 -0.0913797 -0.3263635 -0.06715703 0.19028401 0.2548826 0.2825435 -0.15546629 -0.4140165 0.0033087889 -0.13927208 -0.042100254 0.0048660208 -0.121083 -0.044376705 -0.045725822 0.14881927 -0.042412847 -0.40623656 0.08679554 -0.025896449 -0.030923666 0.06070628 -0.16213125 -0.020087153 -0.12241167 -0.13685247 -0.12143178 -0.16045699 -0.24409412 0.0378202 0.101003334 -0.21281801 0.25317144 0.018780246 0.14271915 0.23913483 0.08919452 -0.15627238 -0.030154303 -0.030042805 0.0962681 0.054138083 0.49238053 -0.060969315 0.026181027 0.07487442 0.040528458 0.1543802 0.11436549 0.009881074 -0.06808745 -0.24974272 0.17778073 0.025116019 0.060034197 -0.17852734 -0.06964982 0.14220247 0.068365015 -0.040679727 -0.12392743 -0.21271347 -0.24105704 0.1597918 0.047794465 0.29751524 -0.21784072 0.06898111 0.09600885 0.093139164 -0.06707561 -0.13779888 0.19373815 0.2601543 -0.09804499 -0.0706902 0.017441478 0.06870121 0.095894076
26 -0.20424265 -0.07973945 0.4799713 0.2207041 0.5053649 -0.04635019 0.6539726 -0.014353112 -0.1630224 0.07015697 -0.14654985 0.1350687 0.017046122 0.080725916 0.121567875 -0.23145647 0.07030041 -0.13950433 -0.08013505 -0.0285883 0.11243818 0.40193003 0.051476073 0.02447317 -0.05753086 -0.29652444 -0.044004552 -0.2396193 0.21215731 0.097789526 0.005559046 0.2601158 0.008404308 0.06102239 0.22271903 -0.24144998 -0.14662074 -0.1199669 0.20646374 -0.11440348 0.29751185 0.005821619 0.081830345 -0.36090887 -0.05083127 0.19210577 0.14028719 -0.11281287 -0.2035341 -0.09001829 0.19873141 0.0242036 0.1964944 -0.1459899 0.1928655 -0.13473348 0.026827307 0.31633884 -0.04980991 0.045362692 0.09859445 -0.14921586 -0.032376092 0.24120319 -0.106232844 -0.05259831 -0.002399628 -0.1949309 -0.119514905 0.0225304 0.32319036 -0.1079042 -0.14260721 -0.024676371 0.16107523 -0.10011775 -0.014539819 -0.026299939 -0.43268758 0.03766735 0.03454411 -0.095265545 -0.22864425 -0.069306605 0.15315631 0.009979182 0.08194238 0.33381185 -0.23157194 -0.26242957 0.41220957 -0.043920152 -0.060093064 0.0019913435 -0.10535778 -0.26698324 -0.071322925 0.053968612 0.07426945 0.27870664 -0.057869136 -0.11545405 0.14889213 -0.15736127 -0.020325283 0.066905245 0.35012648 -0.111520655 0.18485174 0.13209781 -0.004970809 0.14810938 0.2242918 0.13556243 -0.37341264 -0.3601884 0.22146577 -0.47573096 -0.03812008 -0.21171778 0.25852484 0.2957718 0.25891468 -0.11275306 0.13164526 -0.18322396 -0.023820663 -0.009229421
4 -0.37317055 -0.09693576 0.16859393 -0.11597098 0.14004627 -0.135584 0.03313747 0.1609984 0.08606438 0.13215515 -0.34709296 0.28754932 0.060604114 -0.07784308 0.40169865 -0.31356022 0.0138711175 -0.16883501 -0.16465832 -0.082159445 0.26400205 -0.14420745 0.011795609 0.031778045 0.1397927 0.03660979 0.25260058 -0.1317784 0.26738358 -0.2025599 -0.2714668 0.20467114 -0.4535221 -0.006336222 0.17411342 0.18304382 0.097011864 0.13878278 0.019399764 -0.2589651 -0.034126837 0.053959608 0.25507993 -0.08504835 -0.00089795317 0.0046220124 0.1872193 0.06663098 -0.007908837 -0.12284795 -0.006345905 0.08202159 -0.18932725 -0.21065287 0.108775176 0.11114381 0.060719598 -0.040115032 -0.042932145 -0.24432497 0.07853977 0.14833143 -0.085693166 -0.27772874 0.11688062 0.21032171 -0.2447155 0.469687 -0.04181387 0.05157054 0.20210108 -0.025426304 -0.08965638 -0.24749449 0.21561289 -0.24036226 0.091445714 0.12455558 -0.1685996 -0.1309149 -0.24990153 0.12736955 -0.21393028 -0.13075341 0.17565183 0.20582458 0.0834943 -0.0841359 0.08437574 0.18703309 0.23756126 0.38114038 -0.08454585 -0.16509002 0.04875675 -0.122117564 0.11869881 -0.16519228 -0.082361355 -0.14465252 -0.23825979 0.2261785 0.29033348 0.13799106 -0.17597741 -0.0063322964 0.006618367 -0.041592367 -0.1366244 0.030818341 0.07932974 -0.5556743 0.14604114 0.093319945 0.068154454 0.038302604 0.06548777 -0.101006664 -0.19237815 -0.1222427 -0.04348646 0.24422014 0.11454276 -0.007810127 -0.25127062 -0.06543078 -0.18771882 -0.13170373
40 -0.09143957 -0.08117703 -0.12998036 0.034815587 0.11059383 0.20065185 -0.15681382 0.0230834 -0.022582218 -0.38204402 0.13431025 0.06904535 0.37289134 0.07345592 -0.39899963 -0.39674607 -0.12186227 -0.2318122 0.08107003 0.26230004 0.42753124 0.24953954 -0.020153936 0.24550639 0.06640033 -0.06239346 0.06963151 -0.23636489 0.048998345 -0.31952468 -0.15100281 0.23021631 -0.02488033 -0.03708721 0.08352172 -0.21074021 -0.21937661 0.0028654383 -0.123254396 0.032230157 0.009932634 0.1297416 -0.09557768 0.08512187 0.0045678536 0.04340959 -0.19911721 0.09146735 0.090039305 -0.099272005 -0.11379017 0.1582273 0.1847505 0.08838765 -0.2998016 0.12245152 0.023703977 0.039443254 -0.31358433 -0.07169192 0.32418227 0.16909344 0.13794437 0.04214333 -0.100633405 -0.014211428 -0.08616951 0.16495453 0.42688146 0.2159295 -0.18060684 -0.26066557 0.26373616 -0.06099126 -0.03544812 -0.124444366 0.030633522 -0.2806802 0.08040621 0.13061279 -0.088184595 0.20468347 -0.16168198 -0.13372017 0.1452889 0.025139721 0.18629958 -0.16083275 -0.1392866 -0.046025198 0.2340456 -0.091578886 -0.08137473 -0.021062551 -0.16161805 -0.11505216 0.1808126 -0.5306949 0.39756227 0.23990132 -0.44358322 0.20549105 -0.09218323 -0.0027268252 -0.2537142 0.059716612 0.021673087 -0.026561564 0.2729588 -0.046401873 0.07399493 -0.3395279 0.27634385 0.17550473 -0.0010268479 0.31696495 -0.024874577 0.19594002 0.26406515 -0.07091009 0.03575701 0.34642825 -0.012230932 0.04510786 -0.07431353 0.015237471 0.07139006 -0.014505714
18 0.16302328 -0.18796209 0.23281375 -0.16960108 0.121320054 0.1234745 0.16500664 0.061336007 0.011616906 0.2878477 0.07172436 0.07930811 -0.097862005 0.15185611 0.19280356 -0.42258582 -0.105773844 0.032139014 -0.23702894 0.19090502 -0.1134099 -0.44411328 0.31097388 0.049273606 -0.0243507 0.20410919 0.039916333 0.035782225 0.26173228 -0.39976668 0.28859842 0.07602463 0.22344744 -0.056051742 0.07085621 0.0128506925 -0.098552376 -0.20158067 0.040219095 -0.22462742 0.23118225 0.28770292 -0.15480952 -0.11515303 -0.15382771 -0.3471896 0.049321827 -0.036133476 -0.098161824 -0.37046996 0.2072338 -0.051258765 0.05821209 0.0009162719 -0.15077166 0.17851411 -0.11841753 -0.08040277 -0.26899457 -0.24195126 -0.19826338 -0.3759319 0.004574797 0.14064841 -0.14074002 -0.46082264 -0.12006309 -0.053087488 0.16228689 0.047207385 0.13929155 -0.21343322 0.08520961 -0.23944567 -0.13199611 -0.09775513 0.21954052 -0.06297654 0.25937444 0.09782276 -0.5406177 0.3465845 -0.10763277 0.059407763 -0.26614293 -0.020878682 -0.11158239 0.121236406 0.16205761 -0.1213902 0.101533785 0.42921767 -0.050120138 0.1449962 0.08775797 -0.27694264 0.19640458 0.03985799 0.23765144 -0.030205831 -0.24207468 0.43367344 -0.075487226 0.3020239 -0.030852975 0.088695705 -0.054305594 0.026962517 0.1954701 -0.33956122 -0.46047047 0.059954207 0.107077815 -0.28568402 0.07470083 -0.1878308 -0.09207416 -0.12277418 0.10956491 -0.08453076 -0.18698403 0.12560976 0.088439204 0.17782143 -0.37478396 -0.18236715 0.022979256 -0.021866668
29 -0.2104531 -0.2707217 -0.1142948 0.19742338 0.056477867 0.059909865 0.10234385 -0.18441038 0.08880675 0.5037718 0.07718336 0.06488302 -0.03831484 0.015611435 0.24610987 -0.08244784 -0.14954104 0.02446418 -0.034455173 0.174163 0.044997096 0.18312149 -0.06512248 0.5285562 -0.21781194 -0.11989266 -0.005421039 -0.014534947 0.42112845 0.016510159 -0.093014196 0.15745026 0.14364742 0.22108473 -0.15669791 0.2828989 0.0681785 -0.2933597 -0.39929327 0.35505843 -0.057548236 0.20656087 -0.013866487 0.26630336 -0.07062629 0.04691779 0.117340244 0.24182771 -0.08847595 -0.32035848 -0.015505687 -0.15678763 -0.1047026 0.14110716 -0.18192603 -0.31812593 0.023093846 0.35577968 0.009257806 -0.19443785 -0.17350663 -0.13794442 0.16282442 -0.16292463 -0.16831869 -0.05655763 -0.19605173 0.40872437 0.07706684 -0.044727433 -0.094796404 -0.31378955 -0.2749343 0.1372205 -0.36401626 0.11368996 0.26957527 -0.5286459 -0.05274274 -0.07590841 -0.23347285 0.15402791 0.05041064 0.040365905 -0.109174624 -0.14518654 -0.06317662 -0.050341394 -0.060466707 -0.020282 0.44178277 0.09142765 0.1138583 -0.006696269 -0.10826503 0.24598764 -0.08461495 0.1379463 0.2465964 0.17234193 -0.27400017 0.3922079 0.07782947 -0.119260825 -0.35645965 0.11127819 -0.327196 -0.16574283 -0.08578979 0.0004460159 -0.45155287 -0.11977998 -0.036669225 0.20285097 -0.24035758 -0.06705841 -0.1316746 0.15949382 -0.110125296 0.031609796 0.17025973 0.036244478 0.079035975 0.011034811 -0.31932154 -0.35696772 0.12523936 0.24374053
5 0.044027153 -0.34025252 0.046628464 0.38159412 0.267434 -0.39447528 0.19899094 0.23571096 -0.15456577 0.02580417 0.38035032 -0.08574422 -0.17774202 0.4396786 0.21188074 0.21915631 -0.30171886 -0.45616147 -0.18307489 0.050471723 0.20769677 0.1575807 -0.48632854 0.21171758 0.34833694 -0.10536324 0.14993194 -0.25358534 0.18569359 -0.02979392 0.15022956 -0.10621083 -0.29570875 0.055779584 0.0044291182 -0.1263395 -0.15262923 0.041948274 -0.3781949 -0.07418292 0.115321666 -0.22088984 0.0104005365 -0.13322374 -0.2750748 -0.11358872 0.06637291 -0.28918982 -0.10223341 -0.35166818 0.19848397 0.08965531 0.19767693 -0.34055004 0.14470115 0.06335025 0.44133553 -0.036967326 0.26126626 -0.09011326 -0.085949644 0.05353123 -0.08409521 -0.0026498344 -0.09707769 -0.1461624 0.26065934 -0.056585442 -0.5378288 -0.099061705 -0.13693532 0.17079014 -0.020091608 -0.2502809 -0.29245493 -0.2657452 -0.19537942 -0.3569005 -0.40093422 0.27235135 -0.14283751 0.38155335 -0.2701735 -0.43623728 0.060332634 -0.22534062 0.29303318 -0.03296829 -0.33412024 -0.04425142 0.20755646 0.23746346 -0.19285157 -0.041261952 -0.28466967 -0.08017096 -0.026962198 -0.2866141 0.41023603 0.13520196 -0.47311315 -0.15260774 0.023969086 -0.20642217 -0.022448577 -0.4753493 0.29503235 -0.089614175 0.18588856 0.017634263 0.04702545 0.09027301 -0.0031852028 -0.07576199 -0.08452759 0.4557445 0.04054583 0.1396324 0.17533669 -0.1771741 -0.04281726 0.055420544 0.23792334 -0.1609624 -0.2400015 0.14630595 0.08153732 0.18169346
1453 -0.19947274 -0.18083754 0.30117652 0.005059932 0.11832663 -0.062067732 0.16024454 -0.14014153 0.18112357 -0.14483617 -0.11744825 -0.0048186667 0.12552762 0.079598665 0.12207766 -0.14549485 -0.045634385 -0.11024789 -0.21315491 0.15295318 -0.06817875 -0.20575666 -0.124845274 0.08152275 -0.01970973 0.035356138 0.19164336 0.18711032 0.0034605875 -0.13814148 0.101383254 -0.075984456 -0.1125619 0.24977213 -0.08543924 0.12343553 0.10155938 -0.20517784 -0.062542625 -0.010542356 0.008550933 0.03708045 0.100069955 0.025549425 0.11158211 -0.19856125 0.10415301 0.16144034 -0.08733922 -0.35183004 -0.06722848 0.16120946 -0.022309616 -0.06870352 0.051377993 -0.10672959 -0.14513254 -0.060412526 -0.26769865 0.06656157 0.16573863 -0.16569576 0.05016683 0.049727246 -0.026849408 -0.28824592 -0.23530407 0.0038249837 0.1236251 -0.09791992 0.050690833 0.06252451 -0.013870571 0.03551381 0.014735258 0.013457988 0.20781332 -0.12817754 -0.08766993 -0.101513825 -0.019796878 0.2140352 -0.1195242 -0.18419203 0.14192742 -0.019986732 0.12435605 0.16593845 -0.14969866 0.19272956 0.4593465 0.22554836 -0.06426082 0.14609659 -0.13638866 0.08772734 -0.00024227567 -0.07929289 0.14408898 0.037575036 0.12497108 0.035533443 0.03370057 -0.0011238512 -0.21112001 -0.09240014 0.15355927 0.34921947 0.09341364 -0.13220024 -0.047971148 0.1444375 0.03694018 -0.05695217 0.22956042 -0.14359616 0.058915958 -0.078600526 -0.17177515 -0.031422507 -0.1585168 0.11467426 -0.022578096 -0.000815832 -0.19534464 -0.069393486 -0.00030242882 -0.09630041
396 0.48759985 -0.251262 0.21237111 0.49704447 0.08920769 -0.077315815 -0.16852635 0.07455136 0.1713387 -0.11632619 0.15100184 0.026004564 0.13351351 0.3117864 -0.078764744 -0.20382674 -0.06791181 -0.1816066 0.20890287 0.024792483 0.27955896 0.11857516 0.08537871 -0.07408656 -0.017173063 0.01810602 0.02511016 -0.18213497 -0.16951519 0.08032909 0.04915901 0.20391262 -0.23571624 0.16779794 -0.116141744 -0.28093532 -0.024502365 -0.4504921 -0.09346865 -0.1755789 0.19055852 0.21396427 0.020115886 0.02450508 -0.37307563 -0.05771645 0.264967 0.11260759 -0.20802718 -0.09903514 -0.11593096 -0.117752396 -0.3129541 0.030788176 0.0804748 -0.08134446 -0.07579816 0.06970556 -0.029334886 0.035410278 0.36980027 -0.25219744 0.041989077 -0.010450516 -0.1530137 0.042018026 -0.1381313 0.0011853245 0.08740277 -0.057194993 0.11437153 -0.011421583 0.04592018 -0.15066849 -0.032681733 0.01519428 0.032198325 -0.16683684 0.07028708 -0.18508008 0.05085754 0.07570124 -0.070344485 -0.120859474 -0.16731375 0.11282836 -0.057084966 0.008188868 -0.16742699 -0.0097841425 0.28264558 0.39052862 0.074608885 -0.14389594 0.12609024 -0.11001776 0.17805478 -0.027322615 -0.033670727 0.063671485 -0.031162234 0.27784392 -0.19784571 -0.23618287 0.016097233 -0.026822295 0.16322516 0.17422314 0.1177733 0.11928046 -0.31449664 -0.030869933 0.12937886 0.19627756 0.23707798 0.014607843 -0.121293895 0.13095577 -0.16877809 -0.20650424 0.14815633 0.06355715 -0.25733334 -0.008094867 -0.1683043 -0.056952875 -0.0841747 0.18515766
62 0.1023115 0.14101055 0.09688363 0.1961305 -0.050072227 -0.22636439 0.045870103 -0.15394823 0.1531337 -0.14912991 -0.14715429 -0.43757823 -0.20339876 0.020945136 0.15537328 -0.2787245 -0.016303549 -0.10268399 0.16377443 0.027689708 -0.19029076 -0.08879243 0.08385767 0.23766431 0.14819302 0.012866587 0.15784012 0.32825565 0.087674566 0.18666838 0.0066728997 0.07001796 -0.24370721 -0.119757906 0.42193076 -0.024616694 0.2176226 -0.4174297 0.054892085 -0.09810373 0.18098794 0.032097034 0.01418656 -0.03204452 -0.10314963 -0.09697413 0.05811905 -0.17337598 -0.074522085 -0.11817137 0.21859953 0.0770791 0.12834395 -0.2138221 0.18921517 -0.027880685 -0.084828734 -0.1242525 0.27843916 -0.14906792 0.26873013 -0.17076492 -0.11306138 0.19188128 0.105040744 -0.22412677 -0.17742799 0.20946193 -0.054787736 0.27679533 0.17110617 -0.076674014 -0.043061264 -0.14261924 -0.06385345 0.15498374 0.070084736 -0.2914098 0.25653687 0.15004638 0.082364984 0.05034246 -0.25634524 -0.09761399 -0.19204791 0.05356355 -0.32082793 0.27616802 0.17908093 -0.33469945 0.12647565 0.18548399 -0.2523458 0.20397985 -0.03578006 0.18749908 -0.18353112 -0.0013978651 0.027561938 0.13567339 -0.10694715 0.12471823 -0.052486032 0.4562848 -0.105443686 -0.060378376 -0.35799807 0.2000493 0.104687944 0.1357559 -0.023721559 0.20587854 0.06497933 0.069188565 0.19577914 -0.18507046 0.045590278 -0.2793389 0.06331415 0.05917954 -0.019052884 0.27843887 0.39583337 -0.347156 -0.33752075 -0.14426282 -0.028562848 0.08452913
21 0.25112376 -0.18207064 -0.0013162548 0.10888648 -0.20507295 0.3359129 -0.0030129468 0.32854196 -0.18230017 0.15321974 0.28276023 0.013397529 0.063557774 0.081491075 0.35651094 -0.27614194 -0.106076956 0.06287657 0.22283942 0.0026762395 0.0040396685 0.16188028 -0.010270274 0.38844872 0.14630033 0.23351493 0.3578808 -0.10797316 0.24509025 -0.0924881 0.018458946 0.2658017 -0.24621452 -0.07001783 0.095638 -0.12409583 0.03378206 -0.34419352 -0.18400842 0.3539057 0.13839875 -0.18547726 0.33065903 -0.082809374 0.38149333 -0.19117136 0.26259178 -0.019906737 0.1357637 0.23684946 -0.018999463 0.0885196 0.097053885 0.018201897 0.121033646 0.08215673 -0.17630391 0.08489711 -0.0792056 -0.30257002 -0.061228123 -0.033021517 0.065718666 0.107539706 0.0007230873 -0.37201333 0.09762173 -0.12378651 -0.23863283 -0.2994071 -0.18651712 0.06262258 0.030311657 -0.22110167 0.15157534 0.020776892 -0.28449285 -0.21572563 -0.22585067 0.32302964 0.001740164 -0.08216914 -0.09352288 -0.30777508 -0.1353644 -0.139251 0.13894229 0.2634223 0.3679392 -0.010304841 0.13989154 -0.014536317 0.002053812 0.37946138 0.26882535 0.019112566 -0.114803605 0.19345953 0.16750428 0.34685412 -0.47649255 0.2268572 0.21475694 0.16305527 -0.117319465 0.3335816 0.19604644 0.14060332 -0.03259577 0.21734948 0.0024227954 -0.0032208087 0.13475774 0.32741418 0.07984269 0.16481465 0.23182209 -0.14624816 -0.117261395 0.11380513 0.4149944 0.13567102 -0.071834184 -0.4252838 0.16131927 0.22307144 -0.18288592 0.34556025
7 0.39283392 -0.23364064 -0.00894138 -0.026059711 0.2831744 0.08162761 -0.07055624 0.33351636 -0.007182915 0.043349475 -0.3235809 -0.034952495 -0.26942375 0.2189504 0.39450154 -0.04048758 0.18409982 0.10248503 -0.092015624 -0.078733094 0.10557916 0.036441296 -0.054383393 0.2355914 0.014886033 -0.01706075 0.100449376 0.30258167 0.042778242 -0.1791269 -0.07909957 0.20172945 -0.18940938 0.014129331 0.22909135 0.2847497 0.13847396 -0.18989047 -0.2860453 -0.21053828 0.32348514 0.1539349 -0.051108636 -0.1927918 0.14862135 0.23442517 -0.26149634 0.016448446 0.19271488 -0.097258955 0.08991295 -0.091125935 0.17854728 -0.0020888676 -0.25834888 0.09882869 0.2919498 -0.16187102 -0.16589144 0.018332196 0.31530997 -0.025428608 -0.06529463 0.1602566 -0.091833755 0.0005199621 -0.28591967 0.6279816 -0.109173484 0.08412012 -0.018020961 0.13126709 -0.19183642 -0.1800242 0.06164137 0.15359622 -0.35297343 -0.23299299 -0.13027807 0.10276058 -0.14185514 -0.23534358 -0.13357426 0.11691138 -0.08049198 -0.2828252 -0.47571573 0.17918241 -0.21400888 0.19750762 0.10298504 0.32267678 0.10485179 0.19838588 0.15860853 -0.0073499456 0.1258313 0.0245226 -0.11379641 0.012616749 -0.0036104345 0.43499967 -0.4272936 -0.11729652 -0.03962744 0.14221865 0.22491226 0.28195956 0.0956236 0.01509598 -0.11851127 0.20657901 -0.0553373 0.20353384 0.13295862 0.12822786 0.1414224 -0.09348081 0.074264154 0.078702845 0.054131664 0.5804427 0.11393707 -0.3075651 0.11396036 -0.39058462 0.17271273 0.20049474
13 -0.053739723 -0.12781292 0.23210199 -0.008628695 0.09483615 -0.26653615 0.12125831 -0.15336503 -0.09928753 -0.038332462 -0.24726415 -0.11425943 -0.017638717 0.052009936 0.38580903 -0.37729073 -0.034344863 -0.15001455 -0.17546959 -0.06565664 0.08190955 0.135335 -0.1360336 -0.03406203 -0.073594995 -0.0840582 0.29949495 -0.15285113 0.13266197 -0.26395887 -0.41251686 0.17519756 -0.33506066 -0.03600224 -0.08319128 0.010614352 0.27177587 0.20123029 -0.11973564 -0.13577035 0.027377639 0.028321505 -0.04957241 -0.3942168 -0.056857802 -0.18591425 -0.116468236 -0.079389736 0.050055824 -0.095613874 -0.082476735 -0.09678292 0.06521186 0.21988223 -0.17884073 -0.5316163 -0.32440147 -0.061250996 0.20753166 -0.27607223 -0.055953495 0.06158366 0.1809557 -0.1483999 -0.026281154 -0.08061899 -0.39035678 0.13124506 0.10344426 0.22575659 0.13310678 -0.2691758 0.18520133 -0.17658137 -0.10077257 -0.4221927 -0.24433471 -0.034688313 0.31629422 -0.4992724 -0.063168116 -0.048556797 -0.24152161 -0.0597425 0.065506004 0.21018812 0.25237107 -0.10191444 0.21473946 0.20226605 0.19189101 0.09598083 -0.04679186 0.13513163 0.02637467 -0.18761247 0.066909425 -0.08857326 -0.18487899 -0.12287904 0.24753635 0.086496994 0.28488567 -0.15056205 -0.15148044 -0.05635254 0.20965712 -0.19147204 0.14494632 -0.31628633 -0.0028534161 -0.43338206 0.35075054 0.28467745 0.066166125 0.115998514 -0.14940386 0.2780206 0.21839087 -0.10971623 -0.36050072 0.2807624 0.06506663 -0.20365982 -0.36743772 0.24300897 -0.036663134 0.28880912
54 -0.21252015 0.0119644925 0.17692757 0.28074247 -0.3389359 -0.2233111 -0.17322586 -0.39163318 0.21371616 0.013100939 -0.13669257 0.060803033 -0.029844193 0.12318245 -0.11630269 -0.14994977 -0.09105371 -0.06354954 0.047409534 0.28300798 -0.07472277 0.14535588 0.17426753 0.35195628 0.028809214 -0.44688553 0.012057548 -0.20038775 0.3563346 -0.07643938 0.25572547 0.37822393 -0.2207983 -0.009094173 0.048339725 0.033427328 0.04295807 -0.552608 -0.2634712 -0.21327852 -0.021095201 0.07821639 -0.012345913 0.11411151 -0.0956485 -0.061257068 -0.046250418 -0.010862059 -0.15781064 -0.32370695 -0.09836504 0.21656622 0.15140186 0.16019458 -0.06030524 -0.40613377 0.22038299 -0.08920887 -0.1698904 -0.36968893 -0.070717804 -0.17825104 -0.18454087 0.11661445 0.10865921 -0.2818831 0.07955588 0.12217459 -0.40829974 -0.012451998 0.19399118 -0.019989671 -0.032379966 -0.10066551 -0.07480221 -0.13088182 -0.28417015 0.11596657 0.1318671 0.045543045 -0.05777944 -0.16627228 -0.089960165 -0.23713164 0.048231356 -0.22826514 -0.40644693 -0.028564626 -0.14777534 0.2666402 0.030060548 0.23018272 -0.39151928 -0.08129707 0.12953174 0.04693136 -0.38269705 -0.072473824 0.067912124 -0.033856705 0.11319009 0.18118714 0.28949556 -0.018593887 -0.005564424 -0.09211794 0.4614375 0.025941163 -0.065371126 0.21462375 -0.21078226 0.055297665 0.016588327 0.19375359 0.25940382 0.055171177 0.09212054 0.20111577 0.101655625 0.13262744 0.011584405 0.08245829 -0.09084959 0.20615211 0.057532344 -0.07258432 0.054879714 -0.1651311
516 0.29163378 -0.082165994 0.13021675 -0.011014432 -0.08253353 0.08748513 -0.10000667 -0.049206145 0.35616618 -0.054081045 -0.033100877 0.1790745 0.1485314 -0.06506323 0.3207508 -0.012935155 -0.3957294 -0.20904395 -0.16134445 0.2457951 0.21245798 0.10309426 -0.17434251 0.09799623 0.12939505 -0.2664979 -0.0714117 0.13825227 -0.18092416 -0.03812722 -0.1367847 -0.02062209 0.027078856 -0.2553843 -0.08459425 0.013965345 0.1641859 -0.019015811 -0.25851402 0.032729752 0.19205065 0.1624826 -0.33860534 0.039485116 0.09096075 0.06782039 0.0677871 0.03398207 -0.23694648 -0.085589066 -0.13395205 -0.07267536 0.078534976 0.28300512 0.25278974 0.018992167 -0.09855667 0.049514282 -0.129081 -0.051216017 0.1203872 -0.13287814 -0.051801126 0.07070872 -0.13897796 -0.22967757 -0.08339176 0.1678273 0.017317446 0.108057044 0.09168202 -0.11060261 -0.2417329 0.07968605 0.022537667 -0.21396887 -0.048507225 -0.3630888 0.030286405 -0.04347719 -0.17023733 0.074644305 -0.11946368 -0.14170599 -0.05727113 -0.20809092 0.0862225 0.29334557 -0.24684279 -0.1508701 0.07083225 0.34473774 0.004278464 0.115086176 0.20251073 -0.07231214 -0.20627403 -0.09819838 0.004919474 -0.1486849 0.17109548 0.11724742 0.050290927 -0.16569425 -0.23309872 0.24012096 0.18385507 0.27224624 0.26134717 0.039899398 0.13280763 0.13538712 0.05099008 0.109199 0.13874803 0.053003147 -0.26836216 -0.083305806 -0.15841812 -0.14292271 -0.09074145 -0.013800421 0.2251785 -0.29965878 0.0682332 -0.21226707 -0.13710175 0.3224826
72 -0.35839212 -0.40930596 0.03745394 -0.10622696 0.13601817 0.18479444 -0.043137904 0.07634614 0.2220276 -0.08315779 -0.11239913 0.25711203 -0.318263 0.03285654 0.28669706 5.841028e-05 0.09033386 0.1800881 -0.16244522 0.1694804 -0.14147307 0.018669587 0.04031714 0.21765825 0.3324946 0.21617053 0.053108264 0.14640556 0.033043277 -0.4459022 0.17345636 0.12314352 -0.44305757 -0.039633054 0.027889032 -0.044536337 0.08219849 -0.26075202 -0.26435572 -0.0479673 -0.020098636 0.23396775 0.2037525 -0.121833116 -0.2654474 0.0038015912 0.089074686 0.012139755 -0.24469163 -0.3056127 0.1540638 -0.1581475 -0.033503797 0.1601749 0.17910434 -0.05164398 -0.13737684 0.018428447 -0.06304271 0.025134843 0.047719806 0.25308564 0.016191829 -0.064521834 -0.16594477 -0.0020435662 -0.11575057 -0.07848476 0.040422186 -0.27472448 0.117738724 -0.21420431 0.21816947 -0.17394209 0.1414462 -0.04473189 0.067816764 -0.18335263 0.2420872 -0.39052546 -0.21617629 0.3608268 -0.12863079 -0.17554459 0.13560353 0.07671509 0.024636108 -0.34309736 -0.18727744 0.17440519 0.17856573 0.3402115 -0.14008354 -0.17612953 -0.06704359 -0.13266936 -0.18256663 0.09982469 0.15487556 0.101332255 0.10734548 0.3750991 -0.15811177 0.065831855 -0.3007553 0.34688967 -0.022714112 -0.08690358 0.074586384 0.07014658 0.047604684 -0.1797342 -0.005230564 0.063553125 0.22590388 -0.074396886 0.2795752 -0.10178009 -0.05640735 0.029997079 -0.11445643 0.22234654 -0.030613348 -0.15984745 -0.25915477 -0.050992653 -0.27860382 0.38576442
23 0.117182866 -0.1520377 -0.15496773 0.27084017 0.09504324 -0.06110429 -0.364022 0.12665778 0.2536758 -0.12476632 -0.07475409 0.24105392 -0.019655755 0.039198987 0.17925036 0.147934 -0.121418715 0.0898309 -0.21020871 0.6199752 -0.03626642 0.09601094 -0.36616957 0.16965646 0.07779385 -0.30671328 0.025792513 -0.13544229 -0.062094867 -0.13744448 0.13751006 -0.04021419 -0.16993853 -0.06299118 -0.15073667 0.36109015 0.2466707 -0.20398386 -0.12328707 -0.18785237 0.084741235 0.22651048 0.23845743 -0.16032642 0.1719645 -0.122571975 0.08866755 0.34368443 -0.022817887 -0.22987051 -0.102231495 0.14254974 0.1615346 -0.017955951 -0.007975442 -0.24929093 -0.27005702 0.29562613 -0.18130082 0.020406472 -0.0938356 -0.05309043 0.16050994 0.14903511 0.1303122 -0.4635249 -0.17417563 0.112062894 0.19236118 0.06630262 0.38501558 0.18449388 0.107421055 -0.2079262 0.053822283 0.044982176 0.2232012 0.14775169 -0.093216434 -0.04114911 -0.3184962 -0.005766123 0.1529638 -0.08081644 -0.12212808 -0.36738434 -0.29019627 -0.3075905 -0.1289334 0.047875583 0.21508065 0.4647885 0.07930942 0.40015915 -0.19886313 -0.26427808 -0.13116314 0.18631707 0.095993206 -0.20436025 -0.33669034 -0.07189329 -0.0033430867 -0.04661949 0.04086908 -0.099194996 0.06794391 -0.30575007 -0.0054802992 0.10695033 0.014988783 0.06781179 0.055383645 -0.11432346 0.20150769 0.0048665795 -0.1753903 0.048028722 -0.039546568 -0.011923773 0.04059279 0.4656602 0.21047413 -0.08864586 -0.008355808 -0.07402367 -0.2395595 0.07387943
244 -0.24513656 -0.08786158 0.08649347 0.11762202 -0.2288925 -0.042353317 -0.10441993 -0.27657363 0.259434 -0.04244465 0.04762441 0.20797157 -0.10991477 0.2662748 -0.09999303 0.025421211 -0.06724761 0.035263248 0.05706289 0.37061083 0.20312782 0.08644562 -0.10438695 0.5903907 -0.37310132 -0.041830186 0.02383866 -0.26503786 0.26332417 -0.06461009 -0.064968415 -0.08731961 -0.1824449 -0.090463355 -0.09392919 0.24356492 -0.026431246 -0.11347358 -0.08403278 -0.25108764 0.10230522 0.03404088 0.14422938 0.0035809348 -0.06715079 0.020393783 0.03999985 0.17449187 -0.20303299 -0.0060481224 -0.12048271 0.116795115 0.14664897 0.31710947 -0.0882116 0.018629955 0.28864142 0.076349966 0.077401794 -0.1279812 -0.039543 -0.36904612 0.016162995 0.2729573 -0.33407468 0.02879766 0.0013783515 0.14857058 -0.18288459 -0.08480897 -0.026528684 -0.10685133 0.07951047 0.020289859 0.11852009 -0.32470292 -0.27779147 -0.1196196 0.12674566 0.051553488 0.20021152 0.1361206 0.038177386 -0.14775164 0.180144 -0.15441248 -0.014533766 0.30958906 -0.067001335 0.022269215 0.30133387 0.17164905 -0.16640188 0.24943079 -0.08481791 0.08832156 -0.09589502 -0.27186573 -0.10287788 0.11522596 -0.010880408 0.005412688 0.04290315 -0.062325396 0.028651549 0.17061669 0.07197296 -0.17901362 -0.06526591 0.10099287 -0.18041867 -0.25819036 0.16622093 0.064511195 0.43318316 -0.1237838 0.09983168 0.15159275 0.06121056 0.018190887 -0.057591144 -0.0003087802 0.10133934 -0.121360645 -0.122584544 0.027421376 -0.17215721 0.2282318
8 -0.3867315 -0.30210355 0.18612503 0.23601191 0.11606065 0.07052758 0.059001394 0.02619624 -0.17336366 0.49076387 -0.046019174 0.10258695 -0.2134304 0.06882685 0.24847151 -0.17586735 -0.078134954 -0.13421817 0.33274034 0.0857943 0.15777802 0.025481176 -0.3103649 0.3428829 0.07126667 -0.06853395 0.11190109 0.20600434 0.5028462 0.07984853 -0.022071106 0.29062897 0.10157304 0.3181399 -0.32368127 0.34856963 -0.15696728 -0.34096438 -0.13942437 0.30708224 0.06851446 0.24030223 -0.08802022 0.21265452 0.1048771 0.05188574 -0.14120212 0.17818135 -0.15463714 -0.32095486 -0.24543792 -0.17646794 -0.17712328 0.25217125 -0.21206841 -0.29165232 -0.13284719 0.32329118 -0.1584371 -0.31959218 -0.100915134 -0.1715036 0.1285556 -0.20201401 -0.038514555 -0.11780063 -0.37699604 0.36202002 -0.110763304 0.04244009 -0.13960744 -0.38442212 -0.3165165 0.087359525 -0.49387053 0.087883666 0.33477965 -0.2424641 -0.18650118 0.04831892 0.0037410378 0.053556502 0.08553328 0.033469286 0.24947588 -0.077256724 -0.07912879 -0.1382145 0.09630494 -0.18323402 0.16660097 0.2201886 0.0821509 0.08177522 0.060399905 0.09113353 -0.049250115 0.056940693 0.25612754 0.14216593 0.015729235 0.32221088 0.18736365 -0.058340676 -0.191487 0.1895905 -0.35087147 -0.18744312 -0.00076705206 0.06897349 -0.45749322 0.09923436 0.08524713 -0.105268605 0.039023425 0.10335307 0.09461918 0.044177677 0.10693452 0.12219913 -0.015093835 0.31087697 0.2859453 0.1194298 -0.2304364 -0.4725546 0.24704248 0.20915319
25 -0.041043054 -0.29546317 0.23623021 0.08370068 0.048921272 -0.09882931 -0.23056151 -0.25852492 -0.2220379 -0.068035886 -0.033713017 -0.17323233 0.34363315 0.09312533 -0.05886728 -0.21879219 -0.12504937 0.10203481 0.16466504 0.22385561 0.19445771 -0.099254385 -0.32444113 0.009759831 0.5866178 0.022576837 -0.32055378 -0.13273428 0.25527167 0.22297847 0.07716042 0.14503676 -0.15564518 -0.055626847 0.016384264 -0.11800999 -0.21565332 -0.14158948 -0.22694972 0.18983813 0.30470794 0.06918069 -0.20060074 -0.25502616 -0.017420495 0.17156322 -0.39632076 0.30722323 -0.035863493 0.082801595 -0.042682476 0.17385688 0.17307563 -0.054009657 0.12224091 -0.059101555 0.22428201 -0.11103406 -0.2899755 0.062400065 0.24407616 -0.12564975 0.17419949 0.30749637 -0.16487557 -0.14226775 0.09481004 -0.12787688 -0.0031593668 0.5007209 0.044981323 -0.039339077 0.12188574 0.22864033 -0.11162697 -0.2052919 -0.15492195 -0.21304445 -0.048325237 -0.033767004 -0.263517 -0.037493713 -0.32971156 0.19731048 -0.22209658 0.2563118 0.10374126 0.07032211 -0.13077031 0.10458638 0.1433408 -0.13891281 0.027138729 0.0107585555 -0.3739492 0.2199655 0.17054498 -0.17339486 0.41866577 0.10595877 -0.3538509 0.56440467 0.23561284 -0.049793825 -0.45422038 -0.08835528 0.2689665 -0.14328858 0.17774637 -0.26194242 0.20636852 -0.29357105 -0.044895217 0.014909445 0.12494776 0.35757464 0.09955268 0.08603387 0.144796 0.1393384 0.32871133 0.29587796 -0.014065652 -0.09624655 -0.23768564 -0.19711834 -0.24780016 0.21103269
65 0.15429947 -0.3903019 0.3753461 0.18570463 0.312688 -0.11422904 -0.1078763 -0.27889928 -0.051791985 -0.054250408 0.17385949 0.3500024 0.14316268 0.34413344 -0.051072247 -0.19414271 -0.47535267 0.03409575 0.0014910696 -0.1873497 0.2772111 0.12556158 0.19454499 0.15191872 0.11166443 -0.4970254 -0.04126332 0.18741807 -0.27203315 0.10778857 -0.46837586 0.07051437 -0.06789087 -0.1108556 -0.09552261 -0.19164605 0.27960917 -0.2556954 -0.041511435 0.1764318 0.08446798 0.09695299 0.21901345 0.19522603 0.26645902 0.21612042 -0.27071446 0.03388314 -0.091463774 -0.43007728 -0.26897067 0.07054984 -0.14210944 0.09702987 0.036812484 -0.12478338 -0.23014772 0.046376083 0.0008985226 -0.2079356 0.024283627 0.35413072 -0.07100082 0.15712883 -0.31514063 0.18240742 0.040862855 -0.08670651 0.1553525 0.15592024 0.033002082 0.037447054 0.16990966 -0.23221342 -0.104360014 -0.23452793 0.055449665 -0.43350068 -0.20183526 0.03662644 -0.1683206 0.33829352 -0.3618098 0.034268923 -0.17847657 0.0027671573 -0.012199554 0.21215153 0.1581699 0.16183348 0.19517322 0.36423844 -0.035549194 0.116192944 0.17703423 -0.0025987127 -0.2662536 -0.054685522 -0.18236084 -0.11783789 0.26050833 0.118198596 0.045653958 0.04009704 0.06466018 -0.0465586 -0.002618089 -0.08530495 0.040219236 -0.13881494 0.12594318 0.3074696 -0.0425842 -0.008460012 0.0789196 0.0068042497 0.0070825014 0.0890325 -0.15033431 0.13448305 0.21744989 0.1605397 0.41426718 0.35385934 -0.21233968 -0.06407814 -0.014103412 0.3587004
481 -0.03271842 0.07182571 0.38647658 -0.1308487 0.2833641 -0.3873271 0.2533394 -0.027717832 0.059096098 -0.07738666 0.13642578 -0.07760767 0.03275302 0.08784571 0.032787513 -0.11826086 -0.10925666 -0.063748576 -0.046699826 0.028079486 0.104123555 -0.079510465 -0.17898215 0.1190718 0.0036890004 -0.109229 0.43540385 0.032535404 0.06438833 -0.17516775 0.056911185 0.46189263 -0.013944127 0.070471905 0.1343767 -0.32670096 0.10352358 0.19388999 -0.2597299 -0.16008578 -0.020300841 0.16192412 0.10612083 0.015539119 0.01476033 -0.04027958 -0.06694804 -0.0228196 -0.09937525 -0.15415134 0.04909283 0.03168429 -0.13075298 0.18607123 0.094446994 -0.03740379 0.068614855 0.14979109 -0.00482017 -0.03590704 0.08728948 -0.09466008 0.19751935 -0.2300445 0.023913812 0.15983656 -0.41515455 -0.2208664 0.10719895 0.104894534 0.20476323 -0.079361685 -0.17900816 -0.28082597 0.06121943 0.40596405 0.15083872 -0.16573444 -0.5649172 0.11913365 0.13159418 -0.21463826 -0.3502166 -0.07506112 0.03670238 -0.010602207 0.08278483 0.12671857 -0.31188047 -0.2657059 0.16035384 0.049853146 -0.10475256 0.1883713 -0.08002986 0.0669655 0.14571518 -0.03740439 0.11908996 0.23409826 -0.029661901 0.19127898 0.1321547 0.046665337 0.0077210795 -0.049723394 0.34049127 0.1339376 0.04609335 -0.0111996895 0.057538502 -0.123872556 0.090010084 -0.13985598 0.01882416 0.14289783 0.041922804 -0.02676911 0.23584118 -0.1497648 -0.054329734 -0.068385266 0.14921588 0.02376735 0.100409076 -0.00873319 0.050572086 0.2814485
19 0.1076165 -0.39624047 0.39232084 0.51720166 0.044011053 -0.117790565 0.0754662 0.06942473 -0.041974615 0.074005686 -0.21549807 0.22377554 0.17180495 -0.47050214 -0.059616692 -0.13693045 -0.17022516 -0.27846462 0.091966994 -0.23892117 0.46420315 -0.25255132 0.08479578 0.14875637 0.06178507 -0.14102334 -0.097758 -0.21203075 0.14857413 -0.140707 0.22078095 -0.32077745 -0.6307245 0.27620745 -0.07185026 -0.21635811 0.052283514 0.063784316 0.1766231 -0.34107405 0.14255431 0.049301554 0.37324396 0.11465276 -0.041981287 0.31718767 0.14830112 0.050680406 -0.19320828 0.26653314 0.05261013 -0.03255083 -0.073106624 0.16303791 0.23548959 0.25855193 0.1428966 0.22440848 0.1033446 -0.120367296 0.112335585 -0.27084935 -0.27756658 0.23267227 -0.06657937 -0.23527822 -0.1975203 -0.11986472 -0.03607056 -0.16420859 -0.068129875 0.19927199 0.23886348 -0.18267821 -0.11706068 -0.06263929 -0.010843219 -0.11172542 -0.15917447 -0.03792751 0.08447361 -0.074269295 -0.2502321 -0.21690336 -0.3306705 0.12823397 -0.018725153 0.00012802043 -0.10260267 -0.37248418 0.3800746 0.07575652 0.20670737 0.43364117 -0.18799934 0.12435465 -0.22626102 -0.10603987 0.26462683 -0.24186254 -0.040638275 0.36875424 -0.36632538 -0.07531534 0.045770418 -0.026002638 -0.31208172 0.122000866 0.10892974 -0.103674784 -0.24250604 0.29087567 0.29858607 0.25548247 0.028948085 0.27019152 0.20749697 0.35979748 0.36510384 -0.15226366 -0.2107133 -0.0657212 -0.093713455 0.10137125 -0.04125737 -0.24404806 -0.24704412 0.3397049
525 0.15331076 -0.32451022 0.0008671152 0.4447647 -0.15507543 0.079455346 -0.11373748 -0.27783433 -0.0772832 -0.03859839 -0.27356675 0.1614996 -0.26216704 0.18816435 0.24481063 -0.051182315 0.18334754 0.17416632 0.08374552 0.008682364 0.2407158 0.21344298 -0.16766323 0.025669822 -0.092158906 -0.12045812 0.08062599 0.10879359 0.23443826 0.19814032 -0.22882777 0.26328003 -0.21807724 -0.21045268 0.09464882 -0.19879384 0.0530285 0.0362569 0.058738884 -0.15355612 0.11958368 0.040961068 0.24205537 -0.032680716 0.054333307 -0.24096923 -0.22993238 0.02701092 -0.06984448 -0.38277835 -0.18243541 0.18583947 0.007394968 -0.37092042 0.029685283 0.07726577 -0.23968185 0.18894687 -0.16060017 0.28884006 0.14917567 0.108578905 -0.44071183 0.2025556 -0.008705628 -0.05026293 -0.16219558 -0.44224468 -0.11982471 0.23492931 0.078334555 -0.15133108 0.002069884 0.14927304 0.013261208 -0.009749795 0.40296188 -0.14025559 0.11505175 0.09862262 -0.31862628 0.06802979 -0.067566395 -0.009068105 0.24116562 -0.21343166 -0.17418805 0.3201485 -0.386643 -0.094210565 0.22512278 0.3407326 -0.24566182 0.28635037 0.065032415 0.049961846 0.13884415 -0.17368256 -0.06628494 0.09478669 -0.13755812 0.3086883 0.03741481 -0.28954732 0.13712905 -0.059748255 -0.089665614 0.23545282 0.14486434 0.14127038 -0.023243882 0.10230418 0.08707496 0.09614716 -0.055271957 0.07062639 0.1839045 0.09767703 -0.2565666 0.025908733 0.20547257 -0.10454557 0.15269065 -0.21570584 -0.34166136 -0.105445616 0.32109922 0.4135029
83 0.0046135453 -0.33997196 -0.2230568 0.22628841 0.067507565 -0.07997557 0.07780734 -0.11974861 0.42774567 -0.14715694 -0.15531501 -0.038880274 -0.33939058 -0.12811449 0.47268328 -0.036595136 -0.076415256 -0.25012115 0.1579357 0.29370415 -0.17440191 -0.081664324 -0.26879945 -0.27214664 0.076371595 -0.0901239 -0.06277527 0.19577076 0.08163094 -0.39168692 -0.14994176 0.07371154 -0.02758623 -0.2922938 -0.03809951 -0.20508516 -0.05133161 -0.15191878 -0.08164735 0.01950567 0.0057367147 -0.016531317 0.24114345 0.009876273 0.05685408 -0.11053633 -0.10598944 0.41267994 0.16529751 0.005257207 -0.034758493 -0.010306036 0.3701545 -0.07057635 -0.032369137 0.028449666 0.10524839 -0.20963703 -0.32679966 -0.23044384 -0.09936154 -0.20769182 0.13291405 0.32398567 -0.04556473 -0.24662219 -0.06991099 0.56642884 0.20990103 -0.13592328 0.1139278 0.13827245 0.014286119 -0.009593466 -0.187571 -0.010064828 0.10540238 -0.5133307 -0.34873933 0.32586646 -0.16143353 -0.00034185243 -0.14501213 -0.096874095 0.1388089 0.07251538 -0.2380382 0.54657453 -0.27935028 0.16405389 0.14073002 -0.09060127 -0.12622853 -0.02641965 0.100277364 0.06698697 -0.16751221 -0.076643825 0.17491701 -0.17802243 0.12667254 0.275437 -0.19403094 -0.0021505498 0.018817605 0.05673377 -0.01946511 0.3567826 0.16580722 -0.04712154 -0.19163345 0.23728806 0.06501439 -0.019772317 0.17939837 0.044067927 0.15718754 0.1663215 -0.23478773 -0.100478254 -0.11297287 0.2102331 0.0034366574 -0.11153238 -0.08590389 -0.079907335 -0.23221111 0.113112256
53 0.017291015 -0.26375708 -0.089942254 -0.21473618 0.2682417 -0.23264425 0.023467997 -0.20268716 0.007723644 -0.19632716 -0.20978513 -0.053508718 -0.06493035 0.094635844 -0.0043405984 -0.057928413 -0.1706002 0.17985259 -0.24634089 0.1458188 0.45798746 0.18393008 -0.10739624 0.121411346 -0.2283094 -0.31938308 0.43647152 -0.19454136 0.14702624 -0.009797808 0.1633209 0.041961856 -0.19956827 -0.02231192 0.124759145 0.3256536 0.24417387 -0.22302432 -0.40332314 0.12958372 0.26700234 0.05055639 -0.28593588 -0.031133456 -0.32236177 -0.30619743 -0.4842913 0.046130985 -0.24561714 0.00076176325 -0.046863522 0.25486904 -0.18102342 0.024336223 0.06446122 -0.30899736 -0.12976548 -0.33748087 -0.37707236 -0.22098333 0.13995138 -0.08105956 -0.08590344 -0.114749104 -0.3436875 -0.4096585 0.2117763 0.25920522 0.14709866 -0.096474096 0.07580817 0.1795658 0.09194765 -0.036095936 0.2588746 0.15400101 0.30583638 -0.688581 0.10116402 0.09748598 -0.09811168 -0.26393285 0.104505114 0.09976142 -0.05618301 -0.13435248 -0.036371827 0.43541768 0.07143306 -0.071116425 0.009930637 -0.09421511 -0.082157426 0.18651474 0.15862633 -0.09995814 -0.014088574 0.057183582 0.26471958 -0.28132692 -0.059283357 0.16759159 0.27306792 -0.2472752 -0.17590423 0.07272925 -0.32747772 -0.12904707 0.0008033817 -0.22899088 -0.29034567 -0.05341401 0.15160047 0.036727674 0.15321165 -0.25790584 0.11159654 -0.12266679 0.106803454 0.13086228 -0.062604025 0.013834725 0.14237581 -0.31408876 -0.44269222 -0.21941884 -0.11283597 -0.14082801
803 -0.1672746 -0.10622493 0.33814186 -0.042386826 -0.009364923 -0.19575171 0.013282935 -0.3021881 0.14462511 -0.033980954 -0.15019046 0.050154507 -0.05622541 0.07117711 -0.22645901 0.08950521 -0.08048939 -0.096075356 -0.17872408 -0.11246897 0.13835576 0.26565757 -0.12907204 0.37106544 0.07019505 -0.25454196 0.28016362 -0.21619087 0.17002398 -0.17368253 -0.4255226 0.09185683 -0.1199826 0.22488913 -0.02183905 -0.067077056 0.027720204 -0.074853115 0.06523045 0.026212081 -0.05934647 0.028843667 -0.18515885 -0.064106636 -0.14066295 0.09606346 0.22040698 -0.25346568 -0.009774421 -0.1429726 0.16162647 0.3407038 0.01015803 0.113038294 -0.049257837 -0.06343063 -0.019085346 0.19618677 -0.13012008 0.0005989367 -0.03583399 -0.06312315 0.10838144 -0.13727707 0.10415841 0.09866869 -0.12075521 0.31539813 0.0799966 0.13085638 0.12544806 -0.06126844 0.11524737 0.08746896 0.31316704 -0.075065486 -0.12672633 -0.53057635 -0.08937199 0.060763113 -0.13941231 -0.2897039 -0.13420045 -0.1355406 0.0876433 0.19868991 -0.05502324 -0.004475566 -0.008448908 -0.050264794 0.1538041 0.04604564 -0.11589669 0.09188361 -0.024984067 0.08581057 0.14525987 0.019894158 0.19036573 0.2777195 -0.15752226 0.09670592 -0.07705039 -0.17952734 -0.0047668735 0.20032968 0.023824032 -0.3178353 0.3239239 0.22981794 0.059825167 0.07933449 0.204889 0.04996515 0.2520674 -0.0061305505 0.057675466 0.29893494 -0.062528774 -0.20108734 0.06029887 -0.01708071 0.115716524 -0.24486086 -0.18038285 -0.00747439 0.23883554 -0.1562185
9 -0.08912007 -0.097816214 0.3499165 0.044720512 0.126359 0.028700314 -0.41318056 0.121204935 0.31998152 -0.05932381 -0.2054434 0.124547064 -0.0050046286 -0.042977013 0.3728419 -0.22417422 -0.073363215 0.24359001 -0.32590154 -0.050075665 -0.36879966 0.19977014 0.04481681 0.109502554 -0.018200146 0.10596939 -0.15566275 0.057961684 0.30125794 0.064904116 -0.04225306 0.15331843 -0.3249567 -0.23725933 -0.18314128 0.19266279 -0.34248677 -0.5808263 -0.63755745 0.026972894 0.3202035 -0.0029320547 0.04240396 0.034722704 -0.27028477 0.03671298 -0.19217975 0.14302999 -0.12442312 -0.010003284 -0.10305027 0.16295165 0.17893244 0.0862466 0.22892927 -0.13638169 -0.14016251 0.37855628 -0.013434808 -0.0627342 0.12753959 -0.22872625 -0.45928645 0.173917 0.0069791945 -0.20738845 -0.38116106 0.20811842 -0.16078892 0.35947952 -0.24223563 0.15152633 -0.07793547 -0.051583223 0.21405587 0.089409985 0.09169556 -0.29218417 -0.18376882 0.1928205 0.03826445 0.17122997 0.21176217 -0.2999706 0.04530813 -0.019348415 -0.046934295 0.051724557 0.06266465 0.32168767 0.37007022 0.015321125 0.17541987 0.08022047 -0.010058104 -0.38609737 -0.10012789 0.10753583 -0.24739708 0.19684517 0.030574037 0.21544376 0.20277442 0.11445751 0.16367069 0.37405726 -0.3741533 0.08915358 -0.007423323 -0.209846 -0.06792501 0.031778533 0.12503377 -0.09026382 0.10405993 -0.019538082 -0.08490011 0.040438544 0.21118142 -0.038569987 -0.19056267 0.3936495 -0.22442482 0.21127889 -0.12831406 -0.24701689 -0.019688975 0.3062648
50 0.25859046 -0.18949723 0.024296263 0.09955898 -0.31554466 -0.18918483 -0.037880752 0.21519192 0.3811979 0.061227757 -0.031232882 0.2252934 0.2716501 -0.11118796 0.18594332 -0.05819775 0.10026018 -0.06009731 -0.13501117 0.19799982 -0.03680897 0.07999064 -0.44999817 0.003961251 -0.008004131 0.22321764 -0.30770853 0.40946716 0.10316885 -0.33135936 0.07444502 -0.09015103 -0.37461436 -0.060388703 0.07169339 0.052723963 0.0112777855 -0.04104562 0.18080178 -0.1819528 0.068388954 0.20734917 0.21919379 0.1924103 -0.18979868 -0.068442956 0.0198988 -0.35024473 -0.008066333 -0.34865987 0.15958901 0.38477266 -0.07734335 0.0031565852 0.020334197 -0.14099082 -0.29752108 0.20969576 -0.30399075 -0.10654373 0.33951887 -0.16020395 0.0007803298 0.033535782 0.26929873 -0.4811222 -0.041495264 -0.044805884 -0.10688263 0.095611766 0.50727326 0.18930194 -0.05311667 -0.11793883 -0.07133118 -0.17389122 -0.12998565 -0.118521154 -0.19200668 0.3952609 0.22231369 0.23090708 -0.11265657 -0.10725324 -0.059678797 -0.16833025 -0.18574038 0.27001178 -0.066710934 0.007307751 0.25341 0.16393 0.24450313 0.11761445 0.13827132 -0.09181676 0.00075697445 -0.30307826 0.10235039 -0.17123704 -0.11794779 0.11620896 0.061170872 -0.45885032 -0.50069916 0.011987641 -0.18594374 -0.4393043 0.09900054 -0.16609927 -0.06537503 -0.073947966 0.36861017 0.016307391 -0.053738248 0.175479 -0.17181465 -0.07176363 -0.06599685 0.21942435 0.08635324 0.0708287 0.038986098 -0.33735245 0.15993921 -0.04006103 0.08893304 0.19552115
43 -0.058287617 -0.06876895 0.32655632 0.27834913 0.22787118 -0.31809238 0.29120693 0.015347733 -0.044417005 -0.16299856 0.2749649 -0.081090376 -0.02310238 -0.21674418 0.16915764 0.07209662 0.18032637 -0.053239167 0.2735019 0.33815682 -0.11675846 0.14819814 -0.26589525 0.14675596 -0.015025053 -0.33197656 0.07052344 -0.32523933 -0.06107524 -0.22578856 -0.05722811 0.27691412 -0.2922377 0.04736588 0.09501551 0.048232272 0.08507209 -0.019034836 -0.25695637 -0.09102735 0.3692975 -0.06164445 0.035862915 -0.14334852 -0.14092837 0.0043939007 0.0077102 -0.10775785 -0.119795196 -0.42465132 0.16835302 0.111355074 0.30486423 0.24113217 0.105046764 -0.11122959 0.17449933 0.07848519 0.20800272 -0.037176404 0.046663437 0.05901406 -0.3542196 -0.06869106 0.13480066 -0.09381678 -0.16907205 -0.08445292 0.2134132 -0.025959425 -0.081604116 -0.12481546 0.14296746 -0.28692734 0.29350033 -0.44128728 0.18459249 -0.1112796 -0.21394643 0.034701195 0.22379601 0.19446588 -0.33194056 0.13792472 -0.31856626 -0.3323388 0.1604796 0.17666876 0.06477881 -0.12200193 0.14379281 0.065297276 -0.2562271 -0.07861217 0.022427568 0.1968786 0.038299933 0.05304929 0.17750117 0.35453913 -0.2753149 0.051469043 -0.20701084 0.0116749825 -0.061889574 0.17322508 0.055067237 0.08174332 -0.074273966 -0.027659517 0.30351892 -0.23980351 0.09918955 -0.004625945 -0.26820692 0.12875427 -0.4364901 -0.20845632 0.15756014 -0.15460902 0.20993006 -0.06738034 0.030367378 0.08834173 0.12165292 -0.106706366 0.23036164 -0.2342169
154 0.13259251 -0.15918718 -0.040445082 -0.010876151 -0.13000828 0.153229 0.08122324 -0.23486044 -0.026267106 0.15987681 -0.08277073 -0.1415207 0.05593807 -0.18392964 0.23529743 -0.18164647 -0.123197734 -0.012238064 -0.043612212 0.36870953 -0.0268957 0.2795174 0.068403885 0.015192639 -0.07427349 -0.14605767 0.23623833 -0.123941 0.1434657 0.15592365 -0.07344208 -0.06965378 -0.1668031 0.16081044 -0.15489335 0.25288656 -0.29560515 -0.10064053 -0.044728357 0.15519802 -0.10615705 -0.032314792 -0.029299146 -0.09268809 0.016885221 0.046423182 -0.20894514 -0.0897201 0.08243863 -0.36052594 -0.039613593 0.10616102 0.2791305 0.3142118 -0.11563333 0.004040903 0.08959496 0.017502826 -0.004681664 -0.25698945 -0.082332596 -0.19154125 -0.006573646 0.008681559 -0.047736052 0.093685485 -0.30514154 0.1730005 -0.23482867 0.060337186 0.30247962 -0.14622799 -0.18978523 0.0005474662 0.13052331 0.05982813 0.27146226 -0.3747489 -0.07482552 0.16538793 -0.025513288 0.021174438 0.041481975 -0.044134405 -0.22548488 -0.06628957 -0.11505312 0.059577834 -0.22315499 0.0062581035 0.27036208 0.2897051 0.027719581 0.33800304 -0.15032911 -0.023646833 -0.25049394 -0.07061192 0.10469274 -0.03097371 0.024769675 0.26488233 0.21470903 0.061429657 -0.15029298 0.04100303 0.19477972 0.59340763 -0.18714918 -0.24871862 -0.38931125 0.06625463 0.36700654 -0.08116703 0.25719637 -0.09441026 -0.039344955 -0.038788367 -0.02486434 0.23507093 0.1072152 0.07166321 -0.03751345 -0.21251023 0.0012605778 -0.2577453 -0.24910468 0.22595602
97 0.2657012 -0.09950148 -0.027830118 -0.024640327 0.03384333 0.12563717 0.18965611 0.0963342 0.3746436 -0.11769678 -0.20275384 0.11575684 0.1800773 -0.00066365366 0.11960969 -0.31615642 0.0367243 0.03906242 -0.19143556 0.45015082 0.09080989 0.15923798 -0.13940977 0.003611488 -0.22791097 -0.08811536 0.24392591 0.058222447 0.077378854 0.0694114 0.01809882 -0.2172823 -0.19444038 -0.2415382 -0.21514705 -0.042671036 0.00880049 0.085682794 -0.17147925 -0.15750474 0.3835866 0.25599262 -0.21224862 0.10923183 0.10366872 0.055485032 -0.03931384 0.027910005 -0.2509944 -0.44420642 -0.06701341 0.14828038 0.19934018 0.21808587 0.06532486 0.01824753 -0.22511034 -0.18029028 0.0010087471 -0.04109286 -0.3846751 -0.3369661 0.06645094 0.15727018 -0.09389997 0.036104944 -0.072568096 0.08042619 -0.3148892 -0.21577133 0.23930039 0.26012564 -0.19650741 0.070760004 0.1562925 -0.1685051 0.1511515 -0.1930448 0.332556 0.2140417 -0.050343055 0.046752788 0.10354914 0.08677269 0.09810002 -0.13333519 -0.14586984 0.11553788 -0.2283396 0.05320099 0.20014289 0.43536708 0.13246611 0.3217234 -0.04549146 0.20229353 -0.22595271 0.123745404 0.09279858 0.16581292 -0.33755872 0.15539742 -0.028221468 -0.26338458 -0.09429356 0.13901494 0.2706108 0.24854797 -0.004824967 0.020272698 -0.1617436 -0.1969753 -0.061825633 0.4399649 0.30989382 0.101980865 0.13553907 -0.062570885 -0.025613852 -0.10577701 -0.15351473 0.26348102 0.18365821 -0.037597097 -0.019536551 -0.021498406 -0.31135157 0.10839959
206 0.3148125 -0.062732466 0.22295918 0.08364502 0.19394793 -0.1777902 0.063202634 0.12835921 -0.059807137 0.05698071 0.123166464 -0.0797926 0.048758436 0.1311626 -0.045833293 0.021296553 0.039903093 0.0059624813 0.0023759615 -0.10782954 0.37794927 -0.07009347 -0.17768164 0.06535238 -0.30484566 -0.10209027 0.30127564 -0.26609278 0.30009946 0.1460939 -0.16293697 0.14502582 -0.038355157 0.18932824 -0.034107156 -0.31267577 0.2597304 -0.4619353 -0.1210307 0.03512097 0.07810363 -0.17715722 0.0797498 0.20707284 -0.3642701 0.12155916 0.1413581 -0.02788778 -0.16976498 -0.105831295 -0.11590328 0.16693534 0.31877482 0.2785159 0.12585062 -0.12520762 0.07667498 -0.11733368 -0.13152711 -0.07405015 -0.050669774 0.103329 0.056337487 0.25993025 0.26599535 -0.12874056 -0.033120718 0.016377298 -0.0060822233 0.11549015 -0.1567231 0.0037636054 -0.26013997 -0.04658621 -0.01472657 0.24016124 0.038617216 0.009004793 -0.16195393 0.21455143 -0.06516148 0.14478439 -0.3746891 -0.07309528 -0.25688303 0.021839837 0.110081404 0.3489077 -0.43076015 -0.1673287 0.4158339 0.10750591 -0.1766991 0.11072232 -0.19074269 0.11831744 -0.051050834 0.045966484 0.31515273 0.27737328 -0.06567905 0.066985324 -0.042372037 0.060300663 -0.085865475 -0.046572056 -0.05565196 -0.17074318 -0.059690546 -0.002322189 0.057845682 -0.09874393 -0.16777952 -0.19756958 0.32498896 -0.1553989 0.011674485 -0.21963945 -0.25032645 0.032421876 0.081653215 0.15015332 0.20204979 0.015782688 0.11021815 -0.19406714 -0.059227895 0.12772052
67 0.10408511 -0.2586126 -0.052148856 0.07079926 -0.02145791 0.17496791 -0.01809132 -0.029854594 -0.17597768 -0.1200118 -0.044043537 -0.031541135 0.16900177 -0.06045409 0.35421717 -0.54713166 -0.22946541 -0.16574219 -0.18147415 -0.060516033 0.15417087 0.05416332 0.096127346 0.07295425 -0.07605312 0.19612744 0.102064714 0.010508425 0.5644437 -0.030386128 0.041238897 -0.14175127 0.09502351 0.12126182 -0.12470609 0.16168362 -0.1615332 -0.17990436 -0.14594972 0.19081636 0.4738969 -0.0028171814 0.44872728 0.2595899 0.020182515 -0.09682486 -0.10307024 0.04137562 -0.0069160843 -0.3028169 -0.11057873 -0.14550373 0.20847428 0.059393145 0.19634406 -0.26944333 0.008687919 0.030273568 0.019508848 0.390086 0.039878115 -0.20967473 -0.08680422 -0.05833541 -0.17046835 -0.22787683 -0.11282555 0.28204152 0.07833369 -0.17146015 0.3704981 -0.22739242 0.25809765 0.17852716 0.045523748 0.09047232 -0.11545689 -0.25589466 0.090863384 -0.20264049 0.3074703 0.048356954 -0.32718706 -0.2236555 -0.106400505 0.043910947 -0.3854842 0.06548259 0.33564287 0.034031246 -0.006998097 0.3393102 -0.47910872 -0.29167464 -0.3067664 0.03396481 0.27103522 -0.007846736 0.25690404 0.37959406 -0.05507068 0.096141204 -0.100188166 -0.036269736 0.06083783 -0.06839704 0.06788126 -0.09624939 0.046896975 0.0819548 -0.13022962 0.25504863 0.16253108 -0.027073586 -0.04154931 -0.0030301362 0.037150957 -0.2558493 0.26690903 -0.18832365 0.0021393793 0.28936315 0.025770249 0.007239566 0.1095081 0.13390116 0.19786389 0.23185499
99 0.28529435 0.053331044 0.35423672 -0.13605112 -0.01026365 -0.13412039 0.035999745 0.0145668 0.057953395 -0.027307486 -0.047389224 0.015450763 -0.053888377 -0.02693137 0.29297966 0.13815655 -0.12663317 -0.11702852 0.22648054 -0.19394685 0.30122283 -0.09876287 0.0017444317 0.2175969 -0.06536394 -0.07522342 0.16110456 -0.14519955 0.36770272 -0.07678175 0.034474213 -0.092567176 -0.10268191 0.15324399 -0.02820493 -0.21268494 0.15693438 -0.24230509 0.37425098 0.18300107 0.23676431 -0.21778439 0.03417095 -0.0738155 -0.46734184 0.32047537 -0.075332165 -0.06625792 -0.12534297 -0.2511843 -0.22717306 0.06890721 0.33616817 -0.36633962 0.008232634 0.11570673 0.189469 0.08837738 0.14614715 0.013521851 0.16031441 -0.05557901 0.12738839 0.1227836 0.05225616 -0.43539092 -0.11710598 0.0073287445 0.108090155 0.09599146 0.026242891 -0.07892938 -0.014184335 -0.001247238 -0.17261669 -0.119721845 0.16386728 -0.113443054 -0.22325626 0.4102765 -0.2908914 -0.19668686 -0.11934553 -0.0045546493 0.062336195 0.36497375 -0.10382349 0.20273909 -0.33548054 0.08697861 0.44408005 0.19232698 -0.22394682 0.2118085 -0.08733355 0.16000351 0.021943146 0.07558128 0.3472457 0.3313005 -0.29491743 -0.03190811 -0.1545923 0.35756016 0.14332078 -0.12716334 0.05478105 0.107582815 0.13894442 0.07979748 0.025724314 -0.020170975 0.07026705 -0.21809795 0.23428532 0.058068857 -0.07402563 -0.07652375 -0.14695834 0.13135529 -0.006377194 -0.10513666 -0.0703322 0.08594497 -0.1258823 -0.23512983 0.01907282 0.29021716
183 0.16001129 0.0035354206 -0.018245796 0.23348692 0.14565101 0.0295662 -0.06729513 -0.22536364 0.19283731 -0.2278477 -0.024645824 -0.08432785 0.044000622 -0.131761 0.30993402 -0.083455764 -0.5175753 0.25003922 0.12218356 0.17209609 0.37305394 -0.04275186 0.22673297 0.3592801 -0.14611599 -0.1388524 0.28011298 -0.13789456 0.17188485 0.019417211 -0.09526331 0.16277628 -0.26014993 0.015211713 -0.009109191 -0.020678906 -0.328446 -0.13547856 -0.023436762 0.19956984 0.21319455 -0.019807268 0.0082203625 -0.2007208 0.10726293 -0.13492468 -0.23671913 -0.1811296 -0.19155596 -0.3264027 0.0060266103 -0.04896229 -0.2051284 0.09429791 0.1990951 -0.15928848 -0.09105402 0.041367847 -0.3595035 -0.27470544 0.21246709 -0.26824376 0.05321517 0.08859346 -0.1655367 -0.15843306 0.08106918 0.057109598 0.019664556 -0.36417305 0.013923087 -0.35986927 -0.37560403 0.21145004 -0.1447153 -0.5602484 0.18680587 -0.12726434 0.0715562 0.07210375 0.038821712 -0.13377902 -0.07231982 0.09888624 -0.0032053364 0.21261536 -0.19609022 0.055653434 -0.063017614 0.13237865 -0.054367796 0.15766348 -0.35783568 0.106083274 -0.093408614 0.074944444 -0.053029697 0.19902606 0.056632917 -0.28585422 -0.12833402 0.057172455 -0.10683736 0.27126357 -0.11394478 -0.14578232 -0.08086026 -0.04835057 -0.0072614993 -0.050866827 -0.2804871 -0.020556496 0.14598145 -0.053632345 -0.011567347 0.015952414 0.10233601 0.2382884 -0.24947551 -0.027966978 0.05494292 0.30294707 0.09075308 -0.34572077 0.06141085 -0.19959432 0.095098 0.18542118
1617 0.20773849 -0.2953685 0.058184702 0.4807487 -0.1449288 0.027201246 -0.005939656 -0.11762492 0.17368497 -0.008080204 0.09377191 -0.13863844 -0.039330676 -0.32086974 0.45604238 -0.12376035 -0.16627695 0.062227547 -0.14745715 0.13705151 -0.1775831 0.008626128 -0.062160593 -0.008125953 -0.14856929 -0.11468013 -0.28314066 -9.1266695e-05 -0.16184555 -0.13343132 0.06885308 0.3203627 -0.16003405 -0.15686372 -0.07935267 0.020114338 0.11968404 -0.29198757 -0.1504196 0.37137315 -0.050241467 -0.12820014 -0.120643 -0.031331785 -0.05419753 -0.08939853 -0.011050718 0.07042416 -0.12725265 -0.41848874 -0.009591752 -0.073352545 0.11414642 0.0321743 -0.05262482 0.25413373 -0.0439782 -0.108050264 -0.022669446 -0.077050775 0.22149025 -0.06994823 0.25058797 0.17518783 0.05970878 -0.13097617 -0.050625745 0.23537493 -0.1804811 0.07630614 0.058068383 -0.15263267 0.20402215 0.19829789 0.043907553 0.18332183 -0.16936329 -0.20841962 0.028640253 -0.19034076 -0.10991546 -0.041802626 -0.28154612 -0.22113334 0.016298478 -0.14979708 0.17954534 0.16257487 -0.07599177 0.14216073 0.2246955 0.3833673 0.19391407 0.2935725 0.21119955 -0.1177494 0.07478768 0.10992083 0.05054028 0.078049466 -0.08021305 0.057576373 -0.0062042233 -0.039400414 -0.19500779 -0.39011043 0.22414361 0.19156075 -0.07058307 0.19913884 -0.07033267 -0.008400936 0.5248832 0.29848573 0.11753972 0.31751275 0.06923817 -0.23123753 -0.023143657 -0.061191592 -0.106382675 -0.11064707 -0.028601231 -0.001479908 -0.07496143 -0.14927141 -0.19031557 0.21288909
1318 0.12551458 0.155565 0.08234116 0.10333201 0.06155076 -0.14138606 -0.057408627 -0.21980521 -0.171588 -0.07662858 -0.2936461 0.26137528 0.2478402 0.052891426 -0.031015856 -0.028266756 -0.30354795 -0.03120269 -0.22489363 0.12567236 0.110343605 -0.028787853 -0.078221366 0.21451627 -0.02929327 0.0091674235 0.061502367 -0.25800768 0.25679263 0.056554496 -0.3250667 0.10917063 -0.07204819 0.18671793 -0.2448636 0.026319278 -0.2277531 0.08488647 -0.16918428 0.0015538039 0.050793227 0.10965808 0.14959653 -0.10362588 -0.05764065 -0.09414789 0.17939098 -0.16829173 0.059172038 -0.24715781 0.25286397 0.18780282 0.112365104 0.23021045 0.0891495 -0.203947 0.17203474 0.060642116 0.008118869 -0.17532393 0.13171716 -0.27053726 0.10363534 -0.040412225 -0.1919378 -0.011387774 -0.16188811 0.0656298 0.04384786 -0.066847086 0.14094934 -0.16036007 0.36907014 -0.4770535 -0.020185297 -0.29597518 0.10967254 -0.45115602 -0.0323067 0.15289384 -0.054023616 0.121910535 -0.09593323 -0.100861765 0.29637313 -0.069171734 0.074184455 -0.19347173 0.1325285 0.0154549265 0.12684718 0.14944364 -0.049917128 0.2550225 0.25100404 -0.036246818 -0.12823866 -0.377592 0.20400694 0.0754356 0.07086124 0.21350364 0.076637596 -0.07399835 0.078414716 -0.1353248 0.116027996 -0.17151777 -0.09706252 0.16182327 -0.047059096 -0.12716125 -0.18162835 -0.066078186 0.19904652 0.06238108 0.18541516 0.07233689 -0.053538084 -0.16527738 -0.18270886 0.10006282 0.061189983 -0.26263848 0.04443775 -0.08679502 -0.09853848 -0.10657775
767 -0.0056578564 -0.3771716 0.001387431 0.10138366 0.108463354 0.14313126 0.22246732 -0.111669175 0.01764791 -0.22698635 0.14870344 -0.17312723 0.00986292 -0.03634547 -0.055954486 0.06380646 0.09136212 0.12598844 0.13899554 0.2304338 0.013818443 -0.105457686 0.42880124 0.025351597 0.13046272 0.11796594 0.21852756 -0.17489064 0.2783786 0.27788797 -0.1519329 0.06243404 0.2737583 0.08676266 0.2673009 -0.10708249 0.07351458 -0.25934926 0.0005426107 -0.045640785 -0.04003912 -0.23736541 0.064274564 0.16280894 -0.014775114 -0.013047241 -0.1202443 0.23624031 0.08008395 0.06983364 -0.3240837 0.10870603 0.17305388 0.04041505 0.2001819 0.04623294 0.221681 0.23593216 -0.050231043 0.11168047 0.3273754 -0.18170986 0.1685531 0.40240797 0.18225329 -0.31590134 -0.03865636 0.18556951 -0.15470453 0.23665847 0.1839843 0.018713264 -0.20204264 -0.2114205 -0.021613412 0.09666283 0.010269852 -0.39412388 -0.1811258 -0.18400452 -0.00087157026 -0.05507639 -0.3192283 0.029369839 -0.14509071 0.19484283 -0.33692852 -0.07429274 -0.11905957 0.028298007 0.5480223 0.11620346 -0.28008613 0.35592046 -0.20486404 -0.21371922 -0.056166817 0.092908576 0.25787354 0.038929686 -0.13322254 0.3768197 0.09396933 0.14957285 -0.23699763 0.2689078 -0.04375707 0.16195472 0.02079405 -0.07291428 -0.29006413 -0.018114693 0.21643023 0.06529487 0.07775527 -0.09500462 0.006455807 0.04220168 -0.19213036 -0.2510589 -0.09842663 -0.113446675 0.43336582 0.046701618 0.16210419 -0.21096958 0.17063417 0.23136792
36 0.3315505 -0.5062154 0.04527083 0.10396347 -0.17227857 0.33477145 -0.37605423 0.23496293 0.20280994 0.00076254224 0.45952913 -0.22268303 0.14437295 0.016195046 0.18515007 -0.34482086 -0.18330188 0.12517247 -0.09779801 -0.17601551 -0.03268742 0.20707476 -0.36471555 0.22781281 0.35060105 -0.063157514 0.20613737 -0.3831374 0.02647639 -0.06995877 -0.18422383 0.109127775 -0.21989916 0.28239742 -0.11679229 0.2830423 -0.3010427 -0.2253455 -0.010219139 0.25152448 0.22918512 0.04281835 0.13607647 0.02289114 0.1876448 -0.18395744 0.019608438 -0.097266145 0.044546474 0.06909809 -0.27993423 -0.20390764 -0.074900076 -0.11558875 0.2765869 -0.30956855 0.39633128 -0.18232346 -0.08682678 -0.4392702 -0.09349785 -0.0170636 -0.055045754 0.18931866 -0.19830537 -0.40391332 0.010897648 -0.17108531 -0.27015093 0.010443574 -0.25919053 0.25078863 -0.05764943 0.15045434 0.13075529 -0.08852514 0.07751208 0.13440122 0.094739504 0.04847431 0.12469447 -0.22040157 -0.20511724 0.050473817 0.09159041 -0.04588122 -0.18754134 0.40026417 0.16794342 0.034080837 0.17363095 -0.090021975 0.04035158 0.35841057 0.1769586 -0.114733 0.29246715 -0.3944712 0.099978775 0.19139133 -0.18527134 0.2602371 0.091165595 0.21534 -0.091047294 0.02922181 0.109465644 0.07273969 -0.06023157 0.20567627 -0.24578974 -0.05918817 0.133257 -0.044490404 0.0871889 0.12705223 0.24357909 -0.12632054 0.16947787 -0.052929807 0.014413525 0.1390145 0.33147392 -0.1550698 -0.058596794 -0.08172867 -0.10959805 0.37403658
76 0.2844842 -0.012809993 0.1504868 -0.004828543 0.20693415 -0.16581677 -0.015157263 0.49170634 0.049400516 0.34000608 -0.16860689 -0.043435395 -0.18201408 0.14871071 0.30819353 -0.06410065 0.004409951 0.25594255 -0.19092672 -0.20671473 -0.13026915 -0.12553146 0.10287805 0.27619362 0.20445538 0.102136575 0.21362227 0.09953302 0.030730529 -0.10621771 -0.10327366 0.07487992 -0.27600348 -0.096232206 0.40570244 0.2551708 -0.03987746 -0.3223971 -0.33080184 -0.22751953 0.07774185 0.3459769 -0.03374288 -0.10348423 0.19577865 0.19273198 -0.008818812 0.026715169 0.27384382 0.113977514 -0.1254623 0.03423696 0.14458543 -0.046471797 -0.13202739 0.09002058 0.092315756 -0.19590342 -0.053144615 0.2988466 0.3740121 -0.3843056 -0.08389181 -0.011333609 0.19415517 -0.15249193 -0.2984599 0.43739495 0.17264177 0.16396157 -0.17436141 0.03929875 -0.07546834 -0.016788447 0.17871727 0.24414228 -0.21547459 -0.31823343 -0.027710434 0.16409345 -0.021416973 0.042297684 -0.4019489 0.2982657 0.032080296 -0.14745155 -0.4551176 0.24728465 -0.07096067 -0.12672459 0.08064407 0.27567434 -0.21420597 0.33987984 0.042979002 -0.015944544 -0.12692562 0.057886917 0.12523434 -0.09381838 0.15075988 0.24875745 -0.20457229 0.1474898 -0.2790123 0.021208193 0.01702215 0.2392819 0.28433287 0.17659794 -0.3288939 0.41125295 -0.13732934 0.17575389 0.16500273 0.3407483 0.24447325 -0.23840365 0.092142224 0.25754946 -0.20267919 0.3836799 0.18601555 -0.14228682 -0.01531714 -0.24447769 0.282455 0.2780255
10 -0.07794018 -0.5038384 -0.03532642 0.041595146 0.18951362 -0.28498167 0.10674435 0.17957939 -0.037097648 0.005941583 0.001132332 -0.13880922 -0.20653257 -0.14022279 -0.023022883 -0.032949924 0.41413 0.08612348 0.031228319 0.2937036 -0.35868135 -0.22857837 0.047861144 0.25704265 0.14739777 0.20662153 0.17165276 -0.28188637 0.044447612 -0.12723938 0.06796126 0.18673752 -0.13847879 0.15370853 -0.20900783 0.09617542 0.012007534 -0.5980361 -0.13658983 0.11036692 0.029262684 0.0038513935 -0.040900685 0.2709561 0.43544382 0.22998394 -0.113364786 0.47178206 -0.19603218 -0.20970681 -0.21985403 0.34736472 -0.025066577 -0.15922013 0.13407385 0.01933683 -0.005370049 0.14663315 -0.42561048 -0.043218505 -0.013573854 -0.24203861 -0.0353223 0.111750774 -0.025417598 -0.012279884 -0.22900188 0.0061643664 -0.11715469 0.14643505 0.15109852 0.1177201 0.0020872867 -0.37502736 -0.076479085 -0.24279228 0.13938639 -0.182181 -0.29478884 0.059850857 -0.15243894 -0.22458021 0.15913609 -0.27802578 -0.26659608 0.21117179 -0.32766405 0.3770972 0.14086084 -0.06342444 0.31954524 0.452695 -0.17294599 0.028115949 0.0007816298 -0.41020527 -0.042831536 -0.30265555 -0.049630016 0.046009798 0.1374657 0.048030317 0.086875886 0.02902771 -0.16566977 -0.16426472 0.07375151 -0.06890993 0.18867709 -0.27593014 0.23953171 -0.14483859 0.047901973 -0.35926768 0.030732876 0.047246374 0.18120283 -0.3046075 0.05422014 -0.20621094 -0.34509414 -0.09441935 0.06956366 -0.054224417 0.12028069 -0.13079132 0.12271763 0.279592
693 0.061510444 -0.289704 0.17268993 0.4067755 0.22210117 -0.058813296 -0.41324964 -0.23606856 0.31131092 -0.120961644 0.18265305 0.21717627 -0.024552066 -0.1491951 0.089311816 -0.43001118 0.0075998968 -0.50351894 -0.09475264 0.24740343 0.29189253 0.073015735 0.08732002 -0.06866083 0.009070772 -0.48942664 -0.03495696 0.03781145 -0.10445685 -0.04767296 0.30737573 0.09054146 -0.2792852 0.061248887 -0.020004585 -0.06161711 -0.1391462 -0.0136446105 -0.05137973 -0.14121926 0.0083299605 -0.23036149 -0.07861994 0.11320625 -0.016724095 -0.17795713 0.13621537 0.046622735 -0.37050375 -0.1505986 0.095520966 -0.09864196 0.04164723 -0.15855941 0.09498486 -0.11572128 -0.06360878 0.014610769 -0.19918351 -0.10901859 0.04570308 -0.014029715 0.16778196 0.13924696 -0.07760354 -0.06363273 -0.16735506 0.47723886 -0.18796863 0.47309205 0.4524784 -0.04042242 -0.1456582 -0.21966718 0.46201983 0.09028713 0.1094888 0.108172394 0.07017912 -0.2394944 -0.053572766 -0.056790765 0.309604 -0.09043384 -0.10335955 -0.02578579 -0.16566667 0.16923466 -0.13942167 0.12360899 0.19857354 0.07015239 -0.1135872 0.01906083 0.02469753 -0.010006561 -0.022293707 -0.2162429 0.14694354 0.02744463 -0.096672215 0.18859348 0.30184865 -0.051233776 -0.20994134 0.18198963 -0.10862639 0.13198401 -0.08449407 0.10565838 -0.13602577 -0.015093758 -0.17969947 -0.06072534 0.39402488 0.19034775 0.0065739835 -0.027767282 0.12284668 0.0743897 -0.13182436 -0.04453271 0.11046782 0.10488265 -0.025402114 0.06409398 0.028634464 0.29119292
173 0.10055565 -0.07354824 0.32222456 0.34916 0.23734504 -0.19677985 0.07678857 -0.13784306 0.33127335 0.026438648 0.21500248 -0.32753372 0.033747092 0.5977588 0.16579466 -0.13450263 -0.35401574 0.22258854 -0.112059474 -0.32343486 0.016034907 -0.01956453 0.30611858 0.10849167 0.10292493 0.06856814 0.16414641 -0.21566842 0.056707006 -0.25589812 0.20477052 0.16857384 -0.21586367 -0.016499463 0.13026276 0.0092399465 0.14819668 0.0021383113 -0.27759206 0.14133584 0.07280512 -0.18472858 0.05162369 -0.026595019 -0.18596047 -0.2213951 -0.24872012 -0.08051866 -0.32418343 -0.35521987 -0.30091563 -0.018291427 -0.1515591 -0.13915558 0.07384313 0.11121511 0.06961166 0.2957875 0.040361762 0.0759626 0.25138125 0.094201334 0.3293199 0.18818904 -0.13626973 0.22069056 -0.18138976 0.022909332 0.03512467 0.01832735 0.054842506 -0.15298472 -0.0294595 -0.46973023 0.24074325 -0.15124716 0.33895552 -0.4448751 -0.06391442 0.1610145 -0.25398725 0.044190645 0.014772137 0.009514972 0.35773662 -0.31034428 -0.04776045 0.28089076 0.14615524 -0.3524985 -0.020236015 -0.013787047 0.17877169 0.056448907 0.05214457 0.48490468 -0.22159109 -0.3002921 0.05225294 -0.15965006 0.18254563 -0.06241297 -0.024229765 -0.24939707 0.13333523 0.05225994 -0.056778308 -0.123491935 0.23140052 0.11948102 0.08167826 -0.11967128 0.4090508 0.11337632 0.2117414 0.2035582 0.36006403 0.17665718 -0.36589885 0.19018163 0.01832484 0.3497573 0.23097435 -0.11860092 0.3808513 0.07512245 -0.11612987 0.13033135
31 0.13305849 0.12533738 0.36863354 0.25664932 0.47063094 -0.32258248 0.3456728 -0.018734353 -0.19414312 0.071048304 0.04933056 0.39412767 -0.14787585 -0.12549333 0.25221848 -0.4561331 -0.046835613 -0.056121077 -0.14735785 -0.12179197 0.19112667 0.28710744 -0.08778266 -0.21145879 -0.04568412 -0.2115104 -0.14801723 -0.12787478 0.023450408 0.11849662 -0.09518701 0.20972775 -0.10467162 0.10553511 0.23336236 -0.19042552 -0.16204286 -0.32410663 0.26776895 -0.42501298 0.090059176 -0.03603455 0.34915385 -0.32417765 -0.06791917 0.11215152 -0.039788112 -0.17535208 -0.5562212 0.066381894 0.068388276 -0.039532863 0.06697653 -0.06472577 0.07140139 -0.12146479 -0.045140687 0.12665029 -0.23682109 -0.11167821 0.018374452 -0.5083116 0.22913608 0.029637836 -0.29653123 -0.07149673 -0.028026512 -0.02524963 0.07464012 0.028009096 0.09800125 -0.042625763 -0.07530493 -0.05129393 0.32357374 0.07828454 -0.09856791 0.18803312 -0.4453029 -0.13656484 -0.06921545 0.15293768 -0.026284417 0.07785406 0.16570167 0.057067513 -0.12293735 0.24693716 0.05733165 -0.15695101 0.3834151 -0.016694093 0.11812762 -0.01734656 -0.03272388 -0.09501409 -0.2809123 -0.111177735 0.1013794 -0.014014367 -0.47071317 0.041292537 0.29129 -0.36864418 0.039919056 0.16530342 0.43919316 0.06012184 0.34595057 0.22309977 0.22139744 -0.0337785 0.15734082 -0.05938749 -0.14720048 -0.3738479 0.36221132 -0.17039439 0.025128033 -0.23348825 0.069590144 0.2567453 0.044266146 -0.05919631 -0.0010394433 -0.18584414 0.009185625 -0.08364548
38 0.15115432 -0.32010207 0.27968845 0.29080242 -0.016196623 0.05039117 0.2998902 -0.23465063 0.16317225 -0.017777447 -0.012654354 0.09889891 0.03222535 0.07795217 0.42298746 -0.5318254 -0.04699192 0.35104284 -0.058645904 -0.03209039 0.068563595 -0.1225533 0.10039837 -0.009937125 0.48574513 -0.30581555 0.25746325 -0.48120075 0.50619227 0.1401526 -0.045765392 0.124048814 0.045684416 -0.0482537 -0.022472179 0.11502085 -0.19191553 -0.25912747 -0.041896302 -0.20567115 0.02637272 0.045078512 0.29782975 -0.23452704 -0.14941761 0.31616205 0.08892649 -0.28476045 0.038226575 0.16409339 -0.3395916 -0.41394958 0.16104762 0.06895001 -0.065456524 -0.007586175 0.21116616 -0.087149516 -0.15867685 0.43337724 -0.07224356 -0.14588694 -0.14435391 -0.009812362 -0.032947373 -0.14672928 0.1993788 0.041929696 0.050361007 0.17236689 0.13847116 -0.38915145 0.091121495 -0.13980736 -0.22594868 -0.007480313 0.3726309 -0.056621958 -0.21277049 0.3903246 0.06086355 0.037120663 0.06715211 -0.08976305 0.07002774 0.11644552 -0.061679136 0.2437365 -0.11568446 -0.16002908 0.24740997 0.07113485 -0.12596247 0.05356878 0.15785852 -0.19868572 0.14995274 0.23862724 0.32229507 -0.033876017 0.02177711 0.27270743 0.075749315 0.007161674 -0.33520198 0.34298214 -0.040520266 0.11111595 0.03060051 -0.09055103 -0.11025752 0.16580781 -0.108467 0.3034832 0.007577932 0.22750945 0.2307413 -0.483459 -0.01967092 -0.060592208 0.0152540915 0.3398356 0.004171342 0.11554001 0.018084703 -0.2780969 0.11414045 0.12492018
66 0.5010032 -0.09418582 0.05057367 0.12106865 -0.09472162 -0.6231761 0.48529106 -7.4200885e-05 -0.18693879 0.07793225 0.29200518 0.07114306 0.15027454 0.3488544 0.44423395 0.04567428 -0.24223855 -0.11448596 -0.2556811 0.14272332 0.3134344 0.26726058 -0.35865274 0.12915733 -0.0074269394 0.018363332 0.26669705 -0.47846764 0.10950494 -0.071726575 0.041981176 0.21998312 -0.31347492 0.13537674 -0.052178495 -0.1428509 -0.3615946 0.112838276 -0.19796295 -0.4938122 0.21656142 -0.25010866 0.10728573 -0.13385928 -0.35094595 0.045538917 -0.09273891 -0.39954254 -0.08980451 -0.4992339 0.25749123 0.12923038 0.07864015 -0.5115438 -0.09134215 -0.067064986 0.39512935 0.12749122 -0.12791361 -0.5928123 0.11869903 0.15072611 0.05805017 -0.12893458 0.2682568 -0.09345405 -0.22608912 0.020794373 -0.15260343 -0.17227484 0.32708633 0.3430068 -0.0990087 0.23346913 -0.13689956 -0.22591393 -0.24694893 -0.18328054 -0.32513216 0.2962451 -0.0010464368 0.17311922 -0.4813835 -0.12810366 0.22487849 -0.14422089 0.3403731 0.14541271 0.34208655 -0.30099916 0.16574462 0.7962565 0.328912 0.006164983 0.2807071 -0.30927947 0.04789711 0.024127774 0.27791008 -0.09397706 -0.14624515 -0.16100547 0.09390592 -0.046267826 -0.16073097 0.13183798 -0.24883597 0.044188377 -0.04027684 0.100029044 0.054609723 -0.0516624 0.10308862 0.001979533 -0.30952227 0.14659967 0.062451202 0.36275548 0.010142255 -0.5272522 -0.092689164 0.025211288 0.14079712 -0.06775353 -0.32362384 0.3346484 0.055392083 -0.042730715
41 0.33610862 -0.3911093 0.4470238 0.31636977 0.19477811 -0.059398755 -0.021786869 0.23710778 0.14189517 -0.08008111 -0.38744769 0.13320914 -0.0074503417 0.0057623074 0.20727776 -0.24275571 0.055690795 -0.09062529 -0.16181858 -0.050058912 0.06724638 -0.24572895 0.38842115 0.28771007 0.1834232 0.02625285 -0.070940994 0.32602346 0.25269493 -0.09759474 -0.21460885 0.22889493 -0.23883542 -0.098991625 0.14618936 0.41187584 -0.088897586 -0.05323624 -0.1955581 0.101043105 -0.071808055 -0.15356585 0.089794315 0.15719493 -0.3506898 -0.3290985 0.078822784 0.113717854 0.17857642 0.14378564 -0.17919765 -0.011684231 0.039242003 -0.04068797 0.14095306 -0.18351807 -0.4454012 0.061534744 -0.48191252 -0.13362223 -0.096566096 0.08648296 -0.13349113 -0.14621072 0.051889863 -0.32558423 -0.3644594 0.06615336 0.0755413 -0.1671687 0.13569541 0.22635949 0.16409452 -0.19824944 -0.08693592 -0.18670933 -0.13306801 -0.2816762 0.041005407 -0.032836854 -0.46143275 0.37180725 0.12522532 0.14285329 0.3948483 -0.4261831 -0.078733884 0.0025452175 -0.19463152 0.114813514 0.065435104 0.11456605 -0.32831076 -0.11594599 0.24977954 -0.08149034 0.10181681 0.16031905 0.13576122 -0.0011932824 0.16503656 0.037990313 0.0016129994 -0.12367652 -0.3477135 -0.1418501 0.02115302 0.1458829 -0.41076055 0.20940413 -0.073982075 -0.1525456 -0.11933 -0.13937081 0.2023222 0.1527147 0.24389979 -0.16830628 0.04112615 -0.14728232 -0.16636251 0.57829005 -0.06405885 -0.2593381 -0.34245348 -0.05231877 0.135263 0.19072253
1330 -0.017788243 -0.104984306 0.06365208 -0.11140215 -0.039599173 -0.17865594 0.055523835 0.1258147 0.028856244 -0.1986529 0.06661212 -0.30305272 0.09605556 0.09740363 0.11041798 -0.3016473 -0.013091736 -0.2439225 0.09362546 0.34959263 0.15129863 0.033205666 -0.3303968 0.046871692 0.01647059 0.034487303 0.2733868 0.09127882 0.41484722 -0.069935195 0.101454645 0.06523602 -0.156554 0.16798243 0.1834903 -0.22443342 0.121793196 -0.1478982 -0.21098053 -0.26225308 0.108811565 0.10662793 0.28822783 0.016210355 0.05994058 0.016778868 0.13161692 -0.07199026 0.021766536 0.091619186 0.24523479 0.14893275 0.30078384 -0.0690803 -0.31245375 0.15493518 -0.103092566 0.106883176 -0.3049377 0.034123063 -0.039192274 0.05344198 0.12275823 0.09913792 0.01410218 0.14175275 0.0122024575 -0.023489019 0.0045681396 -0.07818925 0.44785348 0.11050885 0.053064205 -0.42410833 0.27192876 0.01269367 0.054830473 -0.27217638 -0.14146072 -0.17817497 -0.14158876 -0.16767445 -0.063751206 -0.19540657 0.26859435 -0.029752113 0.14862336 -0.15375222 -0.06742486 -0.07373857 0.28038123 0.2012199 -0.1260762 -0.050025605 0.052203923 -0.20288126 0.071554445 0.051629964 -0.15448254 0.22741404 -0.0040873936 -0.033028405 0.123242825 -0.08041695 -0.35689807 -0.23855524 -0.13027155 0.027417943 0.5252826 -0.27476954 0.15067357 0.20458378 -0.17902762 0.18960738 0.07677923 0.24769661 0.14315155 0.26200256 0.026103806 -0.074006826 -0.23687716 0.047807116 0.2621027 -0.19805051 0.050998162 0.144172 0.06710742 0.22655506
839 0.21756202 -0.16195628 -0.049196955 0.160312 -0.041133687 0.08663549 0.11687888 0.13660051 0.23320074 0.12125726 0.0051556947 0.1261719 -0.016800268 -0.35877985 0.29019174 -0.21384047 -0.3650954 -0.04011252 -0.1903016 0.16595794 0.10517113 -0.015546005 -0.19843358 0.094764374 0.036204264 -0.093867026 -0.018744458 0.13515197 0.014923137 -0.034150057 -0.03435996 -0.17680097 -0.11933859 -0.21056558 0.14569636 -0.08005951 0.10372173 0.046380095 -0.163168 -0.03423034 0.18626365 0.10929488 -0.11815189 -0.13121848 -0.039947256 -0.013512056 -0.028055066 0.25245976 -0.19067381 -0.38496116 -0.18189716 0.007687252 0.04113136 0.1491476 0.010822538 0.0039017468 -0.096532084 0.24343288 -0.32947603 -0.08723672 0.24604477 -0.098952614 0.039842054 0.16377902 -0.16639455 -0.2012517 -0.17650379 -0.030672502 -0.0778853 -0.090912476 0.15699315 -0.028450795 -0.2317594 -0.17250802 0.13658819 -0.19895594 -0.1844108 -0.18193571 0.20327336 0.0030314927 -0.15252066 0.2025777 -0.17903808 -0.02798617 -0.10760967 -0.25459775 0.010321893 0.047138616 -0.23722215 -0.08518229 0.040910266 0.36283144 0.106215425 0.12015921 0.04869421 -0.0078059635 -0.004790651 -0.088022836 -0.09826216 0.06688919 0.21145886 0.19182895 0.035331227 0.05564284 -0.046600953 0.121144086 -0.002737487 0.46582115 0.20750958 0.0008337089 0.087115265 0.16333376 -0.1179476 -0.12011373 -0.15057164 0.015250752 0.02071125 -0.0090245735 -0.2211811 -0.0118880235 0.00462408 0.123082295 0.23869617 -0.45837337 0.14617684 -0.3400842 -0.15166883 0.24876055
470 0.120463274 -0.3367436 0.17300169 0.2604681 -0.048109666 0.20572528 -0.17779979 0.0011687026 0.043711618 0.1364187 0.073459364 -0.036163896 -0.091579355 -0.079682566 -0.010747913 -0.11606759 0.12602541 0.06235502 -0.27471834 0.31734875 -0.24842647 0.069384426 -0.19788744 0.15504776 -0.017041879 0.054204274 -0.07939211 -0.040977787 -0.04303742 -0.15382132 -0.039015427 -0.10618959 -0.44925538 0.031639516 0.09530658 -0.07341114 -0.034039572 -0.3519923 -0.05258985 -0.02243463 0.37355763 0.24120784 0.031436853 0.319508 0.21665831 -0.27737948 -0.14205958 -0.16269006 -0.1977586 0.095523454 0.052296236 0.29310346 0.30244306 0.018859064 0.21675557 -0.091639064 0.011045577 0.39366344 0.017017402 0.18741149 0.243056 -0.20734069 0.040481295 0.13979287 0.09275044 0.01425562 0.11135074 0.46631745 -0.2637437 -0.11810273 0.3734128 0.009825004 -0.19525747 -0.09398082 0.03713127 0.11161888 0.03152778 -0.014454111 -0.038811393 0.24329135 -0.092114784 -0.06396869 -0.1613225 -0.30112973 0.21860322 0.15182815 0.23396537 0.3172289 -0.22413872 0.19735722 0.45166475 0.13459851 0.069717735 0.42191705 0.009141959 -0.16420361 -0.11050658 -0.12724413 0.03872988 0.0014922367 0.21451132 0.240007 -0.08489862 0.18622734 -0.29009557 0.13264112 -0.19039655 0.056535695 -0.0019712583 -0.13713455 -0.18957484 -0.021957317 -0.28803933 -0.33871183 0.21253844 -0.092719406 0.060155015 -0.056973346 0.23314574 -0.14338219 0.0260441 -0.051612362 0.026275977 0.08876034 -0.25813356 -0.2229903 0.30182794 0.45278117
1530 -0.04702709 -0.27067944 0.22949703 0.20676257 0.15342572 0.14177509 0.02663018 -0.5054019 0.10199759 0.04599773 0.060242433 -0.18556415 0.06939262 0.20626259 0.25134438 -0.10808924 -0.054123204 0.08228851 -0.10820484 0.333178 -0.020793173 0.1762351 0.023533016 -0.0583093 0.21259849 -0.1195435 0.2733983 -0.16902667 0.13597319 -0.0018763004 0.2656002 0.11084676 0.15486299 0.10951857 0.13587095 -0.15767755 0.041015156 -0.25417334 -0.053749748 -0.033249065 0.15420267 -0.15975875 0.26140332 0.1360979 0.027156161 0.1740044 -0.051619064 0.04504855 -0.12129812 -0.080179 -0.047194626 0.10806809 0.026501106 0.050694555 0.19809358 -0.029501807 0.12869602 0.14608993 -0.23985891 -0.06119474 -0.034502674 -0.22987248 -0.16351116 0.19553807 0.0605256 -0.11282992 -0.20313302 0.12884153 0.015158599 0.22189017 -0.3040199 0.05624259 0.020144695 -0.11693508 -0.20195588 0.07298139 0.050844673 -0.22099799 0.013436223 -0.101941854 0.0012805249 -0.07477789 -0.37256292 -0.11246109 0.33404619 0.080533795 0.009514731 0.03005416 -0.048669036 -0.067758396 0.123975925 -0.061608426 -0.038290497 -0.19850814 -0.034181565 -0.048421472 0.058829088 0.031109143 0.26011586 0.26006877 -0.045522355 0.323268 -0.19828041 0.038452428 -0.22600992 0.12482442 0.43035978 -0.10674545 -0.1660616 -0.10235373 -0.31624117 0.1450471 0.009038834 -0.08005103 -0.12424729 -0.024368536 -0.105904415 -0.11515563 -0.03754063 0.27589658 0.012935294 0.18474948 0.22785237 -0.034251 -0.01689948 -0.13930528 -0.32102117 0.08848856
11 0.072391935 -0.10669151 -0.25019163 0.013528819 -0.050129026 0.06858625 -0.10905718 0.1422979 0.25957328 0.3714776 -0.17509651 -0.16757832 -0.30396998 0.20455404 0.10623986 0.024466613 -0.35285532 -0.15655284 -0.18051626 -0.02489556 0.110382125 0.07176188 0.1917921 0.23924443 -0.13061565 -0.13593878 0.28628662 0.0710008 0.22362418 -0.05670723 0.2874456 0.35127664 -0.10845487 0.02824518 0.14206919 0.51838064 0.42511675 -0.062163197 -0.27743655 0.030272787 0.1326941 0.002294673 -0.13828732 0.06976751 -0.24330196 0.16117682 -0.038368545 0.45767415 -0.49505854 -0.27237058 -0.31971434 0.10019702 0.0396617 -0.08055113 0.07271917 -0.61385596 -0.054087028 0.054433066 -0.16241635 -0.034835983 0.26115614 0.023186801 0.68313736 -0.1624931 -0.29376757 0.08747464 -0.00037262356 0.05313728 0.3353469 -0.44673032 -0.08093703 -0.25038773 -0.35145542 -0.120122105 0.24203396 0.24851695 0.28703016 -0.7645555 -0.095963955 0.119736806 0.05881233 -0.020701475 -0.051567804 -0.06744614 0.14094701 -0.34590396 -0.02487823 0.056464996 0.06366603 0.20046788 0.1015359 0.0006635969 0.13516568 0.38408738 -0.15416217 0.29974863 0.007847236 -0.08253192 0.14546743 0.005232814 -0.32148546 0.5558321 0.3260596 -0.46642673 -0.28175685 -0.023894796 -0.12541467 -0.1630716 0.12107346 0.11914294 -0.2560463 0.15273084 -0.10629254 0.114394866 0.0066019744 -0.0014330626 0.15604176 0.23874205 0.096824445 -0.13623022 -0.0999137 0.007390719 0.1895484 0.05881958 -0.17804305 -0.11622252 -0.033082236 -0.04300852
141 0.08202384 0.015286427 0.090621375 0.23202978 -0.1743045 0.0354095 -0.21633114 -0.085615985 0.27267203 0.10123562 -0.11678191 0.081506886 -0.18566641 0.28425545 0.002195437 -0.040022373 -0.21871199 0.07749653 0.009554892 0.391625 0.06339225 0.046906445 -0.11512451 0.41314396 -0.053488426 -0.12147252 0.16565894 -0.36744887 0.049769774 -0.3488229 -0.23529266 -0.07211582 -0.2744211 0.17269504 -0.0013881096 0.11861435 -0.43505815 -0.118206516 -0.007638933 0.13939959 -0.2534159 -0.07857908 0.08217762 0.048106965 -0.0035292006 -0.15244514 0.1569655 0.056090392 -0.12589501 -0.1236063 -0.0064977203 -0.00450959 0.20325778 0.22790681 -0.21063335 -0.17679048 0.19549465 0.13641608 -0.08974365 0.011235838 0.29180494 -0.19247214 -0.012614491 0.13602191 -0.35827056 -0.041593228 -0.1164603 0.037546325 -0.30786434 -0.066897094 0.095975704 -0.14500919 0.15820244 -0.096483566 0.057576314 -0.22782792 -0.35047773 -0.1594235 0.023407245 0.23690158 -0.025575442 -0.2226998 -0.045463648 -0.13760339 0.13434994 -0.37058285 -0.16043888 0.08233898 -0.3022726 -0.024578093 0.1378664 0.10910099 -0.13435072 0.101441555 0.07057377 0.16702151 -0.2374355 -0.12881799 -0.0860231 -0.034534473 -0.0630559 0.047101192 0.18169257 -0.008874076 -0.19128387 0.15342136 0.27753478 -0.18232457 -0.046297837 0.32665268 -0.05868292 -0.06559303 -0.02197355 0.031694196 0.25558072 0.17977397 0.049270157 0.12222885 0.15592685 0.016137103 -0.01140974 0.09417446 0.22300908 -0.09373354 -0.14259472 -0.15225318 -0.081838734 -0.026126891
1083 0.25836962 -0.18330559 -0.20730703 -0.13923262 0.39567393 0.021465575 -0.09165979 0.09643861 0.09718572 0.15026958 -0.05301575 -0.012863547 -0.22463027 -0.16980039 0.30369985 -0.06452749 0.15733619 -0.07034933 0.036699753 -0.04555022 0.25082597 -0.043057855 0.060786303 0.6205024 -0.20053966 -0.07628904 0.24032712 0.048398755 -0.09273087 -0.2146215 -0.038426656 0.09701518 -0.07429795 -0.009648863 0.17505787 0.1138007 -0.06707172 -0.19428082 -0.046891954 -0.38927573 0.44537348 0.034323663 0.16424304 -0.029123075 -0.06394248 -0.10512249 0.15618698 0.22447869 0.050877213 -0.20234357 -0.02811687 -0.11587225 0.1275766 0.16830307 0.052253682 0.01987442 0.056318913 -0.023318162 -0.07108477 -0.17204477 -0.022077285 -0.07928739 -0.083169915 0.17631634 -0.19503525 -0.23580918 -0.21872616 -0.25924894 -0.22118251 0.2962308 0.25783563 -0.23958763 0.06556948 -0.0036168941 0.018301463 -0.10975454 -0.008280955 -0.61835086 0.10111318 0.18357408 -0.38740155 0.18157466 0.05486231 0.021419164 0.13205363 -0.25587955 0.14640158 0.07965002 -0.046103064 -0.020687433 -0.18493861 0.0017775134 -0.13374452 0.041644823 0.049294032 0.17328618 0.08057893 0.1894708 0.055922147 -0.12812969 -0.16493362 0.32725355 -0.058381673 0.1921315 -0.33832183 -0.12507023 0.07867279 0.05381141 0.13877581 -0.063045226 -0.32349104 -0.33359948 0.02969837 -0.030059401 -0.0071190353 -0.20884462 0.15144163 -0.059779417 -0.14326692 0.31794927 -0.068632394 0.22460574 -0.089426756 0.0037557846 -0.1888873 0.019355237 0.108589016 0.0791326
1470 0.031453002 -0.077823505 0.2919214 0.09733563 -0.0526758 0.18043093 0.2513481 -0.13499364 -0.042954795 -0.14640702 0.12645528 -0.039344583 0.20762397 0.21550365 0.1319141 -0.016641289 -0.022479575 0.001575382 0.09749946 -0.11385004 -0.042437833 -0.12490701 0.09091707 0.036310825 0.014844287 -0.02661099 0.12050026 -0.122141406 0.082583845 -0.15523446 0.12375606 -0.10601547 0.105692066 -0.033137698 0.012026907 -0.2154193 0.16044088 -0.32295775 -0.2121149 -0.067338385 0.31224984 -0.14266549 0.10459173 0.31026778 -0.21431321 -0.1714098 0.20072964 -0.14909655 -0.15200286 -0.107068084 -0.16060391 -0.005713898 0.39568794 0.12418213 0.13132599 -0.07285632 0.057273813 -0.093235716 -0.1273972 -0.16740505 0.09072821 -0.06533946 -0.1391715 0.23204629 0.11567647 -0.25787073 -0.36842623 -0.008517501 0.15324752 0.18097444 -0.032169223 0.24688885 -0.28891295 0.12398186 -0.17983474 0.037173945 0.10266193 -0.116761945 -0.14844447 0.06612015 0.18290076 -0.012668029 -0.37579393 0.14470685 -0.019530589 0.041042358 -0.1400494 0.12515254 0.07927114 0.036091127 0.3366226 0.2193945 0.13305975 0.083892904 0.0984069 -0.186973 0.006343125 0.26316124 0.1102048 0.13531111 -0.28183922 0.037603054 -0.07591441 -0.20540924 -0.17735489 -0.003661451 0.048052397 0.10291422 -0.08674669 -0.086027354 -0.070390105 0.17936371 0.27999705 -0.054551207 -0.032201543 0.20840414 0.06368169 0.23556398 -0.22424467 -0.02982035 0.14528744 0.07434095 0.39152363 -0.02119935 -0.116794266 -0.36331838 -0.0047655525 0.030625058
80 0.11011127 0.028245458 0.14288448 -0.34385738 0.28182426 0.0872324 -0.12934694 0.07585149 -0.15654676 0.2436561 0.09980415 0.07042766 0.11745799 -0.100909166 0.33702868 -0.47817203 0.0884076 0.09203601 0.20856358 0.15630324 0.18378706 -0.106697865 0.045622002 0.12010931 -0.14670631 -0.22545683 0.026359996 0.18497624 -0.42823938 0.22297813 -0.45253086 0.020150077 -0.04807655 0.034120433 0.2945762 -0.037814826 0.09053235 -0.26989067 -0.083096564 -0.19804029 -0.25764766 -0.11573916 0.057961326 -0.024899898 -0.083537385 -0.11636628 -0.3052876 -0.15284146 -0.10273678 -0.19501811 -0.38906693 0.27052885 -0.17401126 0.11859353 -0.054049335 -0.047373503 -0.27645424 -0.038890377 -0.0094183665 -0.2288968 0.06893644 -0.26844487 -0.24508584 0.12965687 -0.38890684 0.019752964 -0.26149803 0.19474095 -0.077486366 0.17239454 0.20463437 0.011150439 0.11015614 0.17835927 -0.35122535 -0.058514345 0.18624577 -0.5648651 -0.22323816 0.16775665 0.0471871 0.32383102 -0.2125649 -0.009314532 0.20108469 -0.31091815 0.18478535 0.058392037 0.10145971 -0.04037473 0.08489779 0.31159407 -0.19621336 0.10575063 -0.16489176 -0.09447699 -0.25251395 -0.07142733 0.15030335 -0.13576072 0.09706422 0.2833054 -0.3722959 -0.015125748 -0.010237516 -0.09466121 -0.13832577 -0.24782076 0.21916556 0.020683002 -0.21549307 -0.28397775 0.23315944 -0.07856032 0.2132209 0.17303725 0.3241559 -0.0062564453 -0.17669982 -0.109593555 0.16042118 -0.029712312 0.08580818 -0.0027482822 -0.27645507 0.15697408 -0.046943948 0.23788069
81 -0.36654118 -0.1444974 0.21995206 0.118159436 -0.07941909 0.063617595 0.14180359 0.17657453 0.2445482 0.39587274 -0.23344876 -0.17382741 0.27257308 -0.038115427 0.10044742 -0.10471296 -0.19847263 0.011810124 -0.125496 0.15711068 0.05528428 0.16012084 -0.33858848 0.12820542 0.30856958 0.031495776 -0.049960364 -0.30242229 0.43119428 -0.0009598803 0.25558767 0.11069176 0.016249027 0.21259822 -0.1733156 0.15001562 -0.42963374 -0.1880347 -0.3316409 0.20562072 -0.15575278 -0.02504361 -0.10483506 0.27097365 0.01730708 -0.252976 -0.32080734 -0.10153656 0.13569386 -0.029430354 -0.112483084 -0.18972073 0.39892724 0.17519614 -0.24951294 0.0885889 -0.14645047 0.17461775 0.08172603 -0.007193053 -0.089420095 -0.09981276 0.10600672 0.23412347 -0.3309369 -0.00071376597 -0.1662247 0.1401706 0.07321847 0.051637307 0.08694686 -0.41668186 0.3517733 0.08171306 -0.055050258 0.31430605 0.21084239 -0.38202325 -0.13611963 -0.13905706 0.067704394 0.28512707 0.10636442 0.14646693 -0.10967473 0.03560071 -0.28270936 0.25666603 0.021713661 -0.023219299 0.47184446 0.50518006 -0.2708278 0.21425857 -0.30700982 0.042487912 -0.11793729 -0.14070275 0.15657431 0.10722045 -0.14420445 0.46489504 0.19025724 0.18524706 -0.1311734 0.021624038 0.31443 -0.11543467 0.0839959 0.06419448 -0.00650355 0.0361184 0.042494312 0.027225366 0.13847916 -0.17500092 -0.062156726 -0.10543995 -0.073195554 -0.06395909 0.051380154 0.06024561 0.029837783 -0.14461118 -0.068509236 -0.22640114 0.18994781 0.15099481
774 0.07463024 0.083453365 -0.040514614 0.28539547 0.20195982 0.0046544457 0.037342492 0.016921718 0.18685779 0.10468081 -0.07684111 0.09629771 0.08412506 -0.02817757 0.09347685 -0.16547956 -0.10564172 -0.047251113 0.074236274 0.22793029 0.20056719 -0.04406814 -0.05723715 0.32927695 -0.01931083 -0.12308344 0.07161701 -0.08029519 0.12167634 -0.24035306 -0.031247005 0.26132223 0.025578901 -0.16890286 -0.15803918 0.09615281 0.14097077 -0.13450173 0.14609948 0.012068393 0.1438603 -0.0381376 -0.0797543 0.09627485 -0.114570275 0.20789957 0.110147916 0.037953272 -0.22273952 -0.30993977 -0.26272964 0.13856117 0.29985282 0.1913633 -0.031594582 0.15138757 -0.162258 -0.16666873 -0.041565653 -0.28185493 0.21915823 -0.32752368 -0.2546366 -0.025232144 -0.048857875 -0.19926788 0.19699982 -0.095068574 -0.23823293 -0.28422287 0.034436103 0.05981358 0.21966532 -0.044611968 0.24688673 -0.048644137 -0.06006052 -0.24557339 0.10716246 0.02833346 -0.16196622 0.099192 0.019209115 -0.08616364 0.017971165 0.14083944 -0.030855045 0.3763322 -0.06585922 -0.06284386 0.13884361 0.214031 -0.23742427 -0.18689372 -0.04665697 0.033573344 0.054303817 -0.01998049 -0.095358446 0.023827517 0.09459419 0.081731565 0.26457778 -0.27188107 -0.03492894 0.056564223 0.14853694 0.06725451 0.12167653 0.08869502 -0.15149556 0.16517009 0.15407881 -0.26721847 0.12552944 0.08079063 -0.03940398 0.24578355 -0.129582 0.055143766 -0.10255677 0.09963432 0.242217 -0.1264406 -0.25655943 -0.15028381 -0.321648 0.06448933
