77 128
76 0.005285821 0.20821384 -0.0625598 0.030912932 -0.005394634 0.078592785 0.11460175 0.017456045 -0.026799826 0.0023306757 -0.044908013 -0.13563538 -0.024991404 0.07693313 0.12097132 0.14718086 0.20962973 0.050349433 -0.053645425 0.11282381 -0.08502414 -0.13816261 -0.24262637 -0.13004723 0.081034824 -0.0003191368 0.03745977 0.11987429 0.094017036 -0.063707724 0.0021710019 -0.05781336 0.12992087 0.06790503 -0.1403725 0.15520662 -0.11849696 -0.14409003 0.06377384 0.102480285 0.15805982 -0.063524306 -0.084464386 -0.16211547 0.28636977 -0.1832044 0.037623964 0.114973314 0.024970794 0.08361565 0.122889645 -0.051604535 -0.004856954 -0.04909859 0.021185039 0.10828057 -0.09076786 0.045945887 0.14759246 -0.14083219 -0.04277324 -0.051236395 0.14849906 0.05670969 0.08816538 0.12180163 -0.11995368 -0.17767103 0.06023378 0.10820423 -0.007749301 0.027240312 0.13290958 0.12932707 0.0067635966 0.15812562 -0.14198281 -0.007664452 0.1573986 0.0053005824 0.040132046 0.10601747 0.122659095 0.0808973 -0.08165039 -0.01647452 -0.18191026 -0.08126217 0.048344333 -0.14392623 -0.09086051 0.19618478 -0.012415277 -0.14883292 0.035467293 -0.1424315 0.11980726 0.09417119 -0.0027800414 -0.0036579992 0.046132322 -0.07644556 0.084384486 0.11384958 -0.007172479 -0.13840011 -0.18540107 -0.25846872 0.1724715 -0.034747936 -0.06918135 -0.07659058 0.011296843 0.24399173 0.06672982 0.056788303 -0.09548007 0.03733284 0.32905716 -0.087065935 -0.041444328 0.25959718 -0.115924604 0.4365078 0.14582665 -0.29998985 0.056559097 -0.09497613
2 -0.15094136 -0.17992447 -0.12960123 -0.053653494 0.05983554 0.059025835 -0.04441373 -0.082164474 -0.09423103 -0.10103189 0.09416216 0.062577344 -0.25030866 0.09820268 0.111335374 0.08683139 0.103607275 0.053635847 0.053068247 -0.16412283 -0.0100778295 -0.020327864 -0.13912535 0.019673135 -0.06649721 0.15562256 0.13146901 0.066594504 0.058885217 -0.22967356 -0.03125923 0.056913592 -0.015403223 0.09325317 0.08597083 -0.008686229 -0.16679496 -0.15747263 0.042712763 0.150655 0.0506815 0.07559372 0.21354395 -0.015559412 0.069061406 -0.106777765 0.17954181 -0.05764432 0.03152315 -0.15151493 -0.047275502 -0.10551429 -0.086077124 -0.031737152 -0.072214 -0.09635749 0.0445324 -0.02549848 -0.06694064 -0.081074014 0.009784864 -0.058779098 0.099180415 0.052459434 -0.14268035 0.14682211 -0.0427807 -0.053191207 -0.072395526 0.01749003 0.101320505 0.056595523 0.08199366 0.106211275 0.065608 -0.031497017 0.08503546 -0.16894911 -0.08464868 -0.039588105 0.1277702 -0.019312363 -0.005122202 0.018323218 0.06335488 -0.1054822 -0.16652988 0.002770997 0.020934349 0.017181573 -0.11464343 0.0770567 -0.012631064 -0.12009559 -0.027938833 -0.17502417 0.09106345 -0.010482835 -0.046136267 0.07840043 -0.008431189 -0.21430342 0.025983104 -0.0032012642 0.084520504 -0.08610277 0.07773149 0.059144665 -0.0842703 -0.16031148 -0.003547167 0.044032674 -0.056060936 0.01930141 -0.11041895 0.049197882 0.16125505 0.04842398 0.061031647 0.112052396 0.086085685 0.043946773 -0.009358137 0.10367551 -0.116351016 -0.07623697 0.0025896286 0.022538943
1 -0.04346964 0.031924967 -0.031408656 0.065306626 0.034146886 -0.059909713 0.039653674 -0.106032886 0.12516963 -0.06195935 0.1310206 0.02907546 -0.22360756 -0.10262979 0.13190636 0.053183768 0.03286976 0.037174 0.10966049 -0.16772904 -0.076680414 0.21363555 -0.06285142 0.05623557 0.037763864 0.1303982 0.10191693 -0.042083744 0.08728888 -0.09014044 0.02955309 -0.047294352 -0.15671986 0.056240987 0.17572238 -0.124479115 -0.15257107 -0.10624482 -0.08306729 0.05253793 0.087563805 0.02491385 0.1868396 -0.10568166 0.09269076 -0.022395054 0.16014151 -0.03133159 0.050740767 -0.081141084 -0.195591 -0.07250646 -0.00081219996 -0.10994529 -0.16717544 -0.10850308 0.03701747 -0.04656625 0.13195418 -0.17231485 -0.019221535 0.046549857 -0.029957196 0.043897796 0.0046560834 0.19243565 -0.06443442 0.0010772147 0.006407815 0.041489482 0.1094618 0.08137063 0.036730655 0.1501549 -0.0627423 0.07574033 0.08147673 -0.06044288 0.03860301 -0.1180187 0.11670815 -0.0109952185 0.12558204 -0.20168675 -0.025963007 -0.043636758 -0.089694865 0.008617775 -0.061955396 -0.051921327 -0.23471147 0.1345774 0.15528254 -0.15961275 -0.11468868 -0.07088647 0.039533786 0.02069644 -0.18307576 0.17097512 -0.11314253 -0.08268334 0.07442462 -0.09132193 0.1500187 -0.028560324 0.16064423 0.045101423 -0.09044786 -0.16187674 -0.056995388 0.10373053 -0.0103582395 0.14671484 -0.1108721 0.07197944 0.10833046 0.11182496 0.076346695 0.025454994 0.15281881 0.044241194 -0.022345744 0.0693239 -0.04038315 0.008264837 -0.14297155 -0.04201846
74 0.09948849 0.27844688 0.09368606 0.0020938963 -0.0011965156 0.12611069 0.062292024 -0.018315583 -0.036634427 -0.082263514 0.026436277 -0.0042024394 -0.06558091 0.08877544 0.11667418 0.081898026 0.08765035 -0.019621274 -0.057837974 0.0742659 -0.114431545 -0.088690214 -0.22231518 -0.10263698 -0.113259114 -0.007374919 -0.009609094 0.023316775 0.11884086 -0.10119259 -0.0063708285 -0.046759956 0.0114486655 0.0656916 -0.17206615 -0.015430204 -0.17033418 -0.075844355 0.10415375 0.10606526 0.03622327 -0.14854623 0.046430595 -0.023941142 0.19320346 -0.10055584 0.09586373 0.01418877 -0.058597814 -0.0045907376 0.039016526 0.00658084 -0.2214322 -0.027449582 -0.053624116 0.025014972 -0.1524014 0.091448955 0.06521547 -0.042966526 0.023539554 -0.22437571 0.18452631 0.10895061 0.032653116 0.11634287 -0.15575589 -0.17083701 0.09188542 0.017406588 -0.034009174 0.056543905 0.19892211 0.11014987 0.12565003 0.07484744 -0.057490937 -0.02470357 0.081332274 -0.07793367 0.17099306 -0.04743069 0.14594585 -0.049846712 -0.09394212 -0.043197565 -0.09007195 -0.091454536 0.0687353 -0.06677914 -0.03623829 0.089999035 0.0022289096 -0.084431276 -0.02406076 -0.06908739 0.15166774 0.09521992 -0.044489797 -0.015130209 0.0025062496 -0.025883533 0.06929138 0.064693354 0.0092663765 -0.08546037 -0.19347022 -0.31493825 0.22874819 -0.17536502 -0.11190411 -0.12320293 -0.07158323 0.22009484 -0.018937482 -0.010747222 -0.18045865 0.07554879 0.2326979 -0.099221654 -0.10219506 0.15139037 -0.15754125 0.32270092 0.14348817 -0.2999841 -0.054624826 -0.014448668
44 -0.14518052 0.10532093 0.14225739 0.08455896 0.04707739 0.10955417 0.16308522 -0.16119176 -0.04988323 -0.1416463 0.12912124 -0.17585918 -0.09727919 0.09561147 0.07177103 0.13177812 0.13257524 -0.009311123 -0.07040052 -0.037064936 -0.095933996 0.0035253991 -0.22222339 -0.14045165 -0.06859694 0.0049346685 -0.06706405 0.03354399 0.14776032 -0.13203476 -0.0816689 -0.15221474 0.0939061 0.0019967214 -0.10533333 -0.04609218 -0.094347924 -0.050295856 0.037891515 0.08625174 0.08647156 -0.11203789 0.03963886 -0.03522183 0.23622134 -0.05231602 0.10104837 -0.0698782 -0.098042175 -0.027093446 -0.0070216493 -0.024513707 -0.11410291 0.005091573 -0.07095236 0.040418167 -0.07008771 -0.012207096 0.21373573 -0.07327813 0.0085895555 -0.08126725 0.06061164 0.09732417 0.09968082 0.05893989 -0.120365635 -0.20257561 0.15549596 0.10026033 0.05762619 0.11599835 -0.011815352 0.1770909 0.013887859 0.06619896 -0.1557181 -0.10368408 -0.007507116 0.07015509 0.12327671 0.0123574 0.12307749 -0.035183225 -0.048010785 -0.0047732093 -0.16694751 -0.015807742 -0.05361394 -0.1086245 -0.1716995 0.11439685 0.07726747 -0.100145325 0.14660478 -0.04221084 0.059939936 0.06754742 -0.11490918 -0.18124363 0.08114709 0.03582802 0.112996675 -0.010648139 -0.041488238 -0.015095001 -0.14235927 -0.3627201 0.27190953 -0.14053823 -0.059957013 -0.054404005 -0.005583187 0.23239836 0.097277485 0.027743021 -0.08593862 -0.02809497 0.28603175 -0.2111932 0.02954031 0.10640892 -0.11997973 0.26649183 -0.00089771143 -0.163396 0.010832591 -0.107951924
0 -0.23305085 0.0016147068 -0.14224169 0.055227946 -0.020340383 0.05295988 -0.02820514 -0.030667603 0.11923489 -0.12615716 0.09319504 0.08477854 -0.022818094 -0.10637017 0.124116346 0.008399331 0.0075012282 0.042021148 0.038112063 -0.13663885 -0.057552986 0.096101455 -0.12613076 0.005970882 -0.05402748 0.09201407 0.10981638 -0.060259923 0.10198135 -0.08875099 -0.03442089 0.06904237 -0.040935844 0.11424844 -0.038429234 -0.2143952 -0.010725688 -0.16640125 -0.02672845 0.04511525 -0.011945073 -0.045655724 0.1076954 -0.053829398 0.06069054 -0.0383974 0.12319633 -0.08745939 0.05196538 -0.08224464 -0.10039704 -0.11288897 -0.05635755 -0.07236039 -0.2115516 0.050823484 -0.083113275 -0.107117355 -0.020646758 -0.18917893 -0.011853348 -0.20082939 0.20864862 0.16271299 0.030108659 0.18136726 0.037743684 -0.074776016 -0.14357965 -0.04770041 -0.010334121 0.041549046 0.092176214 -0.013635523 0.04151257 0.13250764 0.12177154 0.048785232 0.03929663 -0.18140942 0.08278538 -0.05302516 0.11048033 -0.095326886 -0.07875846 -0.016349334 -0.07244491 0.011513398 0.0027202354 -0.018308436 -0.15243763 0.14585412 0.16322248 -0.18654057 -0.05440565 -0.15672511 0.09500419 -0.0067365314 -0.12674141 0.1437468 -0.060874518 -0.21896829 0.059624314 0.04165849 0.075495936 -0.2120553 -0.14074439 -0.09636068 0.034253754 -0.25935423 -0.18156314 -0.04090223 -0.0036311478 0.11578696 -0.19406468 0.055775955 0.035455693 0.13201952 0.019708695 0.04591641 0.0021787374 0.05368581 0.031218803 0.08569741 0.0072534103 -0.14508216 -0.18577906 -0.018711958
57 0.033541285 0.098187394 -0.045347776 0.08170133 -0.019723369 0.056580964 0.0649371 -0.043701507 0.0960763 0.0062744673 -0.07871824 -0.093054675 -0.09670978 0.107996665 0.061099038 0.081659734 0.17396162 -0.014672219 -0.07780705 0.060311455 -0.09917412 -0.20991547 -0.13171731 -0.13740478 0.060028654 0.1814403 0.025600782 0.03529192 0.15080935 -0.04674184 -0.06827727 -0.080773 0.1230014 0.07781022 -0.17855188 0.048675254 -0.13898246 -0.08717419 0.14170252 0.2332139 0.026011713 0.01966352 -0.080831595 -0.05574284 0.27077693 -0.09872096 0.0837393 0.046610292 0.09171492 -0.07960667 0.052673746 -0.10311085 0.01823582 0.053621974 -0.11061667 0.08744758 -0.06977572 0.073061116 0.19736613 -0.01883161 0.022980044 -0.06459886 0.032429524 0.045169987 0.09074408 -0.017490529 -0.049701672 -0.17325586 0.109658666 0.15101743 -0.005008203 0.10197749 0.086804606 0.1929306 0.14353201 0.16559103 -0.16391435 -0.17085098 0.14248656 -0.03135531 0.09266448 0.08139737 0.19192481 -0.05134186 -0.20154953 -0.00048814228 -0.2407634 -0.06630659 -0.034964815 -0.1606774 -0.068409465 0.13206014 -0.11252394 -0.088246636 0.06921757 0.0672463 0.1681548 0.05376155 0.044711944 -0.12545317 0.095606625 0.067414425 0.010975245 0.16662417 0.0019263012 -0.17453861 -0.32809722 -0.4798563 0.31763244 -0.10382578 0.030391913 -0.13740355 -0.04073771 0.20513642 0.10662399 0.004392104 -0.11155807 0.10139918 0.36078176 -0.17225388 0.09444908 0.19667034 -0.12522067 0.23693624 0.115348585 -0.3172236 0.1312194 -0.07789172
25 -0.036545545 0.2439191 -0.364797 -0.055706285 0.02877474 0.16520856 -0.065139234 0.019980265 0.13671364 -0.039774444 0.008836256 0.05388013 -0.141377 0.050487135 0.0975012 0.121453345 0.18481766 0.1939519 0.0017129849 -0.036208674 -0.17945263 -0.08246059 -0.20776395 -0.2729729 0.08386691 0.015926048 0.08655751 0.10879824 0.068116345 -0.072728276 0.0133497035 0.0042677824 0.04259159 -0.0010313076 0.13860108 0.19647907 -0.13876434 -0.028619593 -0.044453993 0.15718336 0.052068964 0.06085304 -0.086918734 -0.11853995 0.080316074 -0.1406857 -0.014423493 0.030934624 -0.027121687 -0.061565768 0.007931325 -0.09145536 0.12633398 -0.020152092 -0.0608175 -0.0357314 0.042625647 -0.032647256 0.05901732 -0.11407715 0.021796951 0.11499025 0.024784174 -0.10927318 0.07055823 0.14925545 0.0791774 -0.042639676 -0.018034507 0.056623995 0.046446145 0.10013569 0.18472593 0.07117312 -0.008146961 0.1309115 -0.04339314 0.076498754 0.15287082 0.04087992 0.21328396 -0.02110891 -0.14795439 0.16167888 0.14584807 -0.0769094 0.038659867 -0.09338482 -0.033415478 0.015801469 0.017265348 0.099501826 -0.22846846 -0.20150396 0.07082717 -0.20172995 0.1158181 -0.052041203 -0.09267019 0.015645003 0.07675999 -0.07730153 -0.03093037 0.112752475 0.057940595 -0.15995356 -0.124698356 0.054630477 -0.022351682 -0.101171285 -0.061522786 0.043601647 0.053706426 0.18910444 0.103260495 0.09808437 0.010617498 -0.033160094 0.09626843 0.014313693 0.09552598 0.14712597 -0.1023233 0.21876493 0.12230996 -0.17501053 -0.038903404 -0.05867903
6 -0.36786216 -0.08162858 0.09674141 0.017042955 -0.03269159 0.06557759 -0.011971162 -0.12898749 0.094223075 -0.13278113 0.039249197 0.0630867 -0.21261805 -0.10868854 0.11642085 0.100140214 0.021331415 0.094741665 0.15298161 -0.04056645 0.020243175 0.071322195 -0.09924963 0.102541156 -0.0022380732 0.1678633 0.23096746 -0.02257172 -0.090153985 -0.21201447 -0.10703454 -0.028184274 -0.06529439 0.04869707 0.15481746 -0.112544775 -0.075538695 -0.11196882 0.068735145 0.005211626 0.018658245 -0.041430287 0.16349843 0.16360523 0.15974481 -0.10145259 0.18751422 0.04622591 -0.012236392 -0.09302632 -0.12662268 -0.072697654 -0.08410322 0.008400629 -0.18600036 -0.06862477 -0.0881372 -0.016013784 0.041483734 -0.13950379 -0.13001983 0.084468946 0.033708207 0.11816813 -0.09147417 0.08936398 0.048163053 0.02514523 -0.10528198 -0.120670654 0.09913306 0.021665763 0.06936612 0.24584635 -0.06818399 0.04220857 0.16118503 -0.038550206 -0.042100042 -0.22808933 0.067274265 -0.11278367 0.029957341 -0.16362327 -0.11077111 -0.18619975 -0.08126018 0.04041682 0.051770408 -0.008110912 -0.088649884 0.047272127 0.085491 -0.109328486 -0.030923767 -0.19795664 0.05507445 -0.06036274 -0.3813443 0.30488107 0.07852972 -0.15952824 0.014020637 -0.10505849 0.09046361 -0.23960628 0.036248498 0.024452103 -0.10313637 -0.2998957 -0.04504671 0.11157815 0.00784174 0.11791967 -0.28521517 0.15673558 -0.005903808 0.14583606 -0.01629833 0.1338049 0.08490553 0.03819011 -0.018167922 0.009159232 0.012971797 -0.13490257 -0.07497224 0.070725776
5 -0.19416231 -0.23098116 -0.03732572 0.09251523 0.0403468 -0.09944233 -0.021563385 -0.0957116 0.0899753 -0.1363157 0.10708347 0.036564607 -0.21620578 -0.19722351 0.121984966 0.033603564 0.047833223 0.10451125 0.094786264 -0.15942425 -0.027062114 0.14987375 -0.1206239 0.0067944434 -0.15960905 0.1349152 0.2079562 -0.11916021 -0.066092305 -0.21097027 -0.028055625 0.1006863 -0.15713222 0.13129696 0.06906994 -0.120381415 -0.076513454 -0.16516452 0.017663233 0.074428245 0.17602903 -0.1596694 0.18578742 0.14599697 0.07047996 -0.13529345 0.14044577 0.05064857 0.033770982 -0.10870834 -0.089066476 -0.12139587 -0.01843714 -0.073524415 -0.090172395 -0.093269825 -0.06046682 0.02784927 0.0034949814 -0.12248335 -0.14058344 0.039159287 0.02929399 0.21947564 -0.070634276 0.108991966 0.09419076 -0.0515377 -0.14010888 -0.06880084 0.15194732 0.067671284 0.017559387 0.15887792 -0.06552824 0.042778112 0.015456973 -0.016216867 -0.083247624 -0.26161104 0.10314493 -0.07495832 0.033707593 -0.13714936 -0.02284593 -0.081231974 -0.10436533 -0.048683587 0.07067983 -0.050927255 -0.094520606 0.09875128 0.16991664 -0.1481622 0.09825347 -0.26442245 0.001795478 -0.10598724 -0.2507168 0.2825126 -0.055839337 -0.30995768 0.16013294 0.0058303094 0.013556761 -0.2120996 0.013419349 0.036880374 -0.07272045 -0.2804757 0.0047394084 0.07750496 0.021452067 0.05083821 -0.19863689 0.002328179 0.123543955 0.1732809 0.010723274 0.09746279 0.035640597 0.012848659 -0.016631538 0.06438951 -0.011532333 -0.10576882 -0.040604137 -0.022309305
3 -0.12040539 -0.1178434 0.015651023 0.022359598 0.08902213 -0.034706376 0.12301847 -0.10479689 0.097413465 -0.13965175 0.09380951 -0.0017958711 -0.2740149 -0.05767078 0.11876371 0.011928096 0.110256806 -0.012541681 -0.014221817 -0.19961926 -0.09588577 0.047689166 -0.10404078 -0.05177127 -0.08149751 0.08179792 0.09589207 0.008106381 0.07453847 -0.043650016 -0.0010770444 -0.019698858 -0.004392102 0.15375605 0.0007187674 -0.07264355 -0.062313583 0.0025114745 -0.010943708 0.012865084 0.044313733 -0.030532826 0.16154833 0.082066305 0.0069363173 -0.00067188864 0.29071006 -0.064053655 0.045297693 0.003520445 -0.08823652 0.03162366 -0.11402004 -0.026306426 -0.30696702 -0.12911718 -0.022376867 0.051381078 0.040603798 -0.04822176 -0.11833236 0.05315224 -0.0026235974 0.16768251 -0.13648067 0.16134185 0.13664693 -0.10608808 -0.060395475 -0.13694993 0.048577026 0.07792663 0.054154698 0.22683509 -0.018963857 0.040433083 0.08356446 -0.1728732 -0.012464901 -0.20505793 0.13764016 -0.000417089 0.00504956 -0.00065604737 -0.14400774 -0.11785551 -0.06496835 0.05338866 0.02440092 -0.08789271 -0.014668252 0.14748603 0.11026408 -0.1097323 -0.042098973 -0.069409646 0.024688667 -0.034889836 -0.086248055 0.23513465 -0.025235085 -0.077417105 0.02700975 0.018060243 0.099613905 -0.16881518 0.14770295 -0.018410904 -0.010506412 -0.20139587 -0.104841255 0.077028885 0.041191492 0.1637145 -0.15247215 0.0610849 -0.010514344 0.13078548 0.08447586 0.049779464 0.09795501 -0.030169437 -0.0056704963 0.053942334 -0.101502776 -0.046287015 -0.07692622 0.058996756
12 -0.24964072 -0.13808532 -0.07737593 0.14780594 0.03468255 0.024179326 0.08187728 -0.21880277 -0.05769056 -0.049761698 0.032735202 -0.013227055 -0.20867682 0.085394055 0.116847664 0.03377066 0.051521894 -0.014784532 -0.027740387 -0.1493544 0.016829148 0.09147548 -0.12788002 -0.0070551466 -0.10937915 0.12289918 0.08452234 0.038884107 0.06872768 -0.08157292 -0.023186564 -0.011992018 -0.035166018 0.067801446 0.061504394 -0.1028545 -0.05990169 -0.07892279 0.01955503 -0.0065430636 0.10411717 -0.12973458 0.14139308 0.016846828 0.15648988 0.014817453 0.25041956 -0.044064317 -0.08467487 -0.04589579 -0.13188978 0.10648204 0.00015058722 -0.015667014 -0.26888108 -0.06230168 -0.0035062444 -0.025965566 0.12236861 -0.120866686 -0.04483875 -0.038687665 0.07215994 0.11194189 -0.11578657 0.2577122 0.049168676 -0.15372035 -0.077729374 -0.09714203 0.062882125 0.07859875 0.0017288944 0.17560008 -0.008070623 0.04118444 0.042369824 -0.12910035 -0.077936664 -0.12789126 0.07634353 -0.03600141 0.068562 -0.09904575 -0.09371983 -0.13826074 -0.118317306 0.044641655 -0.020287992 -0.0640576 -0.12820089 0.12245821 0.143229 -0.14639841 0.05001757 -0.21982683 0.0076538716 0.018350888 -0.14603204 0.24679829 -0.10786387 -0.20654978 0.0729519 -0.047059227 0.07824332 -0.15556575 0.06675206 -0.009338674 -0.026730418 -0.33539006 -0.09338275 0.093757324 -0.035695076 0.12818296 -0.19409579 -0.015340724 0.05610347 0.18193936 0.006307812 0.10366148 0.113647096 -0.0005736292 0.04059344 0.05007372 -0.14153987 -0.040931612 -0.069993064 -0.0013340788
71 0.15153895 0.14423595 -0.049231675 -0.05655224 -0.038694672 0.16088206 0.10747766 -0.06364633 -0.002098327 0.057383526 -0.05613705 -0.16450843 -0.08637873 0.2306617 0.112007424 0.16186486 0.23289783 0.07425472 -0.029853914 0.03408583 -0.15923359 0.048848044 -0.19319712 -0.08572667 -0.11283616 0.00519221 0.1035344 0.09565894 0.23899938 0.057246022 -0.00017406303 -0.08458932 -0.005152376 0.083276905 -0.23329347 0.019776536 -0.047572125 -0.028939465 0.07625301 0.18718034 0.11964821 -0.14849432 0.035840407 -0.022350458 0.26748285 -0.153972 0.07838934 -0.061197687 0.04286269 -0.00304305 0.11737648 -0.07273939 -0.17745957 -0.03486606 -0.057003688 0.17054212 -0.023623895 0.04545991 0.14328645 -0.0646606 0.080543324 -0.15394199 0.1637754 0.18611012 0.13921946 0.0862678 -0.0013589932 -0.20432904 0.073717624 0.10221633 0.09267788 0.114366174 0.0051135537 0.13350457 -0.07381044 0.04625622 -0.101940356 -0.013896383 0.067185074 0.08593539 0.117612936 -0.012643901 0.14873478 -0.0036053471 -0.009671859 0.07881889 -0.151763 0.008016687 -0.030235913 -0.18071145 -0.13557297 0.08913496 -0.019155048 -0.07870629 0.17587878 -0.046959132 0.14666583 0.079242915 -0.017944044 -0.14132398 0.02814963 -0.008325261 0.102781326 0.118280634 0.052303907 -0.13396941 -0.25563875 -0.33400258 0.2534957 -0.21110784 0.021596821 -0.19148393 -0.087552525 0.18995146 0.16524912 0.04509228 -0.099645294 0.13949221 0.21679983 -0.09764169 0.056793354 0.11443216 -0.12034084 0.34152117 0.13959779 -0.21726911 0.0024643487 -0.21193784
67 0.024113256 0.107144706 0.1860399 0.0023118868 -0.09917786 0.1230718 0.06161779 -0.03596079 0.040194172 0.032171685 0.11881083 -0.010199432 -0.11652268 0.16860709 0.1614825 0.018086711 0.07096566 -0.016063036 0.008911064 0.025241608 -0.10423167 -0.071869 -0.13800083 -0.15390271 0.053868633 0.05021845 0.09907482 -0.014218849 0.24053638 -0.14108433 -0.08824508 -0.20359737 0.026848895 0.064321786 -0.045711763 0.060785104 -0.17902038 -0.1357646 0.049565535 0.2036938 0.003248941 -0.12594226 0.045359157 -0.13593306 0.18733025 -0.06429272 0.09481555 0.009177302 0.109976515 -0.12759347 0.036282275 -0.060895868 -0.13546541 -0.038104847 0.046750076 0.23565975 -0.046354193 0.05021143 0.22751276 -0.048540395 0.11338679 -0.09111038 0.16483119 0.04372284 0.079773754 0.01717724 -0.18789911 -0.18473247 0.20558281 0.08013224 0.04416197 0.028542427 0.086156845 0.16728094 0.14438212 0.07344873 -0.17367502 -0.16073383 0.14919406 0.048549566 0.11709069 0.0015036142 0.18213637 -0.03601487 -0.11933565 -0.03111837 -0.23988564 0.010249754 0.022426704 -0.17579868 -0.25879875 0.029676242 -0.015183253 -0.03827898 0.028061911 0.01912108 0.1211372 0.1370448 0.013695244 -0.19569458 0.039724007 0.01681915 0.12011804 0.02828645 0.037554562 -0.019064 -0.25427577 -0.42191508 0.30071145 -0.21443726 -0.057504456 -0.096864656 -0.05294781 0.2253379 0.07887716 0.0058928174 -0.1943097 -0.040488277 0.24662076 -0.10217434 0.013949204 0.25419083 -0.12919115 0.29478037 0.13393311 -0.20628522 0.054689728 -0.08005704
41 -0.04595756 0.15219456 -0.035606824 0.055734172 -0.05450031 0.10244326 -0.0035238783 -0.25499663 -0.101024926 -0.0145698525 0.013667026 -0.09377146 -0.10691151 0.13020095 0.11504834 0.1051127 0.10346474 0.043190226 0.010959062 -0.018479574 -0.13459454 -0.056649912 -0.30718377 -0.09248737 -0.1446375 0.06074607 0.08588199 0.10853139 0.0070233326 -0.1330448 -0.09241964 -0.0065688603 0.07583408 0.028628781 -0.13914785 0.1001281 -0.13837017 -0.049639273 0.16717735 0.11116739 0.069564044 -0.045189418 0.00034892347 -0.023383321 0.24793065 -0.07716827 0.054277353 0.027675265 -0.07387429 0.052037608 0.09009799 0.017117888 -0.17001471 0.026814803 -0.07778337 -0.028499668 -0.05742016 0.06505301 0.057694387 -0.04537377 -0.02311108 -0.11080278 0.11780599 0.0040854015 0.036676362 0.024585575 -0.06993823 -0.22281991 0.009183552 0.07651536 0.10180516 0.01986855 0.07557778 0.16694084 -0.07956083 5.518421e-05 -0.094338275 -0.022335865 0.007041738 0.03430098 0.109871976 -0.011831465 0.20063294 0.015931165 -0.045924388 -0.007135732 -0.21820766 -0.051263046 0.021193787 -0.13245833 -0.12547499 0.12494375 -0.11066675 -0.039815567 0.0626258 -0.0775045 0.12252206 0.08701588 -0.13697174 -0.14051682 0.16710567 0.040094882 0.14912719 -0.050214756 0.016956192 -0.096597925 -0.18704127 -0.32881132 0.24681532 -0.12728661 -0.10332005 -0.10658446 -0.1402114 0.17519629 0.059352867 0.0866616 -0.055384487 -0.020834506 0.2910534 -0.04424074 0.11119084 0.11320185 -0.21742804 0.26517567 0.19227925 -0.25083867 0.0060571125 -0.112563886
51 0.12447708 0.31284088 0.15641713 0.11839146 -0.008306234 0.089341976 0.04717535 -0.0071847523 -0.026856547 0.04590202 -0.0005352279 -0.15600507 -0.13241467 0.20488818 0.06138754 0.16807324 0.16151613 0.080087826 -0.071605705 0.026621187 -0.059234004 -0.04861623 -0.13279948 -0.024349246 -0.009085237 0.10084859 0.05121667 0.053209037 0.09892429 0.030396903 -0.0691261 -0.09428772 0.02716497 0.056493644 -0.14037246 0.05211446 -0.06960634 -0.118027024 0.1119614 0.108555034 0.08370746 -0.04563871 0.0688841 0.017352125 0.28831944 -0.14838526 0.051436715 0.007923564 0.023544263 -0.017978568 0.04207461 -0.04964664 -0.07151751 0.021671366 -0.041976802 0.03388605 -0.09150202 0.069076814 0.1867085 -0.11749502 0.0148031935 -0.12237403 0.15362018 0.062399775 0.12296917 0.0731661 -0.033270694 -0.19842345 0.11572136 0.09653384 0.04422945 0.068180874 0.010548085 0.19053483 -0.10440095 0.0645773 -0.07243266 -0.09538953 0.0017766382 0.05751309 0.02049511 -0.013506181 0.2558946 0.017807223 -0.17436211 0.059539698 -0.19802603 -0.007889519 -0.034109518 -0.178687 -0.12090019 0.019833965 0.01920673 -0.08004049 0.10068055 -0.092366174 0.1582774 0.088229045 -0.038916398 -0.04339248 0.19560972 -0.035527594 0.13054697 -0.016202088 0.022286069 -0.18106051 -0.099567935 -0.22486006 0.21893112 -0.16961288 -0.030764174 -0.15357317 -0.045596443 0.09789921 0.08751052 0.06420268 -0.07179492 0.079223864 0.25859216 -0.209354 0.124924995 0.15829195 -0.09236489 0.3583889 0.036927123 -0.27185762 0.09241049 -0.15080796
73 -0.07663232 0.26475847 0.038287926 0.0031672611 0.0040110983 0.17205438 0.12881087 -0.12888306 -0.014470801 -0.01121528 -0.024458518 -0.19771627 -0.009987192 0.038378276 0.14022323 0.18880914 0.11765484 -0.012267698 -0.048118368 0.018560244 -0.10351814 -0.03857757 -0.20743923 -0.14994459 -0.0745138 0.02990895 0.029466998 0.07010765 0.12944537 -0.08965184 -0.0050048926 -0.107049726 0.15514155 0.03750203 -0.119539715 0.058196858 -0.19738024 -0.02071649 0.102739744 0.16349745 0.06969554 -0.10286214 0.0027939316 -0.16597804 0.21267699 -0.128399 0.106904015 0.03848838 0.03794489 -0.04125979 0.06803052 0.0036838748 -0.1092455 -0.090523764 -0.04352957 0.13122 -0.025084876 0.046500094 0.13688739 0.03525314 -0.0128168035 -0.075991146 0.06956339 0.012452108 0.09789164 0.008652785 -0.115512006 -0.22239351 0.08848248 0.13380535 0.05481549 0.080444515 0.1334174 0.15754597 0.06301248 -0.010225875 -0.16237034 -0.03290167 0.16330661 0.076460056 0.068387695 -0.0013993486 0.18084835 -0.048257463 -0.04171537 0.010610264 -0.17734036 -0.05343961 -0.001300557 -0.13079391 -0.16324767 0.1106805 -0.06844022 -0.07045533 0.041185502 -0.032835364 0.07485909 0.16073275 -0.05906151 -0.13720694 0.110354334 0.065165244 0.06560383 0.08860031 0.08159368 -0.02583625 -0.2391434 -0.36339897 0.2950978 -0.10699035 -0.11682779 -0.11108229 -0.06778317 0.21262054 -0.01251423 0.0765347 -0.21946552 0.010926365 0.21404023 -0.037070416 -0.034504894 0.16858506 -0.11783001 0.29541722 0.15918082 -0.23968884 -0.035494674 -0.04135385
65 0.16247898 0.22126582 0.078528225 -0.056167882 -0.03732362 0.2060106 0.023613546 -0.020998158 -0.07589718 0.030749366 -0.07171262 -0.23887229 -0.03778546 0.068322144 0.073363796 0.14560367 0.10493184 -0.043930072 -0.11689512 0.007911579 -0.09476925 -0.07206367 -0.19175006 -0.2701515 -0.08332853 0.036264 0.14210162 0.07449462 0.18082424 -0.09811981 -0.0046579144 -0.09847903 0.053499725 0.046365038 -0.14908187 0.09282394 -0.16358319 -0.06254781 0.080512665 0.09022572 0.1370622 -0.06275358 0.026865432 -0.16033757 0.20762658 -0.14979038 0.10394595 0.02857096 0.07826032 0.026200468 0.1165948 0.010407605 -0.13475631 -0.077410296 -0.047858752 0.1916959 -0.029129079 0.0988866 0.23268464 -0.047410823 -0.06874877 -0.07091757 0.19102344 0.035973765 0.1514062 0.0624658 -0.015587466 -0.23357256 0.12228633 0.090391636 0.02198106 0.109183 0.03919554 0.19768448 0.028080398 0.08459135 -0.09766633 0.004318641 0.1667618 0.033007737 0.025908694 0.022985071 0.2802782 -0.05577109 -0.08886621 0.05824073 -0.19568393 -0.06603893 -0.01615647 -0.18945427 -0.18766177 0.09347073 -0.056005143 -0.13964994 0.13783725 -0.07559776 0.13413867 0.20052022 -0.058583666 -0.14518087 0.13651247 -0.039353024 0.15853477 0.06183536 0.025729539 -0.17799835 -0.28194168 -0.41631314 0.2392404 -0.20801795 -0.1327487 -0.086582646 -0.09438187 0.21918328 0.063429475 0.024545748 -0.13501939 0.059756443 0.21281655 -0.10357121 0.034287095 0.1265087 -0.08927717 0.24623165 0.19536114 -0.2755441 -0.056071572 -0.19437745
69 0.03710979 0.2969367 -0.020244207 0.004522292 0.025321204 0.23132001 0.029391525 0.02894086 -0.049412403 -0.11425009 0.10629087 -0.09916285 -0.19390248 0.0453273 0.056559894 0.029406428 0.060229737 -0.027066 -0.1366494 -0.08373498 -0.037152678 -0.13376102 -0.22005421 -0.13636647 -0.11396193 0.061783034 0.07370073 0.013499683 0.08376067 -0.16391914 -0.10671203 -0.06863814 0.080054455 0.047412354 -0.17347707 0.07045696 -0.10404541 -0.060169917 0.18755163 0.039840434 0.14665404 -0.050729185 0.08247682 -0.0040448364 0.16564713 -0.17093089 0.04449388 -0.028997056 0.061607625 -0.06994065 0.09757887 -0.07728934 -0.2138729 0.009855554 0.06626039 0.09633539 -0.06521075 0.0702522 0.040947422 -0.011662984 0.032230467 -0.1783117 0.23293215 0.028819645 0.015373308 0.066335805 -0.09305208 -0.20046185 0.095324926 0.088619255 0.031527944 0.06933823 0.14390494 0.10689304 0.00091833225 0.03647387 0.0012939463 -0.04260497 0.08264853 0.02758052 0.17380707 -0.009084858 0.17966495 0.0299473 0.053444732 -0.095622785 -0.17675559 -0.09888796 0.1191524 -0.03285066 -0.03514952 0.043280166 -0.105761014 -0.054882266 0.14311764 -0.08319219 0.22888386 0.14652172 -0.0932298 -0.11899485 0.15834923 0.013516091 0.086570926 0.05557444 0.07692975 -0.10071951 -0.2764728 -0.3436662 0.23559518 -0.1761661 -0.06665066 -0.15804145 -0.13342465 0.03511678 -0.011522507 -0.0037412262 -0.13968988 -0.04507071 0.29536813 -0.19913743 0.046090707 0.09576824 -0.1584859 0.32480517 0.22855037 -0.3779265 0.029241113 -0.18978924
43 -0.058588337 0.2834507 -0.013281976 0.09820404 -0.0051628435 0.19010185 0.040740248 -0.16747703 0.014014504 0.017327916 0.0835315 -0.10584205 -0.08580567 0.21689497 0.083121605 0.07603761 0.049491286 0.02031921 -0.0260795 -0.03706718 -0.13805553 -0.07393028 -0.21248275 -0.15028743 -0.14565066 0.11744004 0.032328703 0.042073473 0.061155703 -0.11554158 -0.090139434 -0.14038941 0.13824399 0.0014449562 -0.15371288 0.107869215 -0.19710188 -0.016880695 0.096632265 0.13261318 0.072086185 -0.13090679 -0.0015773418 -0.06317306 0.27038887 -0.104101464 0.097642355 0.050311107 0.013849769 -0.016307509 0.02316438 0.03384156 -0.13869718 0.012094614 -0.0033094445 0.12970293 -0.08502055 0.076799855 0.15448721 -0.01415219 0.035791587 -0.05476221 0.14192759 -0.08645976 0.07745094 0.041390378 -0.08102481 -0.19347368 0.0224729 0.101089045 0.038078446 0.06747396 0.075073086 0.10210256 -0.049969308 -0.009000101 -0.024702642 -0.066490315 0.045438558 0.037216526 0.08689935 0.0016810712 0.21113534 0.020520799 -0.11315436 -0.051474523 -0.19072434 -0.056519303 -0.015084352 -0.13892359 -0.1874801 0.079776235 -0.08528951 -0.031031383 0.08598931 -0.06724648 0.19677201 0.10429486 -0.08487168 -0.13639213 0.20279577 0.028601807 0.13255163 0.023985209 0.049505632 -0.10638734 -0.35600048 -0.43688414 0.25420758 -0.21444908 -0.14096232 -0.10319621 -0.14225666 0.16560136 0.08098114 -0.0024857256 -0.13368593 0.025208844 0.20662025 -0.1027724 0.08478473 0.1539599 -0.19008657 0.2219585 0.142798 -0.26338565 0.0028449707 -0.16717751
48 0.0044657355 0.25109076 -0.08671884 0.110270515 0.027407138 0.15519917 0.15887225 -0.10611647 0.051444516 0.057825506 -0.006399418 -0.122398004 -0.038481485 0.0820717 0.13345249 0.072964296 0.17083445 -0.031169904 -0.12300887 -0.042062443 -0.13560966 -0.13954039 -0.22430879 -0.28385577 -0.04842829 0.07329291 -0.01746891 0.066987656 0.14570601 -0.004937143 -0.038971882 -0.03564429 0.06560955 0.06878706 -0.20620212 0.1011184 -0.17633316 -0.025187481 0.097950935 0.13371707 0.090121344 -0.0941888 0.029228892 -0.069083616 0.22352448 -0.12064809 0.03033718 0.051528666 0.034792986 -0.0059719863 0.08337453 0.020774819 -0.09579546 -0.009937229 -0.020764025 0.087910414 -0.1222933 0.11332986 0.17941633 -0.037711993 0.019798834 -0.108482674 0.12989503 -0.017898029 0.14486477 -0.044530302 -0.09767323 -0.18491523 0.11244251 0.16460496 0.0062374393 0.09149268 0.10723699 0.17712277 -0.009985233 0.050055634 -0.1795572 -0.047556363 0.21013135 0.061530847 0.12684901 -0.0007818163 0.243026 0.020632617 -0.13376723 0.0034023547 -0.17611425 -0.13283764 0.019128118 -0.16569895 -0.13439707 0.07506405 -0.0497217 -0.12222021 0.13059781 0.008178569 0.156807 0.11326086 -0.02302572 -0.080476865 0.063923515 0.058156915 0.12715179 0.12101805 -0.0034667288 -0.1070461 -0.26104957 -0.37682492 0.30989766 -0.14469802 -0.09365211 -0.20614693 -0.043844517 0.15703699 0.02421055 0.023876945 -0.20052817 0.10977045 0.33131343 -0.18209015 0.056167725 0.17406762 -0.16669954 0.38425705 0.18616773 -0.3708522 -0.013947227 -0.08236789
53 -0.03454276 0.14223519 0.00836612 0.04164724 -0.00095188175 0.13561979 0.13795474 -0.006427253 0.044216953 -0.0027442304 0.045344308 -0.10758719 -0.123413764 -0.01016872 0.083589025 0.079106085 0.12648146 -0.07303652 -0.066276334 -0.019319128 -0.12721306 -0.052729316 -0.22401047 -0.13459577 0.0059242663 0.0068914043 0.077176556 0.061563097 0.11499305 -0.11700569 -0.090529606 -0.13804309 0.12373538 0.029840715 -0.18542178 0.098709844 -0.058702122 -0.04486858 0.13003233 0.13130881 0.13403818 -0.16024676 -0.06824394 -0.06178146 0.23745367 -0.20380732 -0.004835021 0.11434179 0.062720135 -0.01298723 0.122542776 -0.071519524 -0.10010273 -0.039292503 0.03084667 0.13711251 -0.07697894 0.082943656 0.17929602 -0.043012768 -0.00015669281 -0.06933163 0.099023536 0.13591449 0.04403073 0.014286822 -0.084402196 -0.1151268 0.11267277 0.060321163 0.019129388 0.10546457 0.03405149 0.22868116 -0.0006548143 0.10359596 -0.21432649 -0.08210062 0.08361534 0.03872794 0.10167097 0.066037826 0.19887006 0.020221876 -0.07937062 -0.02035589 -0.20456634 0.06225452 0.037270147 -0.18605952 -0.09313627 0.14870763 -0.030257883 -0.0983075 0.1032401 -0.07454475 0.11688465 0.09173875 -0.043768767 -0.13285676 0.09637734 0.003912593 0.08428296 0.05724808 0.03198616 -0.084344395 -0.17247275 -0.35236174 0.23708832 -0.16497028 -0.07348282 -0.15208973 -0.098196775 0.25086457 -0.0021437579 0.06707489 -0.15677536 -0.008192203 0.33947986 -0.22474039 -0.067370094 0.1489703 -0.08555346 0.32322097 0.20945145 -0.3330671 0.118593976 -0.12991533
55 -0.023983765 0.23307627 0.12005676 0.10025061 0.052865103 0.09292477 0.037425596 -0.07934286 0.006864919 -0.02029823 0.010068866 -0.105170585 -0.110906005 0.09648857 0.16868864 0.14902057 0.10023641 0.04383482 -0.07873369 -0.065253615 -0.20978974 -0.16474411 -0.24525028 -0.20122042 -0.03062314 0.058543824 0.05166356 0.013511328 0.06324338 -0.10106894 0.005985053 -0.12719716 0.08851267 0.07373063 -0.16946827 0.11340467 -0.2278896 -0.10683463 0.051933978 0.08362284 0.077387124 0.056059662 -0.015722306 -0.081530474 0.2791916 -0.06924547 0.08249888 0.021488292 -0.0043040533 0.04525786 0.03206099 0.009569403 -0.08172638 -0.059475288 -0.051444307 0.07947314 -0.11102328 0.059905324 0.21001041 -0.092958815 -0.02003381 -0.120772146 0.12998796 0.03318451 0.122443184 0.018355057 -0.07330926 -0.12637234 0.080129385 0.05496469 -0.06358735 0.05363655 0.079897165 0.21550539 0.023177082 0.080357954 -0.06569779 -0.041077826 0.056013513 0.016025955 0.06782376 0.033658724 0.15043998 -0.0326079 -0.12539817 0.023868639 -0.1118463 -0.015967226 -0.019954871 -0.12590753 -0.05745442 0.054767266 -0.061302878 -0.15780845 0.13517344 -0.0061161574 0.13266124 0.077634804 -0.10688809 -0.06398596 0.10658632 0.045396425 0.1778278 0.064657755 -0.026917 -0.19725445 -0.22076367 -0.3828001 0.29153472 -0.07454486 -0.17405094 -0.07351607 -0.104277775 0.19765407 0.026205791 0.043829646 -0.21984187 -0.01826068 0.31440368 -0.16775477 -0.07796745 0.1899885 -0.09441665 0.2781595 0.15895757 -0.30725813 0.0131579405 -0.13283531
50 0.016365655 0.14853232 -0.0069653597 0.09906193 0.006494214 0.1432129 0.08235102 -0.14329578 0.020638008 0.017238736 0.033466168 -0.17307353 -0.033630297 0.11095931 0.1374532 0.045439072 0.1589576 -0.06811979 -0.07327788 -0.038279828 -0.12936261 -0.10703273 -0.2577988 -0.1318247 0.0053146444 0.011234084 0.01937991 0.07126955 0.09051455 -0.14686863 -0.04302788 -0.15173574 0.07785935 0.019068178 -0.11211951 0.14186792 -0.19587941 -0.10700261 0.12416377 0.07354711 0.030779695 -0.12894022 0.009746424 -0.12727411 0.3076593 -0.12953018 0.016903104 0.07420243 0.08994122 -0.0063801026 0.067460924 0.06180987 -0.07897458 -0.056235313 -0.0060900995 0.12154126 -0.08935885 0.072229736 0.20092824 -0.049148977 0.046390325 -0.12195222 0.16402878 -0.014726002 0.039356317 0.074571565 -0.16692443 -0.205152 0.12778208 0.06317215 -0.024372457 0.04882595 0.08650966 0.21986979 0.050713044 0.048063442 -0.18183607 -0.031336084 0.06339975 0.060825717 0.07555294 0.018933555 0.18759772 -0.062956266 -0.11731882 -0.079813756 -0.16744272 -0.030349512 0.049005624 -0.1124482 -0.15808378 0.079834454 -0.10662727 -0.13834107 0.0774074 -0.008437169 0.12444169 0.12940678 0.0033195715 -0.042888287 0.014048913 0.037655585 0.13443746 0.06823008 0.014275905 -0.05667871 -0.21963665 -0.40680814 0.28432336 -0.11251068 -0.13795094 -0.12749532 -0.08923344 0.23021363 -0.031694397 0.04644941 -0.20649457 -0.014381732 0.3503212 -0.11246612 0.028786948 0.21171784 -0.09579279 0.33327207 0.1723201 -0.26373482 0.049117517 -0.12795775
4 -0.11226929 0.007713773 0.09444268 0.11429283 0.008939444 -0.037642334 0.02086481 -0.12192806 0.06565275 -0.13979 0.07940389 0.106748775 -0.24284461 -0.1281598 0.0840687 0.08150031 0.10555738 0.04134066 0.11215234 -0.027317422 -0.026441908 0.09022198 -0.1726646 0.09077766 -0.0534938 0.18951805 0.18386453 -0.013946216 -0.030100731 -0.23467493 -0.06516193 0.019926604 -0.13625686 0.09788718 0.08214857 -0.18549098 -0.1218157 -0.13614051 0.12657276 0.043739773 -0.038448654 -0.13638632 0.24527591 0.21887077 0.10931529 -0.1468001 0.2044234 -0.03413556 -0.047868762 -0.1380583 -0.14998077 -0.04958481 -0.09371644 -0.050214034 -0.25828093 -0.21713012 -0.07578753 0.059656154 -0.00053303555 -0.11592295 -0.13697535 -0.0039741453 0.09155184 0.12794869 -0.07159435 0.16486822 -0.0099749705 -0.103754014 -0.09829145 -0.10069272 0.07734155 0.114975065 0.064969696 0.23466307 -0.01969296 0.018894056 0.066472024 -0.07189799 -0.068684414 -0.15092687 0.051940188 -0.13656554 0.08264428 -0.0782327 -0.11240663 -0.13521573 -0.15741636 -0.044091817 0.030728882 -0.033397716 -0.075392805 0.12754446 0.053823344 -0.19001117 -0.058889646 -0.23177558 0.023829844 0.035688594 -0.17270921 0.21951678 0.035736658 -0.26239258 -0.03709042 -0.097062655 0.061367672 -0.17385669 0.16934924 0.033846326 -0.09139039 -0.25509897 -0.03674567 0.020164853 0.03305532 0.06619287 -0.26079637 0.098100275 0.0112970695 0.24887747 -0.097091965 0.13038053 -0.006655904 -0.027152618 0.015836457 -0.018988283 -0.1490667 -0.1243737 0.052249365 0.1105661
14 -0.16828422 -0.16854699 0.04397568 -0.015922604 0.05918789 -0.124792196 -0.017160399 -0.113222525 0.06368095 -0.08997523 0.036841746 -0.0042269905 -0.23446102 -0.05851881 0.12075907 0.08308993 0.055054273 -0.0026076098 0.10638545 -0.07083896 -0.079505965 0.04223424 -0.11089787 -0.02845365 -0.009256866 0.17727432 0.11153559 0.023708424 0.07388065 -0.06919685 0.024353476 0.040280342 0.010456377 0.11535686 0.041084405 -0.08066374 -0.110475816 -0.080511995 -0.07400172 0.06230803 -0.0390567 0.052853115 0.29281574 0.009185317 0.0070193363 0.036456525 0.29716304 0.0012457155 0.07321151 -0.10175289 -0.16079807 -0.047998417 -0.08488193 -0.07832301 -0.22720324 -0.09068448 -0.05693809 0.046133034 0.02418792 -0.125208 -0.045066718 -0.07053443 0.054493874 0.19292355 -0.14476243 0.09585137 0.0854592 0.02841822 -0.11082714 -0.122475356 0.07359805 0.054920796 0.042281643 0.2579412 -0.021902747 0.11739106 0.059554763 -0.043409463 -0.0035233137 -0.19163738 0.0642765 -0.04123293 0.13333891 -0.10097008 -0.09976766 -0.006134676 -0.12803645 0.020028867 0.03433598 -0.16656642 -0.065703094 0.10985447 0.105700776 -0.14801471 0.04036624 -0.14570263 0.019165864 0.06026842 -0.14250419 0.12017204 -0.059622016 -0.11621506 0.039982762 -0.027837051 0.11501567 -0.10651393 0.05011261 -0.012898448 -0.029935237 -0.18131074 -0.08847717 0.07403053 -0.054980688 0.22308259 -0.087906785 0.020556936 0.019754598 0.049752075 0.09886962 0.07291332 0.12301664 0.0041210162 -0.06747664 0.06102302 0.029018305 -0.058928337 -0.1151251 0.022592418
8 -0.15673828 -0.07968477 0.019546889 0.07790993 0.00086444704 -0.031881306 -0.014588349 -0.1868355 -0.051371913 -0.18718629 0.08738491 -0.05835702 -0.22704835 -0.089807376 0.12363492 0.07519282 0.12766224 0.123919934 0.07061516 -0.12030175 -0.027761066 0.092876166 -0.18583256 -0.06601179 0.011774112 0.11990199 0.18239485 0.07483917 0.05517735 -0.24420632 -0.054183632 0.101961374 -0.13175122 0.0815497 0.23689167 -0.090616494 0.0023927747 -0.16957766 0.05281847 -0.010748756 0.04180096 -0.10186318 0.12686294 0.064672604 0.067798175 -0.038150325 0.16825967 -0.022342982 -0.025260946 -0.16498081 -0.09453243 -0.061027963 0.042386547 0.013650097 -0.20057808 -0.0497299 -0.018156825 -0.040779855 0.0010094651 -0.099874265 -0.14394607 0.06142027 0.08852966 0.1288975 -0.06173526 0.08403254 0.037958097 -0.14007875 -0.022407368 -0.09563015 0.13601859 0.05885284 -0.018299334 0.22593391 0.030300453 0.0658269 -0.025304493 -0.064530455 -0.016172178 -0.04459457 0.020408627 -0.112741016 0.045694016 -0.102053635 -0.015352537 -0.14103062 -0.19048865 0.0041686436 0.025931707 -0.013899427 -0.11707495 0.111501105 0.064406656 -0.16274244 -0.009493714 -0.20881066 -0.0756321 0.0714936 -0.1554011 0.11719455 -0.055543195 -0.19911687 0.057117507 -0.02721556 0.034616884 -0.11772485 0.029530277 -0.037786353 -0.016621307 -0.17677179 -0.03324791 0.08150707 0.014712049 0.12352795 -0.22831215 0.07310428 0.0083616935 0.055514347 0.07010413 0.13457096 0.1385189 0.0013395229 0.023412853 0.010929133 0.0024857009 -0.108724624 -0.0010747757 -0.033158638
46 0.054762192 0.19207014 -0.010675517 0.069127746 -0.004958344 0.03549198 0.020377655 -0.055282123 -0.028756978 0.011501438 0.055775695 -0.23463978 -0.03588597 0.06325399 0.1152526 0.15111268 0.09818899 -0.01034525 -0.08230046 -0.07844271 -0.12925962 -0.015838988 -0.20279703 -0.15904959 -0.05266617 0.006854901 0.07965623 -0.0040212222 0.1206939 -0.13996233 -0.09500671 -0.091276795 0.11603134 0.082720585 -0.16490763 0.068907134 -0.11862595 -0.14077573 0.11330464 0.0875153 0.14169388 -0.19932464 -0.02309047 -0.041354753 0.26596606 -0.22420667 -0.0025040826 0.06303014 0.06226675 -0.01925399 0.093227744 -0.054846577 -0.054958206 -0.056032125 0.014438556 0.13744994 -0.0863079 0.019915994 0.10346392 -0.024461549 -0.0039374563 -0.112341784 0.05784006 0.081917666 0.03853483 0.05164797 -0.10984749 -0.18543465 0.044557735 0.06619523 0.03605659 0.039269887 0.09859802 0.11219282 0.026209358 0.031878337 -0.1524705 -0.06250451 0.053359568 -0.03692578 0.07041758 -0.013436091 0.17509648 -0.08693825 -0.08232238 -0.011685435 -0.17280674 -0.026172342 0.037881456 -0.115288936 -0.17739652 0.07754139 -0.005761841 -0.07584388 0.12662016 -0.10582645 0.0746699 0.068393424 -0.10662943 -0.035658862 0.083542384 0.016271718 0.20011666 0.09926235 0.01593522 -0.09431845 -0.2807232 -0.3933677 0.29797748 -0.1645046 -0.06673066 -0.16543575 -0.12829521 0.20501247 -0.009798232 -0.0066079646 -0.15489876 0.033305306 0.34137613 -0.10445136 -0.0018025414 0.16532162 -0.16421105 0.29996887 0.20806658 -0.29314318 0.022858145 -0.12079426
9 -0.1589208 -0.055400796 0.0900536 0.17619294 -0.011193331 0.0015914914 0.019281827 -0.05201961 0.022799326 -0.15539202 0.07359118 0.034502454 -0.21824007 -0.16343974 0.104294695 0.036574297 0.06715384 0.06071325 0.0079528615 -0.022523977 -0.022210414 0.108704925 -0.15165938 0.020278148 -0.07283144 0.17788754 0.2859292 -0.008122361 -0.06705725 -0.24434777 -0.09122115 0.014252998 -0.11702086 0.1127091 0.01702866 -0.19883227 -0.059010535 -0.19934423 0.0501981 0.0791 0.011470729 -0.12694472 0.2322172 0.18373345 0.030340115 -0.117547184 0.21750933 -0.011362203 -0.0047532883 -0.11628492 -0.093288444 -0.051327564 -0.029900528 0.036776885 -0.19038214 -0.14081888 -0.10723683 0.071091145 0.059713505 -0.15591532 -0.19250497 0.02782153 0.122089975 0.105329014 0.0068598893 0.1540131 0.057626527 -0.14373523 -0.09975262 -0.19194968 0.094786264 0.051237337 0.057121925 0.17717347 0.037588634 3.5127662e-06 -0.032978896 -0.1152832 -0.0442903 -0.20010038 0.1026784 -0.08206789 0.08415177 -0.029591529 -0.10047666 -0.12682316 -0.15013036 -0.020967852 0.047584426 0.0028769132 -0.119289406 0.10486185 0.083635494 -0.15730886 -0.10067603 -0.28610197 0.0034993568 0.013086681 -0.13765872 0.22407568 0.03850024 -0.2717878 -0.026636774 -0.11842097 0.062333286 -0.14062919 0.074990086 0.014840525 -0.14437741 -0.29779163 -0.0029812725 0.046014827 0.062239934 0.03419751 -0.23420782 0.01842276 0.118641794 0.18067986 -0.03981466 0.15258442 0.117238544 -0.021344561 0.005542628 0.010547098 -0.06085957 -0.12335803 0.07522487 0.055229634
7 -0.17819536 -0.09289521 0.06841217 0.045255907 0.07161074 0.048042823 0.002825056 -0.14348204 0.106886625 -0.16190359 0.13525906 -0.039528318 -0.20864671 -0.085985966 0.15702936 0.022248503 0.09664212 0.06133106 0.030475823 -0.2544024 -0.103754506 0.21016829 -0.12637727 0.07156797 -0.051733945 0.098877266 0.12119394 0.09820962 0.024673633 -0.103446625 -0.041516483 0.13075551 -0.05166526 0.077395335 0.15876016 -0.08796817 -0.0520828 -0.09475291 -0.03409815 0.10591389 0.094808705 0.0072833654 0.26338017 -0.0270885 0.07365918 0.018671041 0.22378354 -0.10154433 0.009705415 -0.076626524 -0.10900007 -0.050268956 -0.061198335 -0.051899243 -0.24337415 -0.100703195 -0.01582038 -0.057893444 0.02215431 -0.13980837 0.005243923 -0.04374503 -0.012179777 0.12614118 -0.0091450475 0.15351148 0.11616431 -0.09671759 -0.026539283 -0.054521948 0.17278478 0.09492504 -0.023747748 0.1582246 -0.048144028 0.025966777 0.09575843 -0.0052400664 -0.105807 -0.11370595 0.13829935 0.015574245 0.05559188 -0.046644717 -0.05674533 -0.0342411 -0.19843276 0.025258979 -0.028778268 -0.035022836 -0.08634245 0.13539748 0.14576107 -0.1084081 -0.020915767 -0.11131995 -0.0073782313 -0.039520968 -0.16815227 0.15391721 -0.095236145 -0.17988221 0.05747534 -0.030749267 -0.012059723 -0.13576785 0.07185309 0.034718636 -0.036333848 -0.20169328 -0.040814642 0.07039087 -0.033697892 0.1182765 -0.10601327 0.06740893 0.050833195 0.104317464 0.019505147 0.12457861 0.10259945 -0.013311462 0.0022830882 0.10423718 -0.026552672 -0.023945931 -0.13305007 0.015215651
11 -0.20245247 -0.13177091 0.024995813 -0.025868744 0.07343823 0.0038913186 0.12330107 -0.07504661 0.011633798 -0.13469411 0.059541777 -0.03514945 -0.19866015 -0.1140832 0.104938194 0.05738536 0.12618887 -0.036101118 0.012141952 -0.15975212 0.028739743 0.056107707 -0.08140947 0.034907784 -0.03192205 0.15590808 0.094645076 0.120456636 0.024284907 -0.11393891 -0.0556836 0.06869406 -0.0049108686 0.1108705 0.05108985 -0.11900569 0.0009197047 -0.09318955 -0.013117715 0.019424675 0.09564321 0.034112554 0.20972627 0.03258484 0.10498699 -0.047304407 0.30970982 0.026664287 0.03091295 -0.061149172 -0.08735398 -0.05303511 -0.09864861 -0.011198381 -0.24322417 -0.086395726 -0.09247075 0.06949121 -0.011356208 -0.12350343 -0.14091817 -0.011914385 0.007250187 0.20138614 -0.16376624 0.123250656 0.047627155 -0.062883645 -0.045239028 -0.046845794 0.07290555 0.06567057 0.034866463 0.24366522 -0.030698847 0.031200953 0.09646913 -0.13264538 -0.010636233 -0.15869994 0.10009528 -0.016525425 0.08919076 -0.07759168 -0.08857045 -0.07405812 -0.11950137 0.06815987 0.055479623 -0.06121765 -0.15092565 0.15703307 0.12289273 -0.15182637 -0.030280462 -0.14005667 -0.0050160326 0.018786527 -0.175428 0.2701897 -0.059626393 -0.17541745 0.03637149 -0.015738746 0.067070894 -0.095323995 0.13822055 -0.004798965 -0.14657961 -0.17290263 -0.009025555 0.06908503 0.019700054 0.17268983 -0.19887836 0.024289383 0.053248405 0.1871807 0.096997246 0.08834678 0.1074626 -0.062740676 0.012452984 0.043800615 -0.016569084 -0.08743558 -0.11969183 0.03790069
16 -0.021649068 0.12701477 -0.048673116 0.07940253 0.19893496 -0.089742936 0.03878338 -0.06106138 0.08895401 0.03414944 0.069915466 0.05856583 -0.15316789 0.14646818 -0.06216683 0.04660425 0.13999982 -0.028188959 0.022783868 -0.15347718 -0.26262453 0.09468556 -0.07572812 -0.07756689 0.105354935 0.051356073 -0.017221099 0.029249394 0.14834182 -0.036264457 0.07163599 -0.03053275 -0.022556528 -0.021137958 0.12055071 -0.008677287 -0.09396189 0.032095745 -0.044392645 0.16130994 0.05807898 0.04136573 0.22396293 -0.11826463 -0.1058416 -0.14880018 0.16152278 -0.055509377 0.031140814 -0.11283081 -0.039107166 -0.082684435 0.042869203 -0.12029268 -0.081929356 -0.18132563 0.19372597 -0.05053495 0.032836866 -0.039620895 -0.086396 0.11416143 -0.15268934 -0.036228273 -0.19690688 0.17794818 0.07464205 0.117548 0.041064546 0.08835429 0.1456759 0.12098963 0.018913044 0.1495234 -0.055240847 -0.046512306 0.023908751 -0.1861118 0.036680695 -0.010719451 0.17621994 0.034834605 0.058520745 0.016472308 0.10785665 -0.11475226 -0.023542007 0.1621612 -0.08490729 0.0201735 -0.21402687 0.118655205 -0.12045361 -0.023087902 -0.07813822 -0.12464683 0.07340127 -0.031541817 0.033073947 0.112314895 0.0051242546 -0.051427826 0.035364617 0.04771132 0.08510767 -0.08988828 0.063032456 0.006023091 0.019022405 -0.027735943 0.0007206099 -0.058533665 -0.06782059 0.0902417 -0.06047479 0.113355584 0.09064466 0.116324395 0.1914227 -0.037797038 0.123295054 0.006092047 0.017764525 0.15324962 -0.12499858 -0.07845818 0.034953084 0.043645706
15 -0.21088763 -0.1426906 -0.042218547 0.065949276 0.043855533 -0.070162475 -0.07823557 -0.102413565 0.086553976 -0.03540781 0.096949585 -0.07877156 -0.18536764 -0.14358619 0.19714022 0.083071835 0.076316476 0.08507268 0.08001129 -0.11734185 -0.02850105 0.1052162 -0.09136912 -0.014686192 0.060816694 0.17106763 0.23110259 -0.0017898296 0.06223242 -0.20058903 -0.049527112 0.039583214 -0.11565739 0.13113065 0.16023685 -0.093767025 -0.13395314 -0.17323655 0.0065277494 0.014156008 -0.008652502 0.09487579 0.19524789 0.0062475675 0.021866864 0.017130509 0.17661186 -0.04870878 0.12770063 -0.12928002 -0.21262696 -0.024290161 0.052414574 -0.04906104 -0.26480004 -0.063351475 -0.010927901 -0.019701693 0.061054327 -0.16147667 -0.059241734 0.015886728 0.09290312 0.097437285 -0.015288582 0.11971521 -0.0051182727 -0.14410476 -0.077297695 -0.08082016 0.16106963 0.10894429 -0.03822036 0.21966909 -0.02315994 0.08416354 0.04664162 -0.0866308 0.013981634 -0.13314907 -0.05020897 -0.046722587 0.123824365 -0.080343865 -0.12665941 -0.08580548 -0.24038187 -0.028123535 0.013353539 -0.05191334 -0.2174311 0.13330415 0.16712406 -0.24705546 -0.007798045 -0.12842576 -0.046752058 0.08522182 -0.12224628 0.10367507 -0.07597217 -0.15327698 -0.027946135 -0.09788618 0.17792924 -0.13449971 0.24049406 0.038680375 -0.11168327 -0.25747934 -0.08406117 0.0723229 -0.018225638 0.06518277 -0.28176108 0.10025291 0.019132063 0.078106746 0.03941325 0.14466512 0.14816271 -0.021557989 0.009189557 -0.031680446 -0.05732322 -0.13783024 0.022949625 -0.017858615
75 0.024193475 0.2650399 -0.21481168 -0.09597491 -0.012467375 0.1452239 0.095916025 -0.036258142 0.07807374 -0.086212315 -0.023631215 0.03270732 -0.09112985 -0.005735048 0.13786381 0.11045438 0.22206724 0.14291534 -0.01658721 0.024971694 -0.026064914 -0.14111418 -0.22878753 -0.0720321 -0.01730974 0.016072478 0.057314213 0.06277311 0.1637753 -0.08454312 0.012228332 0.10578666 0.020744028 0.07808794 -0.0030830062 0.104673035 -0.072128795 -0.1456387 0.16441663 0.049639743 0.15524149 -0.018005894 -0.13739926 -0.13434082 0.23484986 -0.14992395 -0.022471357 0.05230506 0.105192415 -0.04766464 0.14066419 -0.12421767 -0.061426483 -0.063404165 0.041122943 0.17577848 0.065562285 -0.051834285 -0.100177936 -0.058714356 -0.012243525 -0.108028464 0.16254249 0.117567785 0.030941471 0.15847683 -0.05141441 -0.15570977 -0.047225002 0.18964985 0.09134031 0.027567433 0.29423338 0.01005012 0.018350136 0.1387211 0.029771075 0.08126149 0.2176212 0.040517703 0.09167501 -0.016734468 0.014238632 -0.026772182 -0.042613376 -0.12312132 -0.11725852 -0.112513386 0.062842324 -0.07204685 0.009328699 0.21858059 -0.010202704 -0.18804443 -0.14548458 -0.14336956 0.12128814 0.030316068 -0.029190943 0.110799484 -0.1106374 -0.08073149 0.094103776 0.19237623 0.11919451 -0.097834595 -0.13553515 -0.07376026 0.09410667 0.0068809683 -0.058418006 -0.0452685 0.084082 0.12305668 -0.045473967 0.104009725 -0.102987155 0.079973936 0.13678478 0.09838986 -0.07583148 0.16841123 -0.15260333 0.3083211 0.18677364 -0.18951178 -0.14126174 -0.05088996
13 -0.314049 -0.09728254 -0.04332829 0.11564657 0.024399852 -0.16873264 0.01294742 -0.12126646 0.035334766 -0.09837285 0.047158346 -0.004147719 -0.21672954 -0.024460051 0.07008036 0.19112352 0.10717042 0.01213568 0.115926996 -0.10380195 0.016936684 0.060437802 -0.10035306 -0.06476143 0.033176515 0.1556973 0.09070964 -0.07541297 0.049881298 -0.07770922 -0.03229079 0.0011793517 -0.043523464 0.12998779 0.062279053 -0.16269127 -0.092772186 -0.14657477 -0.04233281 0.03263345 0.037964754 -0.10543125 0.23556104 0.094459385 0.06096785 -0.052589998 0.23765157 -0.024830174 -0.030117761 -0.070071906 -0.02717025 -0.1397137 -0.0030029204 -0.12671041 -0.16966128 -0.07826556 0.06328433 -0.019523347 0.023308733 -0.17467853 -0.09814685 -0.014496762 0.021798147 0.14660357 -0.1479232 0.14454006 0.06198521 -0.017285885 -0.098918684 -0.0081431335 0.103479706 0.01758273 0.09847873 0.17337184 0.03477336 0.070407055 0.05338293 -0.14704959 0.01664291 -0.17003746 0.06844531 -0.030768769 0.08146739 -0.13383935 -0.0891381 -0.049248986 -0.122374505 0.036038574 -0.040339753 -0.11541983 -0.13549243 0.11587161 -0.007671113 -0.13110526 -0.02527774 -0.16720472 -0.07154524 0.008569068 -0.09016969 0.20198728 -0.08475178 -0.2075262 0.12644793 -0.0067241797 0.07954207 -0.11083598 0.11307226 0.04125372 -0.07216863 -0.17135541 -0.011545741 0.045689877 0.0036002987 0.18001279 -0.16821928 0.015132831 0.07189908 0.14138673 0.1023484 0.18558447 0.11563008 0.013485881 -0.06454579 -0.014972292 -0.051284898 -0.0037065083 -0.05990414 0.091071755
10 -0.28844252 -0.011217962 0.03902421 0.044602204 0.07198676 0.040752444 -0.025419863 -0.05209168 0.13432094 -0.14025204 0.03431797 -0.023181861 -0.24571526 -0.10544713 0.15126485 0.024782345 0.13562381 0.07800035 0.05911992 -0.21808459 0.090270616 0.053748455 -0.04722261 0.040871754 -0.043896876 0.14179415 0.10203874 -0.013203099 0.042040214 -0.106188126 0.008328884 0.08318771 -0.1880358 0.17186874 0.17781891 -0.10753278 -0.04023591 -0.2110416 -0.0021960086 0.015058594 -0.064095855 -0.010828991 0.16832505 0.09417585 0.1192037 0.016604776 0.23416185 0.03340318 0.107476816 -0.13403139 -0.07883691 -0.0660381 0.037487593 -0.040785026 -0.3048975 -0.04316452 0.004142167 0.03671544 -0.016111806 -0.15713756 -0.11158466 -0.029720498 0.06457939 0.115276866 -0.10798135 0.09931914 0.030963222 -0.14015688 -0.085220225 -0.05967466 0.047010425 0.040685292 0.069447614 0.15687494 0.10552392 0.060495254 0.027540378 -0.05875396 -0.014220498 -0.16646244 0.0062899836 -0.14085446 0.08623751 -0.15033667 -0.12363854 -0.03200281 -0.06925871 -0.056609396 -0.030005382 -0.07517722 -0.14494038 0.024709286 0.027775977 -0.1872195 -0.018313557 -0.14601576 -0.011097933 0.025731416 -0.115240715 0.2559131 -0.04701598 -0.2222935 0.10299531 0.018654436 0.13197766 -0.21796948 0.037043594 0.018902373 -0.095393315 -0.19918628 -0.00609239 0.053778075 0.015101328 0.15322076 -0.26492685 0.03067729 -0.017713746 0.14557871 0.021699183 0.22590716 0.12872268 0.0017934201 -0.011546145 0.00012069075 0.008975094 0.0048053083 -0.051150527 0.0452224
56 0.046503313 0.14744969 -0.2826067 -0.042254314 0.030570243 -0.038630236 0.047869414 0.12796931 0.11662044 -0.036973834 -0.026480386 -0.078241006 -0.054995846 0.07563756 0.12884729 0.27623975 0.18244459 0.25229305 -0.067649886 0.07043816 -0.16435924 -0.25164637 -0.16111243 -0.21622582 0.1542055 0.06135883 0.076076224 0.08309737 0.20505497 -0.061163142 0.0005827106 0.104150616 0.12505655 0.122294895 -0.0114358375 0.22404206 -0.13015635 -0.1437957 0.08217576 0.16884692 0.1735394 0.033625722 -0.2303993 -0.19617274 0.16723122 -0.17417964 -0.052676834 0.08872877 0.13823418 -0.07388175 0.071290955 -0.19687192 0.17333044 -0.110256955 0.04995718 0.07916966 0.047721878 0.03500957 0.071591124 -0.08322427 -0.02064996 0.111929975 -0.052810073 0.06580244 0.06004597 0.114059284 0.061843384 -0.14014252 0.062184718 0.2562722 0.11869402 0.014491914 0.34186527 0.0773908 -0.036453366 0.16760567 -0.080540776 -0.08202482 0.3150792 0.013534919 0.13118859 0.06803166 0.012523392 0.06377391 -0.06577716 -0.04235859 -0.15081127 -0.055684153 -0.02849481 -0.15001005 -0.010717642 0.27581337 -0.06806378 -0.19104819 -0.1311949 -0.12813947 0.10883932 0.010882294 0.10326778 0.009394967 0.052690994 0.047456782 0.08514988 0.23373552 0.0987325 -0.13339898 -0.14221185 -0.10289683 0.19997376 0.07579798 -0.027716637 -0.09448726 0.12569551 0.13839939 0.1787361 0.07852334 -0.12750715 0.054636396 0.17772521 -0.060287077 -0.012182694 0.2053068 -0.1581624 0.2798998 0.08520964 -0.28704178 0.03621096 -0.041078378
70 0.10500288 0.03963507 -0.32359588 -0.015317905 -0.027629115 -0.035553217 -0.012767335 0.006700299 0.005631815 0.010995364 -0.09259757 -0.095381804 -0.039804533 0.07445836 0.045552675 0.33781055 0.24324363 0.08533713 -0.014290127 0.1266097 -0.2210112 -0.19569267 -0.26517367 -0.24773909 0.1290323 -0.010739097 0.13914618 0.12941813 0.23374848 -0.09776285 0.012648682 0.1428501 0.13807978 0.10881636 -0.12898892 0.13324174 -0.12667 -0.03602835 0.14947411 0.15435591 0.15509944 -0.022208517 -0.23295005 -0.1342712 0.18955177 -0.29995772 -0.11715814 -0.034777343 0.02951663 0.024006628 0.11811482 -0.17096974 0.024673393 -0.13407145 0.00091523095 0.089809306 0.05597277 -0.017846258 0.09055532 -0.06723578 -0.010108729 0.1212529 -0.045389615 0.05982822 0.12943037 0.11597437 -0.014944171 -0.032905344 -0.033786338 0.21067543 0.059164744 0.069112234 0.19502454 0.05960575 -0.060604397 0.19539015 -0.03189838 0.02993526 0.2544733 0.009583764 0.10097677 0.13729657 0.0013662907 0.073241465 0.041870456 -0.07938055 -0.2186563 -0.079881944 -0.059781935 -0.13251144 -0.07138619 0.31618026 -0.14530556 -0.24221256 0.021989688 -0.12128728 0.1790552 0.012718825 0.020118015 -0.055735294 0.012872636 -0.09495826 0.06981253 0.26890537 0.028987862 -0.26716822 -0.20273036 -0.20827712 0.12250538 -0.0251619 0.03809904 -0.12276306 -0.00789492 0.2413698 0.15212628 0.1482192 -0.007157375 0.22210915 0.12240263 0.053278252 -0.13030718 0.23189056 -0.088451624 0.29282182 0.0053261095 -0.26629478 0.040851947 -0.03629896
72 0.20815092 0.25708386 -0.15167782 -0.028932324 -0.063759 0.030818766 0.1042711 0.026340803 0.107250005 -0.00059059093 0.029521778 -0.024481043 -0.1223971 -0.008145173 0.09936885 0.123831965 0.24064074 0.087993495 -0.07886646 -0.059653077 -0.10824359 -0.03276726 -0.21533644 -0.23653862 0.10412763 -0.0031241202 0.040698957 0.04269453 0.15668365 -0.17107487 -0.0060940096 0.00027311136 0.11038931 0.0874023 0.04777177 0.22258206 -0.15813173 -0.12065293 0.034426644 0.14764757 0.18844146 0.022215655 -0.17481801 -0.12937067 0.27866268 -0.31887072 -0.08908574 0.12633632 0.00931894 -0.056326676 0.12111252 -0.17716159 0.12561518 -0.10749415 0.0011852917 0.0743739 0.07096093 -0.004546807 0.0033110804 -0.11121906 -0.010874564 0.053735133 -0.08867247 0.028869826 0.0030262938 0.10566345 -0.067547254 0.0022992245 0.08577098 0.2610311 0.002729015 0.03546792 0.26331562 0.032440424 -0.049286317 0.15337822 -0.092253655 -0.031472865 0.32589105 0.07074811 0.17475365 0.04247187 -0.0075982083 -0.032924123 0.05872369 -0.046873037 -0.032283228 -0.0143728675 -0.025499152 -0.01870699 -0.12528661 0.13773495 -0.16078964 -0.23412043 0.102873616 -0.2036738 0.11267426 0.07373202 -0.13865125 0.07532049 -0.017068243 0.06526518 0.13482873 0.25797823 0.048920114 -0.044485644 -0.11925986 -0.10539829 0.034422003 0.100300826 -0.006766317 0.0005381994 0.09644044 0.2253904 0.09074935 0.08175076 -0.10756406 0.13202778 0.23467575 0.0071552643 -0.14055376 0.20391178 -0.23997666 0.34996292 0.18688051 -0.1928007 -0.03655737 0.047169358
24 -0.15908615 -0.021862559 -0.08460202 -0.09920864 0.16173679 0.049883015 0.13926178 0.107345395 0.039564997 -0.09203559 0.14476897 0.01159957 -0.20816405 0.015433048 0.03703082 0.043130253 0.11889959 0.0060502472 -0.058099568 -0.17068277 -0.23198237 0.015492893 -0.21400847 -0.21877818 -0.07646508 -0.0028940213 0.06523821 0.039570376 0.059684522 -0.20799662 -0.074427314 -0.1192399 0.047605116 -0.012963127 0.03754807 0.102088526 0.0023826414 0.060888216 -0.09163156 0.2078939 0.1671464 0.015360407 0.15172432 -0.051485192 -0.004609359 -0.120034516 0.22323717 0.013061657 -0.02082602 -0.111360855 0.047158744 -0.123352066 -0.015009984 -0.06795634 -0.20033343 -0.24082522 0.09850487 0.1415203 -0.10649381 -0.028342606 -0.0010567469 0.065751806 -0.14244455 0.014154487 -0.18900791 0.06774144 0.039011136 -0.068520665 0.06278783 -0.02579779 0.07600267 0.15645395 0.08240105 0.12267936 0.15005746 -0.06929867 -0.02625004 -0.17484303 0.02478967 -0.033258133 0.25298065 -0.02666119 -0.09430477 0.13243301 0.1448023 0.0047717793 0.05345943 -0.004333685 -0.04522593 0.024382511 -0.067072704 0.19024278 -0.16314147 -0.04053959 -0.08179898 -0.08434642 0.051316362 -0.10868039 -0.017357737 0.009617718 0.2012958 -0.03872445 0.009387797 0.08989363 0.015774129 -0.028775824 0.026513854 0.1421851 -0.055161968 -0.10423657 0.05537157 0.049058817 -0.034335908 0.15257119 -0.039205857 0.102230564 0.09974831 -0.027970556 0.11809868 -0.05110877 0.1112169 -0.046218034 -0.05391982 0.114848875 -0.07818945 -0.086135946 0.05387944 0.10854581
54 -0.014303929 0.124271 -0.2504837 -0.17300686 -0.09869763 0.09526406 -0.070303805 0.010635459 0.06359597 -0.036541108 0.045285545 -0.16751596 -5.1181374e-05 0.07459384 0.054368757 0.11874956 0.22434433 0.10768803 0.0024295198 -0.008936748 -0.13748991 -0.11059519 -0.27201638 -0.13004676 0.074572645 0.010052326 -0.07700772 0.14715675 0.10400083 -0.16552943 -0.046194118 0.16583773 0.13511194 0.0751192 0.048401844 0.22462209 -0.21083511 -0.07617916 0.07687474 0.25253385 0.0690021 0.027312683 -0.18896168 -0.21280609 0.26672098 -0.21680602 -0.070441715 0.17329352 0.056268994 -0.06736178 0.05306148 -0.10207114 0.08386814 -0.0014378922 -0.04234536 0.084262505 -0.032491904 0.0063764504 0.014215165 -0.04444533 0.0027230594 0.068869516 -0.040597208 0.016895147 0.021017365 0.1327438 -0.023839654 -0.17742674 0.039712414 0.25464007 0.094301574 0.042999044 0.31264398 0.06675124 -0.1445436 0.12453536 -0.15761693 0.008660984 0.24480017 0.00841788 0.23913096 0.049018245 -0.023440247 0.15634419 0.010024661 -0.08792075 -0.17748308 -0.13084403 0.019545235 -0.095183335 -0.14688638 0.2602157 -0.14292458 -0.24200459 0.07433471 -0.1915766 0.19333032 -0.016583335 -0.07375216 -0.0014556088 -0.056762848 -0.03930798 0.08700367 0.2333451 0.025542462 -0.06362051 -0.03718032 -0.09911204 0.06101421 0.055842232 -0.06662302 -0.010239497 0.1799393 0.22432564 0.113156326 0.061120674 -0.11775132 0.07899761 0.1492517 0.011321542 -0.054220617 0.2531311 -0.2573691 0.3935588 0.10012061 -0.172057 -0.00092986476 0.043843843
42 -0.01691079 0.025959374 -0.23640352 -0.09119728 -0.11371247 0.027344156 -0.13973826 -0.02438542 -0.009980484 -0.0020199108 -0.017220844 -0.07452626 -0.057372507 0.12272055 0.13918297 0.18691757 0.29430202 0.16534422 0.048038248 0.00901958 -0.17072684 -0.0988549 -0.25982687 -0.1401968 0.14906196 -0.020346079 0.019117497 0.14231707 0.0574754 -0.16052227 -0.025985498 0.16147748 0.050596736 0.07001254 0.051811878 0.12805432 -0.13438594 -0.19967058 0.029726928 0.1933794 -0.006476518 0.057885595 -0.12274658 -0.12331893 0.26293728 -0.18610442 -0.053186372 0.06048245 -0.024953874 -0.002894878 0.056686673 -0.09635341 0.093205556 -0.0016978219 -0.07831936 0.05089413 -0.035476416 -0.04248435 -0.020506745 -0.09032063 -0.045206144 -0.025664497 0.06282677 0.008775037 0.10477677 0.19296077 -0.06607608 -0.17106943 -0.04145226 0.08338641 0.0759372 -0.0619187 0.31258765 0.0060039363 -0.035904177 0.10478155 -0.15998562 0.07747648 0.14144044 -0.00088611303 0.16790621 -0.00524933 -0.13151361 0.15081885 0.02514277 -0.05918231 -0.11042398 -0.096308984 0.063465826 -0.044035908 -0.13959624 0.18777995 -0.18839736 -0.23110591 0.0660095 -0.26310912 0.086841434 -0.015626503 -0.12686503 0.046684813 -0.03356467 -0.09925772 0.11856963 0.18180205 -0.05707505 -0.116016544 -0.07761649 -0.115303084 0.07354563 0.044994567 -0.043292172 0.026804654 0.11303115 0.26004574 0.12559178 0.06622703 -0.029260425 0.046992928 0.19322056 0.11395647 -0.05977717 0.27334315 -0.20159318 0.4035233 0.1365352 -0.16806541 0.0545625 0.026817398
47 -0.112614065 0.23385562 -0.1858347 -0.05397047 -0.064814016 0.13043347 0.02824919 0.0144733535 0.056312107 -0.068393536 -0.0029457489 -0.140403 -0.062668085 0.06076147 0.10196116 0.2414584 0.2507196 0.15977539 0.022534078 0.10498133 -0.10252083 -0.096212454 -0.23832944 -0.14461376 0.14478591 -0.035529897 -0.016094603 0.10634107 0.10205152 -0.11920335 -0.00022262911 0.067920096 0.16519935 0.08072662 0.031613138 0.16127285 -0.1106363 -0.06439013 0.03686194 0.1766478 0.06500085 0.06564913 -0.16485412 -0.16866371 0.28006566 -0.17794502 -0.09480796 0.04026596 0.029168561 -0.014835901 0.091634184 -0.14746797 0.11559769 -0.09086646 -0.06305624 0.1278629 0.052034352 -0.04357836 0.040186185 -0.12244525 0.0019800402 0.07544473 -0.027551536 0.034356244 0.10050316 0.066211276 -0.039837714 -0.11660953 0.017106442 0.12795947 0.107339785 0.04698426 0.27524498 0.05759376 0.04138939 0.10905874 -0.08825473 0.039913043 0.21179481 0.035842467 0.13929012 0.058978267 -0.12739812 0.059891302 0.028485939 -0.0551677 -0.120625645 -0.047468845 -0.08543285 -0.06126734 -0.079252295 0.27439716 -0.12466166 -0.26546553 0.020447187 -0.18801035 0.11802093 0.0017502955 -0.05372433 -0.07235551 0.11205425 0.03554032 0.0070004743 0.20278929 0.059579838 -0.14469376 -0.16133381 -0.10186259 0.11510396 0.0070612077 -0.04706438 -0.041560985 0.11265556 0.23869601 0.12715447 0.19791465 -0.14695121 0.028951699 0.15687968 -0.019195354 -0.13244537 0.25916463 -0.16342737 0.405276 0.1325031 -0.19062291 0.044465486 0.027094796
29 -0.101040974 0.039773304 -0.09191238 -0.1186667 0.099314116 0.09140302 0.038377464 -0.08122569 0.04027102 -0.050503552 0.07889156 -0.036873586 -0.040179197 0.046720795 -0.013481399 -0.050265815 0.03507217 0.05885588 -0.019106988 0.020971805 -0.18297191 -0.01792656 -0.23576878 -0.19244485 -0.13569957 0.032725297 0.05316386 0.01427739 0.15944214 -0.21474941 0.007256499 -0.126953 0.057997003 -0.05122522 0.0031017156 0.12291477 -0.16862126 0.041999824 -0.045353144 0.17052515 0.118226714 -0.028746748 0.07542839 -0.11952832 -0.024403954 -0.009093664 0.20251234 -0.10791273 0.07818448 -0.2506238 -0.12856065 -0.07868131 -0.032831684 -0.1364914 -0.090381175 -0.16433756 0.13673475 0.019512065 0.06698735 -0.022124143 0.03213497 0.13971065 -0.057785608 -0.039689332 -0.031665426 0.1418436 -0.04652634 -0.1264402 -0.015118791 0.03858748 0.12918 0.1859281 -0.015560514 0.12567262 0.04272754 0.02448053 -0.1407149 -0.036112454 0.0111747915 0.017644573 0.14421287 -0.09011751 0.012850333 0.06286969 0.18227652 -0.1006491 0.009935452 -0.1540513 -0.0045937174 -0.014544926 -0.052459475 0.050451502 -0.0440106 -0.023055982 0.08869656 -0.15102816 0.059272148 -0.05326333 -0.061971948 -0.04040015 0.097840965 -0.07346722 -0.0018523622 0.031645305 0.071736015 -0.058329824 -0.114759676 -0.03251694 0.029111398 -0.1754047 0.030428162 0.020449935 -0.05943291 0.11795883 -0.06983276 0.077287585 0.03801303 -0.08303052 0.092006996 -0.035981473 0.19810024 0.008951401 -0.12987286 0.13531071 -0.08337535 -0.09401435 0.10179951 -0.10812019
17 0.04359421 0.24631478 0.084373936 0.08801167 0.21833198 -0.040654246 0.022425009 -0.027737712 0.1590684 -0.124466516 0.050044704 -0.16024259 -0.05025413 -0.10576767 0.1012346 0.061399076 0.07550701 -0.057663888 -0.10094745 -0.14538312 -0.07647163 0.08944054 -0.05288489 0.0029857003 -0.1423247 0.031098777 -0.0062350784 -0.02758796 0.11693709 -0.040966645 0.10428147 -0.078916915 0.044909157 0.07941462 0.0053598974 -0.060199633 -0.003631992 0.03439894 -0.07236794 0.10782636 0.010216953 0.19900143 0.17746393 -0.103237286 -0.0002542292 0.048057478 0.0983402 -0.13930635 0.14939944 0.060354892 -0.07409035 -0.015228635 -0.04193339 -0.07351468 -0.19764459 -0.18559611 0.103969745 0.030734269 0.030569453 -0.04219449 -0.05166668 0.021102244 -0.19608149 -0.00444882 -0.14380027 0.20370148 0.073794656 -0.031496614 -0.03703622 -0.0059104646 0.1953148 0.06956653 0.04965044 0.19026999 0.04650428 0.06323633 0.06471847 -0.05307675 0.006980486 -0.21025048 0.25868657 0.047907107 0.045982208 -0.18538038 0.09816933 -0.118270755 0.12877949 0.05792015 -0.017773401 0.042404138 -0.17683795 0.19839804 -0.10464304 -0.1819502 -0.04298258 -0.066629685 0.0655095 -0.053791 -0.06763767 0.25303254 0.12919475 0.07737624 0.04215367 0.01934355 0.27126858 -0.0010683703 0.0067163985 0.05432187 -0.04076197 -0.18377218 0.068593174 0.06772626 -0.028227778 0.16647229 -0.021336868 0.10989894 0.19685923 -0.00364704 0.20700842 -0.08727136 0.3688338 -0.16310497 -0.04859702 0.11941194 -0.0082907695 0.0075632255 -0.09787146 -0.14853373
45 -0.015849853 0.20119295 -0.036778815 -0.13330361 -0.115281075 0.15128316 0.026097097 -0.029703075 0.06681912 -0.10087949 -0.02207332 -0.02997382 0.010952124 0.034444835 0.045508817 0.12569062 0.2625799 0.09691825 0.019552495 0.14576727 -0.17669147 -0.20235391 -0.28689188 -0.19300765 0.05992359 0.03264682 -0.07284793 0.055046603 0.105979286 -0.015117284 0.05961807 0.06155624 0.097758465 0.08431526 0.10075771 0.17552444 -0.20349911 -0.03537627 0.19490469 0.23074687 0.12952156 0.05125411 -0.21077777 -0.25393665 0.2627388 -0.29037213 -0.050701354 0.09423655 -0.024893949 0.02292683 0.16439414 -0.1565324 0.027546104 0.022342779 0.023589205 0.1502613 0.026082274 -0.045979485 0.092273995 -0.048280716 -0.043238442 -0.00084469176 0.03355873 0.018974725 0.07678354 0.16092233 0.019342346 -0.18296196 -0.016637122 0.2515996 0.029984066 0.07855125 0.2742549 0.09955684 -0.022996984 0.17448437 -0.053255364 0.07670474 0.22129937 0.013138781 0.16731322 0.08757015 -0.05222491 0.075426824 0.043728884 -0.06302589 -0.13599472 -0.16643526 -0.03072559 -0.11843995 -0.056548826 0.26357317 -0.21250185 -0.27859527 0.04995034 -0.16846718 0.15996504 -0.022287687 -0.028836876 0.007374768 0.008574561 -0.1501879 0.01791336 0.22097433 0.08366737 -0.14757843 -0.105856076 -0.071611166 0.09466927 0.018975109 -0.032830436 0.01985401 0.20330675 0.24569325 0.14602803 0.083427206 -0.08500434 0.10219332 0.1776751 -0.02211513 -0.108055435 0.2940137 -0.159077 0.36397916 0.10770264 -0.17823981 -0.06029681 -0.049346253
52 0.09280965 0.3374834 -0.089558326 -0.15640795 -0.004324841 0.05934067 -0.024751017 0.026188385 0.092571475 -0.10837422 -0.008352953 -0.2369879 0.008318269 0.07536064 0.067568816 0.2826248 0.2491552 0.2297174 0.041602276 -0.056909945 -0.1735327 -0.1725019 -0.20558172 -0.24594156 -0.0019093275 0.08892673 -0.03727803 0.073960856 0.10027105 -0.023597581 0.0365089 0.12035705 0.10783263 0.14765866 -0.019313151 0.19188382 -0.23375951 -0.121947445 -0.003416779 0.12911713 0.10231323 -0.008730116 -0.14165969 -0.11590599 0.25032198 -0.23510638 -0.033386845 0.16467932 0.10285802 -0.0069293603 0.1643499 -0.15790579 0.010043912 -0.05379953 -0.04277222 0.16237141 0.021845061 0.014878344 -0.0035644828 -0.09397398 -0.058773447 0.1035139 0.028279645 0.048110373 0.09673743 0.063242815 0.10500236 -0.15674506 -0.086709246 0.21242426 0.061128624 0.05982593 0.26133266 0.104948565 -0.10730358 0.11156639 -0.04997578 -0.009422064 0.20939325 0.033875816 0.2275205 0.028909333 -0.07008423 0.15938264 -0.008521036 -0.038738597 -0.13235004 -0.14531103 -0.040760964 -0.13405721 -0.025083764 0.2298031 -0.15591425 -0.28135282 0.071000606 -0.15006973 0.15352702 -0.06125511 -0.050795816 0.005755198 0.025514785 -0.050701194 0.15536425 0.2651436 0.083439335 -0.16405304 -0.119480565 -0.046013907 0.0705914 0.06569659 -0.105691284 -0.018220285 0.17813823 0.19316436 0.077730626 0.0696558 -0.13712746 0.05175523 0.17873426 0.03167279 0.029648602 0.19646871 -0.23035438 0.2806823 0.15652247 -0.14703903 -0.14027967 -0.05763719
49 0.040178806 0.19257201 -0.16339812 -0.050934315 -0.073735245 0.14975317 0.02371581 0.06480957 0.042643696 -0.14085667 0.0034112327 -0.1634717 -0.1427563 0.10290184 0.065375485 0.2122522 0.2315886 0.15950266 -0.053439774 -0.011998643 -0.11550823 -0.18504336 -0.19591478 -0.13937798 0.13341781 0.01806217 -0.017629495 0.14142747 0.10693153 -0.02951167 -0.02850668 0.12576614 0.09768335 0.08153493 0.053140245 0.14916876 -0.124839835 -0.15132126 0.090187244 0.048093084 0.12654613 -0.06438284 -0.20880608 -0.16282655 0.2738646 -0.20890835 -0.036522243 0.12500247 0.05125728 -0.03482797 0.13069566 -0.12224849 0.08057206 -0.0388132 -0.009968445 0.14080426 0.032195777 -0.027304651 0.050341148 -0.08579638 -0.036832962 0.08387269 0.01062147 0.03683767 0.070945285 0.19683191 -0.020262627 -0.16604094 -0.010987876 0.14740896 0.029402258 -0.0061774724 0.3721326 0.057140876 -0.039610825 0.12903538 -0.11064774 -0.023463087 0.23818466 0.05626916 0.22809172 0.056200795 -0.038773872 0.12840809 0.02191347 -0.13494085 -0.19240646 -0.110725746 -0.023146898 -0.10272661 0.0064714607 0.2458334 -0.15204568 -0.20984738 -0.064133696 -0.21413147 0.14968595 0.027041297 -0.03750646 0.06287516 -0.02449397 -0.04539556 0.11459595 0.20234366 0.08953255 -0.15853556 -0.13956167 -0.067260765 0.09017786 0.029569011 -0.040302772 -0.053969286 0.0640354 0.23434356 0.072847545 0.026309857 -0.1376723 0.055515572 0.17530437 0.0620403 -0.021622544 0.26148662 -0.18594095 0.34183225 0.17905462 -0.15288559 -0.036672004 -0.018093312
27 -0.107547656 0.3092714 -0.0614645 -0.039465338 0.1661672 0.1787526 0.021862058 0.060741145 -0.007505192 -0.08199705 0.13561738 -0.005108969 -0.27079368 0.27899757 0.029145775 0.014385172 0.10889186 0.06847785 -0.020177078 -0.20168127 -0.22246327 -0.06182031 -0.17309134 -0.18227452 0.06056295 -0.0023441864 -0.012177456 0.20168468 0.15696575 -0.20346077 0.032957412 0.07034194 0.04430586 -0.03531744 0.060065087 0.14847085 -0.07354046 -0.03341523 -0.1277557 0.055613365 -0.0024431068 0.042458303 0.1311148 -0.09928858 0.08868554 -0.09579123 0.09768498 -0.04130571 0.032500837 -0.11840068 -0.0294085 -0.031859066 -0.04855411 -0.06985972 -0.116252966 0.032447547 0.13336396 0.037084673 0.021247054 -0.10722515 0.016706234 0.14661232 0.06429582 -0.0805133 0.022807827 0.096249424 -0.041562326 0.07875318 -0.015373643 -0.087785766 0.110697106 0.08775881 0.13099383 0.036144517 0.012207917 -0.03534641 0.025960706 -0.05732936 0.043359797 0.10509931 0.2632567 -0.030320974 -0.1128243 0.20898679 0.121343896 -0.15259883 -0.023133192 0.05638227 -0.09079383 0.008381636 -0.11793925 0.15584268 -0.112919144 -0.14468877 -0.02528498 -0.24251302 0.22944793 -0.0036066766 -0.04910283 -0.07586094 0.101165466 -0.010200472 0.00981954 0.092944905 0.048111208 -0.14359584 -0.08851776 0.03223968 -0.038594205 -0.0649727 -0.076257005 0.051799607 -0.02828881 0.14545344 -0.006181954 0.14550546 -0.020343667 0.016233778 -0.04948771 0.01849985 -0.00368279 0.062489446 -0.025644882 0.21131727 -0.06065618 -0.018186923 0.08393886 0.062586136
19 -0.008214222 0.22636218 0.09482331 0.32995686 0.26872858 -0.04359394 0.11983567 -0.076199934 0.16110885 0.005359974 0.03583279 -0.16388331 -0.1652193 0.05595397 0.017047834 0.094015285 0.14139476 -0.062081225 -0.09590684 0.028148847 -0.120449096 0.15183485 0.02301041 -0.019944271 -0.026093684 0.038921665 -0.039623305 -0.066458486 0.07324312 -0.02541935 0.06106914 -0.11287386 0.027833173 -0.10922328 0.13822609 -0.049251694 0.031752553 0.022163285 -0.007931207 0.09366053 0.16508834 -0.014724373 0.22996408 -0.18472265 0.07833396 -0.07327753 0.18698566 -0.0011920561 0.13199404 -0.07769334 -0.11913795 0.039719693 0.07986188 -0.101254076 -0.11698005 -0.007415722 0.18634936 0.08090019 0.09495619 0.033928413 0.0011294062 -0.04021366 -0.12025581 0.010268541 -0.110612765 0.3002294 0.014902021 -0.12939063 0.055666458 0.0003622766 0.21611735 0.15899621 0.0187966 0.08848832 0.03270573 0.054904684 0.03348844 0.012065311 0.0026974906 -0.099235855 0.082186855 0.07684862 0.09452986 -0.19436255 0.028451575 -0.07298383 0.0135920225 0.048594974 -0.04042897 -0.014992685 -0.2663734 0.18879445 -0.030034881 -0.056272276 -0.03407907 -0.16463105 0.049786236 0.093298234 -0.0359417 0.12415626 0.060734015 0.025938932 -0.01790732 0.025078615 0.24797828 0.038885724 -0.02263191 0.0052191247 -0.03725939 -0.18357831 0.09472528 0.14158504 -0.097784966 0.17540473 0.03822375 -0.029416373 0.1567425 0.05189 0.10574376 0.036754616 0.24023122 -0.0014349886 0.014813326 0.22973455 -0.03507074 0.04491589 -0.06476667 -0.102855794
26 0.012831329 -0.044178996 -0.080962874 0.03492411 0.18962388 0.015277364 0.004758812 -0.02208278 0.07775509 -0.09852578 0.19333342 0.073413216 -0.22341451 0.062687576 0.08938029 0.036732122 0.14902474 0.1371374 0.06338334 -0.19843557 -0.32003194 -0.005124647 -0.10691921 -0.14490193 -0.039217334 -0.06722387 0.002148349 -0.14073202 0.047047686 -0.17384295 0.08628705 -0.0117036505 -0.18947478 0.08658812 0.094646655 0.115495495 -0.13851158 -0.079936296 0.005220033 0.23783387 0.13630977 0.09241226 0.13870691 -0.09549323 -0.025111405 -0.13463093 0.03388411 -0.11657529 0.13101515 -0.114206694 0.016330501 -0.16611706 -0.020180017 -0.14296743 -0.061382588 -0.12970313 0.1541936 0.029100325 -0.05409687 -0.019216035 -0.063922465 0.09295634 -0.00476861 -0.01629187 -0.02822387 0.109905206 -0.030276135 -0.11299527 0.015262489 -0.051005505 0.08283662 0.03762338 0.01701725 0.027250957 0.12633604 -0.08124798 -0.0058144117 -0.13506986 -0.12995669 -0.059872497 0.15512286 0.025898289 -0.18245624 0.09761581 0.100546114 -0.09450669 0.01350439 -0.000169985 -0.023786075 0.053211764 -0.0956175 0.05921764 -0.105006516 -0.053262256 -0.05071556 -0.09100212 0.09248153 -0.12242685 0.043708604 0.0284813 0.2037682 -0.119045764 0.1264559 0.08890318 0.044750053 -0.23924449 -0.013375059 0.015790189 0.041284446 -0.09359372 -0.009600336 0.029302467 -0.07687567 0.032879453 -0.06079977 0.15581447 0.1423396 -0.059142157 0.13064857 -0.029293885 -0.00048160995 0.0758624 0.07965606 0.21866132 -0.123628676 -0.015422995 0.15455154 -0.05403328
18 0.09366834 0.25176683 0.014299805 0.041493855 0.039351847 -0.0011124597 -0.024201533 -0.062446415 0.2861051 0.016855128 -0.013994023 0.08916111 -0.23130654 -0.12609193 0.05076333 -0.07549252 0.061351117 0.03489768 0.04235022 -0.051271603 -0.14169352 0.16376477 -0.049216423 0.03482451 -0.09598667 0.07548985 0.14528494 -0.08518927 0.10973773 0.035089225 0.09769767 -0.10621869 -0.057899218 0.048597135 0.06955359 -0.079800084 -0.022327479 0.065117806 -0.10137986 0.18118294 0.075381994 0.22961 0.10291345 -0.14445055 -0.15502448 0.14968087 0.2731731 -0.00569427 0.159079 -0.0746757 -0.12754999 -0.028060375 0.006619178 -0.07669399 -0.1886848 -0.13247646 0.1949554 -0.027204711 0.067759134 -0.019642103 -0.17925522 0.14851421 -0.22907715 0.098929696 -0.17289166 0.17473525 0.12370727 0.028080832 -0.07600591 0.0019188693 0.19375837 0.14160857 -0.054649364 0.23416011 -0.042950273 0.10968232 -0.07958173 -0.10030327 0.14437911 -0.1826693 0.19028851 0.05175355 0.13093866 -0.06523777 0.1268674 -0.07440511 0.038343497 0.089691855 -0.030058468 -0.106059 -0.2013622 0.13709189 -0.012741234 -0.05316498 0.045152713 -0.11792924 0.038815305 -0.04628383 -0.18621533 0.18526837 -0.02421409 -0.048992436 0.052671723 -0.07197439 0.2044221 -0.10670965 0.029907795 0.0145933125 -0.0790265 -0.21070464 0.07556919 0.054329555 -0.08685844 0.12714292 -0.06176602 0.009871482 0.095069446 0.04759542 0.11333768 0.0024637498 0.21488565 -0.074793115 -0.07033081 0.0925298 0.11909998 0.009770308 -0.05942809 -0.13089582
30 -0.1844468 -0.059659667 -0.13686079 -0.0015856059 0.033944834 0.19128644 0.15513137 -0.11966346 0.083418675 -0.0021240113 0.13503386 0.090271726 -0.054702085 0.15506674 0.13742025 0.074699454 0.052244574 0.15231247 0.017168574 -0.06928536 -0.28698054 -0.11208539 -0.042936694 -0.23229854 0.15669014 0.12780774 -0.0059670876 -0.013243701 0.07351691 -0.022500107 -0.009939682 -0.05735635 -0.013526688 0.01990049 0.06681551 0.15055364 -0.21004587 -0.054757904 -0.050484344 0.2520115 0.15205376 0.06408063 0.19345626 -0.16473156 0.019887576 -0.047940675 0.060556307 -0.19811998 0.15153359 -0.28425604 -0.014870505 -0.21070781 -0.0013998252 -0.24995182 0.13705969 0.040858373 0.10988627 -0.014834123 0.0741892 -0.14116874 0.12928276 0.08331548 0.07043195 -0.092203476 0.12029038 0.014857209 -0.014625205 -0.011832147 0.06527031 0.046583094 0.13537447 -0.010091504 0.13609928 0.08979155 0.10469806 -0.18918072 0.026486402 -0.15351124 0.025676524 0.17972209 0.21592666 -0.018704174 -0.15608793 0.047604587 0.07259084 -0.16674261 -0.059285805 0.12870952 -0.035573285 0.07005453 -0.029394003 -0.028862491 -0.118059166 -0.023106351 -0.13923395 -0.07238133 0.010192172 -0.028802156 0.086760595 0.05420389 0.17105877 0.0067402315 0.028504504 0.053176217 0.104888454 -0.113432474 -0.17698562 0.047510847 0.04589287 -0.17407095 -0.06205483 -0.12445877 -0.110494874 -0.022782825 -0.12024505 0.20094022 -0.055066485 -0.07253223 0.1523001 -0.022254553 0.1067547 0.108458504 0.009919942 0.20437905 0.04732073 -0.14740211 0.10951042 -0.09254249
31 -0.12961201 0.20662358 -0.22077884 0.011290047 0.0059957113 0.23320457 0.011569494 -0.07517628 -0.012111317 -0.022440169 0.07503318 0.15316807 -0.15912645 0.12815435 0.0291232 -0.11040569 -0.034288045 0.13234791 0.005376747 -0.19401938 -0.16297759 -0.042542797 -0.21159372 -0.044605 -0.042151395 0.015677622 0.11909059 0.065988705 0.037935402 -0.15907317 0.0040355143 0.00077067106 0.027753415 -0.06473402 0.102140084 0.18756159 -0.10553298 -0.01117152 -0.019690279 0.14240131 0.2501151 0.14736307 0.14753532 -0.3141511 -0.059453093 -0.018429736 0.17339239 0.010943706 0.04417491 -0.10332903 0.020851437 -0.054522187 0.009447143 -0.10401083 0.013105714 -0.13296922 0.11593094 -0.09695778 -0.032690227 -0.0877357 -0.041556448 0.099228114 -0.016064705 -0.0801767 -0.1356224 0.07326305 -0.011203194 -0.022609947 0.05822888 0.11101664 0.065529555 0.09870487 0.04409504 0.054358162 0.005544756 -0.030828318 0.03216152 -0.042893175 0.081674896 0.032427706 0.1974878 0.046929084 0.02892514 0.13975628 0.19148661 -0.07178554 -0.054144453 -0.05454541 -0.023788724 0.05782672 -0.07612023 0.11782789 -0.005407486 0.08166747 -0.031853743 -0.10826271 0.2309715 -0.13467716 -0.091530345 0.045015194 0.14087778 -0.14940298 0.12501243 0.012396206 -0.0821347 -0.285097 -0.21145469 0.05601132 0.11435086 -0.097643435 -0.09410501 -0.04798836 -0.104320265 -0.08213698 -0.052739993 0.14351626 0.05835616 -0.023621047 0.05360704 -0.09304697 0.08795104 0.15976126 0.031215275 0.28386137 -0.02844287 -0.099032424 -0.042453624 0.023131857
28 -0.115497574 0.12153141 0.025544606 -0.067318745 -0.01468752 0.23392475 0.16865669 -0.042097546 -0.024742981 -0.053329587 0.11724449 0.15648873 -0.20761238 0.1827318 0.14813751 -0.11084932 0.15862747 0.13332014 0.019504724 -0.02379323 -0.18762104 -0.010281597 -0.21941468 -0.1615355 0.03219967 0.044581026 0.037127353 0.12433649 0.11381823 -0.024336085 0.030152556 -0.05709092 0.06294799 0.10560762 0.08938534 0.1886628 -0.10423862 -0.0131343715 -0.05975823 0.2941312 0.14211889 0.12991834 0.16840121 -0.16901356 0.012810135 -0.021696324 0.2102913 -0.15272546 -0.026151778 -0.1548385 0.042834852 -0.16713482 0.00063156395 -0.058659274 -0.04885608 -0.054073084 0.14863652 -0.0401682 0.028355854 -0.12545605 0.023228854 0.09643707 0.018965323 -0.057840537 -0.033659168 0.028810402 -0.019156512 -0.0492163 0.0091624465 -0.02347493 0.12066429 0.046468202 -0.021614369 0.14400917 0.117171794 -0.06720933 -0.087685764 -0.2158081 0.076081 0.12047896 0.20197655 0.045093827 -0.064795926 0.21431254 0.22613591 -0.08384954 -0.09886403 0.05549254 -0.061398912 -0.004253288 -0.038711045 0.0080522895 -0.13605428 -0.017397253 0.053402074 -0.19263528 0.018917674 0.013496083 0.013949039 -0.02385464 0.1556665 -0.088537276 -0.07857712 0.03387822 0.03748166 -0.096172385 -0.10967413 0.102671586 0.010191845 -0.13230483 0.08668028 -0.028399874 -0.05606301 0.024091702 -0.016683612 0.13005792 -0.008572783 -0.032179076 0.08754168 -0.011595264 0.039244246 0.058991037 0.0007933685 0.23797454 0.036202624 -0.1173742 0.17445745 -0.02297588
21 0.023146946 0.20497327 0.04577753 0.1491204 0.14018501 -0.10903335 0.003168787 -0.07579998 0.14227201 0.096893564 0.030074421 0.09323488 -0.09512474 -0.11225659 0.13476402 0.11742152 0.055324987 -0.064034335 0.13169602 -0.12622641 -0.017089529 0.18279539 -0.05344864 0.15504843 -0.013516751 0.089179955 0.10554049 0.0016946059 0.12111183 -0.07242933 0.07691447 -0.071860604 -0.013369685 0.052728463 0.008354427 -0.12041745 -0.115588725 -0.06780896 -0.06149953 0.126605 -0.0059774006 0.1566498 0.1417073 -0.1576912 0.06271055 -0.06822692 0.09268949 -0.04934412 0.097761534 -0.10349681 -0.16657838 -0.11741203 -0.0010962728 -0.18840279 -0.10209213 -0.20436472 0.13101317 -0.024123387 0.09253434 -0.019650508 -0.051044606 0.021462988 -0.20909886 0.0013112477 -0.12386653 0.18828227 -0.112546384 0.10416481 -0.063457824 0.15427074 0.18179889 0.034520894 0.021437243 0.23965164 -0.10578022 0.085243925 -0.052575957 -0.073168285 0.076023415 -0.12178802 0.083913036 -0.0042260075 0.28427857 -0.24516068 0.18243575 0.005712228 -0.028524948 0.08468947 -0.0039964565 -0.113603786 -0.30687228 0.12997414 -0.064452834 -0.13265248 0.016688513 -0.09373415 0.0013035974 0.067858905 -0.19314934 0.14857088 0.031186676 -0.008351082 0.11247285 -0.07566376 0.19603933 0.050207462 0.08758095 -0.05986565 0.0417673 -0.09024618 0.12399289 -0.037709583 -0.16058886 0.18153203 -0.018714929 0.08656475 0.1798189 0.058601927 0.16230714 -0.06491194 0.21508674 -0.12578884 0.00037052794 0.042585377 0.02061635 -0.08561246 -0.06609468 -0.12885411
23 -0.027137123 0.2969966 -0.05100198 0.2509078 0.21157522 0.07121831 0.018491568 0.012070071 0.24789204 -0.010448929 0.010480914 0.005911334 -0.11912058 -0.13136624 -0.041791786 0.27288258 0.18115878 -0.040070333 0.07792246 0.06572173 -0.16851468 0.15261911 -0.075942285 0.071709484 0.06800652 0.055081632 0.0039478177 -0.056467168 -0.028214723 0.09797724 0.05382912 -0.105385534 -0.039485194 -0.0713778 0.08530457 -0.19052118 -0.01795258 0.040807955 -0.059209164 0.12645096 0.028050566 0.16446689 0.1290549 -0.12410501 0.019161053 -0.054833468 0.087565474 -0.022125848 0.071047775 -0.07627088 -0.13212372 -0.11637827 0.04271355 -0.09854039 -0.076301806 -0.14711651 0.15059339 -0.06345417 0.11491009 -0.06743496 -0.0674843 -0.021928463 -0.16987242 -0.06990778 -0.043703254 0.273712 0.048609402 0.07313405 -0.043637253 0.14310008 0.09818781 0.10543619 0.030151607 0.17589658 -0.10728194 0.11165153 0.042571332 0.047599975 0.03762025 -0.083861224 0.11262794 0.09923026 0.1621989 -0.15028653 0.15803236 -0.030416984 0.025826216 0.059171285 -0.0898757 -0.06490389 -0.22515506 0.14689173 -0.14217985 -0.18299215 -0.0928416 -0.044980843 0.06028512 0.0241298 -0.17491688 0.12852833 0.016511945 0.0007081563 0.012374729 -0.076382324 0.21009411 0.048047327 0.011124344 -0.08781727 -0.055194024 -0.020659931 0.117213026 -0.040890846 -0.10147555 0.16403423 0.055646695 0.022706933 0.14295694 -0.017596403 0.25091815 -0.06703103 0.16650096 -0.002502326 0.019884186 0.21496792 0.12205402 -0.16697124 -0.19066335 -0.23568973
20 0.14207888 0.24241255 0.112292245 0.22679338 0.11548053 -0.18698362 0.04716352 -0.08290806 0.110677585 0.009341537 0.048725434 0.05461205 -0.08186115 -0.1420904 0.05613215 -0.004536365 0.04380418 -0.01730673 -0.016712047 -0.06108692 -0.22437038 0.15368661 0.0011382675 0.0063532977 -0.04310302 0.2131381 0.004589075 -0.11306241 0.006108032 0.0035908264 0.13400058 -0.07859018 -0.08869761 0.058638334 0.10484617 -0.09954312 -0.14106773 -0.014711567 -0.024873333 0.1948213 0.11594904 0.18122065 0.061089266 -0.17595874 0.035516035 -0.17489053 0.1030011 0.05405625 0.013875975 -0.07730648 -0.10987631 -0.045702428 0.06829179 -0.04306025 -0.18271613 -0.2026329 0.052326817 0.08348431 0.11237975 -0.060412146 -0.09854366 0.013484158 -0.15888275 -0.0002540602 -0.050332572 0.1626995 0.023727642 0.016840983 -0.033815697 0.056297082 0.058673628 0.12156736 -0.027826497 0.158896 -0.03665711 0.023540337 0.00060232903 -0.1369693 0.05071944 -0.12905847 0.1449488 0.046188295 0.14028145 -0.18496923 0.11153073 0.0019077468 0.022103863 0.121286996 -0.054429155 0.040026423 -0.2991378 0.17967597 0.03207776 -0.18843408 -0.039364263 -0.13315852 0.043991268 0.075697415 -0.111926824 0.1969082 0.09648068 -0.018085318 0.003576384 -0.04960142 0.2756761 0.035590626 0.07366044 0.0181018 -0.08523809 -0.09116306 -0.0073513607 0.06925115 -0.020599427 0.12907903 -0.04117831 0.012914949 0.26967013 0.099389724 0.23727778 -0.10488275 0.20358579 -0.025262127 -0.034781627 0.10655724 -0.020783411 -0.03092522 -0.09971116 -0.09605691
22 -0.0064561935 0.25931564 0.12152759 0.18548517 0.023331415 -0.0897998 -0.00931845 -0.14386246 0.18565361 -0.06176108 -0.0045170058 0.036656264 -0.103546545 -0.042728797 0.002960253 -0.043519866 0.07821816 -0.055371135 0.031378757 -0.023001954 -0.111978196 0.21944833 -0.053073645 0.14974526 -0.06251507 0.1501059 -0.062659696 -0.103987135 0.016954917 0.025559573 0.13982138 -0.029099572 -0.083990745 0.067275755 0.08759711 -0.18916793 -0.17861044 -0.034887694 -0.06402143 0.22927523 -0.011077272 0.03913339 0.1693596 -0.12692796 0.018279392 0.018690893 0.19782797 0.0072851074 0.04076938 -0.10698353 -0.07379302 -0.039530512 0.03365789 -0.13785234 -0.1545533 -0.13119794 0.1885527 -0.038271263 0.14579126 -0.108907014 -0.112017885 0.020915385 -0.17334871 0.052066553 -0.13892448 0.21291168 0.060052723 0.07612719 -0.032613423 0.073082566 0.15217093 0.08944331 0.03370524 0.192806 0.014789742 -0.002280136 -0.10850143 -0.1464301 0.057688598 -0.124384634 0.24138482 0.059602864 0.18798728 -0.25575972 0.07675171 -0.10250519 -0.019078584 0.19656529 -0.13706538 -0.016284127 -0.2786376 0.12103458 -0.05622806 -0.13631184 -0.07569012 -0.1451269 0.006611244 0.05269547 -0.059976995 0.25719795 -0.1604431 -0.061796725 0.07773478 -0.06406435 0.2055031 0.05840327 0.035284873 -0.02818372 -0.080875695 -0.09754319 0.016924083 -0.001985442 -0.034151793 0.14299107 -0.12147298 -0.036673035 0.08862266 0.1344249 0.16645458 0.07966149 0.102590404 -0.0003107622 -0.07868022 0.09305918 0.072420254 0.10768113 -0.07212571 -0.026768606
32 -0.18117075 -0.25537395 0.1313431 -0.03708183 0.2429522 0.0630397 0.09757089 0.08259953 0.24020517 -0.12141822 0.07686567 -0.02544266 -0.21011466 -0.14482358 0.09382226 0.07069733 0.18097267 -0.01743936 -0.11416508 -0.20899399 -0.25777936 0.09291766 -0.18855026 -0.058060095 -0.15159313 -0.046561707 0.19077986 -0.013021494 0.09857491 -0.17505859 0.044800766 -0.098856054 -0.09331975 0.0023917623 0.035097845 -0.07255622 0.092351854 0.09908847 0.0004148833 0.15327397 0.036908932 0.14265122 0.10796091 -0.04055252 -0.096834786 -0.040894527 0.118744075 -0.0054302067 0.12455718 0.04189704 0.05040402 -0.020494042 -0.029122153 0.0051906807 -0.14391553 -0.12877999 0.11774905 0.075152226 -0.008472489 0.0014997902 -0.12488865 -0.00071919395 -0.11860228 0.13295138 -0.16841032 0.1542721 0.22524439 -0.012450644 0.026331592 0.0067209136 0.12738547 0.16748992 0.06330292 0.22797264 -0.029699681 -0.012795373 -0.002208152 -0.027175024 0.062228363 -0.04077693 0.24718066 0.034740314 0.013539995 -0.027424129 0.1537049 -0.04007027 0.09142348 0.10794173 -0.0699593 -0.003036511 -0.14243226 0.28419447 -0.17132133 -0.24926129 -0.09772721 -0.026338406 0.09046885 -0.07332924 0.010990668 0.053756427 0.036190316 -0.008468783 0.07920651 0.056457456 0.21861373 -0.030127961 0.11992028 0.10089337 -0.07653339 -0.096324116 0.0046937573 0.056559786 -0.00032991334 0.11101554 -0.019192124 0.12035779 0.10630413 -0.015779763 0.106953494 -0.07935548 0.09260569 -0.12309682 0.038707107 0.07608328 -0.005087802 -0.072965086 -0.040628277 -0.09984707
34 -0.38779485 -0.050779335 0.10070996 0.07987248 0.21151276 0.18992405 0.044535596 -0.053862214 0.14771388 -0.21944806 0.11631197 -0.069902696 -0.15216784 -0.107086 0.054055337 0.04602774 0.15734835 -0.007992112 -0.15803559 -0.14287105 -0.16771412 0.06929802 -0.23083955 -0.2230082 -0.15285356 -0.20485435 0.05530875 0.003846404 0.10804761 -0.060004223 0.017283855 -0.060947027 -0.016945263 0.034182455 0.01654834 0.024875695 0.031131232 0.15225582 0.07615519 0.19264306 0.051480636 0.092191756 0.021403288 -0.025488254 -0.10521667 -0.08620843 0.11244355 -0.14627673 -0.059083655 -0.05582541 -0.05581668 -0.008457096 -0.003935269 0.16296035 -0.2909046 -0.23593745 0.0043936744 0.021185666 0.11779776 0.060819592 -0.0763015 0.017189026 -0.18997398 -0.03181395 -0.07256606 0.11391642 0.1823637 -0.12315235 0.088645175 -0.119799756 0.024726015 0.10888694 -0.02693519 0.16180581 0.06668086 0.06821522 -0.024709102 -0.042241804 -0.042941358 -0.25133008 0.14338484 -0.040203698 0.03718112 -0.090307936 -0.019838873 -0.057240162 0.1790251 -0.025849575 -0.050829355 0.0047672126 -0.060479905 -0.00096677424 -0.081430145 -0.07691985 -0.0069287247 0.00784253 0.052048564 -0.123846196 -0.10474687 0.10128664 0.08686072 0.04413812 -0.067470804 0.03213 0.10177028 -0.1259133 0.01942783 -0.09308304 0.04328293 -0.23137836 0.04018022 0.03874352 0.035795644 0.21357398 -0.072637826 0.11502281 0.054463618 0.005544997 0.22085474 -0.10628945 0.16117735 -0.086345345 0.0037595138 0.14714214 -0.051418148 -0.17274213 -0.06804967 -0.047334924
61 0.06265448 0.23659317 -0.26470575 0.029321562 -0.22085479 0.14482528 0.08166968 -0.10177269 0.13712947 0.007954824 -0.022068303 0.20304456 0.049220547 -0.021387912 0.026734266 0.047789022 -0.03136125 0.0697619 0.082792714 0.08527472 -0.08034041 -0.03148886 -0.16467375 0.011132352 0.061823547 0.043611884 0.165518 -0.16804813 0.0700052 -0.18801859 -0.15002273 -0.1706785 -0.070902675 -0.08421529 -0.08678917 -0.058786847 -0.08902793 -0.20093259 0.062156145 0.108314924 0.06274795 -0.13946693 0.067604594 -0.10259956 0.18459731 -0.008594786 0.06327257 -0.024088802 0.12375609 -0.17875265 0.029300489 -0.1845898 -0.15213175 -0.2713947 -0.05934976 0.0966623 0.009643238 -0.06847674 -0.07115011 -0.18342659 0.14342779 -0.3252352 0.335041 0.20789331 0.066754274 0.18860722 -0.06229228 -0.21786495 0.19109185 0.14808598 -0.043971322 0.052376807 0.28189903 0.00393765 0.1541132 0.16065998 0.08451299 0.062098872 0.09772919 -0.018084304 0.1749514 -0.0697268 0.035768617 -0.16330306 -0.26542434 0.013853871 -0.008096926 0.046782937 0.061709125 0.03371487 0.04464292 0.10037599 -0.003012406 0.035425555 -0.3346208 0.09112216 0.17898963 -0.10127442 -0.013041005 0.06338306 -0.08483432 -0.061915495 0.07304891 0.093805574 -0.01225397 -0.19628045 -0.05681314 -0.111832045 0.1439685 -0.12056121 -0.29476193 -0.04871288 0.06377259 0.115604766 -0.268081 0.2575966 -0.112981915 9.792656e-05 0.11965246 0.09338284 0.008771685 0.26915008 -0.016780036 0.27546316 0.057340406 -0.12203393 -0.17715433 0.11845817
64 -0.10626899 0.38252935 -0.24496508 -0.072921686 0.0008324435 0.074742235 0.031473547 0.1663804 0.06830852 -0.06951936 -0.11438774 0.1321897 -0.01045759 0.012236402 0.10607519 0.16312905 -0.0010124149 0.15374559 -0.028442658 0.0601638 -0.06962234 -0.0494725 -0.11782422 0.11735738 0.032321665 0.1748108 0.11868334 -0.028114207 0.06954076 -0.15281376 -0.03894137 -0.05512215 -0.040275805 -0.001870345 -0.08772072 -0.0784545 -0.08250449 -0.19622448 0.093511656 0.28943726 0.110468365 -0.08356548 0.01037937 -0.12608689 0.26134458 -0.021225838 0.22802594 -0.011686758 0.019600986 -0.19526207 0.042984832 -0.23989034 -0.011200157 -0.2221711 -0.097282104 0.061121494 -0.049557816 0.049256247 -0.09336278 -0.063942514 0.10100584 -0.38760984 0.28318596 0.1863024 0.08380704 0.19218361 0.06408681 -0.26676512 0.21852884 0.2183336 -0.0071768845 0.04083554 0.37402546 -0.04446555 0.2466189 0.07220345 0.16184364 0.007150646 0.10128858 -0.023105767 0.047216725 -0.050612878 0.098853715 -0.1536919 -0.19625042 0.14711063 -0.07711863 0.05280696 0.036373213 0.036631968 0.17047392 0.16562267 -0.105359375 0.06213625 -0.37848082 0.053991564 0.08685787 0.0870865 0.14697757 0.040454093 0.0013247632 -0.100089766 -0.015576646 0.24674493 -0.02296128 -0.14153327 -0.2254634 -0.23938918 0.25790298 0.034821834 -0.20358637 -0.061892096 -0.017250784 0.077994145 -0.1060751 0.09323259 -0.1914007 0.042546555 0.08553973 0.04804211 -0.13862365 0.14373 0.010179056 0.154523 0.072392024 -0.324415 -0.034670904 0.059816275
60 0.17626081 -0.120028004 -0.103070244 -0.15156837 -0.11090679 0.10985265 0.071072906 0.08761395 0.009895766 0.030619472 -0.26558185 -0.041608796 -0.02528955 0.2660002 0.09713882 0.4053217 0.12900968 0.1530678 -0.084222026 0.1990692 -0.026290853 -0.22063829 0.028533474 -0.2058198 -0.012593511 0.26604494 0.0705131 0.1321387 0.17785197 0.034468975 0.046942893 0.13404973 0.020642659 0.06327599 -0.1551219 0.080700286 -0.18069564 0.010160975 -0.008272878 0.34129095 0.013136133 -0.13437526 -0.13083376 -0.02551842 0.26752707 -0.12977166 -0.0822865 0.0858831 0.023383899 -0.13942043 0.120073415 -0.107541084 -0.04314428 -0.08357615 -0.002866671 0.06997491 -0.046502486 0.20893243 0.16743305 -0.08157342 0.22309063 0.0031960534 0.11524144 0.04083068 0.23240153 -0.009625433 0.17802377 0.082466416 0.13042569 0.18447568 0.037398092 0.042916205 0.33368114 0.13122083 0.12838884 0.08044645 -0.013216552 -0.13106146 0.25573227 0.10860546 0.28582442 0.020376595 0.08064216 -0.09303267 -0.1320543 -0.02996079 -0.1956429 0.0851169 -0.15846387 -0.14243442 0.13149276 0.21901643 -0.116600014 -0.20915176 -0.26274866 -0.060916167 0.27183107 0.11372052 0.21146421 -0.07169799 0.1718949 0.05965649 0.070956565 0.2746528 0.15016381 -0.16906558 -0.46105242 -0.149906 0.14531556 -0.25656322 -0.1207546 -0.1196989 -0.069248624 0.24563311 0.21989635 0.1587866 0.06828087 0.14760399 0.1668289 -0.1283974 0.1246369 0.22473954 -0.1578089 0.33433947 0.081029065 -0.36217636 -0.08391308 -0.07420792
68 0.12843819 0.2826055 -0.18347898 0.017086577 0.12592633 0.27213088 -0.011644934 0.13272768 0.04449272 -0.13630101 0.0043296106 0.048971932 0.018147694 0.011481262 0.1190413 0.14692038 0.092502296 0.11550372 -0.08701679 0.042157903 -0.1696479 0.06085618 -0.114359654 0.11790288 -0.10180847 -0.03290644 0.18926345 0.04553669 0.10119361 -0.17517205 -0.028248498 -0.0121894935 -0.036964647 0.050146583 -0.04727649 -0.0055986107 -0.11171927 -0.1921795 0.12035773 0.20874378 0.117996246 -0.074450664 -0.03178894 -0.065106645 0.098780625 -0.2165766 0.056639448 0.08344329 0.08760317 -0.12600723 0.117581226 -0.1350913 -0.2030683 -0.05805112 -0.031236311 0.1542945 -0.08436522 -0.028732333 -0.08121093 -0.14135881 0.13358708 -0.31556273 0.28524125 0.2893595 -0.025694707 0.19250496 0.0037979984 -0.12540103 0.12980098 0.04913785 -0.043146245 0.13465497 0.07567126 -0.030279128 0.15564707 0.10601265 0.08496688 -0.036891878 -0.045268912 -0.0355697 0.17847028 0.06679574 -0.008702138 0.030919388 -0.010592625 -0.033715088 -0.09300543 0.14843492 0.08709409 0.16903844 0.015093809 0.023584405 0.11667264 -0.05262365 -0.12180237 -0.02369466 0.17124656 0.026852837 0.021495098 -0.009868919 -0.15513268 -0.123252906 -0.09448104 0.13159648 0.092814125 -0.11336356 -0.12906092 -0.21921952 0.031118866 -0.09626662 -0.10923637 -0.10057984 -0.04723608 0.10075518 -0.12730384 0.023624185 -0.0783316 -0.03706514 0.16549592 0.12891547 -0.23142724 0.17013916 0.018574946 0.29160845 0.15366875 -0.27479973 -0.18934028 0.021331167
