962 128
1 -0.05165984 0.12571104 -0.45142338 -0.007271793 -0.14213525 0.017605562 0.11953211 0.02801667 0.20799644 -0.25330994 0.034292597 0.09344286 -0.23287265 -0.118477374 0.2922977 -0.061347548 -0.12582664 -0.3187253 0.17944 0.04015894 0.08030123 0.16064245 -0.12336441 0.19888742 0.278817 -0.16923209 0.075940095 0.026946496 -0.23168343 -0.04162698 -0.112605706 0.117704615 0.020650795 -0.36444896 -0.0076415446 -0.03264796 0.14356096 0.038066335 0.2423481 0.44454566 0.2327101 0.02261407 0.22843866 0.091646954 0.15509203 -0.21078563 0.05698428 0.073130555 -0.11557747 -0.099295236 -0.19284667 0.12468648 0.118465304 -0.058032773 -0.022468118 -0.025649486 -0.045713637 0.045731604 -0.0015614255 -0.18269958 -0.15955696 0.033745434 -0.007895847 0.22908358 -0.012926611 -0.15022835 0.015796242 -0.15132105 -0.18100171 -0.14543168 -0.44484085 0.32020685 -0.08336189 -0.020970402 0.45617646 -0.13529798 -0.026296439 0.012473866 -0.09829359 -0.010500736 -0.05881755 -0.07758003 -0.23419821 -0.109775335 0.025671909 -0.006030885 0.061039727 -0.023140643 0.11229407 0.041006424 0.10414006 0.019382719 -0.011430961 -0.037668813 -0.021462651 0.18762124 -0.14645289 0.049278986 -0.042179037 -0.075708374 -0.17769426 -0.13547395 -0.14824097 -0.10304386 0.082377635 -0.029131528 0.14381446 -0.029543545 -0.16248229 0.11059189 0.1250216 0.07630864 0.057755258 -0.25285548 -0.06864147 0.13662167 -0.058276765 -0.18859206 0.12021353 -0.2284114 0.24347796 -0.06790335 0.19247684 0.07799832 -0.18327218 0.20727366 -0.14899144 0.038217507
10 0.12709466 -0.23901217 -0.23486777 0.11594475 0.10370451 -0.05938287 -0.1189775 -0.09142154 0.19108808 0.09126721 -0.02848341 0.098402314 0.16427995 -0.21454705 -0.019350462 -0.12427416 0.1821796 0.073412836 0.0455731 -0.035920933 0.19275881 -0.14118588 -0.22322346 -0.20812069 0.05334802 -0.08744702 -0.2207446 -0.2302569 0.15291908 0.025382746 -0.11316905 0.08656934 -0.105193555 0.0051182085 0.10235136 -0.01298076 0.10518534 -0.09382728 0.027203226 0.22497065 -0.1934284 -0.042993546 0.30255997 0.19388977 0.19455549 0.08967519 0.18681787 0.20814657 -0.060628697 -0.35736978 0.001383547 0.0219567 0.20647871 0.2908395 0.19024333 -0.02596448 -0.20668206 -0.010313801 0.035203245 0.19651185 0.04107654 0.2564677 0.21657659 0.11645894 0.20898895 -0.036895886 0.004797901 0.05828015 0.13658321 -0.15800446 0.09616372 -0.093216605 -0.36942518 -0.046412516 0.29558393 -0.075300835 -0.110696495 -0.03614314 0.04433998 0.22125317 -0.02612734 0.07697828 0.06433774 0.32950723 0.009626315 0.077753134 0.39194223 0.18047942 -0.1840309 0.15483382 -0.11432023 0.2403199 0.006482128 -0.074018806 -0.11242478 -0.10648805 -0.16855 0.06411143 0.14804213 0.21044339 -0.12141606 0.24046655 -0.059397813 0.0272904 -0.23801981 0.044407878 0.27429688 -0.10544017 -0.026487019 -0.2859677 -0.01447548 0.18387312 -0.17147444 0.0614737 0.22315627 0.26145798 0.34373572 -0.013680898 -0.17452236 -0.22840987 0.43783423 -0.091659665 0.21536192 0.103200756 0.12295672 -0.12707323 -0.03862227 -0.12548955
2 -0.056084648 -0.10725281 -0.39728174 0.01978737 -0.033495966 -0.21482271 0.18775292 -0.058821086 0.11510146 -0.09927989 0.07741103 0.26601335 -0.06010298 -0.0010946715 0.134869 -0.21143258 -0.22239786 -0.24179353 0.26756394 0.073417336 0.025807448 0.15396798 -0.06390413 -0.035125002 0.1854747 0.07991725 -0.23598872 -0.088720955 -0.16128106 0.16020598 -0.09756816 0.10390553 0.03996279 -0.30251163 -0.08099684 0.023572136 -0.14006557 -0.0019445107 -0.14884116 0.3081385 0.24379371 0.11465038 0.099633 0.1281486 0.18795227 -0.39970747 -0.0015862235 -0.092089005 -0.114238404 0.0050948653 -0.25944135 -0.09836919 -0.097745314 -0.19173959 0.27972126 0.12704669 -0.11282952 0.17191604 -0.011109371 -0.11073907 -0.30113462 -0.09056827 0.19032378 0.031835243 0.05180858 -0.11528515 0.03615023 -0.40682662 0.0041397754 0.1807834 -0.32956174 0.19893114 0.028310949 -0.18282777 0.17668587 -0.0171997 0.08581441 0.025254784 0.02819525 0.08764638 0.38501096 -0.13953227 -0.22960965 0.043218553 -0.06374593 -0.06751422 0.086181596 -0.019172087 0.2766009 0.41868562 0.02356931 -0.12139648 0.025374984 -0.01871687 0.025880562 0.25617468 -0.19802001 -0.026737332 -0.2469806 0.051826652 -0.15544711 -0.19740589 0.005626252 -0.071048126 -0.0052945446 -0.1023614 0.13771279 0.08340456 -0.10672235 -0.13081145 0.046959765 0.22886756 0.052565526 -0.15042022 -0.07824516 0.14451256 -0.009904686 -0.06380508 -0.13797414 -0.021039767 0.1677093 -0.09195609 0.28883213 0.15062596 -0.06954664 -0.081900135 -0.28335562 0.21359089
679 -0.0055815573 0.1846074 -0.106776975 -0.084046684 0.06960856 -0.23558009 -0.08514456 -0.30946192 0.031223292 -0.21877304 -0.32950634 -0.0065150643 0.0666126 -0.048187204 -0.08948389 0.036922175 0.0762705 0.08429858 0.040905163 0.2917829 0.053698294 0.19547264 0.03193371 -0.123976015 0.17447947 0.13038695 -0.09172538 0.0806314 -0.113782674 -0.19470748 -0.10943249 0.11366275 -0.28769186 -0.09871106 0.20298493 0.034518555 -0.029231582 -0.051154394 0.32655436 0.09270515 0.14766972 0.024622392 0.07454781 0.34496018 0.058686774 -0.27077326 0.07361946 -0.14352523 -0.24135084 0.0629776 -0.087325945 0.08396352 0.15374556 0.21142527 -0.1959977 0.21275578 0.16200279 0.034645665 0.062092282 0.13342139 0.031169899 0.044856228 -0.04767913 0.15191218 0.19888066 0.09450928 0.10220286 -0.00011270495 0.022135824 -0.20637926 0.15192027 0.19236724 -0.20491251 -0.118163235 0.038792763 -0.17572455 0.089649655 0.09402111 -0.21341102 -0.010949129 -0.004211617 -0.02153924 -0.27161402 0.21816106 -0.11995159 -0.1700721 0.20930646 0.021023892 -0.08193144 0.2653292 -0.40815037 -0.02262622 -0.04755922 -0.121765666 0.1826051 0.042235132 -0.06639839 0.12084644 0.061297476 -0.35047072 0.10796013 0.13180584 -0.12613645 0.08264834 -0.10898312 0.19251256 -0.27947152 0.19640519 -0.34462765 -0.061856437 -0.02538534 0.19139494 0.26471588 0.008892147 0.10026327 -0.06668223 0.28667036 0.0954789 0.06314682 -0.23005907 0.016506113 0.015320407 0.16274722 0.04377933 -0.27027768 0.029690977 0.24555357 -0.07491771
5 -0.17947431 0.031486828 -0.30439344 0.12564115 0.09261312 0.09077794 -0.21014974 0.1742069 0.09472143 0.2778376 0.065249994 -0.11700694 -0.073730595 -0.09136707 -0.0987619 -0.45957252 0.108857855 -0.2645165 0.06393158 -0.068908535 -0.02731469 0.018211374 -0.5158127 -0.3335044 0.24882373 -0.052316148 -0.020263683 -0.0077114943 0.35771748 -0.0123160435 -0.13445786 -0.08588332 -0.18053736 -0.07195379 -0.14953016 0.02592569 -0.11681304 -0.014104103 -0.030060535 0.046684787 0.050541338 0.2760472 0.24238357 0.16919729 -0.003960947 -0.20515774 0.27276704 -0.195246 0.22483657 -0.21335226 0.21609965 0.042472776 0.24495119 -0.24969488 -0.07259009 0.15280014 -0.16675423 -0.050256312 0.40367863 0.3116423 -0.036172368 0.3445518 -0.039980646 -0.22319223 0.36112043 -0.19549371 -0.10834577 -0.01088227 -0.038650874 0.14261705 -0.15294304 -0.09598396 -0.29389936 -0.017061522 0.27110597 -0.37369895 -0.2825858 0.08329264 0.24391714 0.14841926 0.013233631 0.32971534 -0.25477338 0.074401304 -0.3071428 0.08524963 0.29986718 0.08694431 -0.4060745 -0.091513544 -0.26731685 -0.016403325 -0.24073981 -0.024290599 -0.01956128 -0.01748371 -0.02345279 -0.031459223 0.19073363 0.34763694 -0.0054837894 0.3414153 -0.20838551 -0.24143556 -0.25260752 0.16360046 0.025258418 0.06450412 0.02831981 -0.12565595 0.0076995767 0.3009525 -0.0073134364 0.031286947 0.072819985 0.23499501 0.12676565 -0.06709553 0.030395243 -0.103800856 0.2572091 -0.28820187 0.14152648 0.20590001 0.130475 -0.17433664 -0.05787594 -0.0688208
19 0.3540691 0.18541706 -0.042032335 0.06453765 0.025486598 -0.27426773 -0.049746465 0.12733805 -0.018698765 -0.18492559 -0.012983786 -0.12788193 -0.31248665 -0.0639177 0.16614771 -0.10352795 -0.20964052 -0.090569034 0.030337662 0.18818614 0.12205043 0.26519847 -0.25924438 0.35666627 0.138937 -0.021202307 -0.30105436 0.2246955 -0.062777534 0.09534184 -0.20566173 -0.1114456 0.039825514 -0.08397856 -0.08025358 -0.31159174 -0.44185853 -0.31710374 0.25858226 -0.030310279 0.1884747 0.15251122 0.07014391 0.086174525 0.30763862 -0.26912132 -0.0010701331 0.100101605 -0.074264295 -0.17470725 -0.21769147 -0.17003953 0.060608696 -0.047600012 0.43708876 0.10475836 -0.13865373 0.039765906 0.08883148 0.053130943 0.07862419 -0.30290347 0.06207814 -0.05834791 0.10480361 -0.38782075 0.23998094 -0.16218293 -0.30819282 -0.18455692 0.16889083 0.09388985 -0.02615743 -0.16403122 0.20409313 0.054914106 -0.073499 0.06468659 -0.27617794 0.056703176 -0.04002018 -0.022264924 -0.38868025 0.06750022 -0.054673895 -0.20296468 0.06750293 -0.022287855 -0.04557389 -0.011216369 -0.012794268 0.23810431 0.04747389 -0.16033158 0.14433973 0.1275079 -0.08275622 0.02472915 -0.23520283 -0.102659814 0.04623432 0.19156803 0.055857684 0.113375895 -0.27692172 0.16828896 -0.3395456 0.0048783603 -0.23989728 -0.4121293 -0.16484475 0.05233052 0.07682849 -0.095913604 0.17985843 0.009914796 0.08041696 -0.041867577 -0.13782717 0.14869133 -0.0298783 0.29381955 0.16903372 0.056476448 -0.3052694 0.0609374 0.038312327 0.05057637
48 -0.074099064 -0.073772125 -0.230574 0.043248646 -0.18445498 -0.19237642 0.09946385 -0.46840715 0.349634 -0.06901504 -0.07359715 -0.16805811 0.20293723 -0.41421527 0.25245395 -0.15041888 -0.073484056 -0.16596757 0.037179563 0.27273104 -0.11520374 0.19779472 -0.026434207 0.14624336 0.123171404 -0.1516739 -0.14800966 0.055422556 -0.09611769 -0.044535782 0.0786566 0.08525774 -0.19660293 0.038635228 -0.18081385 -0.2503908 0.09272683 -0.37385148 0.15248816 0.054391712 0.066986 0.28908893 0.07606252 0.25544208 0.17264831 -0.035601877 -0.1324164 0.017336022 -0.058191076 -0.06524525 0.1567378 -0.16285972 0.0452791 0.053169716 -0.16695955 0.048448272 -0.19523613 -0.10437293 0.25071442 -0.22292411 -0.17072326 0.24252798 -0.10219635 0.029400863 -0.09074672 0.019988013 -0.037192367 0.15954323 0.071192965 -0.030906664 0.50948966 0.18146193 -0.3757257 0.3145915 -0.09053854 0.036661364 -0.14394583 -0.10906408 -0.04177727 -0.025783505 0.34674883 -0.067574434 -0.32613963 0.06488449 -0.079583175 -0.23784217 0.13139133 -0.016419228 -0.09488288 0.101162985 0.022284372 0.06961961 -0.12355959 -0.13590762 -0.07753853 0.21661288 -0.02026697 0.19311364 0.026813352 -0.09258639 0.20207997 -0.07431679 -0.07734001 -0.026173385 -0.3977271 -0.0664953 -0.5292753 0.16038744 -0.34173352 0.11485862 0.19703768 -0.32252356 -0.011924806 0.0015235236 -0.08342159 -0.12753263 0.5889095 -0.08734491 0.024360923 0.047985222 -0.04909064 0.3142167 0.24052198 0.08998228 -0.42183617 0.096814945 0.13557418 -0.14021364
30 -0.3094616 0.15571845 -0.1256475 0.09028572 0.20585705 -0.24836981 -0.27252105 -0.16327107 0.21352011 0.07408316 0.18598942 0.36754432 0.029628368 0.16394459 -0.13751265 -0.1646177 0.049755722 -0.23969775 -0.060084246 -0.15216523 0.16621391 0.02352138 0.14501214 -0.1357748 -0.19273083 0.22154772 0.060907952 -0.066358164 0.16504613 -0.27810746 -0.47245392 -0.0766343 -0.4303485 -0.04344492 0.31537738 -0.3134454 0.035268992 0.017416943 0.087589376 0.18948509 -0.2342537 0.1582242 0.17459711 -0.0019041857 -0.15951608 -0.20688097 0.12251001 -0.021734193 -0.32406276 -0.042578187 0.0021221659 0.074223205 0.09014456 0.04483527 0.18645903 -0.22735924 0.35124344 -0.037319012 0.13989238 -0.094448715 -0.08136966 -0.10044044 0.049861602 0.040519107 0.15624885 -0.04306522 -0.053927433 -0.20910732 -0.09510659 0.09569344 0.007688384 0.030934518 -0.35119545 -0.10120872 0.15336004 -0.09509037 -0.110585146 0.08773136 -0.26025504 0.25127265 0.13078436 -0.2853459 -0.045509983 0.13267905 -0.22917561 0.16376393 0.16689244 0.49226785 -0.05415317 0.3026059 -0.018028852 0.18116964 -0.26300952 -0.16220069 -0.12439257 -0.24937877 -0.24750367 -0.19136883 0.020261819 0.010625486 -0.45719212 -0.20055285 -0.04617149 0.14592822 -0.21285062 0.16494146 -0.11537407 0.011392994 0.0382067 -0.19101547 0.03823621 0.110038705 0.12273369 -0.18663418 -0.18627699 0.15011506 0.07691459 0.14941517 0.16805762 0.032158885 0.055173703 -0.19209813 -0.035822816 -0.02204598 -0.08553425 -0.14009091 0.16508925 0.11826887
9 0.09154241 0.05583509 -0.06781212 0.14518319 -0.104844704 -0.005311107 0.00983223 -0.26541138 -0.046845604 0.0074765873 -0.06884577 -0.05296399 -0.007336424 -0.3934049 0.09660072 -0.16644359 -0.29063854 0.18576016 -0.10874305 -0.022599591 -0.014324153 -0.116341874 -0.21187085 0.019552372 0.20107476 -0.124938644 -0.56092423 0.109478556 -0.15691762 -0.2116886 -0.36493397 0.12072546 -0.19260229 -0.23710646 -0.11702175 -0.14880672 -0.41844937 -0.37553218 -0.16830163 0.021656698 0.10593572 0.29817986 0.05576154 0.1180968 0.01676294 -0.019572562 0.007144912 -0.13936816 0.118252106 0.10852928 -0.15467726 -0.080123216 0.18776914 0.21152684 -0.03521587 0.040734023 -0.0032147574 -0.058198802 -0.21029885 0.05977474 0.4841448 -0.18952554 0.017439427 -0.27115455 0.20060614 -0.23207368 0.17522828 -0.00062705524 -0.19791777 0.11868715 0.18143772 0.49667704 0.040201925 0.012978825 -0.14259462 -0.26213005 -0.19850236 -0.15285334 -0.01570262 -0.10602887 0.17239521 -0.0057151825 -0.16790307 0.20534852 -0.21967365 -0.328725 -0.19069979 -0.22135115 -0.054186106 0.27640104 -0.012409367 -0.18012446 -0.20589432 -0.111757085 0.3036711 -0.073248714 -0.33714432 -0.41128892 0.11711949 -0.2123765 -0.016537918 0.16142575 -0.25670916 0.1826136 -0.14606568 0.1392029 -0.15757768 0.105585605 -0.034227956 -0.2338622 -0.17872483 -0.14574775 0.038391206 -0.018650802 0.05144784 0.2623599 0.16164756 -0.25098482 0.10532982 0.0077863648 0.060204268 0.13800952 0.16910835 -0.19026142 -0.19068004 0.24967936 -0.10507597 -0.3103321
18 -0.06058825 0.1304474 0.0021717234 -0.07028939 0.046631936 -0.011530823 0.14805984 -0.41916913 0.03841767 -0.20208286 -0.007802563 0.036716603 0.12729216 -0.27498972 -0.1067442 0.0852057 0.055243973 -0.09579006 0.24853626 0.09990388 0.27656597 -0.14427078 0.06630298 0.27750495 0.3523289 -0.07549885 -0.27367118 0.21561909 -0.00698586 -0.05805008 -0.21244971 -0.017692791 -0.29756883 -0.018782828 -0.36511275 -0.019115318 -0.47824243 -0.27371326 0.08014048 0.21532874 -0.14476168 0.051241357 0.15028827 0.28128248 -0.068036035 -0.45030656 -0.14374413 -0.28935757 -0.03078171 -0.42669395 -0.13186769 -0.36675993 0.02560347 0.3498486 -0.1695142 0.1527959 0.18666923 0.20150076 0.10640915 -0.088811375 0.15620208 0.13465245 0.06260701 0.35453612 -0.13142234 -0.27084184 -0.28333578 0.053783976 -0.0726296 0.026778976 0.20401911 0.23204897 -0.01933715 0.083681785 0.08311213 -0.20356143 -0.26795855 -0.051782046 0.16564336 0.08084155 0.0862386 0.15379009 -0.21753068 0.20839913 0.34797496 -0.086590834 0.3125911 0.00031357925 0.31358898 -0.1634391 -0.19804683 0.05409669 -0.10064037 -0.13313219 -0.06477515 0.37873366 -0.35294276 -0.048905745 0.37843984 0.09877895 -0.012124501 0.07562366 0.13244326 -0.08259966 0.29819795 0.26218382 0.026698483 0.14019269 0.18318522 0.06273373 0.08551913 0.082013726 0.05035686 0.21032342 -0.19818267 0.16233432 0.09057109 0.057019122 0.016443977 0.21267211 0.013888605 -0.026601873 -0.4163418 0.11452466 -0.13371412 0.24462853 0.29859674 -0.23013839
103 -0.09089202 0.18760253 0.03253574 0.30442804 -0.30365327 -0.20698184 0.11812318 -0.38206384 -0.107113265 -0.02512607 -0.074942 0.15976395 0.08984801 -0.05899912 -0.059377965 -0.19955519 -0.045535855 -0.119924895 0.04260468 0.13761483 0.1873432 -0.027672155 -0.29606324 0.40266177 0.22486925 -0.27331823 -0.058344785 0.001451366 0.049130384 -0.019732425 -0.15631887 0.08909051 -0.22071527 -0.047204968 -0.079822935 0.20480263 0.04975633 -0.05116365 0.3140134 0.13122359 0.49547228 0.011816078 0.15303372 -0.20626415 -0.0059043188 -0.22334619 0.19004169 -0.030517343 -0.17519322 -0.24393117 0.18277144 0.02871963 0.24160945 -0.1869024 0.057200655 -0.028402256 -0.20627135 0.24695362 0.060209457 0.0023353347 -0.24396776 0.14441156 -0.0671634 0.38851213 0.04158634 0.040996626 -0.0968043 0.038420107 0.0046319366 -0.03305436 0.050492976 0.27619034 0.025953878 0.16036463 0.25877216 -0.06425122 0.36352637 -0.10076496 -0.07931591 -0.270609 0.13745974 -0.11202875 0.27207434 0.27589706 -0.011363212 -0.18570754 0.071025126 -0.22789788 -0.11577156 0.04708573 0.2688165 0.08658726 -0.4843758 -0.18313414 -0.14108431 -0.109218374 -0.3339741 -0.17087811 0.292197 -0.067529775 -0.17711587 0.15292475 -0.050900947 -0.094882295 -0.25021094 0.101793446 0.13476758 0.39719173 -0.18781082 -0.17238179 -0.10002617 -0.07602796 0.1833131 0.19808583 -0.08956835 -0.029504579 -0.003150297 -0.004708155 -0.023004362 -0.028177822 -0.1655061 -0.03143191 0.027842468 0.051717117 0.064416096 0.11198179 0.0574708 -0.17186575
52 -0.33073908 0.25178912 -0.3334684 0.09521958 0.15215275 -0.13013989 0.13549018 -0.14040898 -0.14419314 0.12042241 -0.052862786 0.28157035 -0.033326983 -0.039561577 -0.006757584 -0.35342517 -0.09404297 0.18479836 0.086178906 0.20532973 0.3466205 0.3185523 0.03946434 0.102525316 0.31561923 -0.12947513 -0.026827311 -0.1421853 -0.027508592 -0.027744312 0.115285605 -0.1915853 -0.14595085 0.055060603 -0.08389293 0.09485631 0.1636073 -0.14973746 0.089718655 -0.21336608 0.34639323 0.27346 -0.09314294 0.2754078 -0.028585829 0.068553366 0.17054488 0.13436936 -0.34609434 0.082277544 0.09492283 -0.13006394 0.09063021 0.020718453 -0.014684873 0.097149245 -0.02756688 0.13890006 0.15273885 -0.25370386 0.024869934 0.2246156 0.119668305 -0.14461695 -0.0030324354 -0.104223065 0.18728149 0.13236934 0.23375939 0.12372805 0.21797225 -0.025525615 -0.13774244 -0.0765725 -0.34409752 -0.046268195 -0.46331078 -0.18613577 0.18023916 -0.030536272 0.1842677 -0.15820767 -0.07370642 0.021923445 0.32418746 -0.02797014 0.15793584 0.17665473 -0.07805906 -0.13430618 0.1127347 0.027455503 0.11384747 -0.033693332 -0.26731357 -0.111731246 -0.46291217 0.06506588 -0.21901222 0.14615053 -0.24920905 0.1539901 0.058601126 0.24422714 -0.02065497 0.24876156 0.07640729 0.04241639 -0.06518191 0.007033077 -0.12034032 -0.003310543 0.3009848 -0.29593468 0.09471449 0.21432608 0.0082331225 0.16536668 0.3063613 0.10426935 0.2731846 -0.3022316 0.09782522 -0.29573265 -0.06814298 -0.44171906 -0.03266951 -0.102588765
7 -0.0008529066 0.030835427 -0.19690125 -0.2054703 0.14964424 -0.28554288 -0.20975745 -0.32174066 -0.046057746 0.18378472 0.12010845 -0.19322723 0.03738506 -0.022230966 0.16260903 -0.21518768 0.19334969 -0.34394115 0.18452582 -0.10879633 0.064616084 0.26998323 -0.2411275 -0.26563564 0.37873584 -0.021270406 0.24700217 0.21906494 0.058344323 -0.052568194 0.22959991 0.1765993 0.13433993 0.021107856 0.02404952 0.22025518 -0.049689114 -0.26519367 0.20230196 -0.09837433 -0.23178594 -0.026806237 0.33708382 0.22357483 0.10606485 -0.48843992 0.154405 -0.110473 0.038626797 0.27172768 0.14391182 -0.3200174 0.38512197 -0.30014583 0.12437731 0.16403212 -0.1636418 0.001714088 0.44942567 0.24610402 -0.4312324 0.22672132 -0.014596555 0.04454717 0.1718063 0.051459096 0.19469446 0.066790834 -0.0043117646 -0.06358293 -0.13752234 0.12846316 0.061307795 -0.0012394756 -0.26576874 -0.055009328 -0.2647385 0.121800356 0.015638547 -0.07143395 -0.038812835 -0.015068651 -0.45359963 0.2368702 -0.39552692 0.07921203 -0.07228547 0.06290803 -0.1925872 0.31792286 0.08029571 0.25779912 -0.27257895 -0.07474211 0.38142234 0.052221574 -0.3668469 -0.30187464 0.17089358 0.02467006 -0.060822405 0.17633837 -0.21025592 0.10831609 0.016144754 -0.028062034 0.2838041 0.007414893 0.22250429 0.3500564 0.07917757 0.44070676 -0.19253209 -0.05529042 0.15738672 0.47941983 0.2665843 -0.110159226 0.019485535 0.3575534 0.22803774 -0.104648545 0.22159007 -0.062344138 0.08885627 -0.32165724 0.06354008 -0.09563639
147 -0.016456572 0.232064 -0.077802345 0.13999183 0.090241075 -0.11892263 -0.10040198 -0.11694727 0.11850471 0.05308097 0.09648198 -0.0044539967 -0.06869374 -0.080564804 0.071325324 -0.1195317 0.08104138 -0.031384267 -0.21724513 0.24253285 0.022066576 0.14293632 0.050243936 0.094493635 0.19320422 -0.18392706 -0.09778732 0.22445099 -0.112224005 -0.1853306 -0.21080187 0.076692075 -0.43001807 0.09301188 -0.21977374 0.08872972 -0.04421406 -0.121398725 -0.2676251 0.070581295 -0.061675604 0.09953262 -0.0016647906 0.024727551 0.19415376 -0.21015978 -0.1378858 -0.11078076 -0.14008331 -0.14342734 0.006976464 -0.09391551 -0.053739086 0.011961326 -0.04652002 0.16721068 -0.010860713 0.13584481 -0.07972253 -0.2437507 -0.07720172 -0.028368277 0.14327458 -0.08894474 0.3964 -0.16027518 -0.17953199 -0.07630136 -0.21388412 0.15180603 0.33595052 0.19422181 0.014989834 0.039885003 0.032265216 -0.33282223 0.10368623 0.1545419 -0.08110468 0.16027457 0.20362721 -0.0098246755 -0.24230444 0.01374632 0.12124623 0.028685272 0.2136359 0.06489691 -0.051279433 0.1032291 0.09223293 0.078028865 -0.010209116 -0.028587224 0.009658413 -0.044976942 -0.16107568 -0.17488733 0.49087685 -0.23641434 0.035412375 0.13732009 -0.13065517 0.088154405 -0.08606393 0.036290616 0.1316139 0.43819222 0.03096884 -0.10730086 -0.056294072 -0.25158435 0.18007866 -0.20294619 0.01776055 0.1872694 -0.10123715 0.2606493 -0.190036 -0.023236673 0.26931575 0.36871782 0.07819036 0.07810194 -0.1309397 0.10268429 -0.14866441 0.17031524
17 -0.0065651042 0.14175588 -0.20846684 0.111183316 0.0071577514 -0.061894916 0.14694275 -0.12823811 0.22584009 -0.16683921 -0.026821384 -0.15019572 0.109408185 -0.09961388 -0.09850023 -0.45471025 0.057017215 -0.22189131 -0.18893227 0.17439851 0.030160079 0.010311638 -0.20163685 0.12425687 0.42679113 0.0025008167 -0.10304925 0.09753353 -0.19683889 0.040829945 0.1823242 0.18152541 0.21838085 0.015883218 0.1447878 -0.06443553 0.117812954 0.39585888 -0.13695541 0.3143554 -0.32993042 0.27865368 0.14007594 -0.17876075 0.24422348 0.11504601 0.30942085 0.1542734 -0.3176855 0.046507273 -0.068781815 -7.493011e-05 0.19431046 0.035017494 -0.00472307 -0.12034743 -0.13424426 -0.081722476 0.22473927 0.04357288 -0.073820435 0.03079968 0.34523273 0.124443516 0.015546724 -0.049243283 0.061414424 -0.07784539 -0.32161894 -0.120652705 -0.017650127 0.45603824 -0.28769207 -0.09697842 0.23932496 0.105714045 -0.2251685 -0.25456467 -0.098426394 -0.27229434 -0.028724274 0.02540406 -0.029510763 0.014514738 0.1496286 -0.005621576 0.448632 -0.1487306 0.13210069 0.07069051 0.037722457 -0.10527857 0.05251149 -0.12527229 0.24869397 0.21086915 -0.30092472 0.07118885 -0.04018653 0.038414467 -0.18793999 -0.16024503 -0.18167129 -0.12692533 -0.20241702 -0.23598441 0.0014539792 -0.08507246 -0.1224098 0.22719325 -0.186275 0.14909235 -0.06513337 -0.34415746 0.018217633 -0.004331751 -0.09087801 -0.2836872 0.13405286 -0.06350153 0.18209508 -0.0012382997 -0.117765866 -0.121665835 -0.24970087 0.17721306 0.0063795573 -0.20508306
11 0.20204934 -0.2019837 -0.39361197 0.04592167 0.050300032 -0.11590409 -0.1407128 -0.019577181 -0.14244132 0.014896217 0.023215719 -0.19263478 -0.06863564 0.283078 0.1494638 -0.33189586 0.1730078 -0.18801832 0.037649978 0.036702104 0.16062953 0.378717 -0.27283922 0.072325274 0.3011418 -0.30748227 0.11914232 0.24723144 0.06864382 0.2994054 0.13486634 0.18712151 -0.07610036 -0.11766997 0.26570916 0.08113798 -0.07802524 -0.112912424 0.16208377 -0.2079639 0.18659073 0.1495907 0.23476276 0.294342 -0.14919579 -0.39783457 0.26446304 0.09996003 0.08864154 0.22626992 0.07328898 -0.182417 0.2602411 -0.14951682 0.22435656 -0.19299117 -0.01987154 0.028033195 0.32888597 0.27582386 -0.54026705 0.17939623 0.16250366 -0.05119942 0.2544283 0.038373012 0.17345625 0.10883573 -0.28429788 -0.21847568 -0.085275084 0.03605527 0.08471868 0.030482331 -0.10680688 0.005181124 -0.27786535 -0.05851777 0.20279019 0.4315715 0.18215458 0.08971592 -0.45866466 0.3545894 -0.29406035 0.15636909 0.16749628 0.043592893 -0.23280843 -0.016259152 -0.19472049 -0.039460037 -0.33790225 0.036191013 0.37639895 0.053078897 -0.48231888 -0.29283646 0.26438847 0.31513727 -0.020327223 0.36416543 0.14259812 0.16887139 -0.019742994 0.1583298 0.035289202 0.3650637 0.29779884 0.2646483 -0.021789692 0.52241963 -0.17846178 -0.25054657 0.25346434 0.24891777 0.03770237 -0.25092447 0.15874493 0.42654097 0.40530196 -0.076540075 0.18053567 0.18217482 0.17713474 -0.29071552 0.0030561024 0.008736487
204 -0.04059658 0.17305832 0.04123704 0.31284657 -0.3286817 0.12051426 0.059217393 -0.08189158 0.033683103 -0.010020025 -0.13895237 0.29621908 0.16548215 -0.36739752 0.18735383 -0.08548985 -0.083553284 -0.08989234 -0.12588565 0.065443724 0.08018244 0.41911733 -0.096685894 0.2951658 -0.06493048 -0.08674502 -0.11925407 0.22828667 0.04107068 -0.21433733 -0.25537398 0.26429564 -0.06961071 -0.12548064 -0.07282949 -0.09761659 0.14233136 -0.22972822 0.006974214 -0.17153007 0.21915893 -0.019076945 0.007981114 0.14968878 -0.038210884 -0.3948314 -0.31491616 -0.14709367 -0.31718522 -0.016194973 -0.075420894 0.06046212 0.047031764 -0.06088866 -0.14407681 0.008574191 -0.18161991 0.3714308 -0.1370753 -0.19375019 -0.009478651 0.2760579 0.10847065 -0.00827836 0.046629123 -0.03969667 0.14570852 -0.21850961 0.07564002 -0.11801001 -0.18763001 0.17437951 -0.18392132 -0.03530123 0.10041885 -0.2645472 -0.15689653 0.114607394 0.15549569 -0.08773919 -0.06949222 -0.13253847 -0.20739873 0.1332388 -0.02095928 -0.11579516 0.14352657 -0.20465666 0.0026539764 -0.07909049 0.33186117 -0.23647138 -0.031996377 -0.11735363 0.0013948106 0.19865268 -0.08588954 -0.16134913 0.1937286 -0.15522462 -0.34345734 -0.047913484 0.0006621329 -0.20696075 -0.09979955 0.031671245 -0.07948279 0.072218195 -0.21806404 0.040807728 -0.07830971 0.28717798 0.20117086 0.06789013 -0.08001017 0.06600979 -0.15836312 -0.07653846 -0.066063866 -0.07435022 0.31656823 -0.103619345 -0.100403346 0.16780853 -0.10585074 -0.010209907 -0.12447529 -0.10663983
64 0.18501145 0.13384402 -0.10841738 0.09963128 -0.1033326 -0.16498388 0.27059248 0.06768367 0.32655165 -0.13578568 0.042712525 0.39793187 -0.019006811 -0.20175956 0.0722357 -0.2451592 -0.25568372 -0.07152135 0.116740145 0.13048083 0.15540363 0.21754993 -0.08104087 -0.08977867 -0.16143626 0.005924436 -0.16670498 -0.049021646 0.42703056 0.04817876 -0.3779413 -0.0826443 -0.089074895 -0.025059246 -0.0035974255 -0.29596713 0.36543497 0.08717034 0.048355248 0.11750557 0.20372795 0.17419699 -0.14219736 0.19389722 -0.008066897 -0.044195287 0.1742103 0.13278565 0.07190553 -0.09856081 0.38735396 0.108724065 -0.03336203 0.13497631 -0.055031743 -0.1501631 -0.055354558 0.19232199 0.037755676 -0.26346716 0.17780454 -0.11798326 -0.02733658 0.13371947 -0.03799904 0.06712526 0.06870701 -0.09270943 -0.0025050316 -0.05489475 0.24138778 0.071079664 -0.30442435 0.003779479 0.000148797 0.015689477 0.16426365 -0.1039858 -0.07324423 0.1684142 -0.10918321 0.13643564 -0.1933247 0.2237533 -0.042794265 0.20340395 0.3106209 0.19740242 0.12786327 0.17705221 0.03980548 0.08937069 0.25762796 0.1895908 0.1276983 0.22608955 -0.01833089 -0.16219205 -0.00943352 -0.2868817 -0.3043418 0.3513744 -0.16931048 0.13764529 -0.40785813 0.36094904 0.21593902 0.2383865 -0.0010870596 0.048050858 0.101860896 0.5152268 -0.015152847 -0.37728268 -0.2386607 0.37177774 -0.08979364 -0.09847749 0.03303305 0.018915758 0.2594121 0.19659588 -0.046334025 0.003154591 0.2613966 0.07911804 0.4598163 0.0604063
889 -0.014622217 -0.14360309 -0.043251395 0.22243474 0.1113692 -0.343524 -0.10000019 -0.050267212 -0.15299025 -0.01707853 0.11220508 0.053059112 -0.0642499 0.13337135 0.3139407 -0.03706528 -0.06959907 -0.20279115 -0.13442145 0.034077473 0.053789455 0.057160992 -0.2023551 0.21739568 0.20691583 -0.16611354 -0.019244999 0.16841224 -0.024794843 -0.459203 -0.27566257 0.0028538334 0.18461785 -0.032796588 0.030545667 0.12047904 0.07693218 -0.09154555 0.072333865 0.047158785 0.23800479 0.117311895 -0.08138903 0.28039002 0.13430832 -0.121028684 -0.14967227 0.0021384186 -0.15486048 0.025854774 0.034426637 -0.5498392 0.12754834 0.045034554 -0.0538431 -0.023163375 0.259589 0.08649837 0.100600414 0.14195226 -0.15906286 0.36171657 0.117606 -0.019430162 -0.03793079 -0.13210168 -0.01968711 0.0076582464 -0.10232853 -0.31800607 0.1260056 0.198051 0.036797363 -0.046262506 0.28997943 -0.3081789 0.22390549 -0.36222976 0.073173486 0.051561866 -0.14219616 0.3208206 -0.25741532 -0.12287146 0.01101774 -0.15254356 0.10230296 -0.11314088 0.18391071 0.37268826 -0.0009423793 -0.14579539 0.042272847 0.120131314 0.2619526 0.30495018 -0.011717031 -0.053458463 0.11687657 0.033809718 -0.25604197 0.21207958 -0.029169599 -0.08725499 -0.0018392194 0.116441734 -0.053527806 0.04681376 -0.1198974 0.072966054 0.19619147 0.15845294 0.08532877 -0.008397786 -0.0858512 0.15695131 0.4440769 0.20030536 -0.054334737 0.22197185 0.30260247 -0.27615845 0.05743838 -0.091195 -0.28716668 -0.026217956 0.14986539 -0.14318202
4 -0.31733087 -0.08887192 -0.56125456 0.33440733 0.14241709 -0.037208945 -0.29254723 0.23580027 -0.071041636 0.26107717 -0.0013523464 -0.064241834 -0.24208245 -0.1749747 -0.22496335 -0.2757443 0.18529858 -0.14477651 -0.03469541 0.14727856 0.14830127 0.08089066 -0.41073376 -0.48850012 0.21719792 -0.024663823 -0.40005606 -0.114429384 0.4753951 -0.01127959 -0.24637423 0.05515021 -0.02761866 -0.020846117 0.017101211 -0.27209088 0.15153283 -0.054086752 0.032524418 0.013650786 -0.072728336 0.25464827 0.1765726 0.2859069 -0.0067336215 -0.30611312 0.10007077 -0.20982431 0.32004893 -0.060544513 0.19213668 -0.11036087 0.5029955 -0.23563601 0.22106966 0.19554013 -0.1514101 -0.051813543 0.107347205 0.19816409 -0.2031155 0.041627117 0.21222301 -0.0016878559 0.39393118 0.051675666 -0.085995935 0.18491267 0.075204335 0.088016674 -0.1297878 -0.021346118 -0.09435476 0.06351 0.15425582 -0.3449279 -0.2371487 0.0505458 0.18976493 0.29477814 0.07071125 0.25932863 -0.13904947 -0.09418037 -0.14945683 0.045942355 0.41898242 0.08750371 -0.47769505 -0.30971858 -0.2211432 0.022961779 -0.45814356 -0.099919856 0.012895521 -0.09402374 -0.07162509 0.013149927 0.0608483 0.22047623 0.021746991 -0.047012333 -0.24258313 -0.079633795 -0.27056202 0.0918702 0.060317148 0.3088659 -0.08787717 -0.07583455 -0.021494782 0.28472775 -0.04683669 0.22128688 0.23280323 0.3495618 0.040493928 0.029127806 -0.12827583 0.19891822 0.2855562 -0.065652266 0.043818876 0.21378075 0.14358178 0.008325827 0.009587871 -0.16658574
13 -0.071015455 -0.11195625 -0.04780292 0.034108866 0.28252277 -0.08218658 0.4846656 -0.27295908 -0.20804246 0.027133929 0.11945189 0.041947126 0.2688264 -0.3983499 -0.20932195 -0.05457385 -0.021590272 -0.23623995 0.3414746 0.35107884 0.46576703 0.091290824 0.06603239 0.27751353 0.373785 0.04339745 -0.12347697 0.058054473 -0.0037496279 -0.23300742 -0.17077266 0.05951396 -0.29735816 0.32445034 -0.27679235 -0.18834683 -0.28042528 -0.29496017 0.08763611 0.34311867 -0.13704176 -0.06524258 0.24071528 -0.064576045 -0.17751151 -0.3895477 -0.15831704 -0.10957253 -0.0015712574 -0.42130822 -0.20182124 -0.3333315 -0.02729584 0.19149017 -0.36601233 0.27636534 0.25538662 0.16860579 -0.03850253 -0.24302594 0.042848162 -0.099481195 0.043528885 0.41246393 0.08323626 -0.31095448 0.054895923 -0.041195028 0.051825766 -0.043202724 0.16170053 0.41675237 -0.029353525 0.08007733 -0.086914904 -0.12414879 -0.13405545 -0.16870008 0.15686429 0.1748292 0.18840249 -0.07219903 -0.2887359 0.24250011 0.1953156 -0.024388388 0.21182849 0.12668492 0.29702026 -0.34880805 -0.21677162 0.055840906 -0.1912093 -0.06629279 0.12441169 0.20411779 -0.18193597 -0.087784246 0.3896441 0.08825758 -0.22462606 0.17398322 0.011888329 -0.17418922 0.24006104 0.37740925 0.089449495 0.31695876 0.3388076 -0.18595307 -0.22539084 0.12680848 -0.1240769 0.23668924 -0.3032655 0.020413456 0.16636027 0.09455193 -0.18538296 0.3396848 0.23853719 -0.17233837 -0.32167384 0.104545705 -0.24942972 0.089319125 -0.014309688 -0.3444454
236 0.08852036 0.1418407 0.217817 0.14043617 -0.29270104 -0.13253917 0.08633631 -0.16382946 0.003432944 0.011568032 -0.03990113 0.02905385 -0.1821861 -0.19458513 0.16743408 -0.013850056 -0.08229767 -0.035130322 0.024539614 0.15838508 0.026974553 0.36657587 0.0019043242 0.2658746 0.029370384 -0.36441785 0.12694582 0.15211053 0.056034993 0.061720535 -0.13118291 0.2010937 -0.17569846 -0.31049594 -0.09603391 0.063418485 -0.046318248 -0.0972082 0.05125103 0.3452467 0.15762646 0.04653664 -0.12379414 0.05308683 -0.13151391 -0.28200522 -0.2045709 -0.12837897 -0.32379863 -0.01672803 -0.069389805 -0.10974575 0.29137278 -0.09752732 -0.099968255 -0.07843332 -0.2620116 0.17578422 -0.03647507 -0.089029536 -0.11934329 0.18085545 0.040174846 0.22922555 -0.17997783 -0.019762833 -0.25661904 0.0752617 -0.13233584 -0.17461899 -0.020385118 0.2761916 -0.15676242 0.16703431 0.5323112 -0.3416435 -0.0009350827 -0.21023247 0.06242796 0.011678605 0.25554454 -0.2424437 -0.14406316 0.20508233 0.13312522 -0.23092231 0.15727209 -0.36234826 -0.006468893 0.058506615 0.3448318 -0.1692947 -0.27720544 -0.1544562 -0.20591444 0.11055646 -0.16039653 -0.13520859 0.16367562 0.12592909 -0.026958374 0.1670458 0.010954253 -0.18995158 -0.18699166 0.09415096 0.06565325 0.3321105 -0.3065005 0.16355506 0.107335985 -0.029207174 0.06848073 0.11946536 -0.015263749 0.11641873 -0.023959693 -0.09757425 0.056888353 -0.03002584 -0.051751647 -0.12938698 -0.11814421 0.15391748 0.11779305 0.008343771 -0.16253185 0.021073502
562 -0.045776576 0.02279652 0.058687065 0.21642277 -0.017531373 -0.3225062 -0.24317166 -0.35454392 -0.20641477 -0.000524977 0.015956072 -0.035017326 0.022670815 0.028280025 0.25222805 -0.009065478 -0.096080825 -0.30550987 -0.13772164 -0.09013708 -0.0039560106 -0.13166143 -0.21047427 0.24515662 0.25012612 -0.17731519 0.007066821 0.15833454 0.14403184 -0.4403808 -0.114419445 0.16653039 0.042270277 -0.05527185 0.056991562 -0.00072940014 -0.0566631 -0.32052848 -0.12787504 0.48214 0.0505257 -0.0004396414 0.13484631 0.12411414 -0.017591706 -0.20794205 0.045930285 -0.024126917 -0.15018812 0.086838104 0.028376428 -0.53927076 0.22225824 -0.25469455 -0.028429871 -0.12964483 -0.18208137 0.04431323 0.08035682 0.1153458 -0.11892106 0.2685216 -0.07434841 -0.20195247 -0.09192395 -0.07306658 -0.008990257 -0.262592 -0.15887511 -0.117318645 0.122502856 0.24868244 0.045612242 -0.01837992 -0.14062116 -0.16568731 0.00507684 -0.3385002 -0.21260524 -0.014252333 -0.12825538 0.24372831 -0.12511939 -0.42024183 -0.14026497 -0.09055722 0.20948565 0.17536482 -0.11486491 -0.13395041 0.29475233 -0.12032809 -0.001044951 -0.024559941 -0.0777215 0.49464688 -0.19319111 -0.020116122 0.39599776 -0.16288392 -0.009217248 -0.033084847 -0.06671323 0.07368886 0.026636979 0.41654626 0.08383613 -0.023470348 8.932106e-05 0.03731469 0.22286496 -0.07055957 0.100291334 0.07587947 0.17755671 0.15699549 0.3239679 -0.03684183 -0.08856512 0.16560502 0.14271735 0.021764219 -0.04276762 -0.115630165 -0.043543126 0.05313641 -0.037117466 -0.14184807
155 -0.11275924 -0.06592777 0.084561154 0.28406563 -0.23516446 -0.018580873 -0.0052242684 -0.22373746 0.17661087 -0.3714945 0.14497247 -0.18766533 0.0660581 -0.19838214 0.07873677 -0.03307842 0.078374624 0.07395542 -0.038479075 0.14490055 0.29225555 0.14038262 -0.13650084 0.008989663 0.6037084 -0.14087638 -0.39013562 0.35655102 -0.30300975 0.09528091 -0.13418953 0.2715138 -0.16377153 -0.28672987 -0.029791975 -0.14595047 -0.04607312 -0.23719108 0.027593782 0.04902576 0.042229176 0.022102145 0.15245806 0.0073513645 -0.16028166 -0.11803349 0.009947825 -0.063468434 0.060864024 -0.092565484 0.2864387 -0.1434341 -0.14541896 0.32093292 -0.1809302 -0.09808779 -0.0116790375 0.30183056 0.2167249 -0.16158268 -0.14423475 -0.08695894 -0.14906171 -0.09378863 -0.23231669 0.053069107 -0.035588767 0.24081324 -0.259528 0.111959726 0.27393234 0.03760583 0.20606087 -0.10186227 -0.18671548 -0.23798712 0.006219136 -0.058384374 -0.12520152 0.071848236 -0.089843296 -0.12961599 -0.13494094 0.15491343 0.030582897 -0.15008637 0.24908069 0.11178108 -0.14558442 0.1373779 -0.19086835 0.16699743 0.13114235 -0.18792348 0.17442279 -0.09019981 -0.42662033 -0.16268724 0.1783749 0.2086085 -0.10010023 0.05671939 0.14157215 0.0004981681 -0.07427322 0.04065943 -0.036501672 -0.036818795 -0.23424362 0.053633004 -0.032026544 -0.0076678502 -0.09805092 0.02285178 -0.31463313 0.34455332 -0.06983089 0.2638699 -0.016394848 -0.006490083 -0.066135876 0.013964156 -0.11125992 0.05495714 -0.15645808 -0.014321245 0.1491362 -0.37407154
57 0.34466687 0.54432064 -0.053901356 -0.449726 -0.15569946 0.04525776 -0.3745759 -0.103293225 0.2677316 -0.29187822 -0.10182942 0.011277936 -0.11522899 0.15821813 0.15441775 -0.153575 -0.0028914923 -0.27769712 0.26685098 0.073943436 -0.15772921 0.3004818 -0.012485524 -0.039816897 0.11894627 0.08832642 0.014148323 0.22271286 -0.0040094117 0.02853332 0.03460015 0.06345513 0.10037026 0.28062975 0.008185064 -0.30119172 0.2610082 -0.3297595 -0.01570495 -0.13721938 -0.12325414 0.25451314 0.20826976 0.3162231 -0.04797661 -0.047106445 0.53246206 -0.043799505 -0.16818573 -0.05367064 -0.13573797 -0.09398156 0.3699772 -0.15969977 -0.39956024 0.0946078 0.14578605 0.04348564 0.1510351 -0.1865722 0.113086954 0.036858212 0.22197235 -0.17549106 0.16440158 0.07642666 -0.10167573 0.07979044 0.26751924 -0.21056195 0.18106097 0.17542286 0.24508733 -0.20192966 -0.27462488 -0.25880688 -0.09681082 0.29584405 -0.033831455 0.11899075 0.04840913 -0.23418629 -0.117884226 0.26467535 -0.581271 -0.245747 -0.022930233 0.009227677 -0.08757779 -0.09927166 0.18571453 -0.026819495 -0.31438664 -0.044373088 -0.08853348 0.05523857 -0.13420163 0.0446741 0.12771983 0.28367934 -0.32819754 0.087958105 0.20431311 0.08602886 -0.02976259 0.02091204 0.24118601 0.089814186 -0.2643732 0.096807055 0.11162464 0.030434893 0.18233138 0.13444796 0.09515718 0.21822631 0.027548565 -0.16663845 -0.17765751 0.12869693 0.24515395 -0.23858811 -0.010455086 0.16374378 0.091146946 0.2780339 -0.11053774 -0.248153
230 -0.16876036 -0.033724423 -0.24136838 0.18006499 -0.088600844 0.1579575 -0.024144668 -0.15627724 0.2703071 0.058694374 -0.29403085 -0.02449066 -0.35355952 0.009375087 -0.17644696 -0.329388 0.15695222 -0.39922988 -0.107811525 -0.0031550745 0.1591121 0.40232572 0.0696738 0.15806462 0.010401623 0.094967574 0.04611007 0.11909721 0.043885358 0.21091165 0.3155768 0.077040635 0.08836163 -0.12642346 0.27053413 -0.17743888 0.1379198 0.055023972 0.33182716 0.1404123 -0.17293592 0.15784973 -0.058112945 -0.06327158 -0.14580983 -0.093464226 -0.017789172 0.076284274 -0.08563725 0.058734432 0.2202496 0.2711242 0.28826588 0.108054794 -0.04797193 0.36003944 0.18893895 0.293618 0.032770786 -0.14903095 0.013695989 -0.041847963 0.07840499 -0.043787234 0.15210885 -0.120035425 -0.04738307 0.08564849 0.039887264 -0.10754141 0.14088003 0.016615331 0.0028368765 -0.2866381 -0.0060462467 -0.06637272 0.062281374 -0.29635805 -0.13381223 0.08482237 0.17219074 0.23892947 -0.10947204 0.14157465 -0.14224602 -0.23363125 0.23801267 0.37656236 -0.024708021 0.28866217 0.26139417 0.17128219 0.011311458 0.05135049 -0.010524547 -0.025729302 -0.20746669 0.00325551 0.21301927 0.044316385 -0.32722855 0.013313532 -0.4072829 -0.07301717 -0.2359119 0.030713303 -0.07906802 0.14572394 0.08455016 0.27237043 -0.4468467 0.09692899 0.09534918 -0.28535208 0.1577023 0.33267286 0.36623755 0.049731076 -0.09206433 0.15605672 0.091774695 0.11067314 0.16902594 0.026744178 -0.24800661 0.055411164 0.040910587 -0.07548141
315 0.23336576 0.10365525 -0.0051076077 0.16167788 0.02802075 -0.040997695 -0.16519356 -0.5149041 -0.13718754 -0.12594263 -0.040812444 0.06852444 0.09070085 -0.15347058 -0.15716495 0.1220981 -0.15305026 -0.3124037 -0.24409674 0.13753368 -0.08263971 0.15812618 -0.07504026 0.16163254 0.3928579 -0.21220289 -0.21196802 0.07002683 0.10726629 -0.030583983 -0.3660985 -0.12296197 -0.2022408 0.0834316 -0.24479632 -0.1428201 0.07486877 -0.32083973 -0.027326807 0.40907308 0.051825915 -0.095529266 0.18962997 0.30271816 0.2334094 -0.2892966 0.13316013 -0.047163595 -0.22313912 0.21294218 0.30706704 -0.33624798 -0.016296115 -0.076480225 -0.0026364182 0.19265026 -0.14135276 -0.29232463 -0.0025006167 -0.023136232 0.1190976 0.21744052 -0.17111827 -0.002723375 -0.058723472 -0.021969788 -0.10069221 0.10707377 -0.17071033 0.045787986 0.33330187 0.0937248 0.022354594 0.20667769 0.33569372 0.13874806 -0.035381384 -0.15920116 -0.0712065 -0.15900494 0.266364 0.03287173 0.106343076 -0.11938794 -0.00441823 -0.2919322 -0.084715165 -0.117694266 -0.0887646 -0.08001798 -0.23012464 -0.15370665 -0.15026411 -0.22709875 0.2097833 0.20120025 -0.13442777 -0.09200304 0.012021648 -0.1557313 -0.07619506 -0.0404222 -0.029982278 0.029920207 -0.19899686 -0.039137363 -0.0068325833 0.09923638 -0.029068744 0.03454821 0.057395365 0.04248929 0.23072377 0.05646619 0.022382919 0.48064664 0.2282276 0.18102728 0.040209275 0.19251667 -0.23026541 0.13066095 0.024515662 -0.034344815 -0.42500982 0.07124712 -0.0236358 0.24279357
328 0.26943028 0.18883567 -0.20865841 -0.002574605 0.0054559256 -0.04364872 0.11837292 0.09562009 -0.039741706 -0.19526297 -0.07975746 0.07575899 -0.2079987 -0.08538332 0.2923769 -0.25449812 -0.03655474 -0.33935854 0.07674841 -0.20945708 0.3973911 0.14317049 -0.16979542 0.11307348 0.14558907 -0.18187438 -0.24687494 0.011387076 -0.08925109 0.08654606 0.29067975 -0.089093655 -0.28987402 -0.30537993 0.0760975 -0.20661224 0.07272307 -0.26934078 -0.15719591 0.03549148 -0.038414463 -0.056810953 -0.080630966 0.20167765 0.14573283 0.031297643 0.03090242 0.050138433 -0.3095559 -0.26597327 -0.06423438 -0.119362704 -0.018236987 0.1408945 -0.22133017 0.0010568743 -0.06890008 -0.12968692 0.16851364 0.16016775 -0.091647826 0.010349508 -0.049613774 0.038061555 -0.3118807 0.10071548 0.09048483 -0.2568423 -0.06518805 0.34306923 0.032685857 -0.045433592 -0.0683844 -0.085651964 -0.006496793 -0.055036362 0.065795355 0.083308965 -0.29978418 0.07922447 0.10388932 -0.15812172 -0.098086275 0.05796306 -0.018397385 -0.11590647 0.19805339 -0.16134915 0.23089838 0.012090608 -0.16237843 -0.15851532 -0.17849569 -0.24491584 -0.20554464 0.12613574 -0.49915132 0.107377104 -0.043620873 -0.0038806815 -0.13619043 -0.20965965 -0.19537398 -0.012633873 -0.2545316 0.033406228 -0.17543148 0.011904183 0.08488472 -0.17364068 0.14773151 0.33546758 0.2056679 -0.010488971 -0.10833721 0.14914995 0.06870839 0.39043456 0.1423054 -0.049444225 0.30324703 0.23280647 -0.14452673 0.26084915 -0.09369693 0.21021122 0.13523991 -0.104909375
373 -0.17143215 -0.005010284 0.017030528 -0.1988499 0.016506864 -0.13630208 -0.06682096 -0.10850334 0.043106616 0.23394045 0.2086204 -0.17331068 -0.08140644 0.1768813 0.11391043 -0.4453576 0.046044707 -0.35834965 -0.16059212 0.26618344 0.14330374 0.10396231 -0.1546249 0.24391748 0.29587683 -0.09529295 -0.13007444 0.26356587 -0.22526172 -0.119783565 -0.09998338 -0.011286561 -0.0911155 -0.24094304 0.20386511 0.017440686 0.105273485 -0.17679365 0.06418561 -0.23597135 0.1194698 0.1474489 0.26631042 -0.013923726 -0.16553248 0.022022827 0.05971084 0.05803582 -0.2326576 0.003403541 0.22718267 -0.08362672 0.2516783 -0.036221836 0.24972948 -0.16919748 -0.27932787 -0.14714296 0.08844878 -0.098386034 -0.28104016 0.14429033 0.056610182 0.03663935 0.24161541 -0.29039857 0.03278468 -0.092455015 0.1932158 -0.103039004 -0.19249433 0.115686625 -0.26483336 0.122926 0.030316291 0.17019148 -0.06848958 0.17500468 -0.11895376 -0.0039584427 0.018233946 0.17200436 -0.1975733 0.2246905 -0.30336922 0.0007003031 0.2599631 0.39634278 0.18672296 -0.01772468 -0.27327657 -0.06695154 0.082616046 0.28873032 0.17098452 0.31911722 -0.19115321 0.31267428 0.23850709 -0.09540471 0.1571282 0.21309862 0.05295729 0.043065596 -0.20134436 -0.22773023 0.20931217 0.07286358 -0.09048302 0.12450911 -0.12805574 0.121727236 -0.39982367 -0.10409622 0.37605506 0.18187286 0.26476172 -0.019886488 -0.24452618 0.008727527 0.1755859 -0.2831151 -0.019297658 -0.034520086 -0.01364071 -0.24373744 0.02701702 -0.09721881
6 0.07948456 0.050527386 -0.1711008 0.42289326 -0.2539015 0.07857328 0.16933836 -0.29185048 0.009376172 -0.15431821 -0.039756007 0.41714188 0.20955336 -0.25699097 -0.14913552 -0.29177552 -0.166735 -0.19441514 0.23331964 0.23524287 0.070163354 0.22158645 -0.27131614 0.1273915 -0.46680692 0.06662363 0.07853117 -0.014502506 0.18851799 0.25045368 -0.3462072 -0.052648976 -0.13570833 0.048419315 -0.017403409 -0.22165751 0.15248108 0.32836127 -0.05240521 -0.08074194 0.12124627 0.13333127 0.007256067 0.4726207 0.021160638 0.06336886 0.2075845 0.34730932 -0.047338773 -0.309069 0.05524004 -0.06762192 0.005014322 -0.07781811 -0.18802013 0.00945255 -0.064619124 0.23385988 -0.09819595 -0.1292665 -0.083977476 -0.22745275 -0.05476556 0.19546494 -0.1273893 0.004102608 0.23506126 -0.3156592 -0.18212052 0.04514265 0.09513485 -0.097708486 -0.049254786 -0.053687003 -0.045387376 0.092930265 -0.13715862 -0.099567086 0.027619636 0.12037674 0.0032758205 0.13088024 -0.2028543 0.19925995 -0.22491731 -0.13213858 0.36823145 0.37160134 -0.019555561 0.18794486 0.20038277 0.06743971 0.20330667 -0.012442471 0.22655474 0.16198917 -0.07769029 -0.0098234685 0.18549322 -0.3393908 0.021202251 0.2161356 -0.34047437 0.0054041287 -0.67433006 0.1806848 0.20211126 0.015113947 0.27459744 0.076622896 0.047803655 0.50476396 0.09111428 -0.20620291 0.21505141 0.3429721 -0.18395042 0.12970671 0.13411045 0.00067149923 0.019618742 -0.0042501213 -0.14705321 -0.21773374 0.032008775 -0.016039323 0.42977804 0.049982015
293 -0.014928759 0.057417985 0.07953197 0.065747656 0.0065730694 -0.093070135 -0.06769797 -0.36301208 0.12932056 -0.11766661 0.05854715 -0.12437212 0.104864545 -0.048698355 0.10282999 0.04303462 -0.009848013 0.1294234 0.070344575 0.035084754 -0.019848838 0.2299202 -0.19400978 -0.1432554 0.12709486 -0.19918202 -0.44415516 0.21802811 -0.15243533 0.12972929 -0.42170128 0.42114052 -0.22451578 0.17624667 -0.1919511 -0.35983792 -0.06706068 -0.18976124 -0.07305368 0.019642627 0.20849457 0.047722645 0.08848762 0.049397964 -0.18622062 -0.08086229 -0.114254095 -0.40506005 -0.27065057 0.06002886 0.17010272 -0.008896108 -0.04839108 0.022201765 -0.31006968 -0.03133507 0.06916083 0.14876585 0.08741712 -0.120073326 -0.04816367 0.15699969 -0.1444983 0.057361163 -0.018640349 0.0942249 -0.019873291 0.09447529 -0.5580167 0.07627391 0.18688333 -0.12515782 0.09459963 -0.16282536 -0.19844386 -0.13536218 -0.027528547 0.0890628 0.13748807 0.19482076 0.22768298 0.097776815 -0.005999688 0.17926326 -0.02157553 -0.26057464 0.16649596 -0.07308024 0.06756665 0.04468919 0.08680747 0.20501593 0.16346401 -0.17220496 -0.076555535 0.23710328 -0.32898727 -0.15470527 0.038737606 0.042251788 -0.23183611 0.15730578 -0.23321827 0.02203782 -0.08146342 0.16231495 0.16052099 0.07624362 -0.2439994 -0.08897187 0.124704726 0.06500829 -0.2795369 -0.37391153 -0.1611016 0.14051664 -0.080840565 0.17430963 -0.06275206 -0.021478875 -0.045978367 -0.009086713 -0.09046981 0.1433961 -0.13949323 0.035512533 -0.08612066 -0.38486615
44 0.14546238 -0.017392326 -0.15818425 -0.023283472 0.00939686 0.069501445 -0.029045688 0.11768363 -0.18008779 -0.1582245 0.3783214 -0.21554825 0.050446603 0.020734716 0.002385714 -0.27259532 -0.1770126 -0.42282808 0.033048872 -0.037839364 0.21641262 0.092453495 -0.26357752 0.083593525 0.51842535 -0.02391756 0.28415933 0.25275797 0.46054605 0.0164479 -0.17229931 0.08583372 -0.16203538 -0.09297071 0.030580247 -0.1270123 0.17682758 -0.053879846 -0.024282528 -0.007657228 0.14051746 0.23754072 0.27692378 0.26647222 -0.08540397 -0.24581334 0.43739873 -0.04427357 -0.4495928 -0.08854969 -0.042619277 0.008354133 0.57639116 -0.11871567 0.26400054 -0.04173006 0.24755274 -0.03564408 0.40547642 0.13185102 -0.34313816 0.23909792 0.19526425 -0.32348773 0.290572 0.05002267 -0.24907137 0.34696165 -0.10662616 0.14448774 -0.17901056 0.09182823 0.07746597 -0.075298965 -0.18366398 -0.23513892 -0.20326293 -0.13224345 0.27469975 0.602851 -0.15097468 -0.27674156 -0.42342737 0.16106963 0.04904015 0.15820988 0.049208824 0.111855894 -0.2362644 0.30034906 -0.04431752 0.07562729 -0.16656724 -0.045299448 0.12086839 -0.08065269 -0.3069603 0.05240237 -0.05592928 0.2753393 0.11724455 0.05655653 -0.12058736 0.17954181 -0.17398168 0.36558434 -0.24746844 0.24830483 0.33426398 0.3912165 -0.1718214 0.5210807 -0.20605789 -0.10914054 0.23817389 0.32119137 -0.09305217 -0.09142504 -0.1707374 -0.06822752 0.24427196 -0.18461365 0.2889924 -0.17280033 0.24652609 -0.5037592 0.042035654 -0.25656742
61 -0.15662113 -0.11638292 0.243985 -0.03549037 0.2316156 -0.26566723 -0.07026866 -0.09523333 -0.06723166 -0.08980552 0.23363101 0.089967735 0.0020218468 -0.38145682 0.1320826 -0.4316123 0.02298467 -0.17109029 0.1386961 -0.15144978 0.27699116 0.16926266 -0.1838649 -0.15075429 0.17739592 0.22984013 0.1250315 0.15082027 -0.15866551 -0.14938843 0.3719997 -0.12092171 0.016218605 0.07538627 0.061989747 0.022510562 0.04970395 -0.30693054 0.11757421 -0.13993679 0.38744587 0.25253287 0.39195916 -0.017668802 0.068645015 -0.5617883 0.025273051 0.15168412 -0.19662948 0.008305743 0.3235776 -0.12184137 0.41692278 0.15235588 0.17553633 0.08917242 -0.055283133 -0.03407002 0.0951242 0.08616494 -0.43880373 -0.37604636 -0.2473028 0.3145785 0.25608832 0.16829813 -0.024074504 -0.32529545 -0.23987377 -0.058584757 0.038924567 0.23063253 0.08909343 0.05283413 -0.13906235 -0.061741352 0.030440109 -0.42555115 -0.07318441 -0.055447873 0.33456123 0.071423784 -0.17019613 0.2186716 0.28106904 0.08449573 0.26602682 0.28783703 0.18077359 -0.031148033 -0.15107535 -0.13736495 -0.024297483 0.029634323 0.36179033 -0.138696 -0.38722554 0.15064517 0.1575799 -0.27099794 0.051916428 0.17670794 0.031167077 0.29011983 0.06068159 0.24153739 -0.08338232 -0.020353423 0.0637202 0.2914128 -0.07241084 0.26567298 0.040748682 0.1220584 -0.017950099 0.6160347 0.11693617 -0.15958941 0.0858618 0.08133865 0.07190389 -0.12311538 -0.35089454 0.17139629 0.311013 -0.13743135 0.035260376 0.14305153
309 -0.31711894 0.23217693 -0.21329618 0.45218787 -0.15824138 -0.10413931 -0.3890558 0.18358351 0.015580947 0.2084281 0.040875584 0.015861696 -0.09024228 -0.1198689 0.2172169 0.082203545 0.12952848 -0.42367402 0.047544792 0.29233155 -0.06349217 0.05557106 -0.040504046 -0.33132023 -0.09050694 -0.17467561 -0.2202144 0.23659326 0.20399368 0.12974334 -0.25415367 -0.012547196 -0.058415264 0.083760336 -0.0033946468 -0.6184573 0.16858207 -0.039934617 0.10801062 -0.097740576 -0.12645392 -0.14331897 0.358852 -0.009182604 0.06650707 -0.15643972 -0.11225855 -0.3535715 0.027581898 -0.22368321 -0.057448518 -0.1957586 0.5891628 -0.19372855 0.15270866 -0.1312116 -0.26456186 0.17096524 -0.13493711 0.06552861 -0.1599039 0.09552591 0.3229133 0.051036015 0.24436527 0.25667238 -0.32575983 -0.0044729826 0.05756247 0.10743698 0.13780102 0.22263451 -0.007469558 0.09566511 -0.04635973 -0.1767203 -0.09277012 -0.0011280203 -0.052356448 0.3876786 0.055461027 -0.24816915 -0.03878855 0.01426687 0.18403481 -0.109962374 -0.05477333 -0.11533939 -0.037799466 -0.033916496 -0.08978995 -0.03638144 -0.12532641 -0.28425342 0.10683124 0.21611434 -0.09064787 -0.078063495 0.26383296 0.14391518 -0.011745224 -0.06506084 -0.034431275 -0.031192873 -0.074280344 0.08394936 -0.04863562 0.041070383 -0.087216556 -0.16806544 -0.03451602 0.088949144 0.0036161654 -0.033844635 0.14390811 0.29734626 -0.22070579 0.023372862 0.024136633 0.08015712 0.08754562 0.18302624 0.11359999 0.14924046 0.042753093 0.081090935 0.04940252 -0.27732596
45 0.11175149 -0.0353246 0.14304765 -0.03540926 0.12318035 -0.083411835 0.22994465 -0.17070727 0.29477483 -0.55698043 0.18669766 0.120616935 -0.042757712 -0.24332434 -0.24590938 0.040619444 0.0024810426 -0.23166609 0.19733766 0.3619255 -0.07950854 0.025732644 -0.06365573 -0.04646233 0.33082142 -0.36500412 -0.3342081 0.16149549 -0.22667041 -0.22757883 -0.43515173 0.11203965 -0.052931655 0.2855587 -0.14335118 0.11186159 -0.31248045 -0.31451166 -0.06483836 -0.12002035 -0.16167748 -0.049383648 -0.050451476 -0.07337044 0.04673279 -0.32698518 -0.113288805 -0.13833393 -0.2358884 -0.32124123 0.25002024 -0.34894088 0.064515136 -0.040034693 -0.5082948 -0.35914856 0.040875725 0.32419753 0.2565923 0.0938117 -0.00903117 0.058209848 0.044359542 0.24381404 0.042123586 -0.06449417 -0.0881322 -0.07529312 -0.21077494 -0.20229699 -0.061194327 0.44788492 0.16047952 -0.07754667 0.22025952 -0.24014583 -0.30727452 -0.31338662 2.8625667e-05 -0.026352756 0.26915815 0.24486116 -0.18069991 -0.11376056 0.34169486 -0.32352614 0.14195316 0.052978735 0.060835518 -0.23538972 -0.09624284 -0.090030715 -0.28995603 -0.16143803 -0.012544222 0.255941 -0.097667634 0.15341295 0.09413601 0.5182444 -0.03025956 0.2647679 -0.1341221 0.14848603 0.050582927 0.18385029 -0.0064261816 0.11442839 -0.03503836 0.14447583 0.055543937 0.023693323 0.31644633 -0.07054943 0.03220834 0.1502793 0.10640131 0.22482803 -0.011759265 0.30321762 -0.24228188 -0.07538145 -0.1289074 0.005106443 -0.07748161 0.09422878 0.3241462 0.13686714
40 -0.01243786 0.19912578 -0.042296745 -0.009166453 0.21343812 -0.082700446 -0.3062037 0.41528374 0.1632916 -0.1992682 0.028046755 0.09254757 0.11402709 -0.17407545 -0.15194893 -0.058042645 -0.06335488 -0.2104096 0.1776724 -0.13125563 -0.19101639 0.05898954 -0.17072782 0.09949754 0.35120323 -0.12758942 -0.037011795 0.0053934543 -0.12753877 -0.06567125 -0.24220593 -0.0944427 -0.431725 0.4051607 -0.08789678 -0.3151587 0.25343215 -0.13192102 0.021973142 -0.13908596 -0.007281326 0.2815841 0.08954576 0.23440677 0.10969398 -0.4540348 -0.11709908 -0.12283346 -0.2721941 0.18975411 0.24418795 0.43603492 0.37925532 0.10105722 -0.09188537 -0.30489814 0.106106415 0.14067167 0.006729892 -0.05190607 0.24747352 -0.4091078 0.5025957 0.006773015 0.15025766 0.12530316 0.1993744 -0.20409518 -0.062275227 0.17512003 0.3860725 -0.27745032 -0.09081693 -0.2942659 -0.29710466 0.02596493 -0.1260054 -0.210066 -0.10604896 -0.26046425 0.091613404 -0.22424486 -0.1144277 0.14160013 -0.085799076 -0.10485841 0.0426319 0.0037501818 0.06013741 0.058714934 0.1201696 0.0387558 0.104339525 0.22128627 -0.18211539 0.03323968 -0.0034395612 -0.013874483 0.029895296 -0.13400906 -0.2296328 0.110215485 0.042390633 -0.016970128 -0.4677702 0.16289866 0.09087726 0.08975007 -0.0076988027 -0.260195 0.54579383 0.47631323 -0.10139199 -0.007625598 -0.16281621 0.19960934 0.04708074 -0.1163311 0.20450027 0.061562058 0.18018164 0.20897236 -0.13043384 0.22192937 -0.6606736 0.062117007 0.12919164 -0.22801593
22 -0.04264806 0.33031708 -0.07249565 0.13758801 0.2899676 -0.09163883 0.5005698 -0.29246593 -0.16893525 0.033891924 0.11145646 0.12646446 0.18080243 0.063442476 0.30162767 -0.12738936 -0.0423866 0.09590205 -0.017715713 -0.17355222 0.6156882 0.25699043 0.14272174 -0.11803625 0.090133324 0.1234017 0.0041698185 0.24080156 -0.012417098 0.16854872 -0.17044824 -0.19986846 -0.020667972 -0.124130175 -0.20387214 -0.14199308 0.2746901 -0.1681673 0.21109061 -0.2648522 0.44883803 0.29067323 -0.06473867 0.21825667 0.26370856 -0.020815175 -0.03201394 0.29448172 -0.37140113 0.015431337 0.040933643 -0.14833364 0.10379562 -0.07195538 0.07534625 0.13925044 -0.15437043 0.23474663 0.0906888 -0.21018519 0.18964066 0.1291197 -0.0057554347 0.2437698 0.27015936 -0.01273786 -0.29160738 0.31991312 -0.11219207 0.053411976 0.09826063 0.063543975 -0.26791367 -0.42855078 -0.13648725 -0.040415365 -0.4525466 -0.37464666 0.12541342 -0.0054886173 -0.14529788 -0.25369778 -0.12685388 -0.011758146 -0.06989261 -0.11785902 0.024991048 -0.0910852 -0.26832178 -0.021399995 0.18550973 0.11058535 -0.1613568 -0.37497392 -0.44839963 0.15767404 -0.35486633 0.08724745 0.050751667 0.35700622 0.03145326 -0.083662756 -0.07327162 0.27020591 0.1401667 0.32183468 0.32968137 0.061228447 -0.09280869 -0.08849326 -0.20072171 0.07673608 0.24447243 -0.21451955 0.3635931 0.08204046 -0.03902264 -0.018941903 0.14064753 -0.014956413 0.27032265 0.05041084 0.09087543 -0.05517522 -0.2657343 -0.018607993 0.037230972 -0.036580287
873 0.09045449 0.3325958 -0.10018949 -0.024437485 -0.019950677 -0.22902581 0.14558567 -0.21416116 -0.2483578 0.033962727 0.040689006 0.10964672 0.05444257 -0.2972896 -0.013472895 0.16490297 -0.066512205 -0.0649101 -0.21101466 0.1255638 -0.13749968 0.4685506 -0.022805424 -0.049770575 0.37162453 -0.085706934 0.05202522 0.094219126 -0.064349584 -0.010599656 -0.05210564 0.106565 -0.1155502 0.035169538 -0.006783159 -0.08926569 0.16593537 0.10050945 -0.012467829 0.14837688 0.16503692 0.17105381 0.16956617 0.0967321 -0.11847505 0.11698258 -0.06738816 -0.06881256 -0.22180088 -0.08638003 0.31881577 -0.046881545 0.10040763 -0.003541812 0.045572724 -0.037739735 -0.12569705 0.04123247 0.25221258 -0.3559829 -0.031055149 -0.038260512 0.008711372 0.05001559 0.0998379 -0.17874509 0.0016505745 0.1572292 -0.019284165 -0.09392892 0.22211912 -0.002063036 0.063744746 0.100912035 0.1879458 0.054481085 -0.15244599 -0.093521126 -0.11582956 0.13084584 0.10704195 -0.15756561 -0.19999954 0.08492213 0.003560834 -0.09914511 0.10709926 0.021363225 -0.12765326 -0.20132072 0.43146703 -0.03213663 -0.17031585 -0.23457593 -0.117181845 0.004073323 -0.37944496 -0.03677818 0.057584465 0.028986517 -0.15470219 0.1537862 0.1525006 0.08750896 0.00916374 0.2559259 0.10692561 0.109889634 -0.091341496 -0.26619527 -0.11674296 0.097070135 -0.125355 0.24982469 0.028432216 0.14700788 0.15972951 0.5559045 -0.09554413 -0.25291926 0.05898788 -0.20330222 -0.18947259 0.07311318 -0.16680793 -0.018527899 0.2419304 -0.17659593
275 -0.081512935 -0.13819942 -0.20018686 0.18887529 0.01740899 -0.27565265 -0.015638513 -0.017632693 0.17728591 -0.009323519 0.13880375 -0.13791607 0.018175814 -0.14040218 -0.093866706 -0.32336536 -0.0950539 -0.318952 0.134016 0.191927 0.124504365 -0.03647151 -0.06991965 0.20331292 0.12838615 0.11553521 -0.06264815 -0.14239179 -0.10497891 0.29241723 -0.16667654 0.11406231 0.09094037 -0.13515101 0.027863283 0.20926331 0.07647332 -0.02759773 0.12743768 -0.016394781 0.27299482 0.18374795 0.069481306 0.0764298 0.19673645 -0.08250845 0.033208564 0.118581735 -0.48599622 -0.028457768 -0.16670524 0.21123996 0.20696543 0.004182383 -0.058468323 -0.088379525 0.037653938 -0.29885414 0.023883006 0.07499159 -0.22251815 0.2140458 0.09073453 -0.062062092 -0.03936508 0.017568424 0.084055394 -0.12688519 0.10174371 -0.09552661 0.05709105 0.09195505 -0.16447526 0.085355 0.3511789 -0.18967067 -0.08302513 0.004620114 0.044162966 0.013391121 0.0970194 0.10634512 -0.16138849 -0.041863937 0.009119622 -0.070259705 0.24332249 -0.0052235965 0.1325948 0.07531363 -0.23116465 -0.19953504 0.102916926 0.1512051 0.235479 0.33764675 -0.28002575 0.24417165 0.07911842 0.25495613 -0.14472888 0.14950705 -0.0023871763 -0.06943787 0.10430518 -0.025010115 -0.095577806 0.156152 -0.1276251 -0.031954274 0.043609966 0.17354538 0.039225448 -0.20846033 -0.09028147 0.20073979 0.22789325 -0.022627419 0.0060392763 -0.2819982 0.11961704 0.072898544 0.26649946 -0.05928567 -0.21066909 0.03241955 -0.20546481 0.09719557
26 -0.024129862 0.20226464 -0.092024595 0.029564423 -0.15609956 -0.25089976 0.2564661 -0.037608206 0.2162018 0.19452785 0.055019584 0.055896398 0.1084839 -0.16996185 0.0927376 -0.21345489 -0.15943547 -0.10905523 0.15588884 0.09480424 0.3065236 -0.007034659 -0.15475653 0.20065676 0.34734747 -0.31237185 -0.014929149 -0.24781854 0.28122658 0.13120647 0.06334818 0.21092921 0.10540011 -0.166465 -0.33165357 0.31057543 0.054692872 -0.13796227 0.067128204 -0.018938074 0.17386988 -0.16370109 -0.19193035 0.25834504 0.0927276 -0.29565066 -0.13313183 -0.19162187 -0.61422473 0.23513868 -0.11714676 -0.39657038 0.26867905 0.034459684 -0.5154539 0.04819365 0.088620886 0.075659394 -0.1698107 0.014019362 -0.19555235 0.1342142 -0.03130568 -0.11321698 0.36536226 -0.39432216 0.2526193 -0.1852311 -0.09368737 -0.2186023 0.45854446 -0.0581961 -0.015778767 0.008852698 0.40250215 -0.32326356 -0.09917286 0.02480131 -0.17877276 -0.10999727 -0.12381159 -0.13122812 -0.22774376 0.1269857 0.016284494 0.08161229 0.06202778 0.14848135 0.11205311 0.29402354 0.10358118 0.07086647 -0.3209154 -0.4241087 0.15379982 0.2579433 -0.17075194 0.00781483 0.4673779 -0.092312746 0.09893276 -0.15230389 0.061666034 0.04514812 -0.3138861 -0.07469081 -0.1882424 0.2860498 -0.46674323 -0.0008749008 0.18352078 0.13345675 -0.085520245 0.15266976 0.09849758 0.14927164 0.11885347 0.15918803 0.032801155 -0.36575234 -0.6056728 0.016389612 -0.22312771 -0.1926852 -0.0860907 0.101438686 -0.04206689 -0.06753528
39 0.23503359 -0.15547258 0.010341921 0.089165464 0.21315512 0.16961756 0.0008721143 -0.18439873 0.16712612 0.035273656 -0.17466834 -0.020013917 -0.12429399 -0.46379837 0.07930939 -0.37257454 0.123378314 -0.29321513 -0.117283784 0.09760949 0.063479185 0.10921175 0.086652696 0.16923368 -0.042687047 -0.2267009 -0.059367884 0.3012492 -0.17953548 0.16294952 -0.20668574 -0.034159437 -0.03955455 0.02359714 -0.14563784 0.22988753 0.24140808 -0.17063764 -0.010538481 0.09129104 -0.1117131 0.4297395 0.31243667 0.28625602 -0.23906404 -0.18160245 -0.17543377 0.20404162 0.21979855 -0.20308323 -0.1049589 -0.20846264 0.17677821 -0.1470711 -0.029522395 0.16653429 0.08497609 0.19065338 0.3604935 -0.35154876 -0.4811308 0.09487501 -0.09356293 -0.11403648 -0.18543573 -0.3427416 0.37560317 -0.11297581 0.09620026 -0.20942858 0.42439142 0.29078317 0.13893214 0.17588635 -0.25946385 -0.05234323 -0.11258009 -0.04133585 -0.30314967 -0.0001324492 0.062717095 -0.12463265 -0.048692785 0.04273092 0.05602393 -0.26174867 0.47209096 0.2018584 -0.17693469 0.25623974 0.18532118 0.0651369 0.00081725826 -0.2451523 -0.037949737 0.072427884 -0.036968403 -0.0311935 0.17628327 -0.009154167 0.049520463 -0.01787369 0.009770457 0.1374191 0.05147461 -0.2738706 -0.42255047 0.26229623 -0.115831785 0.009752715 0.1735758 0.025822885 -0.14069033 0.0062835254 -0.13374779 0.109889805 0.22116065 0.30244735 -0.02717192 -0.19528274 -0.07939584 0.5233091 0.09820082 0.20566867 -0.147412 0.20645039 -0.07760727 0.049725834
646 -0.100023575 0.19949038 -0.21946594 0.7114356 0.23326235 0.066574425 -0.09742156 -0.20207278 0.23381396 -0.0105289975 -0.025174664 0.14329457 -0.20459197 -0.07154161 -0.31097925 -0.23409724 0.00881551 -0.1977349 0.1264076 0.27103293 0.022497639 0.1523907 -0.4082179 0.31702808 0.20566836 0.06828631 0.0981779 0.25613102 0.012953587 0.14866342 -0.12908122 0.3508532 -0.069087364 0.074893326 0.22281751 0.114257775 0.008690074 0.037753183 0.14796059 -0.0073779314 0.050036356 0.039013557 0.3513721 0.24379082 -0.0004357776 0.05747569 0.04371849 -0.014666511 0.12542534 -0.17760442 0.007047915 -0.10007218 0.25804973 0.0034113147 -0.09709283 -0.13827337 0.19933766 -0.08403751 0.20772856 0.022558961 -0.05465639 -0.0039819377 -0.0046443697 0.01154836 0.16265096 0.009507044 -0.12618768 0.018296706 -0.09521171 0.03296876 0.23504758 0.016812064 -0.15338077 0.17483003 -0.19396847 0.27790877 0.1514451 -0.025700277 0.10947323 -0.1219551 0.042759754 -0.18519366 0.05013263 0.23201135 -0.05845763 0.054846983 -0.17680255 -0.0545113 0.09908189 0.017090965 -0.05161498 0.29257303 0.32056528 0.044766095 -0.23800355 0.012997752 -0.3907833 0.08484037 0.23421691 0.34821266 -0.117444575 -0.21467175 -0.08890474 0.011880663 0.076020144 0.21403119 -0.22790813 0.07079005 -0.4264694 -0.06516531 -0.06121723 -0.016474262 0.02217024 -0.23469917 -0.031676013 0.54285204 0.1539977 0.14311801 -0.24028309 0.22655746 -0.060100902 0.111083046 0.10895062 0.085321076 -0.009340419 0.11344574 -0.053302158 0.05661583
72 -0.029718261 0.035885945 -0.14946634 0.18388331 -0.0849171 -0.13991845 0.11974334 0.0055605597 0.2920712 0.05266194 -0.0366521 -0.44711405 -0.02253639 -0.11910622 -0.03768127 -0.004875153 -0.02001837 -0.050035235 -0.10877055 -0.029815601 0.28833455 -0.01730392 -0.16630553 0.30191875 0.33767423 0.0134551115 0.03145547 -0.27654025 -0.14574133 -0.08733338 -0.11031335 0.16640046 -0.14378902 -0.036756847 0.3104231 -0.033340685 0.115613684 -0.16479589 0.011186094 0.30653435 0.18414459 0.0379928 -0.021230541 0.015527562 0.17675689 -0.067158416 0.27611628 0.16247338 -0.16136199 -0.17167708 0.12883204 -0.06521494 0.10748554 0.21522658 -0.09641919 0.08649989 0.061934054 0.067558154 0.14361252 -0.03875307 0.029128514 -0.07323535 0.19442786 0.1443776 0.07418234 -0.26851547 0.097323075 -0.18610366 0.3021634 0.011065472 -0.20591195 0.17029011 -0.027742716 -0.0005968426 0.11108636 0.075079106 0.085624255 0.21701965 0.34690088 0.29793945 0.2001858 0.0789574 -0.05969236 -0.08728629 -0.18980631 0.15117875 0.40242264 -0.17230321 -0.23503232 0.29342458 0.19184443 0.19155605 0.07778115 0.04975495 0.12500696 0.24542317 -0.3627782 -0.13997124 -0.12230009 0.032986052 -0.09238637 -0.06639791 -0.21071674 0.08910065 -0.15471838 -0.0741972 0.07050405 -0.08648169 0.169913 0.051395006 0.11749339 0.15827127 -0.11260756 -0.40779203 0.162697 0.16607817 0.3291203 0.096694574 0.19098504 -0.34800664 0.25542235 -0.06167813 0.039943423 0.11625476 -0.17388104 0.2453795 -0.16032895 0.16281517
270 0.08500015 0.113113634 0.016493367 0.18700808 0.047894407 -0.11416537 0.008887396 -0.35259396 0.28704217 -0.204644 -0.12243322 -0.27135268 0.21329023 -0.017008603 0.00783562 -0.3010417 -0.14883916 -0.28517333 -0.21817188 0.09753597 0.040391102 0.036677755 -0.115046464 0.08016017 0.2955753 -0.011083839 -0.16415823 0.17251693 -0.012384836 -0.24053675 -0.17002721 0.20748696 -0.18149099 0.021254184 0.23524818 0.00055952504 -0.056401785 -0.2368988 0.23464799 0.47021887 -0.078143194 -0.055982478 0.4024263 0.2733063 0.15273878 -0.20870422 0.28827107 0.114768974 -0.16922897 0.014354519 -0.15551218 -0.16191131 -0.025499608 -0.049075026 -0.077830575 0.016732013 0.06515861 0.041563086 -0.022411434 0.12217452 -0.099441186 0.110957265 -0.1968421 0.06366065 -0.15904471 0.11918426 -0.23482585 -0.060035378 -0.4439231 -0.13599874 0.21485579 0.15526722 0.068834804 0.01725868 -0.055153966 -0.22057931 -0.31833917 -0.3396442 0.04247286 0.02620578 -0.018839896 0.02332504 0.11606498 -0.44862068 0.09818133 -0.2037905 0.09911766 -0.0880007 0.06865898 -0.019174734 0.1508984 -0.036614727 -0.06389877 -0.052894935 0.18435137 0.42496052 -0.19903323 -0.013788499 0.07763521 -0.107703954 0.13572083 0.1896784 -0.07631309 0.101520345 0.021929309 -0.062379997 -0.019598017 0.011474851 -0.1358293 0.081223175 0.06367279 -0.1296028 0.043780744 -0.44695362 0.31379727 0.15720478 -0.12449183 0.19056351 -0.1994896 0.12778097 -0.07865003 0.13934596 0.055870086 0.09153433 -0.345872 0.3711037 -0.12678121 0.026707793
25 -0.10362419 -0.03818676 -0.096076116 0.18148668 0.1814044 0.14978719 -0.0031907093 -0.31178442 0.1886748 -0.0685304 0.005491869 0.056446645 0.12163428 0.01513266 -0.30389377 -0.4824499 0.14950868 -0.04857244 -0.3363984 -0.28692788 0.14248462 0.18519448 -0.23186405 0.09959787 0.35725 -0.17363566 -0.22668839 -0.051111426 0.05442935 0.027065909 0.092259236 -0.09473462 0.23480618 0.060019657 0.68651944 -0.090552285 -0.17416231 0.07149491 0.0058020903 0.22896475 -0.28637478 0.23431556 0.23679458 -0.19163136 0.10721878 -0.23092431 -0.01920724 -0.061240032 -0.31962347 0.09356576 0.15802671 -0.11616925 0.35752386 0.036806393 -0.14682695 -0.0019439987 0.009301051 0.09786295 0.17632408 -0.08644709 0.13188963 -0.26723486 0.34781864 0.032989886 -0.07603555 -0.08288642 -0.0041394806 -0.012526159 -0.31893897 -0.2011346 0.18070732 0.055261195 -0.28012365 0.038297784 0.05832668 -0.015389152 -0.10889941 0.022092616 -0.07577673 0.15097871 -0.14378893 -0.21722767 -0.10576861 0.26386544 0.34422863 0.18559757 0.3235119 -0.17204066 0.10818857 -0.045797206 0.30211982 -0.122865714 0.3546242 0.07384579 0.27722257 0.47229177 -0.49759665 0.15037759 0.11475506 0.048562996 0.0104981605 -0.09845662 -0.1213353 -0.035137817 -0.1481952 -0.3330808 0.02841641 0.105699085 0.08559003 0.003220661 -0.056753393 0.22490788 0.04204339 -0.16407114 0.12214049 -0.1686894 0.18488812 -0.26762134 0.0047139507 -0.03366774 0.23486076 0.008346304 0.16569941 -0.10356939 0.08079613 0.18963307 -0.1279574 0.102179974
101 -0.21065763 0.3257746 -0.10709638 -0.22938469 0.21859892 0.08442533 -0.01682114 -0.30289513 -0.21396412 0.053989265 0.1410968 0.3923759 0.29511425 -0.026354318 -0.030551475 -0.26792377 -0.099859774 0.3255191 -0.19144553 0.29530627 -0.035083473 -0.083317235 -0.03189123 0.069860265 0.12492105 0.08632113 -0.035234157 0.39528173 -0.22091737 -0.10449568 0.0010133646 0.00863638 -0.19196282 -0.19388522 -0.12866531 -0.22477554 0.08955781 0.14659666 -0.098704755 0.17029357 0.24518375 0.10881375 0.18909259 -0.17442012 0.18674001 0.14416257 0.10381623 -0.37857792 -0.30488142 -0.23043275 0.17931433 -0.13475047 0.17990819 -0.071309686 0.066554464 0.12671748 -0.29924974 0.4009517 -0.037675153 0.31528798 0.037872437 -0.090349056 -0.025670296 -0.26373446 0.1541283 -0.22455372 -0.09308081 0.08150156 0.0730958 -0.3425081 0.22843029 0.06998324 0.08234823 -0.022908442 -0.013827893 -0.2563406 -0.49029616 -0.52488744 -0.12533836 0.1620095 -0.21421732 -0.2298886 -0.21399851 0.19022149 -0.14250088 -0.25814453 0.10329776 0.27763665 -0.39205644 -0.047869757 0.17251468 -0.091949984 -0.42124522 -0.10710264 -0.180299 -0.008096465 -0.20902032 -0.0015306843 -0.22267756 0.10661587 0.07584786 -0.23083773 0.14271843 0.019917173 0.005959346 0.04059089 0.05660716 0.17011306 -0.02868463 -0.24785976 0.07932945 0.36399895 0.21241385 -0.29397485 -0.29761368 0.2851247 0.12121433 0.42286867 0.41143167 0.2303199 0.05828621 0.050595038 -0.024779454 -0.07810333 -0.0099909315 -0.2306879 -0.020199507 0.19947496
206 0.21027577 0.2907166 -0.084920436 0.28643218 -0.15659088 0.12936874 -0.1579093 -0.18111853 0.1329646 0.37664667 0.038506616 -0.09690091 0.013426662 -0.09333918 -0.055437848 0.07423036 0.1173319 -0.36219594 -0.10057218 0.029469 0.36730972 0.17181394 0.06046044 0.28308517 0.3810984 0.10495427 0.057284087 -0.24728763 -0.063405015 0.1537776 -0.04970462 -0.08317607 -0.013351486 0.14665525 0.08258176 -0.1034849 0.10488288 0.16066366 0.12106725 0.061471783 -0.1120279 0.34623024 0.14908402 0.09268913 -0.25888702 -0.22919089 0.05913206 0.0550766 -0.23108938 -0.08185105 -0.22178262 0.25873822 0.1576108 0.26059055 0.07044078 -0.21641997 0.008931885 0.3900881 0.045880776 -0.008967592 -0.022049237 0.31096214 0.10240366 0.048652 0.03892119 0.11070925 -0.1979322 -0.123588026 -0.18481515 -0.15492284 0.07770515 0.25180632 -0.38633737 -0.0020078302 -0.05852685 0.13499379 -0.032957237 0.06488094 -0.12826286 0.19343975 0.04408072 -0.16472958 -0.22808617 -0.11697411 -0.0131932255 -0.06185019 0.3157833 -0.11011412 -0.08856947 0.4995468 -0.21423037 -0.07251978 -0.05806602 -0.18019652 -0.14597045 -0.1620638 0.13228872 -0.05254036 -0.045244057 0.062024996 -0.08791268 0.118022054 -0.2174431 0.047516294 -0.1270005 0.12981594 -0.057349976 0.19247895 0.2411691 -0.16418539 -0.092332296 0.23761246 -0.2180229 -0.17323613 -0.12123222 0.36712506 0.2102775 0.17991048 -0.067759104 -0.11547073 0.1573338 -0.1913235 -0.030236186 -0.08347791 -0.0014621454 0.060335845 0.25541827 0.15859067
47 -0.13298818 0.18639757 0.07819238 -0.059401333 0.2992903 -0.06918033 -0.20848057 -0.0031749262 0.113828525 0.27496552 0.07940053 0.03524289 0.019541284 -0.6131461 -0.23232187 -0.22822592 -0.0039213654 -0.11590997 -0.013834862 0.45777532 0.029064635 0.012079724 -0.6313538 -0.15437746 -0.079513595 0.03473827 0.055580616 -0.025472173 -0.066916384 -0.060177453 0.282017 -0.16815278 -0.05510253 -0.19613323 -0.11969167 -0.16812246 0.22745182 -0.07892293 -0.012625766 0.09072487 0.0720877 0.27099124 -0.04147998 0.23735651 -0.343249 -0.41509733 0.02516427 -0.06878387 -0.03521023 0.09547651 0.025820857 -0.07805034 0.12360279 -0.15680811 -0.16805303 0.30409664 -0.59383565 0.15348475 -0.027163383 -0.049785413 -0.07772207 0.106398925 0.020795524 0.05889155 0.121993154 -0.23298883 -0.42795935 0.1780376 -0.17714877 0.05491255 -0.09743296 0.0113756405 0.42801717 -0.33651972 -0.032393433 -0.4349455 -0.22118855 0.12148352 0.02347562 0.017095914 0.08400533 -0.22422527 -0.011668555 -0.07679248 -0.43512556 0.10651157 -0.032997444 0.45517167 -0.02128171 -0.10765703 -0.14839152 -0.03981071 0.033485632 0.12638097 -0.22880605 0.29211497 -0.14221452 -0.034896154 0.21466555 0.30188853 -0.14813285 0.29080546 -0.07735023 -0.033506446 -0.3645265 0.17210865 0.3047919 0.059250142 -0.07612536 -0.22090636 -0.17472996 0.17429732 -0.0013259965 0.2609335 -0.15661043 -0.016347425 -0.16715544 -0.1249019 0.091742426 -0.17337425 0.27901107 0.08736695 0.33349785 0.120419115 -0.25271583 0.13305053 0.23232368 -0.17712209
633 0.08103451 0.006988271 -0.17166361 0.14316803 0.30434036 0.28388116 -0.14601754 0.07221365 0.123609886 0.10606035 -0.07437229 -0.15786736 -0.07024249 -0.13248605 -0.031036098 -0.44342226 -0.049192104 -0.12938619 0.35700563 -0.083093256 0.15544951 0.098324366 -0.34357104 0.017307544 0.5186926 0.044706926 0.1382732 0.07270404 0.04506031 0.08532428 -0.25998825 0.174431 -0.09241903 0.1337793 0.11840183 0.17030835 0.3957182 0.093954846 -0.1531704 0.12748188 0.06649761 0.05959039 0.13339558 0.13663921 0.29647675 -0.06563847 0.1494091 -0.30191594 -0.035591558 0.08576625 0.17534222 0.06720874 0.24874844 -0.060054246 0.42282763 0.066587426 -0.13592213 -0.07616666 0.33607018 -0.1952762 -0.17859976 0.20920487 0.40890312 -0.21459231 0.07892622 -0.2485846 0.23830588 0.06034699 -0.27689597 -0.10935976 0.0753851 -0.10879474 -0.0704939 0.05898662 0.09133938 -0.16653751 -0.008246321 0.07293554 0.24931844 0.1830382 0.13366708 -0.17113462 0.042493727 0.00880163 -0.00060346076 -0.09069093 0.012073071 0.36758375 -0.023243008 0.20476484 -0.39652193 0.00054688356 0.05852201 -0.17830771 0.08213008 0.4608991 -0.21413316 -0.07661094 -0.050356504 0.0009597258 0.036595054 0.2641923 -0.21473934 0.02288515 -0.05148423 0.25885972 0.047482233 0.13600329 0.11928894 0.28141797 -0.12211037 0.26745993 -0.11787876 0.0031359426 0.5402459 -0.05342593 0.21291222 -0.124114454 0.09766191 0.17853568 0.24960876 -0.13337517 -0.13841763 -0.23976219 0.11125613 -0.15818608 -0.12806761 0.066356465
311 0.18559709 0.28183523 -0.17213862 0.2993457 -0.06466064 -0.0761225 0.06274483 -0.06930514 -0.13605617 -0.13204622 -0.01379181 -0.0877893 -0.25166875 0.056798078 0.0540478 0.016003568 0.026875649 0.09273604 0.09244685 -0.17136137 -0.0767826 0.33254954 -0.15333812 0.2968509 -0.0073039196 0.0012504223 -0.14362308 0.07643263 0.0014102577 -0.13767615 -0.13644356 -0.12958552 -0.10814752 0.13881397 -0.11621913 0.28466174 0.10035292 -0.07982087 0.047264718 0.27511087 -0.15716983 0.0017714862 0.008498643 0.012365808 -0.054241505 -0.09217083 0.036125645 -0.38713834 -0.104149014 -0.18478373 -0.13432503 -0.3104551 0.2922774 -0.070176035 0.046863582 0.27316085 -0.18614216 0.18980692 0.30230042 -0.4035421 0.1874223 0.22020382 -0.07698413 0.12157917 0.090456285 0.19815452 0.0004828511 -0.4069336 0.10405851 -0.06472511 -0.030945662 0.5231326 -0.04610992 -0.034641344 0.181523 0.09434528 -0.29206917 0.02671548 -0.3125147 0.21435568 -0.20597757 -0.0930549 -0.15564534 0.30875182 0.34498864 0.07598389 0.30566868 0.02388294 0.0072045885 0.25533524 -0.49384248 -0.24320583 -0.030125797 -0.14196728 -0.046297923 0.49330342 -0.4072112 0.0606307 0.0016962003 -0.13816188 0.055533513 0.11782963 0.14062373 0.10220978 -0.39532813 -0.07104825 -0.07983194 0.052872173 -0.21137747 -0.17083922 0.08834201 -0.026397109 0.21832213 0.030626334 -0.261779 0.05469202 0.20105143 0.05283869 0.16917045 -0.22493464 -0.3359159 0.035376415 0.32994175 0.01565466 -0.14836842 0.013371942 -0.08014404 -0.24417508
88 -0.2772623 -0.030069664 0.020807067 0.161169 0.029289909 0.13592075 0.21937057 -0.01810056 0.05715858 0.20565042 0.19060281 -0.15690176 -0.07257354 0.10824419 0.026870128 -0.25348076 0.053914826 -0.036201794 0.23410271 0.27737415 -0.088661425 0.35629392 -0.15254392 0.4318415 0.069119245 -0.06969315 -0.2247852 -0.32819977 -0.1731809 -0.06375778 -0.17893893 0.16426848 -0.028895268 -0.22285189 -0.09425425 0.03382484 0.08001337 -0.039931536 -0.18467775 0.2642126 0.2872541 -0.10758918 0.3458446 0.21269381 -0.06884411 -0.151043 0.09925932 0.048445426 -0.023745645 0.013020975 -0.07208988 0.037522234 0.018383088 -0.14496408 0.18932013 -0.06657319 0.27300033 0.15643062 0.21573837 0.21102042 -0.08936935 0.18934351 0.2434686 0.41554728 -0.044371843 -0.11237482 0.008402979 0.03188365 -0.118560396 -0.17440423 -0.12126239 0.118614644 -0.17784235 0.06952379 0.5910567 -0.063096575 -0.15297867 -0.08268613 -0.105194 -0.075151734 -0.3104609 -0.17994595 -0.48872495 0.1800276 0.13345034 -0.28833047 0.16949792 -0.20058836 0.08259718 -0.0993436 0.09614357 -0.17010494 0.27163893 0.080214344 0.13083677 0.07435394 -0.33841118 0.016238555 -0.22568081 -0.01878761 -0.18450181 0.029229557 0.032596987 0.0070773354 -0.14445385 -0.17134455 0.109813176 0.03522953 0.01015009 0.07538681 -0.06613163 0.084174775 0.2237882 0.071949 -0.28101444 0.39881095 0.17378548 -0.08188134 0.13997822 -0.2696917 0.3109082 -0.093707286 0.036239114 -0.12311777 -0.22540224 0.064493015 -0.033120524 -0.026650075
413 -0.2504677 0.5106706 0.0105965175 0.20332633 0.14738648 -0.024906933 0.23757426 -0.022104846 0.07795345 -0.11919473 -0.05667356 0.4110377 -0.057141338 -0.09896933 -0.19261727 0.120616764 0.09365675 0.07266202 0.19174081 0.03860095 0.19082402 0.42194983 -0.1655236 0.0047695693 0.08869358 0.13314646 -0.24342406 -0.02215574 0.030595196 0.16630615 -0.11925473 -0.2290185 -0.13311647 -0.111716 0.028947527 -0.021527583 0.21447425 0.17354125 -0.16495135 0.11455159 0.18565866 0.027491227 0.14430085 -0.13630834 0.14052188 -0.10150242 0.106714055 0.0039362214 0.14259271 -0.22139917 -0.13842052 0.04321139 -0.10166198 0.093835615 0.04814776 -0.019900277 -0.12373041 -0.18802345 0.00028845444 0.4629177 0.078213826 0.1986888 -0.029015662 -0.33760014 -0.05256183 -0.0159879 0.039460756 -0.22741401 0.21843648 -0.1616964 0.13391332 0.06877539 -0.30135703 -0.02091186 -0.09403485 0.05868328 -0.39677605 -0.20925245 0.019299265 0.25800127 -0.031094497 -0.27319467 -0.04636039 0.17643988 -0.23183234 -0.17634073 0.31268904 0.040356766 -0.084437296 0.17906117 0.2665055 0.021762608 0.012288874 -0.004754041 -0.054250106 0.26096126 -0.33316067 0.015639907 -0.0059988447 -0.16535257 -0.19927226 0.23612534 -0.18870762 0.07627237 -0.45217597 0.10955025 -0.00674799 0.0016046913 0.056575567 0.3516909 0.050285134 0.20665891 0.054502256 -0.24707396 0.19225779 0.25560647 0.11961775 -0.022582946 0.14894779 0.05001842 0.23874825 0.020658221 -0.1797348 0.11291789 0.07756455 -0.12880403 0.17201267 0.10807589
260 -0.009568697 0.18176655 -0.07920308 -0.01977802 0.071417905 -0.2684903 -0.1995926 -0.31486574 -0.026995905 0.22468752 0.18962866 0.31894398 -0.017810669 -0.3347955 0.30903938 -0.14678675 -0.08322617 0.12616694 0.008587875 0.02798013 0.25563288 0.24220127 0.019664606 -0.002614802 0.11637426 -0.22892396 -0.07808046 0.18113923 -0.19075517 0.18592249 -0.47346207 0.06874333 -0.19389763 -0.1353884 -0.04873201 -0.17753462 -0.2276918 0.034853987 0.39180353 0.1740721 0.14157152 0.14554334 0.32544324 0.09340282 -0.15425402 0.13024837 0.34183004 -0.13022469 -0.05042472 0.019128274 0.16791956 0.08589253 0.1729211 -0.0039115325 -0.40074316 0.14886367 0.04149076 0.056029875 0.076649204 -0.0818789 0.19742784 0.07028692 0.13481918 0.02418841 -0.11160839 0.048997626 -0.14658897 0.016581463 -0.2673228 0.0053285663 -0.124859504 0.093369015 0.113985255 0.5066217 -0.14066762 -0.18353255 -0.2598968 0.028983865 0.17405236 0.37292755 0.3077204 -0.077104434 0.19853348 0.06336958 -0.015895285 -0.38435206 0.06907782 0.1628881 -0.1357679 0.20376608 0.12045384 -0.12040008 -0.13778228 -0.010145205 -0.019319694 0.07364795 0.04971292 -0.026610898 -0.056884762 -0.016774481 -0.19430801 -0.067859165 0.027532462 0.1659908 -0.12394578 0.18671435 -0.051101714 0.44517142 -0.11392188 -0.042314958 0.29793224 0.0015304936 -0.10607011 0.031863764 0.2713657 0.269169 0.12886585 0.16674104 -0.32457724 0.002279657 0.038523976 0.0010342384 -0.286359 0.117943466 -0.20730187 0.16771948 0.07592211 0.1603376
59 -0.17121665 0.14601135 0.182181 0.09966779 0.014373765 -0.24709404 -0.26783 -0.37703007 0.14668126 -0.110348344 -0.3152068 0.04599592 -0.11166236 0.2014451 0.21367599 0.23189206 0.16356231 -0.16701862 0.048457116 -0.053459488 0.080705345 0.02030395 -0.41152006 -0.019974552 0.3549135 -0.32047167 -0.24601161 0.08852599 -0.33268806 0.07291139 0.107517585 -0.034484785 -0.37462392 -0.08242742 -0.2020166 -0.33412686 -0.03963129 0.10870769 -0.1882489 -0.3398632 -0.20505448 -0.015639413 0.2357697 0.5355226 0.015330254 -0.4295339 -0.0629591 -0.073382825 -0.57556033 -0.22247231 0.12096662 0.21004623 0.1767881 -0.047181375 -0.009778629 0.21267764 0.15969019 0.08225219 -0.24918677 -0.3193445 -0.02036105 -0.005240117 0.14988022 -0.1869652 0.1252618 0.09030504 -0.10734437 -0.17184013 -0.15934695 0.20805807 0.05267333 0.44724992 0.11576823 -0.0502141 -0.1985752 0.06030993 -0.06550329 -0.10090968 -0.17195618 0.045422155 -0.14975588 -0.18584363 -0.14518473 0.20621802 -0.39587656 -0.09914368 0.037291914 0.09254872 0.020808244 0.08443493 -0.048299756 -0.3106697 -0.07169275 0.18885443 -0.22169268 0.019908458 0.14063859 -0.006254048 0.057187542 0.38059884 -0.101699434 0.115145884 -0.044402517 -0.12370239 -0.42695054 -0.122706816 0.27554676 0.45719996 -0.016061738 -0.030422973 0.22620751 0.07295484 0.10824864 0.011253431 0.025939697 -0.022191556 0.08672588 -0.009467823 0.17005998 -0.17747375 0.10044772 0.24680865 0.069085926 0.049965188 0.04126964 0.029264573 0.22538123 -0.08106943
46 -0.17802876 -0.09606931 0.055761795 -0.025228884 -0.047471907 0.037415806 0.006920892 -0.29656094 0.02687328 0.04679302 0.13925955 0.1959568 -0.15258735 -0.044334304 -0.28571358 0.17939724 0.29872286 -0.379322 0.15532805 -0.21122207 -0.00530782 0.07509266 -0.112270616 0.33609897 0.4717988 -0.34180894 -0.5069761 0.35389435 0.2942669 -0.22722723 -0.15285456 -0.20875996 -0.20857544 0.00030240923 -0.2733209 -0.18611002 0.20961532 -0.05630276 0.3906449 0.14785124 0.27902755 0.10341155 0.2747056 0.111943565 -0.19057153 -0.048938956 0.053715445 -0.2675307 -0.41425294 -0.17835216 0.3218361 -0.6617847 -0.09688866 0.23745231 -0.06836711 -0.16914082 0.01000451 0.07860708 0.22727431 0.42957193 -0.10601038 0.102040775 -0.38884673 -0.2181646 -0.20234703 -0.28463176 -0.05939039 -0.13943568 -0.3300702 0.032204915 0.5044554 -0.11922838 0.058984846 -0.060658455 0.1816365 -0.067442134 -0.010311411 -0.07400706 -0.04525985 -0.141428 0.2996493 -0.11782606 -0.15252088 -0.12487996 0.032644194 -0.01649492 0.38052467 -0.26366627 0.1529609 0.14647715 -0.30772516 0.13192119 -0.08319106 -0.114866115 0.354237 0.2602961 0.035466075 -0.22990319 0.028764766 -0.037830915 -0.01355676 -0.18017848 -0.18640894 0.4000747 -0.24889198 -0.06364693 0.26630223 0.31078672 -0.19900037 0.24929075 -0.15508968 -0.10959528 0.32420233 -0.3018629 -0.09844098 0.18407562 0.074356966 -0.004417655 -0.45979846 -0.25944442 -0.044726964 -0.0550418 -0.013128698 -0.043484986 -0.36738077 0.12926653 -0.3665729 -0.06099185
321 -0.36366576 -0.1272572 -0.0003274795 0.15349236 -0.18141833 0.033795126 0.20306164 -0.24376637 0.42919227 -0.1574216 0.2626332 0.09037926 0.25879538 -0.18478735 0.04442728 -0.038173728 -0.111536264 -0.22102053 -0.079927154 0.2570774 0.05368538 0.1417499 -0.046762716 0.3982709 0.14451763 -0.13900737 -0.2901515 0.14288624 0.23490787 0.14012331 -0.33094814 -0.017229514 -0.24683805 -0.08923196 -0.10933438 -0.057211824 -0.00616833 -0.1892971 0.100597985 0.031231634 -0.08779036 0.31023708 -0.078564346 0.19738911 -0.010855347 -0.00012613248 -0.38521996 -0.08627866 -0.40376255 -0.10649762 0.2726834 -0.22827332 0.013424854 0.104540646 -0.34932432 0.2472095 -0.22362345 0.28778398 0.0064940155 0.19564304 0.013650489 -0.11148618 -0.3230228 -0.3029741 0.26363295 0.2237861 -0.04460432 0.1455218 -0.1851746 -0.40236086 0.27201664 -0.025090253 0.05369342 0.16985327 0.19453081 0.2941351 0.06066454 -0.15133813 -0.32183138 -0.025550745 0.09752966 -0.085899875 0.07411384 0.17257674 0.21977752 -0.31073675 -0.050486207 -0.05557174 -0.18357976 0.17771372 -0.23920973 0.13896213 -0.20895731 -0.10377857 -0.17348997 0.49406818 -0.2667031 -0.1871173 0.2865597 0.097582825 -0.08085979 -0.00221807 0.08008146 -0.075206496 -0.22803386 0.08810645 -0.37317735 0.025542552 -0.11930992 0.030078791 0.04170842 -0.064866215 0.21757402 0.032504387 -0.008512101 0.18006916 0.02202509 -0.17710537 -0.08144379 0.054539844 0.10432479 -0.019469922 0.06259474 0.10080957 -0.14250158 0.20327376 -0.002046366 -0.3362409
32 0.0475972 -0.073958635 -0.057364028 -0.16164748 0.24821526 -0.19087961 -0.18052511 0.03817552 0.026741693 0.18238455 -0.15826392 -0.18000077 0.11128978 -0.0371172 -0.0065199025 -0.060345866 -0.31335333 -0.49348214 0.43069994 -0.072162494 -0.13865575 0.2903327 -0.2857047 0.18877475 0.07211754 0.26364902 -0.18817483 0.07640371 -0.12577035 0.10820148 -0.26409218 -0.1505929 -0.27462694 0.18783529 0.20240144 -0.39820203 0.18910162 0.10754894 0.13926025 0.27615273 0.0360479 0.23084308 -0.011017421 0.30988985 -0.04727403 -0.19339295 0.19104567 -0.13047472 -0.22726277 0.20115764 0.16875122 0.31938863 0.09845972 -0.20956025 -0.47180435 -0.3267569 0.37380105 0.16823016 -0.05724934 -0.1236365 0.1802356 0.11491852 0.5721764 0.06275264 0.25267 0.2487961 0.13766822 0.046090342 -0.055868812 0.1265219 0.30157715 -0.038737506 -0.23022358 -0.23630255 -0.34064227 0.07293537 0.01758957 -0.27631927 -0.21673441 -0.10239257 0.38951448 -0.2433511 0.04624151 0.31828314 -0.20836465 0.011647712 0.25191706 0.12657243 0.035024896 -0.007287581 0.02625991 0.12927146 -0.14228094 -0.044473138 -0.15492828 0.05425099 -0.14693873 -0.317742 -0.09701352 0.22511896 -0.12406268 0.037743177 0.067284375 0.064703286 -0.18682 0.1717606 0.33217493 -0.09041621 -0.17724365 -0.04811356 0.5497424 0.30309364 0.16699336 0.22289288 -0.1692043 0.15149067 0.100373775 -0.10855795 0.20315397 -0.07664487 0.2556648 0.15850797 0.0299838 0.17522801 0.0032185682 -0.14609726 0.063452385 0.24401224
830 0.16367884 -0.04825416 -0.39571428 0.03020752 0.10467525 0.12357811 0.09960429 -0.1115426 -0.25194466 0.17012407 0.3975413 0.048619717 0.07137415 -0.24203435 0.0061124354 -0.44700047 0.021035315 -0.031943865 0.13249692 0.39439678 0.30249944 0.5421868 -0.1909236 0.10695998 -0.07325221 -0.15844233 -0.06027907 -0.012253487 -0.07631174 0.051608425 -0.43925768 -0.32559714 -0.21728842 -0.11006614 0.19856957 0.009556737 0.29631007 0.08504088 -0.08665237 0.3652306 0.16787466 0.015649311 0.29550976 -0.2161024 0.12208032 -0.41123906 0.11883288 -0.2140104 -0.23367205 -0.17331326 -0.17043115 -0.022948544 -0.045560256 0.24342315 -0.033449724 0.008055541 0.09691423 -0.02869851 -0.032104537 0.1279347 -0.3171237 -0.14679684 0.09600146 -0.39589912 -0.026536047 -0.053699877 -0.24111739 -0.010604669 0.30423084 0.16455878 -0.11033496 0.018506136 0.024588723 -0.32030535 -0.0652539 0.07978054 0.07274921 -0.060165692 0.1357774 0.13368396 0.15679337 -0.18125138 -0.2853361 -0.099692486 -0.16716681 0.113609634 0.14909168 0.06276551 -0.06824354 0.03416728 0.15182014 -0.30236185 0.03666709 0.041574806 -0.09465668 -0.08751046 -0.31636333 -0.09926087 -0.14435971 0.21745545 -0.10218358 0.10005716 -0.09009659 0.07047716 -0.30520672 -0.102472745 -0.027447924 0.13862622 0.32758415 -0.11310016 0.024614835 -0.020069845 0.054540336 0.11227593 0.079721935 0.3540034 -0.12503187 -0.14935105 -0.20934752 -0.19402605 0.04054243 0.21289301 -0.0026193487 -0.085672654 -0.055643342 -0.1968509 0.2374911 -0.17582169
154 -0.033009723 0.17000328 -0.08228713 0.19319564 -0.1324437 -0.2843453 0.18554664 0.011596185 0.11877053 -0.23081338 0.08326404 -0.18621919 -0.0029153686 -0.08106916 -0.18126631 -0.154133 0.041533876 -0.23085237 -0.12953417 0.15174589 0.25002393 0.11840247 -0.15960684 0.045907866 0.20833413 0.0804344 -0.21101874 -0.1327043 0.004727667 -0.14549685 -0.16046347 -0.2279299 0.032865167 -0.03663608 0.068786256 0.2526803 0.3423444 0.20027311 -0.0807929 0.030253462 0.15403321 -0.022800013 0.22542036 -0.1119817 0.19170125 -0.3132791 -0.09020204 0.09943911 0.07360002 -0.098550364 -0.067937054 -0.012164208 0.29073313 0.0805423 -0.16070937 0.13186103 0.06480186 -0.30348492 0.15048744 -0.16975425 0.0072253197 0.114004605 0.41444957 0.2756201 -0.2987417 -0.0065370426 0.09783109 -0.06539835 -0.089052156 -0.13153782 0.008152423 -0.059886415 -0.18642299 0.10972284 0.19070126 0.27357897 -0.14231834 -0.1354559 -0.08119068 0.14800115 -0.057849344 -0.031446576 -0.0487862 0.14870825 -0.034824997 -0.045512613 0.17748833 -0.17069449 0.20904471 0.0065070083 0.07960861 -0.02533075 -0.22060378 -0.06676835 0.13101926 0.120792426 -0.534673 0.16750081 -0.17984481 -0.1261659 -0.4668132 0.11056314 0.15404052 0.1312344 -0.41406956 0.097916104 0.030650176 -0.15045443 -0.04822831 -0.31155246 -0.017284943 0.2781943 -0.098231636 -0.12330018 0.24050517 0.070653126 0.061823264 -0.035991978 0.103702925 -0.09727266 0.36279938 -0.18088189 -0.18854946 -0.20987941 -0.13720654 0.020126358 -0.29009724 -0.13461007
222 -0.034478966 -0.12063936 -0.17015032 0.29628012 -0.02935012 -0.11794705 -0.061350085 -0.26638892 0.20853631 -0.04285465 -0.011983603 -0.20350158 -0.07565392 -0.084188886 -0.10637478 -0.27872136 -0.17409985 0.01606494 0.30916512 0.03399408 0.086121716 0.2810256 -0.209072 0.14387056 -0.010787721 -0.05070668 0.14328745 -0.054740433 0.14447427 0.03229991 -0.15387036 0.1226618 -0.18245871 0.07663128 0.11326513 -0.0962831 0.022351254 -0.104144305 0.011133545 0.2666932 0.14260747 0.18524574 0.1485095 0.056486215 0.07885708 -0.01990222 -0.111075 0.22498924 -0.17537746 -0.11913581 -0.21974857 0.21654469 0.10106674 0.17604561 0.06054213 -0.052695543 -0.22556865 -0.14934541 0.11691372 0.073292635 -0.110279255 -0.090344295 0.38085774 0.23528731 0.36291733 0.07444749 -0.19139521 -0.18675959 0.31276906 -0.13564497 -0.300694 -0.05898303 -0.15944546 -0.070318274 0.5319859 -0.15008686 -0.07210107 -0.1946963 -0.09716079 0.11101886 -0.033737697 -0.18245362 -0.06580051 0.11936318 0.06631257 0.017435063 0.21326742 -0.110737234 0.23653682 -0.04242356 -0.09781962 -0.024427727 0.11710063 0.25397167 -0.1556736 0.28785148 -0.41501677 -0.11869224 -0.14594024 -0.043469876 -0.015242029 0.15036538 0.06921664 -0.054978713 -0.24464843 0.03407769 0.18254538 -0.012980633 -0.14255607 0.08100397 -0.06684307 0.11813675 0.014672568 -0.044072032 -0.09177439 0.3029503 0.1705261 0.34312293 -0.1627322 -0.26402736 -3.483138e-05 0.10221962 -0.030873973 -0.0731202 -0.09419666 0.09296654 -0.26055896 0.11487576
128 -0.060750585 0.39950633 -0.03592789 0.34474584 0.007915235 -0.27030706 -0.022257594 -0.41122994 -0.23655462 -0.2343554 0.08750786 -0.19652246 0.28370318 -0.25511384 0.083114795 -0.004925942 0.31093603 -0.12119285 -0.23096606 -0.047366656 0.13370669 0.07597915 -0.32298863 0.4232769 0.07210523 -0.23896979 0.07035575 -0.3575142 0.26832783 -0.0019747885 -0.14958826 -0.2359384 -0.18657278 -0.19228749 -0.074268274 -0.28724065 -0.26670662 -0.22610867 -0.42981482 0.0889003 0.07524037 0.30832273 0.018398449 0.099849716 -0.2347363 -0.21415074 0.21224992 0.019056864 -0.21109523 -0.39969411 0.014008014 -0.33803102 -0.08396092 0.21332045 -0.24381632 0.17214596 -0.19489874 0.21949594 0.097678505 0.03825282 -0.0016331462 -0.08900023 0.19253652 0.17355219 0.15181358 -0.085746475 0.1686322 0.354093 0.077785365 0.058149293 0.3600153 0.18409309 -0.097007744 0.07181019 0.14761047 0.22920832 -0.040913623 -0.01416351 -0.016760986 0.02039642 -0.061166912 0.314871 0.010731244 -0.26257518 -0.19499174 -0.22614805 -0.12957281 -0.12648968 -0.030902851 -0.024549894 0.18434373 -0.13032821 -0.10187781 0.046127275 -0.12135093 0.024459759 -0.24829067 -0.10808027 -0.043049157 -0.005329356 -0.15833655 0.02866261 0.07132722 -0.06521762 0.13256054 -0.12998682 -0.11647713 0.21388794 -0.2375969 0.16423395 0.15440391 0.33505976 0.15522656 0.08423625 -0.017037675 0.21970047 0.21988186 0.08497991 0.15569557 -0.09068196 0.058526337 0.34651574 0.30094138 0.1167803 0.026940227 0.038963474 -0.16849156 -0.20341192
229 0.13580401 0.21443294 -0.1691129 -0.060466476 -0.014566976 0.340779 -0.18382387 -0.09764441 -0.01759218 -0.34464458 0.10362455 -0.018451424 -0.048916914 -0.009149465 0.31000653 -0.2433282 -0.08085986 -0.19051874 0.21578197 -0.028151585 0.5124672 -0.103722446 -0.016441792 0.117234245 0.05541148 0.024252113 -0.08245362 0.053164404 -0.058674447 -0.20669876 -0.13926902 0.089556955 -0.066974804 0.0026588507 0.023079483 0.07245394 -0.050832137 0.21363153 -0.003109082 0.12733288 0.18414547 -0.006990412 0.038880832 0.04966866 -0.05303 -0.15105745 -0.10436491 0.10553434 -0.25689092 -0.091753416 -0.10658125 0.13521077 0.1493693 0.037498083 0.068289295 0.19278069 0.0039310497 0.037275147 0.19954006 0.11625766 -0.096916005 -0.21238327 -0.22350052 -0.09137977 0.16202557 -0.24011646 -0.21771087 -0.013525903 -0.13961068 0.07492283 0.22832307 0.098597914 -0.3161004 -0.46435466 0.017980961 0.06388506 -0.44458812 0.4274577 -0.39681193 0.24583942 0.30302715 -0.18224393 -0.34264418 0.3372139 0.0074068094 -0.40905732 0.14000235 0.087559715 0.03503814 0.04703427 0.032670014 -0.07751303 -0.11817413 0.058039434 0.14873928 0.09076658 -0.20284124 -0.18799974 0.03797946 -0.047574487 0.016099619 0.05738624 0.018079458 -0.41866934 -0.029248573 0.1068527 0.29543838 -0.01423337 -0.4979786 0.045283265 0.26835263 0.15484539 0.0206995 0.062419545 0.052206974 0.11437296 0.012754093 0.06961972 0.020955604 0.071052425 -0.17374323 -0.105792865 0.041271973 0.19053052 -0.33474243 0.09209847 0.18721983 -0.12552243
60 -0.04179236 0.44702736 -0.50815195 -0.029418183 -0.08026299 0.22603527 0.115834616 -0.39969972 -0.0025275194 0.03310245 0.25193918 0.04784915 0.16471195 0.043213986 0.33683887 0.08875133 0.010656112 -0.05415273 0.15055294 0.094175175 -0.049786776 -0.29106402 -0.23534518 0.2628636 0.071878314 -0.22152527 0.14961183 -0.0025575354 -0.11482004 -0.09712222 -0.2554888 0.09936348 0.3039262 -0.15891384 -0.029071111 0.32235762 0.18241611 -0.23990771 0.25373897 0.11929227 0.38596773 0.2108122 0.4712335 0.09293994 -0.083313115 -0.13105069 -0.09591884 0.040959258 -0.23205219 0.19293678 0.003785028 -0.045618035 0.26436287 0.16552168 -0.119038984 -0.062354475 0.066012144 0.097390614 0.098896734 -0.35290152 -0.14715616 -0.12197694 -0.045464437 -0.194687 0.15763476 -0.2936728 0.09366052 0.041429456 -0.09768662 0.23665974 -0.12210638 0.50345796 0.13418092 0.1450188 0.41745806 0.16100158 -0.28563818 -0.029303327 -0.05009791 0.02380231 0.0357413 0.24699524 -0.08563441 -0.03830035 -0.10341802 -0.46984494 0.26300973 0.05980224 0.13423206 -0.00511888 0.0076131593 -0.06467495 0.05632289 -0.0072961156 -0.20457324 0.3272544 -0.13052756 0.028798131 0.041432228 0.010668919 -0.28868636 -0.041778535 0.18796887 0.17734121 -0.31605372 -0.058547188 0.04574645 -0.10992233 -0.09320778 0.028836891 0.087899305 0.16124989 -0.06549357 -0.10136227 -0.042977806 -0.07618749 -0.1701179 0.23043002 -0.18361196 -0.062214054 0.2760521 -0.10189193 0.24033308 0.17093256 0.045958135 0.30355948 -0.20710379 0.0075072385
8 0.07420991 0.28727558 -0.012424237 -0.20664722 0.0062418873 -0.058513504 -0.24947095 0.050492227 -0.014556468 -0.19548766 0.15443483 0.059345152 0.3070132 -0.3872234 0.014810466 -0.18623328 -0.14393541 -0.20488119 0.38105658 0.057300236 0.24712227 0.21481907 -0.3161613 0.06723333 0.16829623 -0.1609796 0.021385731 0.19852065 -0.04024556 -0.14094628 0.12884639 -0.0906436 0.063069895 -0.013408305 0.16959389 -0.14478198 0.02002813 -0.6064152 0.14513631 0.13343592 0.60559815 0.301897 0.034352273 -0.16920732 0.2568975 0.027458014 -0.010987487 0.008036115 -0.08849201 -0.09585774 0.3252469 -0.11992754 0.40538898 0.3137468 0.3156079 0.3155447 0.29839537 -0.021019794 0.3897673 0.17225917 -0.4695686 0.08440931 -0.4266456 0.26512277 0.09943728 0.22331585 0.26301733 -0.16248822 -0.3406096 -0.104138024 0.25440377 0.4040038 0.14995307 -0.22053574 -0.11945178 0.08027811 -0.110800266 -0.36586332 0.012365961 -0.31018838 0.17875153 0.02590376 0.118365146 0.30782402 0.017476602 0.08311977 0.068331614 0.3925099 0.1349216 0.029320206 -0.05375067 -0.11095249 0.04472497 0.21199498 0.01776807 0.028808508 -0.28958866 -0.036301784 0.1100894 -0.19363682 0.29949743 -0.058774486 -0.30959532 0.15537955 0.03987372 0.32865745 0.00014574657 0.0920907 -0.20274244 0.09733004 0.15111622 -0.17503107 -0.015389851 0.04902806 -0.098574586 0.5853017 -0.063932195 -0.12413805 0.18059696 0.45825195 0.08413839 -0.31851617 -0.045872826 -0.20415579 0.24574123 0.11430107 -0.21349551 -0.17719062
16 -0.26647767 -0.08289347 -0.24662738 -0.075087674 0.2136891 -0.1522366 0.115231164 -0.07477498 0.114841565 -0.15096352 0.02641258 0.14075509 0.14302836 -0.05827702 0.19793251 -0.06313025 -0.042355172 -0.3355951 0.27940854 -0.012345106 0.0832883 0.23550431 0.05590086 0.3660681 0.16204329 -0.2422992 -0.163554 -0.08695022 -0.15885067 0.019318182 -0.30146015 0.06027208 -0.0075124516 -0.42866957 0.13565494 -0.02537678 0.21689135 0.11628755 -0.17514057 0.23329665 0.0056258636 0.20107433 0.01576301 -0.011099925 -0.040356036 -0.34146947 0.08135248 0.0052011698 0.048588593 0.08318385 -0.5259828 -0.0484754 0.14763509 0.020738618 0.04122602 0.197238 -0.07325457 0.3123151 0.051150396 -0.05408089 -0.29392552 -0.14659278 -0.0860714 0.1584288 0.0164285 0.06377721 -0.024257805 -0.18010141 -0.09450488 0.011478246 -0.3366738 0.004905799 0.12355417 0.086967774 0.3141005 -0.046246998 -0.22210605 0.16687134 0.05070001 0.035810217 0.08917935 -0.21659368 -0.10899351 0.122533895 -0.008846197 -0.030610055 0.1725784 0.045095418 -0.07168713 0.13527402 0.25553575 0.12612765 0.062477197 -0.13346535 0.12234754 0.23876098 0.07861567 -0.080346406 -0.008303487 0.10387514 -0.19856827 0.0035759504 -0.02647865 -0.1828655 -0.17543718 -0.033525243 -0.0037225005 -0.13235138 0.010332044 -0.0055858465 -0.0530042 0.3260944 -0.17489932 -0.08231414 -0.22494367 0.41945776 -0.0001578035 -0.07395498 0.10076603 -0.03370911 0.22860798 0.031835917 0.28461903 0.07579956 -0.13610211 -0.030087356 -0.037389394 0.26956847
160 0.21573213 0.11052111 0.07863317 0.44451302 0.052329794 -0.09771604 0.15399271 -0.039018963 0.18757239 -0.019708304 0.13365412 -0.29799998 0.046476066 -0.30163863 -0.18769336 0.0040764567 0.27458277 -0.21408364 -0.029027456 0.31686097 -0.031908393 0.24215555 -0.14872001 -0.19287083 0.15720911 0.046001486 -0.18411176 0.06774924 -0.0973742 -0.08882419 -0.0005352787 -0.3394434 -0.2904165 0.006254803 0.062678605 0.03753281 -0.16164894 0.00025226842 -0.13079812 -0.12548476 0.38512617 -0.04618137 0.50881165 0.2698832 0.06301085 -0.07346792 0.015762763 0.12758167 0.07862803 0.32859418 0.38119435 -0.14747895 0.24233168 -0.16223256 -0.2386823 0.062088825 -0.05220198 0.34637976 -0.045990963 -0.2409584 0.022777678 0.20899132 0.077419445 -0.022127766 0.07247429 -0.122046515 -0.058483154 -0.27862617 -0.04891117 -0.06961983 0.18524808 0.47861904 -0.2943094 -0.055907786 0.040925264 0.14041236 0.011993194 -0.16788489 -0.25973415 0.21193424 0.16544116 -0.09498702 -0.34186864 -0.0010697278 -0.088670105 -0.2249364 -0.22281858 0.26629075 -0.056447044 0.12456885 0.26218367 0.1845665 -0.29157203 -0.11019209 0.04938658 0.16007882 -0.30455652 -0.31046554 -0.08348844 -0.17603953 -0.08564078 -0.16276357 0.06017211 -0.44955945 -0.15647529 -0.0825671 -0.061670355 0.0947594 0.14075148 -0.54637015 -0.07409845 0.110966526 0.13372375 -0.15787682 -0.14558317 -0.012937109 -0.048796713 -0.0034621053 0.05342621 -0.03780652 -0.15813723 -0.04379067 -0.18165697 -0.19964679 -0.3841932 0.09942377 -0.20618275 0.0973552
35 0.04400702 -0.04824967 0.049992982 -0.017826349 0.21067668 -0.21254122 -0.18717262 0.13504116 0.30553773 0.2895042 0.06284953 -0.14212115 0.32715043 0.13693443 0.20836638 -0.08982162 -0.27814487 -0.27665687 0.1341195 -0.15405634 0.042566124 0.011244747 -0.37075204 -0.1273169 -0.22350524 -0.04665123 -0.22236681 0.07637805 0.108681604 -0.08576573 -0.15569733 0.20385863 -0.58073974 0.20989385 0.382866 -0.43078908 0.22217906 0.095252834 0.15332021 0.03949121 -0.45303282 0.19944961 0.012846538 0.40193304 -0.33032387 -0.37933958 0.20934235 0.003867628 -0.0017636089 0.07320509 0.174521 0.0151603 0.19654486 0.023201302 -0.12663677 -0.30208102 0.15393953 -0.034319986 0.044252697 -0.26341486 0.18298228 0.19683297 -0.018193467 -0.10408612 0.15570824 -0.101970024 -0.21329279 -0.036255814 0.06108647 0.2533095 0.0053281467 -0.10838374 -0.12919599 0.098477155 -0.2460589 -0.07849971 -0.11915227 -0.02755753 -0.2260758 -0.22180372 0.21924058 -0.09164752 0.11279357 0.20872574 -0.33279344 0.06897604 0.5224172 0.062405966 0.27525726 0.6339374 -0.094381735 -0.08935381 -0.24179186 -0.28881776 0.018643988 0.31397727 -0.26394692 -0.27167207 -0.17793041 0.12997334 -0.139992 0.02207907 -0.10374005 0.24420722 -0.09539273 0.096650265 0.094449475 0.06639356 -0.038285986 -0.09458937 0.32693574 0.22451915 0.4801286 0.07071549 0.031525522 0.16937084 0.17998025 -0.1185168 0.047547128 -0.025967162 0.12155 -0.13012269 0.13758324 0.21612625 -0.13855043 -0.079429656 -0.038360875 0.1996461
