77 128
76 -0.19501469 -0.173253 -0.15525499 -0.11235417 0.10607694 -0.104203686 0.124010295 -0.015058683 0.0010677889 -0.04967451 -0.07793798 0.25394177 -0.0071327346 0.071354374 -0.020451747 -0.16102079 0.13059068 0.034049068 0.15556155 0.24220052 -0.03786138 -0.22633916 -0.07557317 -0.09441941 0.14247668 -0.069683395 -0.2243861 0.13597164 0.03765744 -0.10039693 0.13944578 0.21584024 -0.089641355 0.039739773 0.064783275 0.11126407 -0.08225818 -0.068381555 0.007205 0.08427392 -0.097442895 0.10605511 0.09335523 -0.19733986 -0.06624198 0.18663199 0.11742882 -0.0911976 -0.047526017 -0.033749487 -0.09928666 -0.005152276 0.21252215 -0.10561547 -0.16398843 -0.12399517 0.16028464 0.17711477 -0.10847404 -0.0893877 -0.07610296 -0.07477022 -0.023438817 -0.0854636 -0.18136762 0.031024797 -0.045393154 -0.2865296 0.029041363 0.10516816 0.229951 -0.017076697 0.2154179 0.07680307 0.23772477 -0.003096436 -0.007859503 -0.13678996 0.22496614 0.05134599 0.21267131 -0.036211085 -0.22969691 -0.019405026 0.16780652 -0.010891127 0.033035446 0.017301366 -0.091592394 -0.020498764 -0.08978769 0.3190179 -0.17492175 -0.060540374 -0.2831321 0.066228 -0.011934509 0.0028973725 0.2950705 -0.07515717 -0.1535721 -0.01572948 -0.14095744 -0.026487332 0.12481727 0.11140078 0.1503644 0.16929479 -0.08952313 0.012832125 -0.13485043 0.008336499 0.020371115 0.06455981 -0.12709753 -0.0036593678 -0.009924845 0.02304519 0.042610604 0.16846657 -0.07272858 -0.0034704567 -0.07876924 0.06972695 0.04418552 0.066346355 0.046812925 -0.018062262
2 -0.23296843 -0.2733153 0.0031812899 -0.046630688 0.049353603 -0.12113888 0.06942253 0.03963306 0.022670178 0.03739832 -0.003308699 0.30907205 0.018524216 -0.23182154 0.023068594 -0.1741504 0.013969787 -0.09401456 0.08201698 0.081048876 0.17105587 -0.032581825 0.09237453 0.04451257 -0.037016224 -0.089032814 -0.099346824 0.015873102 -0.030533955 0.015022945 0.114451066 0.120348945 -0.2060975 0.01961495 0.03877741 -0.09777881 0.22318754 0.11749939 0.059671048 0.00050614035 -0.1459764 0.08992749 0.1410733 0.070503294 -0.16367546 0.18209766 0.059153248 -0.09315662 -0.14967865 0.067493275 -0.08330387 0.056487698 0.11107341 -0.055942133 -0.19696997 -0.18759142 -0.05727797 0.1202956 -0.15094127 -0.012733184 0.06433888 -0.18791363 -0.07021289 0.06489701 -0.07229444 -0.095067926 -0.039040744 -0.1579152 0.03497319 -0.04704998 0.0498144 0.05196247 0.08906736 0.011298731 0.27993307 0.05689249 0.12355158 0.0774227 0.012182816 -0.022900393 -0.014603539 -0.07736651 -0.1290838 -0.1381174 -0.12180432 0.23010662 0.17178264 -0.103332765 -0.0038460947 -0.008521659 0.009267114 0.16862443 -0.032361608 -0.083821245 -0.21803568 0.15153363 -0.09311197 -0.12179028 0.19340882 0.0018263153 -0.20970353 -0.010768723 -0.12134915 0.0071300566 0.068654 0.008321881 0.2857361 0.10905724 -0.0043608993 -0.07859556 -0.032013774 0.051168654 -0.00020326866 -0.011874667 -0.15212879 0.05258131 -0.13303445 0.132777 -0.14590135 0.02747646 -0.07622796 -0.16607134 0.08117466 -0.22591624 -0.118721254 0.078425355 -0.018831544 0.116478175
1 -0.25172725 -0.30103633 0.011294419 -0.032774664 0.035747368 -0.1525177 0.081251256 0.038254358 0.022939812 0.055694785 -0.012604794 0.33392036 0.02981671 -0.25489837 0.04058792 -0.1777528 -0.0013193724 -0.11452448 0.07912838 0.07668424 0.20193455 -0.03180263 0.104385495 0.04553452 -0.03849757 -0.06711273 -0.08517129 0.016457591 -0.012656223 0.024497053 0.0954596 0.13545652 -0.21975961 0.037831895 0.022056568 -0.12379076 0.2486879 0.12937126 0.065987594 -0.012122925 -0.1789477 0.088062115 0.13951296 0.104983464 -0.16384089 0.19209138 0.058644984 -0.094132386 -0.16608523 0.071083225 -0.09860406 0.07623019 0.119426556 -0.0643794 -0.22770332 -0.20281455 -0.083044186 0.119554564 -0.15442939 -0.03154994 0.1146757 -0.2313337 -0.06124923 0.09463476 -0.050379064 -0.110711835 -0.05633527 -0.15899293 0.03522126 -0.062133502 0.055052795 0.06263362 0.08261545 0.0053514284 0.3258808 0.08611897 0.15039513 0.06578085 0.013925607 -0.020331603 -0.0300503 -0.09542457 -0.106995486 -0.17486714 -0.18072034 0.26546463 0.15015475 -0.108611226 -0.001933581 -0.02253693 0.015717046 0.19900042 -0.012925932 -0.10650164 -0.23898147 0.1762209 -0.09194546 -0.12816563 0.2153213 -0.01613786 -0.24554121 -0.0047975453 -0.13211966 0.015596333 0.065530926 0.006143171 0.3052954 0.0831613 0.021844393 -0.11452635 -0.03759053 0.041941486 -0.024921034 0.017816808 -0.15602446 0.07540402 -0.16482714 0.19039857 -0.1560125 0.022129802 -0.08674771 -0.1829461 0.08537625 -0.27252162 -0.1258971 0.056385532 -0.028355952 0.14305225
74 -0.18725929 -0.11379246 -0.1634943 -0.105479516 0.1314279 -0.040983647 0.15552858 -0.018956145 -0.025081366 -0.10642234 -0.06993914 0.29792285 -0.0058030556 0.090966605 -0.03881282 -0.15911216 0.12360652 0.095810845 0.12745912 0.2063082 -0.11900794 -0.17398037 -0.12471231 -0.08260151 0.11405253 -0.05032937 -0.19268966 0.15088624 0.0781154 -0.15389735 0.12381754 0.17152531 -0.12674932 0.024176974 0.06390111 0.12937844 -0.098606706 -0.08555563 -0.0037791675 0.12880434 -0.0755658 0.10475959 0.18392108 -0.26288226 -0.087085426 0.17421058 0.19534679 -0.14362395 -0.019335583 -0.094085574 -0.14742123 0.0047134254 0.16890897 -0.12064076 -0.17559496 -0.15824367 0.1329834 0.15347774 -0.07893399 -0.09659649 -0.07014784 -0.15567076 0.040790632 -0.072946735 -0.20111835 0.072560415 -0.063654125 -0.32642898 0.10255709 0.10411764 0.26908407 0.019062886 0.18921752 0.101814166 0.24700432 -0.04019342 0.0727625 -0.19855693 0.22329858 0.08739564 0.26801738 -0.049384654 -0.21464951 -0.040591978 0.20032454 -0.046491507 -0.014755891 0.10783059 -0.096017964 0.024932414 -0.13296835 0.30596521 -0.15413943 -0.016210431 -0.31234843 0.06584411 0.046782408 0.022880655 0.2921168 -0.04711768 -0.15188737 -0.03884906 -0.13431537 -0.04923854 0.13659222 0.10993934 0.09585143 0.10269435 -0.081991635 -0.030261088 -0.18909141 -0.05116769 -0.028006919 0.05715418 -0.14318648 -0.0066891476 -0.017652025 0.041404054 0.10100701 0.16983806 -0.0473279 -1.2939447e-05 -0.06124887 0.12793761 0.06799709 0.03814046 0.02685438 -0.068795025
0 -0.22429655 -0.2021237 -0.00534347 -0.088947736 0.07034678 -0.031203432 0.04265323 0.05205573 0.06138018 -0.026777811 0.045902923 0.2939304 0.0008660669 -0.2135441 -0.008973943 -0.14840858 0.02558517 -0.02983331 0.07605915 0.048070744 0.08895603 -0.014336464 0.034168523 0.07440026 -0.041855853 -0.12457738 -0.09847703 0.0023560938 -0.06522275 -0.059700757 0.13256335 0.08443578 -0.22795357 -0.034012053 0.10900001 -0.07475891 0.19013302 0.10874701 0.05552359 0.06247847 -0.10020376 0.061834417 0.21401851 0.0006388018 -0.17270285 0.16803882 0.11945279 -0.12252576 -0.11759558 0.045869112 -0.11653507 0.033893317 0.06816294 -0.07743723 -0.14665693 -0.1947437 -0.0700875 0.12026657 -0.1399846 0.0032125372 0.010794656 -0.19353533 -0.05505891 0.04794387 -0.12212844 -0.055665664 0.004067884 -0.19831075 0.09779344 -0.024219615 0.06344932 0.046622064 0.13321315 0.035120312 0.25433353 -0.00994353 0.16110094 0.10761981 -0.010718714 -0.04300175 0.043681305 -0.045664065 -0.16162968 -0.13021132 -0.07408626 0.16534837 0.25403094 -0.06803138 -0.0043250057 0.06473842 0.00032337796 0.12051782 -0.0631479 -0.004292428 -0.24334902 0.11571735 -0.06766317 -0.14557578 0.19159526 0.096197225 -0.17287117 -0.042867932 -0.116908975 0.018368527 0.07235793 0.016559314 0.25069153 0.1365462 -0.021540785 -0.052191976 -0.052659985 0.053614616 0.041678093 -0.06068346 -0.16935225 0.036356255 -0.10972109 0.08086982 -0.13588831 0.046725582 -0.05672908 -0.14786978 0.100943066 -0.15689446 -0.14656104 0.10105318 -0.039236452 0.080531925
3 -0.25772354 -0.27274624 0.010924544 0.00011244501 0.06018453 -0.13545735 0.09184679 0.03089945 0.0057360562 0.033877578 -0.0141561655 0.3523298 0.014634062 -0.25704518 0.039176855 -0.1684436 -0.014970062 -0.08926656 0.07250294 0.046676207 0.15792397 0.010927341 0.10556575 0.039714433 -0.061718952 -0.046214495 -0.046718597 0.02453937 0.016715156 0.013136293 0.087311596 0.1082963 -0.22912948 0.0399 0.02891097 -0.11433426 0.22306651 0.116106465 0.04461532 0.005131648 -0.15377353 0.08362719 0.19450003 0.08265254 -0.19158912 0.16729562 0.10316128 -0.11731491 -0.15917668 0.041432694 -0.106354356 0.060465332 0.091326 -0.07564553 -0.24882342 -0.2357273 -0.071223035 0.10535251 -0.13315542 -0.028383888 0.10020359 -0.22185846 -0.049489915 0.08528358 -0.06693899 -0.095051974 -0.043461956 -0.13453034 0.05485399 -0.06828724 0.08922357 0.0768792 0.028581725 0.024533417 0.30289334 0.06421916 0.17996123 0.027743315 0.013744646 -0.017036792 -0.0042586327 -0.100405924 -0.098575585 -0.17902546 -0.11708742 0.23987667 0.10917704 -0.06277523 -0.022224428 -0.0028743893 -0.029758217 0.17482662 -0.011286847 -0.07828371 -0.2207727 0.15646733 -0.070495985 -0.10241287 0.18666574 0.00013353548 -0.20920262 -0.037329815 -0.1356275 -0.02160897 0.0947684 -0.017113686 0.26187235 0.06502599 0.014349686 -0.14615494 -0.030551761 0.022278836 -0.055744328 0.007888148 -0.15775475 0.073383935 -0.12939991 0.1925698 -0.1439283 0.03493384 -0.035457097 -0.1910857 0.102637365 -0.23643048 -0.111469045 0.04036911 -0.04143739 0.11238591
25 -0.18078278 -0.21079165 -0.16079693 -0.13903148 0.073689565 -0.13744365 0.11688814 -0.022538567 -0.0014693694 -0.0049049715 -0.08634134 0.22561587 0.0075544617 0.06457164 -0.019684182 -0.18395638 0.1459712 -0.026111335 0.15675277 0.28704193 0.03725582 -0.26472592 -0.051614296 -0.07971955 0.16790736 -0.09709693 -0.25843465 0.13051482 0.0031218727 -0.048164833 0.1414418 0.2395517 -0.06828876 0.038490668 0.02680904 0.09146675 -0.039277226 -0.034316484 0.025811667 0.035993237 -0.121530406 0.12753013 -0.0064653438 -0.15628394 -0.029509634 0.21210192 0.04677044 -0.048244335 -0.067106955 0.015115817 -0.06439752 0.020503674 0.23800793 -0.079767 -0.1415514 -0.08086125 0.1516081 0.17827812 -0.12992337 -0.08695296 -0.06417477 -0.06791769 -0.043558583 -0.07034904 -0.15187044 -0.011069595 -0.06270571 -0.27796763 -0.010973867 0.10631084 0.16472621 -0.028622707 0.23611744 0.056201536 0.228944 0.024642462 -0.0700273 -0.091069214 0.23107116 0.056590952 0.15869518 -0.0301161 -0.2150809 -0.0059742667 0.097075894 0.033191234 0.054156996 -0.04361872 -0.07336007 -0.06820705 -0.047990035 0.32342836 -0.1580469 -0.10957413 -0.25797582 0.10093114 -0.048879433 -0.0030627467 0.29531062 -0.12445917 -0.19234864 0.044274386 -0.1263152 0.0109816585 0.084891595 0.12758417 0.18821357 0.16425318 -0.0729523 0.05898551 -0.123106524 0.02297912 0.04417749 0.070840724 -0.10838207 -0.0085547 -0.046523433 0.00983996 0.038842164 0.13434203 -0.12460327 0.0056012073 -0.10985547 0.010063022 0.040243316 0.086393386 0.052366577 0.016444726
44 -0.18799476 -0.15715483 -0.12820014 -0.034678996 0.09892021 -0.10570419 0.16825499 -0.027582591 -0.05010142 -0.04359221 -0.093862265 0.32624853 0.015661448 0.030205831 -0.0006944451 -0.15866266 0.06814844 0.032221552 0.09988521 0.18775252 -0.037705068 -0.13019074 -0.05840692 -0.08530958 0.080842465 0.0026749205 -0.13091923 0.12991025 0.11436864 -0.09043243 0.07764927 0.15346992 -0.12790062 0.058825117 -0.0022692846 0.06766262 -0.033139493 -0.04931107 -0.003812822 0.06459142 -0.11541812 0.110711105 0.14925258 -0.16291808 -0.09337396 0.15898998 0.15582053 -0.121832214 -0.052701123 -0.082926184 -0.13381045 0.02820415 0.16185941 -0.117004625 -0.21107611 -0.17300858 0.09039831 0.12047207 -0.06263568 -0.11099041 0.019377664 -0.18475331 0.041372824 -0.020123951 -0.12287329 0.034334697 -0.10572336 -0.24620561 0.07816684 0.060263004 0.23764601 0.045378003 0.10545471 0.071642466 0.26196814 0.023781173 0.0915576 -0.21020134 0.19658338 0.09941201 0.18956915 -0.089061886 -0.13001668 -0.09209985 0.10740189 0.03414759 -0.08140948 0.08590317 -0.08321109 -0.018878466 -0.12749411 0.30080825 -0.09368883 -0.065076314 -0.26915663 0.10290245 0.033603452 0.0390185 0.24977107 -0.09766784 -0.16874483 -0.018660583 -0.12422962 -0.05695607 0.12294106 0.080249295 0.11205962 0.0308474 -0.0352709 -0.085853204 -0.15364881 -0.06438899 -0.09942298 0.09536423 -0.12312446 0.03070849 -0.052750207 0.12697686 0.0720819 0.13259363 -0.036293633 -0.042423625 -0.04497623 0.027749348 0.07274509 -0.0064068725 0.019301597 -0.028518716
57 -0.19282505 -0.12753394 -0.180825 -0.10579326 0.14335446 -0.06776282 0.1717973 -0.02824638 -0.032114975 -0.09451347 -0.0904985 0.31408545 0.00058123714 0.1150431 -0.03757483 -0.17806482 0.13157573 0.089617774 0.1396512 0.24271865 -0.12165569 -0.20526262 -0.12469832 -0.11231179 0.13728924 -0.046047755 -0.21205649 0.17184485 0.092214815 -0.1522359 0.12225852 0.19484445 -0.112620816 0.037854638 0.049826555 0.15018746 -0.12191124 -0.09950924 -0.0081826495 0.12774998 -0.08228182 0.113747984 0.17754795 -0.27862325 -0.08670144 0.18949488 0.19819126 -0.14598726 -0.022501716 -0.09484122 -0.14998938 0.0011848506 0.19489658 -0.12962712 -0.19308878 -0.167398 0.1609066 0.1736449 -0.08048299 -0.11027982 -0.07214535 -0.14084738 0.027778642 -0.08240925 -0.20302245 0.07454229 -0.07794168 -0.34103963 0.09392982 0.11525654 0.29299128 0.016518168 0.200157 0.10400265 0.25927907 -0.03601903 0.053456284 -0.22352108 0.2539187 0.10376568 0.28403762 -0.050605208 -0.22070892 -0.03080466 0.22485942 -0.045536976 -0.031701118 0.10162348 -0.103138946 0.012785321 -0.14201564 0.33959094 -0.17557333 -0.02552127 -0.32086357 0.07170665 0.040320825 0.035872743 0.31407037 -0.076389395 -0.15575594 -0.031340957 -0.14552918 -0.056153182 0.13845314 0.120627135 0.10269084 0.1145469 -0.08790026 -0.024049014 -0.18642834 -0.05177723 -0.042196855 0.078473784 -0.14495815 -0.004522588 -0.0031170808 0.04436011 0.112008646 0.18402444 -0.044776913 0.008211801 -0.08461354 0.13976213 0.08678203 0.032168325 0.046839293 -0.06839702
41 -0.1990971 -0.15639672 -0.12318444 -0.050314244 0.13069084 -0.09875443 0.16573581 -0.029091204 -0.0353253 -0.068887934 -0.083271824 0.33199897 -0.007071414 0.041388948 -0.0060447925 -0.17176323 0.09511174 0.051820833 0.13032235 0.19770983 -0.063240334 -0.14893183 -0.068713985 -0.095188096 0.085928366 -0.021304384 -0.15766242 0.14115587 0.09328184 -0.11016155 0.1040306 0.17510222 -0.1295605 0.054409422 0.036687456 0.099465854 -0.06692434 -0.06457327 -0.008880169 0.08598258 -0.08574928 0.104989395 0.1764124 -0.19898555 -0.10386643 0.17014545 0.17326488 -0.13083921 -0.04539327 -0.07895358 -0.13325459 0.011740555 0.16584137 -0.11636433 -0.21286476 -0.17908037 0.1295636 0.1482932 -0.081668556 -0.099086195 -0.028104346 -0.14089079 0.02247894 -0.05000397 -0.17058308 0.045308303 -0.07842699 -0.27083683 0.07050952 0.07464933 0.25948778 0.029014122 0.1296958 0.095076285 0.24937518 -0.012024602 0.078124866 -0.20124713 0.20380262 0.08551803 0.21970186 -0.07213787 -0.18270358 -0.05835694 0.16954687 -0.006297865 -0.056891978 0.07984174 -0.090607174 -0.006327316 -0.1368917 0.29975817 -0.12373063 -0.05013648 -0.27038053 0.080269836 0.020682808 0.031986434 0.2684479 -0.06982572 -0.15575126 -0.044573985 -0.13117819 -0.06439301 0.14467277 0.079486355 0.11723693 0.08769803 -0.06892561 -0.066978976 -0.15007685 -0.0446536 -0.06871589 0.06612951 -0.14049658 0.0053516934 -0.019233128 0.084442034 0.06015207 0.1574754 -0.0318354 -0.037734527 -0.04586382 0.06722481 0.057330612 0.02360955 0.031003162 -0.04433865
12 -0.258566 -0.27064177 0.018911015 -0.012528074 0.061885763 -0.119202875 0.0828578 0.03478902 0.01882014 0.026442997 0.0049115103 0.36473903 0.01118627 -0.26365098 0.038210474 -0.16364922 -0.019495975 -0.07489858 0.077455446 0.032692924 0.15679345 0.027394755 0.10239597 0.047669742 -0.08141899 -0.059938844 -0.043845057 0.012575486 -0.0010576422 0.0005681199 0.09874044 0.10379773 -0.24418695 0.03094095 0.05165437 -0.11254319 0.23098294 0.12682238 0.04683884 0.021662977 -0.14749166 0.075876236 0.22107348 0.08021845 -0.19888191 0.17608434 0.11263871 -0.12840427 -0.15952466 0.040743455 -0.11977801 0.06350139 0.08108965 -0.07836796 -0.243612 -0.24192823 -0.08356168 0.10619343 -0.13564582 -0.018525416 0.10152182 -0.22227867 -0.05416553 0.0861326 -0.07758693 -0.09036694 -0.0342178 -0.14834915 0.07051495 -0.06728817 0.08697336 0.07833579 0.040764607 0.02659086 0.3027231 0.05269062 0.19243628 0.05358623 -0.009049187 -0.025188625 -0.00673797 -0.09101322 -0.111241184 -0.17912883 -0.12826681 0.23231573 0.13455383 -0.067291774 -0.01886924 0.014649657 -0.0164857 0.16062878 -0.010009854 -0.06422438 -0.22183357 0.146396 -0.06478155 -0.122930884 0.18593292 0.031586904 -0.20779908 -0.053531125 -0.13498554 -0.011323832 0.08895385 -0.02805914 0.26596242 0.075777195 0.012945653 -0.1487414 -0.031026341 0.029289695 -0.04088848 -0.0076862397 -0.16312832 0.073207766 -0.12855877 0.18880388 -0.16465811 0.029700862 -0.035959516 -0.19496275 0.12499107 -0.22708777 -0.13273135 0.046752572 -0.04710862 0.11249756
67 -0.18147683 -0.12758997 -0.15917975 -0.08887187 0.13920324 -0.07033037 0.18473831 -0.034428567 -0.0444778 -0.08514668 -0.085460626 0.3233599 0.00028486608 0.085986145 -0.026027171 -0.18895698 0.12837061 0.07030628 0.12265363 0.22918497 -0.10347776 -0.18767568 -0.1190175 -0.10452104 0.12766232 -0.044486366 -0.19804531 0.16098441 0.100401424 -0.14271505 0.11299623 0.17214452 -0.12674864 0.036027655 0.02796953 0.13170208 -0.08542174 -0.07979624 0.004181188 0.10846626 -0.089649774 0.123591594 0.17689878 -0.25487518 -0.088576816 0.18821661 0.18839204 -0.14455335 -0.027661255 -0.09328307 -0.1431518 0.020346308 0.18598221 -0.1179614 -0.19687125 -0.16349404 0.13761167 0.15901028 -0.082008325 -0.10381231 -0.043809917 -0.1759719 0.04004353 -0.058318485 -0.19000728 0.068096414 -0.09860966 -0.3326475 0.10223832 0.09841248 0.27327824 0.034151927 0.18361017 0.10259271 0.27000487 -0.026636682 0.06777679 -0.21716188 0.23806866 0.116242446 0.2607509 -0.06439335 -0.21000707 -0.046247963 0.18538384 -0.019628257 -0.04756257 0.10021564 -0.08549589 -0.0018552619 -0.13943483 0.33538902 -0.14464179 -0.04286446 -0.30884185 0.08857652 0.038131557 0.035813957 0.2993676 -0.09139437 -0.17408974 -0.0163236 -0.1314572 -0.052144267 0.12961352 0.11616986 0.113415115 0.082818754 -0.06767113 -0.043448478 -0.19498275 -0.059243385 -0.061868913 0.08099246 -0.13928118 0.005832401 -0.03679468 0.06176825 0.11715915 0.16545627 -0.06449921 -0.006509887 -0.072111264 0.112080075 0.08257564 0.035656374 0.048519082 -0.056717932
71 -0.19344413 -0.15887672 -0.13709085 -0.04035911 0.109232545 -0.10974653 0.16667706 -0.033614043 -0.04518043 -0.047263138 -0.09801105 0.3182084 0.01382483 0.040342785 0.0015556987 -0.16095398 0.07271655 0.04389803 0.11042408 0.18449725 -0.052114002 -0.13620265 -0.057032745 -0.09301502 0.07761785 -0.00021500001 -0.12974896 0.13684489 0.11311496 -0.0917733 0.082704976 0.16569047 -0.12144541 0.061179228 0.009591211 0.082216844 -0.054062877 -0.066284366 -0.0029728091 0.06915163 -0.10516658 0.10585331 0.16274254 -0.17395137 -0.0980633 0.16131808 0.16499226 -0.13056408 -0.04779634 -0.07858891 -0.13779078 0.018886948 0.16809702 -0.12425378 -0.22708893 -0.18234405 0.10819043 0.13279343 -0.070047505 -0.11304278 0.009384688 -0.17439486 0.03139204 -0.0296108 -0.14438027 0.039875656 -0.08748102 -0.2587839 0.06605596 0.06040985 0.25310862 0.0447624 0.1062792 0.08064717 0.26399556 0.014026114 0.088501014 -0.215768 0.20192194 0.08754622 0.20595191 -0.088536076 -0.14575309 -0.08231991 0.1332567 0.031938653 -0.08226247 0.08674729 -0.08898172 -0.01582518 -0.13570447 0.30470684 -0.10810835 -0.057021573 -0.26926452 0.09616848 0.027970718 0.033188723 0.26281205 -0.09630824 -0.16522282 -0.036100242 -0.13356677 -0.06492688 0.13317992 0.06637577 0.1069842 0.052467834 -0.042007197 -0.089065626 -0.15174122 -0.058801204 -0.09505716 0.08855809 -0.131873 0.021518322 -0.031960733 0.122149885 0.06302161 0.14977649 -0.028894285 -0.03313873 -0.048707474 0.036744103 0.0723533 0.0024110028 0.01979707 -0.030468713
7 -0.25231925 -0.2787092 0.026802406 -0.01549461 0.052014686 -0.117652975 0.06777822 0.044735868 0.037193693 0.033333294 0.009568436 0.34762496 0.012135154 -0.28755847 0.03899225 -0.16602927 -0.01650404 -0.09294063 0.073499605 0.03525751 0.18077332 0.016955279 0.11361563 0.062496323 -0.07599574 -0.077719614 -0.058614343 0.00096785894 -0.027720284 0.009470953 0.109379694 0.11223031 -0.24418508 0.017524825 0.05539338 -0.12771359 0.24918416 0.13751152 0.053596586 0.0049321833 -0.15328728 0.08078473 0.20624799 0.10228861 -0.20039599 0.17663203 0.0929729 -0.1158485 -0.16192219 0.063009486 -0.11147873 0.06660566 0.086439475 -0.065156326 -0.23143396 -0.22937033 -0.088402934 0.1064952 -0.14481078 -0.009892659 0.09442473 -0.21629924 -0.06648914 0.08689681 -0.07561818 -0.10606663 -0.024318682 -0.13699022 0.05514588 -0.07702828 0.05939965 0.07296599 0.04560687 0.021062601 0.2999315 0.05635445 0.17407516 0.087948225 -0.021443298 -0.042272955 -0.024785187 -0.08703935 -0.11720744 -0.17060854 -0.14559825 0.24371977 0.17070091 -0.0947549 -0.009645498 0.01587316 0.005121147 0.14445879 -0.007910702 -0.070170686 -0.21516564 0.15428455 -0.084686615 -0.14295587 0.17786647 0.038734462 -0.20954226 -0.042575557 -0.13723114 -0.003100023 0.08013459 -0.02931504 0.2857793 0.0971996 0.008144784 -0.12906913 -0.013723805 0.050492086 -0.021090813 -0.026646612 -0.16977327 0.06637717 -0.13477567 0.16791461 -0.1852244 0.026133599 -0.043756355 -0.19547924 0.12795526 -0.2535238 -0.15031318 0.06108708 -0.042448804 0.13074292
5 -0.26707304 -0.27596447 0.021635983 -0.04576325 0.06720327 -0.095400155 0.055186618 0.050860003 0.061075468 0.020706087 0.032123487 0.34167233 0.0067589525 -0.2944899 0.017453374 -0.17216651 -0.014699265 -0.08923572 0.079519086 0.038016684 0.17837971 0.015061578 0.107557 0.08427807 -0.073553324 -0.10678891 -0.07056112 -0.011465198 -0.056261472 -0.006777117 0.123923436 0.097105995 -0.25515714 -0.00769881 0.08723741 -0.13323961 0.256406 0.15021808 0.058343403 0.021295296 -0.13569264 0.081799075 0.21852112 0.08292294 -0.21122488 0.17968549 0.100618266 -0.12010692 -0.15764982 0.072218075 -0.112891674 0.05711361 0.08687369 -0.07891901 -0.20112287 -0.23323329 -0.08848296 0.1147759 -0.15489131 -0.005339388 0.062424418 -0.21581869 -0.07840347 0.078360185 -0.09584054 -0.10302341 -0.002835827 -0.15570542 0.07203582 -0.06462358 0.05405555 0.061476517 0.081450544 0.0155616375 0.2968531 0.028544351 0.18043736 0.12448754 -0.032929342 -0.05630877 -0.018791163 -0.079729624 -0.14534976 -0.17997986 -0.13453676 0.24196789 0.24487649 -0.10312809 -0.0044847834 0.038719982 0.010761564 0.12775266 -0.033446494 -0.043666396 -0.23645021 0.14848073 -0.10067597 -0.1643592 0.190339 0.07379633 -0.209066 -0.041954387 -0.13805409 0.0004778216 0.083232865 -0.01938042 0.30367476 0.1280572 -0.013480994 -0.10383412 -0.019451117 0.06575359 0.011482793 -0.05175079 -0.1841027 0.06353951 -0.13164014 0.14286298 -0.19214024 0.030633438 -0.047165398 -0.19908127 0.13196962 -0.2581788 -0.17101249 0.09796115 -0.051004983 0.12660357
73 -0.19916716 -0.15284479 -0.15168518 -0.044381738 0.12500675 -0.12624787 0.19323109 -0.03881145 -0.06156849 -0.06254851 -0.12180314 0.35023466 0.011562918 0.07489722 -0.008692919 -0.18330151 0.092257716 0.050480474 0.13033743 0.23123148 -0.06432326 -0.17918876 -0.07376796 -0.122769095 0.10962363 0.010029697 -0.1608134 0.16529982 0.12986867 -0.113875836 0.08996794 0.19251166 -0.11287773 0.066501684 0.006173115 0.10555637 -0.09260831 -0.08920402 -0.015078922 0.07466282 -0.11348555 0.12060627 0.1594413 -0.21436365 -0.09505365 0.17712803 0.17793605 -0.13207923 -0.03858613 -0.0986457 -0.14845783 0.018522015 0.1997518 -0.12892047 -0.233453 -0.1827683 0.14519833 0.14793222 -0.07094711 -0.12708654 -0.013205162 -0.16970295 0.046839606 -0.05454089 -0.1635205 0.051618062 -0.10279527 -0.28341874 0.065869905 0.09026732 0.28888828 0.038821783 0.13014546 0.098513745 0.27291596 0.0070698187 0.0729153 -0.26013917 0.25303614 0.11625971 0.24082309 -0.093697466 -0.16260357 -0.07187341 0.17577657 -0.0038130388 -0.11831259 0.10165946 -0.09933156 -0.027406855 -0.15381645 0.3461152 -0.12986715 -0.06940538 -0.29145068 0.09192825 0.042501647 0.054896556 0.292339 -0.12116161 -0.1719599 -0.028477157 -0.14122047 -0.07693205 0.15217736 0.089514166 0.09983927 0.056073952 -0.060980767 -0.08177704 -0.17715439 -0.06711071 -0.09571967 0.106421225 -0.13338095 0.012775926 -0.027743688 0.11526785 0.10001105 0.1688167 -0.026992112 -0.014883707 -0.07992637 0.068327874 0.10410072 0.0009803718 0.03640059 -0.04837042
51 -0.21650925 -0.1535103 -0.14243163 -0.05545209 0.12786797 -0.08693747 0.15635186 -0.027103709 -0.025350103 -0.069121554 -0.08271678 0.32245624 -0.008018924 0.037508525 -0.013645228 -0.16091932 0.0813188 0.066193804 0.12651743 0.17542383 -0.07636924 -0.13795279 -0.060020607 -0.09264197 0.080976136 -0.014164993 -0.13586786 0.13433066 0.09998497 -0.11333528 0.10105623 0.1674321 -0.12941338 0.047852557 0.050762605 0.09248165 -0.074322976 -0.06824776 -0.017688705 0.094684415 -0.0821186 0.10142917 0.19283873 -0.20089318 -0.110760644 0.16037704 0.19132537 -0.13990803 -0.03401006 -0.083390765 -0.14250223 0.00085095176 0.16457349 -0.12884311 -0.21954232 -0.18836029 0.13126995 0.13802965 -0.071964145 -0.097753875 -0.02923209 -0.13830127 0.01920047 -0.055542655 -0.17473133 0.05020523 -0.05928122 -0.25603604 0.07476955 0.074913435 0.2747111 0.024508296 0.12266222 0.092314966 0.24740753 -0.021837333 0.095303975 -0.20033686 0.19853728 0.06696299 0.22611406 -0.07584333 -0.17989528 -0.07511272 0.1835049 -0.010125391 -0.05050867 0.09197013 -0.1065343 0.011130863 -0.14564113 0.29032764 -0.12880677 -0.02768569 -0.27614808 0.06249818 0.026405822 0.02461167 0.25685865 -0.053099547 -0.13326046 -0.052789487 -0.13392289 -0.073212594 0.15149745 0.06133507 0.10421757 0.09890351 -0.07502343 -0.07669352 -0.14306588 -0.040486287 -0.067704335 0.06543054 -0.14070566 0.009906569 0.0015733127 0.08498637 0.048907086 0.16372189 -0.0028995422 -0.032917302 -0.039819837 0.06775638 0.058005325 0.023971833 0.018169165 -0.047803037
8 -0.25497705 -0.28212404 0.009066871 -0.046856746 0.05206626 -0.105232894 0.05540817 0.04269303 0.046680596 0.032335296 0.013171228 0.30850074 0.0019609055 -0.24676856 0.028754592 -0.16244142 0.005820377 -0.08417653 0.08899772 0.05743254 0.16286856 -0.013526203 0.097482614 0.05092851 -0.048867263 -0.083516255 -0.0770692 0.005805578 -0.04429367 0.0060736896 0.11387087 0.113871306 -0.215165 0.009778106 0.069183975 -0.108527794 0.22482215 0.12189637 0.056369063 0.014996728 -0.13785914 0.076536365 0.17030118 0.085041165 -0.17525469 0.17446177 0.07234802 -0.09878189 -0.1531427 0.069718584 -0.095298156 0.045764234 0.10082978 -0.06419288 -0.19962409 -0.2033838 -0.06695195 0.11658178 -0.15395582 -0.014066772 0.05764747 -0.18326469 -0.07598938 0.06298244 -0.083051614 -0.098534614 -0.007915229 -0.14745575 0.041585766 -0.058273952 0.054097433 0.048519403 0.079530895 0.016002938 0.2768766 0.043610122 0.1359559 0.09466101 -0.009694819 -0.04826344 -0.01150129 -0.07887742 -0.137741 -0.14379749 -0.12345573 0.22406818 0.20120895 -0.10473727 -0.009999392 0.012821871 0.009659759 0.14105408 -0.037037686 -0.06180472 -0.21451585 0.13215809 -0.09408198 -0.14015125 0.18106234 0.037110876 -0.18653718 -0.035375297 -0.13114421 0.0060376287 0.079023816 -0.013984989 0.2834683 0.12638338 -0.011952941 -0.092871286 -0.01764034 0.062901534 0.012308905 -0.029436324 -0.1636196 0.057007816 -0.121937454 0.13179334 -0.17819783 0.03304908 -0.053214516 -0.18170749 0.104938425 -0.22921073 -0.14239235 0.07552796 -0.03246928 0.117789105
6 -0.29140738 -0.2878689 0.04853941 -0.032897726 0.0726901 -0.07939057 0.04570936 0.06664283 0.06409225 0.014444935 0.047553517 0.35793948 0.0024524278 -0.33470863 0.021147486 -0.16796084 -0.026868502 -0.08122846 0.076617286 -0.0032086242 0.17596567 0.050098363 0.124256 0.09597555 -0.10808646 -0.10919984 -0.04500576 -0.023109464 -0.058956273 -0.0065421914 0.13249028 0.07950162 -0.28368735 -0.0148717025 0.10489781 -0.14926654 0.2885936 0.17049393 0.057678867 0.024828264 -0.13825092 0.077759154 0.27363887 0.10101348 -0.24114881 0.18107511 0.12281759 -0.14117102 -0.16551797 0.07947053 -0.12664701 0.058366206 0.060054805 -0.07715807 -0.22169921 -0.26149496 -0.1166745 0.11204404 -0.16200222 0.008146401 0.07597922 -0.23137212 -0.08282155 0.0875351 -0.099372774 -0.11200718 0.0022962287 -0.14804995 0.08417511 -0.084729806 0.05683773 0.07339659 0.059203196 0.026404742 0.3145383 0.02605669 0.22490002 0.15049908 -0.062268082 -0.06871675 -0.030083057 -0.08441412 -0.14446777 -0.19711576 -0.14374231 0.26039016 0.26843444 -0.10879005 -0.005349201 0.060252182 0.004993546 0.110326506 -0.019598871 -0.029176092 -0.24007036 0.1506569 -0.09792852 -0.18697478 0.18264183 0.10523629 -0.20191005 -0.06488473 -0.14116693 -0.0011612367 0.090900846 -0.036836587 0.31631246 0.13743064 -0.007006193 -0.13079084 -0.00598114 0.06973458 0.005998756 -0.06904435 -0.1976716 0.068888344 -0.1358399 0.15360391 -0.22965612 0.017407075 -0.029104583 -0.2320773 0.17021826 -0.27846438 -0.1989057 0.098182164 -0.06325115 0.12623326
16 -0.21747382 -0.293319 -0.04440397 -0.007547237 0.0047331788 -0.20656165 0.11246468 -0.0058033266 -0.026403023 0.091077745 -0.0918679 0.30399808 0.049289465 -0.14805137 0.043560788 -0.1779924 0.0019756602 -0.13508339 0.08208675 0.15664372 0.20309621 -0.1149579 0.1069182 -0.021513749 0.032879896 -0.0080330055 -0.110933445 0.05078278 0.03583105 0.047943156 0.06575146 0.17912036 -0.14219174 0.06555498 -0.04649285 -0.081430435 0.17780761 0.0682427 0.042941667 -0.06101391 -0.20175548 0.13055381 0.022155803 0.071965374 -0.099919945 0.18675877 0.018679747 -0.04235736 -0.14404134 0.05255949 -0.06569944 0.070819035 0.18051222 -0.07358673 -0.21819583 -0.15190336 -0.01012606 0.11211431 -0.12502019 -0.08629465 0.121277 -0.20291615 -0.040307727 0.06762078 -0.016236233 -0.1087512 -0.09923982 -0.13279866 -0.01760575 -0.023270432 0.08112578 0.046494585 0.070528366 -0.0077693313 0.3072788 0.12605079 0.072449 -0.03788051 0.11038982 0.041462447 -0.006139998 -0.11307807 -0.06017781 -0.15129478 -0.13318448 0.2500603 0.01792066 -0.08035622 -0.025585724 -0.09545439 -0.0188431 0.26278406 -0.031240001 -0.15634559 -0.2114091 0.1801309 -0.071788564 -0.04651419 0.21534438 -0.15300621 -0.23678143 0.046834145 -0.11198458 -0.010681461 0.06882729 0.033532575 0.2435007 0.033159345 0.026563123 -0.08440621 -0.063819095 0.01992436 -0.07489068 0.091406226 -0.10954403 0.06941205 -0.15703896 0.19381419 -0.07241312 0.042172063 -0.097888395 -0.122002766 -0.01025493 -0.24832287 -0.014627408 0.028208889 0.00050360116 0.121095896
4 -0.27751717 -0.29621303 0.04359448 -0.025137756 0.05435705 -0.11073469 0.048957087 0.06434216 0.05340468 0.03984054 0.032385018 0.3608614 0.02201884 -0.3424975 0.02607662 -0.17674552 -0.02752903 -0.11229871 0.070164025 0.022953287 0.21313103 0.032813117 0.134296 0.09428138 -0.096726455 -0.098418295 -0.0585716 -0.022769013 -0.05245795 0.013828977 0.11831491 0.09025175 -0.27553952 -0.003578494 0.068448864 -0.16546094 0.31600603 0.17912135 0.07006548 0.005857317 -0.16224645 0.086120486 0.22689922 0.13102978 -0.22321445 0.18686637 0.0896016 -0.12577154 -0.18098433 0.08515446 -0.110378 0.06801587 0.08094146 -0.07009365 -0.22485179 -0.24449874 -0.12399925 0.11215357 -0.1641411 0.0007425678 0.10438828 -0.2515251 -0.08364918 0.10533263 -0.06974436 -0.12682573 -0.024108654 -0.14087334 0.07216275 -0.08740478 0.033594634 0.077782385 0.064772144 0.004189014 0.3272419 0.05455432 0.20992406 0.15170638 -0.053048152 -0.054695353 -0.050788283 -0.09793428 -0.12374153 -0.20560393 -0.1836021 0.29325747 0.25188163 -0.12513718 0.0067274603 0.033283897 0.01628786 0.1248715 -0.013240484 -0.06105615 -0.23662756 0.17522454 -0.110961735 -0.1801487 0.18519329 0.06375214 -0.2319308 -0.035262864 -0.13254188 0.010310937 0.076199844 -0.026073186 0.32719067 0.11264377 0.006969168 -0.12516902 -0.004879497 0.06412121 -0.0042377086 -0.047818318 -0.18646938 0.07769777 -0.16507411 0.17143494 -0.21797897 0.0071371724 -0.051879473 -0.22705582 0.14834978 -0.30977237 -0.18693818 0.09019658 -0.053545497 0.1492308
69 -0.20180391 -0.17192593 -0.1331576 -0.050357524 0.10646221 -0.10984468 0.16049089 -0.02872162 -0.04214195 -0.047952212 -0.09290952 0.31135038 0.0047699613 0.043173373 -0.0041187983 -0.16201349 0.08173445 0.036192127 0.1258603 0.19462198 -0.03742617 -0.15087725 -0.04858983 -0.09500537 0.08778443 -0.0144125465 -0.15779439 0.13372669 0.08906409 -0.08736084 0.09612262 0.181141 -0.11970598 0.06066868 0.024986388 0.08196077 -0.05033299 -0.05551865 -0.004858895 0.07571663 -0.09932791 0.10903238 0.14823657 -0.17787594 -0.0969423 0.17255762 0.15331152 -0.121104695 -0.047713745 -0.06880946 -0.12812014 0.013382286 0.17309822 -0.11198622 -0.21570262 -0.16492006 0.12069155 0.1393736 -0.08385694 -0.10225553 -0.009743373 -0.1427928 0.01869069 -0.04190457 -0.14812961 0.030794818 -0.0833806 -0.25725204 0.055808034 0.067632526 0.24162206 0.028931763 0.12557404 0.078449115 0.25715303 0.011729851 0.069905356 -0.19679569 0.2062784 0.08067975 0.20185214 -0.06938613 -0.16042747 -0.062430594 0.13699044 0.019286495 -0.05960308 0.06852905 -0.08671593 -0.019958705 -0.12426067 0.3023212 -0.11865437 -0.061430234 -0.26870415 0.089276366 0.014548227 0.02691668 0.26625577 -0.09578747 -0.1625805 -0.02631003 -0.13346863 -0.055417955 0.13625044 0.07843032 0.12052853 0.07499385 -0.057324003 -0.06695857 -0.14614147 -0.03937932 -0.07131447 0.08107019 -0.13387553 0.014674753 -0.026750972 0.0944288 0.051564768 0.1508743 -0.03709138 -0.028353216 -0.048209548 0.041686177 0.06566347 0.01711678 0.031113302 -0.027043708
9 -0.275956 -0.28767884 0.039363127 -0.023972262 0.061958976 -0.1130878 0.05319402 0.054210983 0.058786284 0.029792644 0.031748597 0.3592434 0.00016484369 -0.31791598 0.03640231 -0.16585281 -0.023484707 -0.085796274 0.08466906 0.016557692 0.18172441 0.04219994 0.13033219 0.073283456 -0.1021925 -0.082304604 -0.042395905 -0.013266523 -0.0443445 0.012297791 0.11733656 0.10857986 -0.2635368 0.011821204 0.09395175 -0.14651011 0.27084938 0.15432025 0.051818013 0.02023106 -0.14969076 0.06657024 0.23440541 0.11732034 -0.22028622 0.17975229 0.10170721 -0.12762389 -0.18006316 0.06667101 -0.11656676 0.058941625 0.078463696 -0.074003465 -0.23576134 -0.25234556 -0.09713362 0.1200937 -0.16818596 -0.004926121 0.08358373 -0.20839012 -0.088717714 0.083078176 -0.088312246 -0.11663367 0.0027033314 -0.14244033 0.053902213 -0.081868276 0.06725667 0.07034329 0.06143099 0.0215001 0.31094357 0.04121323 0.18756396 0.12126328 -0.044782832 -0.065424785 -0.027700786 -0.089806765 -0.14287601 -0.18504696 -0.15068446 0.25101447 0.21523021 -0.11066719 -0.016075129 0.03402574 0.011265639 0.1359673 -0.016296644 -0.0528776 -0.22964004 0.1398795 -0.097514264 -0.1629006 0.18714674 0.07920286 -0.20834388 -0.066365376 -0.15030254 -0.000805981 0.0911849 -0.03895399 0.31000617 0.13921075 -0.010146119 -0.13794792 0.001787316 0.06336085 0.0070672575 -0.04459957 -0.18324898 0.06557755 -0.13249531 0.17491738 -0.22275813 0.03208383 -0.03627199 -0.22354057 0.14371867 -0.26475775 -0.18239959 0.08123266 -0.056870002 0.14109282
43 -0.21132569 -0.15686123 -0.17440216 -0.060134757 0.14332776 -0.12470577 0.20076653 -0.04376111 -0.05905561 -0.075435214 -0.11600707 0.34201226 -0.0044975625 0.10674409 -0.009163236 -0.1849845 0.114172526 0.0734521 0.14344008 0.24632853 -0.09613704 -0.1986464 -0.09471238 -0.1397486 0.12787487 -0.0024230564 -0.18382333 0.18473615 0.12882033 -0.12195248 0.110237986 0.21347715 -0.107710265 0.076468475 0.02617913 0.1425535 -0.12606895 -0.105202936 -0.015923034 0.09573726 -0.091434784 0.1247441 0.16917983 -0.25150552 -0.09505495 0.18149352 0.19226418 -0.1430125 -0.035650432 -0.104400076 -0.14388424 0.011101061 0.20979552 -0.13574255 -0.24062869 -0.18393542 0.18176216 0.16381152 -0.07929256 -0.13346718 -0.03799834 -0.14336249 0.0346746 -0.074365385 -0.1935934 0.062104806 -0.09069401 -0.30917996 0.06802402 0.10890955 0.3152885 0.029159304 0.14859773 0.10805641 0.2663367 -0.01271336 0.055461966 -0.27514604 0.2668839 0.116925135 0.27369687 -0.07640503 -0.19691844 -0.044919424 0.22341402 -0.032770168 -0.114554405 0.115589775 -0.11682383 -0.023627805 -0.16784742 0.36550432 -0.14804311 -0.06015658 -0.30085197 0.077599786 0.039753295 0.0635316 0.30698252 -0.11562073 -0.16156904 -0.034068104 -0.14442511 -0.07953584 0.16301824 0.095416084 0.10250439 0.08483376 -0.07457994 -0.069686346 -0.18348818 -0.066648066 -0.08900117 0.10554944 -0.14341865 0.00077007 -0.0058754375 0.08658785 0.10900709 0.18993045 -0.026395831 -0.0076917806 -0.089420296 0.11233604 0.109156035 0.012183898 0.04378389 -0.065934286
50 -0.19721006 -0.14656922 -0.1739554 -0.078693725 0.1302857 -0.10028952 0.17402384 -0.03161629 -0.034367055 -0.07779181 -0.09968482 0.3026658 -0.007636411 0.10568779 -0.020797413 -0.16431762 0.13136776 0.07834139 0.14906812 0.2432124 -0.0981045 -0.20456915 -0.10705846 -0.120526776 0.13874921 -0.029891854 -0.1972012 0.17227367 0.09722299 -0.12842998 0.11552983 0.20581782 -0.10402173 0.057372242 0.049016543 0.14291728 -0.1275533 -0.09838781 -0.013409397 0.105116434 -0.08409155 0.114484005 0.15124752 -0.25000826 -0.07748178 0.17570128 0.17525145 -0.13052268 -0.031020695 -0.09200474 -0.13553149 0.0020046758 0.20892818 -0.12617646 -0.21346527 -0.16501684 0.17554332 0.17052546 -0.08464215 -0.11760303 -0.058703877 -0.11967842 0.021707507 -0.09061005 -0.1977676 0.05855143 -0.07130442 -0.31213272 0.064184 0.11047444 0.2893271 0.00941682 0.17644215 0.108690195 0.24357459 -0.013896531 0.030036712 -0.22987187 0.2575559 0.09115436 0.25997052 -0.055608 -0.21769333 -0.027280862 0.21632001 -0.04765846 -0.067239754 0.09179219 -0.11260757 -0.0092899995 -0.1434036 0.34615433 -0.16571775 -0.05285692 -0.29859936 0.06607759 0.034202047 0.041298635 0.30378884 -0.08742847 -0.15374449 -0.034038503 -0.14539064 -0.058289938 0.14837946 0.098560505 0.10839584 0.1135204 -0.090696104 -0.034623202 -0.16611257 -0.048173133 -0.038037907 0.09036975 -0.13493387 -0.0006793138 -0.00064364704 0.061396547 0.09504814 0.18977666 -0.0337202 0.004747519 -0.084777035 0.11663741 0.08538405 0.022804277 0.041315615 -0.05224465
14 -0.22316897 -0.24532193 0.017778 -0.013263452 0.052418675 -0.10355636 0.07972286 0.034961186 0.009305771 0.024873974 -0.0016094368 0.33338502 0.015035189 -0.23773214 0.040577214 -0.15208319 -0.0068672677 -0.071240045 0.061325736 0.0384735 0.14903516 0.015905172 0.08177085 0.04337288 -0.06523512 -0.0536605 -0.052707143 0.019263105 -0.0008993001 0.0044535343 0.08950004 0.103414744 -0.22419296 0.03630792 0.037525304 -0.1051923 0.22313292 0.1156672 0.04570458 0.019870019 -0.1502665 0.07340944 0.19383198 0.07674537 -0.1763509 0.16894425 0.100137845 -0.11646442 -0.15116581 0.038983848 -0.110803 0.0641058 0.083046004 -0.065859504 -0.22650862 -0.22187908 -0.08916171 0.104724176 -0.1308228 -0.027147787 0.10451613 -0.22846551 -0.03772081 0.084215045 -0.06550885 -0.08224494 -0.04337487 -0.15848537 0.0667996 -0.067372546 0.07536023 0.08021221 0.046693046 0.025777198 0.29952174 0.06239468 0.17439778 0.03688059 -0.00071770797 -0.01762074 -0.0019961817 -0.08434479 -0.098487794 -0.15615226 -0.13611938 0.2267324 0.11688958 -0.06103298 -0.00835926 0.0052883797 -0.010963641 0.16642708 -0.0030069076 -0.0729675 -0.2213427 0.15345255 -0.0612331 -0.107944615 0.18816935 0.016561175 -0.2091797 -0.039320283 -0.12702806 0.0031509108 0.069313295 -0.008786122 0.259289 0.06537094 0.015116217 -0.13697802 -0.046573583 0.016160633 -0.04333308 0.005430098 -0.14856422 0.06890892 -0.13839236 0.18173905 -0.13259487 0.03283247 -0.051199593 -0.17968655 0.10498816 -0.21639413 -0.113155834 0.035188805 -0.03590445 0.10973111
65 -0.20349713 -0.14849801 -0.16685164 -0.067514665 0.13517979 -0.104176395 0.18359615 -0.036553547 -0.04120953 -0.07869067 -0.100829095 0.3272161 0.0032334821 0.090270646 -0.019753318 -0.17049353 0.108933434 0.073214896 0.13998471 0.22873503 -0.0919803 -0.18429865 -0.08928978 -0.11562315 0.118191905 -0.012677422 -0.17525585 0.16773672 0.11090565 -0.12189721 0.109089784 0.19617489 -0.115779884 0.057672437 0.03014486 0.119386636 -0.1044528 -0.08707728 -0.015471236 0.098632164 -0.09109325 0.11468373 0.17556505 -0.23666209 -0.098031975 0.17227912 0.18834643 -0.13736929 -0.031296957 -0.09600543 -0.15008648 0.0070399675 0.1948887 -0.1329917 -0.22607957 -0.1817535 0.15325326 0.15297015 -0.07446852 -0.12138623 -0.039189756 -0.14825557 0.030700624 -0.06287054 -0.1840973 0.061735574 -0.07633935 -0.29717448 0.075357616 0.098705344 0.28911263 0.028761396 0.15374747 0.10331138 0.2582317 -0.013552197 0.06841356 -0.24040008 0.24339317 0.103469305 0.25645295 -0.071798675 -0.19657132 -0.05513363 0.19920711 -0.018931938 -0.07743003 0.10141577 -0.10623095 -0.012605539 -0.15231028 0.3354342 -0.1447722 -0.054182667 -0.29183716 0.07085041 0.037184894 0.04233912 0.29323342 -0.09110548 -0.156577 -0.04244728 -0.138712 -0.06579236 0.15191388 0.08563378 0.102552846 0.084238075 -0.07747847 -0.063127466 -0.17462331 -0.059923764 -0.072056524 0.090956286 -0.14298451 0.0034864952 -0.008117754 0.0885315 0.09194235 0.17873117 -0.025014926 -0.008352358 -0.06701279 0.09039934 0.08293154 0.01918573 0.03322138 -0.055628978
48 -0.19726257 -0.14533524 -0.16355997 -0.07186852 0.13052408 -0.09455643 0.1833625 -0.038760494 -0.047112968 -0.081084065 -0.105193175 0.32948837 0.001352933 0.09939676 -0.01746974 -0.1792241 0.11655949 0.07061487 0.13751417 0.23730433 -0.096951984 -0.1867484 -0.10769141 -0.11923104 0.1252567 -0.019226301 -0.18937302 0.16296619 0.10669956 -0.13216566 0.10945924 0.18769613 -0.10744151 0.05763288 0.024973555 0.13120446 -0.10841746 -0.09234261 -0.014146397 0.104343876 -0.094757594 0.113658994 0.16809578 -0.24760345 -0.08260958 0.18015651 0.18596663 -0.1414309 -0.034673713 -0.102619566 -0.14009146 0.012523725 0.19360808 -0.1216175 -0.21662852 -0.16668089 0.15285666 0.15965103 -0.07415816 -0.11865466 -0.040618442 -0.14337416 0.039663695 -0.06988294 -0.18435733 0.06315296 -0.09204015 -0.30748773 0.08274376 0.097509354 0.28286645 0.020739237 0.15546389 0.10813923 0.2571771 -0.013312577 0.054857474 -0.24339166 0.2484515 0.10867937 0.2619194 -0.06650763 -0.19373119 -0.043812077 0.20551197 -0.038870312 -0.08083812 0.10777238 -0.10331508 -0.006014659 -0.14948182 0.3408593 -0.14994113 -0.047140155 -0.2918345 0.07361227 0.041284997 0.04787059 0.2976229 -0.09272621 -0.15633121 -0.035608042 -0.1379696 -0.065702006 0.13978124 0.10344635 0.093354374 0.08696206 -0.079442695 -0.05554788 -0.18034627 -0.06305227 -0.06605328 0.089535035 -0.13784912 0.0040305937 -0.009926255 0.07776336 0.10705025 0.17766246 -0.034778617 -0.0062542213 -0.076339774 0.11097164 0.08872462 0.018483957 0.045201622 -0.06127304
75 -0.19976072 -0.17931572 -0.14290088 -0.17041637 0.099609524 -0.060901064 0.084819466 0.008508184 0.042083852 -0.060164798 -0.026681788 0.20815721 -0.015424678 0.040882424 -0.049188804 -0.15484564 0.14086492 0.027170189 0.15201847 0.2358267 -0.013287616 -0.23048031 -0.083202474 -0.047653828 0.13907398 -0.14261325 -0.253931 0.116381004 -0.034521632 -0.10511715 0.17128879 0.21124265 -0.10871825 -0.0040544346 0.10884372 0.09110166 -0.03662047 -0.028038738 0.025071235 0.096087925 -0.077384025 0.09770163 0.0929465 -0.19333474 -0.06892585 0.1984911 0.10919304 -0.08400748 -0.052474454 0.007941655 -0.09348532 -0.0049223 0.20218843 -0.09965979 -0.107917584 -0.10708949 0.12817182 0.18760556 -0.13308892 -0.06498454 -0.11439552 -0.07131523 -0.047291398 -0.08768718 -0.2063001 0.016992286 0.0010770027 -0.31227374 0.047996346 0.10955274 0.18166634 -0.034513827 0.26832673 0.07244068 0.22449546 -0.033374712 -0.024180638 -0.02902023 0.18822142 0.013634488 0.1958259 -0.0057991883 -0.2705207 -0.011730377 0.13931645 0.005220891 0.17293043 -0.024862582 -0.073707625 0.008923874 -0.04983689 0.27424714 -0.19308254 -0.035920903 -0.2938771 0.065965995 -0.0434368 -0.051075332 0.29479703 -0.012108127 -0.15726322 -0.0054214634 -0.14037184 0.012757728 0.09761167 0.11382211 0.19443999 0.21493441 -0.109903045 0.06302111 -0.12123126 0.04217186 0.09896205 0.01012039 -0.14207835 -0.02305049 -0.028856909 -0.03039083 0.0030744192 0.15265852 -0.0959652 -0.011772975 -0.057720542 0.04968758 -0.00821756 0.11871132 0.029336486 -0.0015297356
53 -0.19675884 -0.1347631 -0.16057937 -0.060231376 0.13920331 -0.08864842 0.18206902 -0.033190235 -0.05381062 -0.08439616 -0.103906535 0.33739194 -0.002311496 0.08166722 -0.020476598 -0.16975866 0.10494377 0.08382902 0.12833099 0.21454382 -0.09946129 -0.16626991 -0.09773203 -0.116526596 0.10530706 -0.014331465 -0.16263981 0.16335075 0.11804735 -0.13434394 0.10692591 0.18023372 -0.122814454 0.05376051 0.02929026 0.12779292 -0.10137316 -0.09307656 -0.013683471 0.105638616 -0.090885274 0.11756905 0.18897241 -0.24815843 -0.10630382 0.1713495 0.2032659 -0.1455162 -0.029984046 -0.10814827 -0.15172292 0.0063461103 0.1891917 -0.12735301 -0.22328746 -0.18830958 0.14666939 0.14816384 -0.0745711 -0.11422774 -0.036791213 -0.1617826 0.04454708 -0.066154085 -0.18933542 0.0663394 -0.0844437 -0.30413455 0.08503306 0.090760805 0.29860947 0.0347885 0.13934107 0.10966167 0.2684691 -0.01603914 0.081006154 -0.25285998 0.24081096 0.10503613 0.26353505 -0.0796105 -0.19381575 -0.057708774 0.20995344 -0.020207878 -0.085481405 0.11660179 -0.10303462 -0.0018778227 -0.16211715 0.3327614 -0.13806881 -0.04227657 -0.30108696 0.07619618 0.045190204 0.047459032 0.29307565 -0.09062535 -0.16051291 -0.04332331 -0.14280592 -0.07210792 0.15775317 0.093013704 0.09641547 0.07399077 -0.07224824 -0.07398855 -0.18399145 -0.06724551 -0.082769364 0.084778525 -0.14566498 0.005255487 -0.007171574 0.08493197 0.09995108 0.17963445 -0.024047043 -0.013826797 -0.06749816 0.10282471 0.092968516 0.01095567 0.034695923 -0.068103455
15 -0.26292312 -0.28005737 0.036607355 -0.0071698534 0.05442269 -0.11467732 0.071089685 0.042487677 0.030059664 0.033842534 0.012765226 0.3554049 0.015128081 -0.2956262 0.043945216 -0.1629105 -0.033679634 -0.09183231 0.065610826 0.013712392 0.18573362 0.038032558 0.121976815 0.06599197 -0.094284415 -0.06259708 -0.042027332 -0.0017641035 -0.0116821565 0.009607585 0.09860579 0.10338991 -0.25328565 0.02522077 0.05377729 -0.13975756 0.26467854 0.14408661 0.056387253 0.011467746 -0.16091442 0.07757562 0.22239581 0.11196572 -0.20960595 0.17905946 0.10059432 -0.12506218 -0.17075418 0.0535287 -0.11766084 0.06566936 0.08071987 -0.073392965 -0.24980304 -0.25279367 -0.105339274 0.101489946 -0.14740252 -0.012748309 0.115152605 -0.23344094 -0.059366472 0.09528394 -0.06629444 -0.10343314 -0.030085461 -0.13920757 0.06643699 -0.08313603 0.07190428 0.07965364 0.038121823 0.013509553 0.31685975 0.061630644 0.20469408 0.076410405 -0.031231841 -0.042837087 -0.026281701 -0.09724752 -0.107910685 -0.19425522 -0.15945175 0.2588282 0.16218399 -0.089618616 -0.010043867 0.019815845 -0.0021734706 0.1542941 0.00023827149 -0.07090014 -0.23226358 0.16009423 -0.07978784 -0.1374781 0.18640494 0.043221466 -0.21297903 -0.050817523 -0.14141253 -0.005543389 0.08852705 -0.036199346 0.2934855 0.08670679 0.014746635 -0.15719937 -0.019307788 0.040687546 -0.040039282 -0.01939745 -0.17701218 0.08048102 -0.140215 0.19936852 -0.19017565 0.025786588 -0.033908404 -0.21489124 0.1406534 -0.26730764 -0.15534553 0.053585354 -0.04830375 0.13270694
46 -0.20413719 -0.13888855 -0.20210823 -0.09633127 0.16078769 -0.086833574 0.20195466 -0.04496509 -0.05481651 -0.10369787 -0.11317071 0.3295421 -0.013371975 0.17041872 -0.035553798 -0.18924399 0.16084687 0.105176836 0.1625775 0.2845193 -0.1523227 -0.24363346 -0.14609556 -0.14619853 0.17283095 -0.03768916 -0.23570667 0.2018487 0.119622 -0.16395445 0.12792419 0.22533461 -0.09810866 0.06147164 0.048224676 0.18658677 -0.17814852 -0.13509916 -0.014713152 0.13210827 -0.080561444 0.12512223 0.17089951 -0.32000065 -0.079625785 0.19562763 0.20426653 -0.14595453 -0.018796667 -0.11793077 -0.14594376 -0.0050631 0.22343545 -0.13494916 -0.2163002 -0.16095595 0.2140769 0.18391687 -0.08254636 -0.13470599 -0.08894615 -0.12399729 0.03511369 -0.11471186 -0.22876433 0.09289332 -0.08869992 -0.36128938 0.08018333 0.13610482 0.33064225 0.0061594816 0.20216715 0.12347077 0.26304147 -0.034238916 0.022117596 -0.28804082 0.29877287 0.11642824 0.32595304 -0.060072433 -0.24784112 -0.012052816 0.28452304 -0.08646824 -0.088453345 0.12513682 -0.1278081 -0.0031491772 -0.1726758 0.38734725 -0.19035915 -0.040664434 -0.32757786 0.063541435 0.049286712 0.07123242 0.33482808 -0.1102841 -0.15961128 -0.038673397 -0.15535323 -0.07189974 0.16056599 0.13088124 0.08909662 0.12336727 -0.103801824 -0.020560715 -0.20858105 -0.059770405 -0.04993315 0.10124312 -0.14553164 -0.016625853 0.021643357 0.039857514 0.13457532 0.21764679 -0.048485313 0.024344303 -0.10938321 0.18447341 0.12455307 0.02717764 0.05518012 -0.09155238
13 -0.2508361 -0.27542746 0.0087051755 -0.048832454 0.058314357 -0.11204649 0.07370528 0.040259536 0.035329908 0.029100534 0.011492634 0.32370368 0.011141237 -0.25566316 0.030349055 -0.164563 0.0012520642 -0.08264545 0.0774551 0.052234206 0.1666668 -0.0067310943 0.08383731 0.056223676 -0.058285736 -0.089698486 -0.07698629 0.015626842 -0.03025388 0.0026967619 0.11164509 0.11900464 -0.22988224 0.01499484 0.06303144 -0.11051907 0.2382728 0.13310243 0.05764438 0.019263437 -0.14218476 0.07810935 0.1869414 0.0772687 -0.18208712 0.18534282 0.090904154 -0.11176866 -0.16096933 0.06428054 -0.10701967 0.0645619 0.10025342 -0.066564694 -0.2170786 -0.22055034 -0.08281592 0.11604141 -0.14800362 -0.020418307 0.078092866 -0.20967281 -0.06734689 0.07376299 -0.0806549 -0.099748306 -0.026709937 -0.17227611 0.06320296 -0.06204305 0.061835393 0.06162172 0.08246959 0.019672252 0.3001094 0.044472482 0.15263915 0.08193118 -0.010530908 -0.037669763 -0.0054322057 -0.078893565 -0.137588 -0.1579341 -0.13745806 0.22975938 0.1883049 -0.093062975 -0.012588283 0.018284496 0.011815451 0.16297083 -0.027940113 -0.07197975 -0.23134492 0.14551745 -0.085236646 -0.13963646 0.1969635 0.035246596 -0.21150571 -0.034586057 -0.13843061 0.010653409 0.07237496 -0.0117456345 0.29454094 0.10629614 -0.00049494335 -0.1114135 -0.026089571 0.047446355 -0.0013297788 -0.014663815 -0.16888711 0.059129782 -0.13850205 0.15773053 -0.16003568 0.03183322 -0.061579965 -0.1791871 0.1138513 -0.22655514 -0.14361653 0.07457866 -0.035599433 0.12615974
11 -0.25466648 -0.25710446 0.032762658 -0.027964475 0.07230455 -0.08976115 0.06278577 0.051242165 0.0399116 0.010042553 0.027813094 0.34885013 0.0039323736 -0.28556618 0.02976817 -0.16748692 -0.01315275 -0.072468266 0.070481054 0.013095532 0.15448532 0.035645787 0.099446565 0.073186085 -0.09118713 -0.08991823 -0.050920382 0.00080184045 -0.034945235 -0.01387605 0.11509635 0.08607508 -0.25423184 0.0013228792 0.07676507 -0.117960036 0.2568021 0.14381951 0.05755522 0.032448515 -0.13282563 0.07525391 0.24281964 0.080824606 -0.21445513 0.17400086 0.1167726 -0.12765653 -0.16109915 0.057559866 -0.11600852 0.060303386 0.06749144 -0.067832746 -0.22332902 -0.24396211 -0.09941104 0.10966368 -0.15384324 0.0012575155 0.07690096 -0.23016092 -0.05922719 0.08689707 -0.09408692 -0.09269369 -0.021173783 -0.15489298 0.08083337 -0.07733091 0.061805308 0.07577394 0.047862127 0.025777351 0.30158308 0.035141807 0.2030456 0.096826024 -0.044454012 -0.04668733 -0.012654742 -0.081633545 -0.12830819 -0.17850842 -0.14015503 0.24329287 0.20583352 -0.08510551 -0.0017088 0.039077558 -0.006785725 0.12393416 -0.01112387 -0.04260199 -0.22391339 0.14577293 -0.08024295 -0.15220833 0.17626987 0.07422641 -0.20097928 -0.052015845 -0.13497338 -0.0011146277 0.08356661 -0.026442695 0.29243097 0.09713351 0.0058310395 -0.13389294 -0.022673994 0.049125835 -0.019258354 -0.04604042 -0.1793492 0.06348075 -0.13702591 0.16370511 -0.18825819 0.021932235 -0.037369974 -0.21170062 0.14696933 -0.24742198 -0.16377583 0.068660475 -0.05620802 0.11704665
55 -0.19719188 -0.14828895 -0.18366165 -0.08226266 0.14602028 -0.1069624 0.20410363 -0.0430645 -0.050957214 -0.08375922 -0.11065214 0.34036982 -0.0040045287 0.12432399 -0.02344966 -0.19151157 0.1364506 0.08272181 0.14758231 0.2622308 -0.10928525 -0.2128589 -0.12024724 -0.13413742 0.1468376 -0.02418529 -0.21137622 0.18393704 0.11992131 -0.13490675 0.11842054 0.2068018 -0.10453248 0.061566148 0.029853696 0.1556271 -0.13739493 -0.10922476 -0.015035938 0.105393685 -0.08780445 0.12841927 0.16633204 -0.2791797 -0.07859791 0.19469051 0.19368614 -0.14468625 -0.026911873 -0.10716944 -0.14797226 0.009028934 0.21696289 -0.12996992 -0.22917795 -0.1706961 0.182992 0.17224737 -0.08004671 -0.1283803 -0.05168148 -0.1512469 0.04130005 -0.085945785 -0.19859603 0.07830675 -0.09544562 -0.34025708 0.07882837 0.115180545 0.30859733 0.024828093 0.18100893 0.11452551 0.27269208 -0.018193183 0.049240835 -0.27034456 0.2734017 0.12270876 0.2850948 -0.07143169 -0.21399586 -0.03874026 0.22653827 -0.043891147 -0.09492917 0.10873222 -0.11506184 -0.01603217 -0.15890485 0.37277478 -0.15856992 -0.06061465 -0.31725234 0.079943866 0.039912693 0.06354621 0.32052743 -0.112333626 -0.16732337 -0.027142363 -0.14505112 -0.06774798 0.15298238 0.11828691 0.09945736 0.093498915 -0.079045735 -0.045038503 -0.19761129 -0.062729724 -0.06615663 0.09751454 -0.13661641 -0.005627607 -0.0035882557 0.0666999 0.1269893 0.18916269 -0.043296658 0.009431467 -0.098304234 0.12926522 0.10785698 0.022250889 0.0481966 -0.068945386
10 -0.2568791 -0.2719603 0.02153212 -0.0354611 0.06409596 -0.09760497 0.06337567 0.048330165 0.047143098 0.018418262 0.023671854 0.33634463 0.0025863736 -0.2717691 0.0273336 -0.16010806 -0.0041312906 -0.07728875 0.077509955 0.03537783 0.16379118 0.013345614 0.10114145 0.06912215 -0.07281232 -0.089682326 -0.065772496 -0.00092179375 -0.03711752 -0.0050435537 0.114989564 0.103211336 -0.23735371 0.012676142 0.07252435 -0.11694056 0.24144498 0.12898582 0.05187168 0.017451756 -0.1438229 0.074290544 0.21333784 0.08552002 -0.19346763 0.18154845 0.10097023 -0.11963432 -0.15379603 0.05876085 -0.10815251 0.056276996 0.08874842 -0.071164586 -0.21441974 -0.22227281 -0.078546554 0.112957925 -0.15730068 -0.0032250704 0.0710881 -0.20534627 -0.074227154 0.07151307 -0.089881904 -0.09501662 -0.016170489 -0.15777771 0.056365326 -0.06654136 0.0717452 0.058460377 0.07718756 0.021987343 0.30057335 0.040810548 0.16968834 0.094094165 -0.02152013 -0.04698335 -0.012324175 -0.083337486 -0.13953042 -0.15925865 -0.12663725 0.22956783 0.1963968 -0.09585811 -0.011442425 0.024987614 0.004113889 0.14714092 -0.024160242 -0.052180417 -0.22922696 0.14532372 -0.08735253 -0.14673612 0.1914675 0.057184927 -0.20243445 -0.047696274 -0.13539931 0.0029829815 0.083142534 -0.015256023 0.29392943 0.127526 -0.010070207 -0.11090333 -0.017123781 0.04939051 0.002804903 -0.03698217 -0.16971694 0.05902356 -0.12615675 0.14850734 -0.17988817 0.030236397 -0.04894662 -0.19472077 0.12153958 -0.22738697 -0.14803135 0.076584056 -0.04349197 0.12000125
56 -0.17048527 -0.15658826 -0.1693055 -0.17854026 0.09253943 -0.06843277 0.10909713 -0.002535238 0.01376834 -0.053472523 -0.052979156 0.21641642 0.0023276622 0.0886975 -0.055398364 -0.1707805 0.15847488 0.02564898 0.14519317 0.27683592 -0.027485216 -0.2710111 -0.1097586 -0.06252479 0.18160033 -0.13294335 -0.2878836 0.12882923 -0.019018611 -0.103733234 0.15929921 0.21703178 -0.08615438 -0.0008140141 0.062949054 0.112768225 -0.045487396 -0.042934876 0.0307907 0.093462065 -0.095584966 0.11543269 0.0463015 -0.21576272 -0.039553244 0.21507144 0.08871827 -0.077473946 -0.043358855 -0.005551957 -0.083698235 0.0046874383 0.22046089 -0.09049806 -0.0923942 -0.082930654 0.13497698 0.182725 -0.12840709 -0.07859703 -0.09796619 -0.08727603 -0.03414139 -0.075947315 -0.17818494 0.025904309 -0.046687473 -0.3309036 0.053279817 0.122464254 0.17868795 -0.03309803 0.29288483 0.06076697 0.22539322 -0.017855672 -0.040061615 -0.07073752 0.22207452 0.05992852 0.20857887 -0.0029225873 -0.25259852 0.00317337 0.12902008 -0.0019728646 0.13110171 -0.0128565645 -0.06027842 -0.010264678 -0.041279305 0.30419824 -0.18583208 -0.04848881 -0.30087614 0.08330454 -0.026635531 -0.027755724 0.30757362 -0.06626755 -0.17942785 0.036739964 -0.12524168 0.025417512 0.0749304 0.15227902 0.17403421 0.18099554 -0.090252936 0.08895965 -0.14990276 0.022741102 0.07935806 0.044788096 -0.12059446 -0.013029568 -0.04789515 -0.02680871 0.0688152 0.1393373 -0.1282193 0.021583762 -0.10168507 0.072653756 0.028471284 0.10551264 0.05616435 -0.0053902734
24 -0.23989071 -0.30521387 -0.015545266 0.00024566485 0.03300412 -0.1851798 0.11262625 0.008901386 -0.026178146 0.07894787 -0.05831737 0.34042186 0.04803571 -0.21267925 0.041075118 -0.19043672 -0.0005371553 -0.12750085 0.07627563 0.12201907 0.2026636 -0.05799193 0.11288466 0.009550195 -0.013647778 -0.026188912 -0.095805004 0.037292708 0.024734143 0.048072916 0.07916079 0.14721386 -0.18465617 0.058330838 -0.02987528 -0.102522485 0.22119045 0.101300634 0.050906572 -0.041101832 -0.18795909 0.12755005 0.08326995 0.07921316 -0.14460194 0.18885942 0.03814886 -0.07262384 -0.15409653 0.050809942 -0.076521955 0.080612145 0.14414027 -0.06538428 -0.2298744 -0.18371147 -0.043381028 0.1077972 -0.13189729 -0.0599507 0.12026977 -0.22538026 -0.04423911 0.08532379 -0.034549214 -0.113481626 -0.09802704 -0.13933419 0.014969307 -0.03944801 0.06642843 0.07175061 0.041079674 0.0023869213 0.3105984 0.109431274 0.10941478 -0.005864122 0.065168746 0.031778637 -0.01683252 -0.10679201 -0.06936025 -0.16224396 -0.14228347 0.26161173 0.051409025 -0.07808125 -0.013170769 -0.06360029 -0.023697536 0.23039243 -0.006262616 -0.14010997 -0.20841305 0.18732536 -0.07646991 -0.065516345 0.2048768 -0.104853556 -0.2491736 0.027024336 -0.11727527 -0.008224297 0.0753066 0.02598275 0.2704035 0.03314687 0.025279626 -0.10669443 -0.051289786 0.012844122 -0.07486668 0.05670916 -0.13368174 0.07033702 -0.16237454 0.19204585 -0.096650444 0.033128455 -0.08504437 -0.16345312 0.042352814 -0.25697607 -0.051681783 0.039059993 -0.013072514 0.118983336
17 -0.26640752 -0.3490347 -0.017477784 0.021265248 -0.009716786 -0.229311 0.11134172 0.0123827765 -0.016068878 0.120426 -0.07757164 0.3582065 0.07538944 -0.24899207 0.04882637 -0.17841443 -0.044530332 -0.16849186 0.06296563 0.12654383 0.27164435 -0.065733835 0.16758594 0.013799505 -0.019456668 0.0058881924 -0.07567574 0.015153619 0.035195623 0.08048758 0.06239827 0.15693742 -0.18637528 0.06952137 -0.062048256 -0.15756308 0.269527 0.12863159 0.0532637 -0.07222588 -0.23523504 0.12910937 0.048251476 0.14359687 -0.14755915 0.18853787 0.019274758 -0.051091608 -0.16882218 0.06606268 -0.08724282 0.08897263 0.16281097 -0.09001243 -0.24194677 -0.19212711 -0.08173092 0.098203994 -0.12693234 -0.07956412 0.18063247 -0.26107988 -0.04260393 0.12358307 0.016727863 -0.14145838 -0.108546704 -0.108201414 0.006112299 -0.053928882 0.045793857 0.07628145 0.03235969 -0.03032883 0.34447068 0.16216406 0.13030927 0.0076787593 0.06595193 0.023778314 -0.06353792 -0.1355833 -0.017165434 -0.21498564 -0.22228704 0.33033526 0.049616355 -0.10504911 -0.006208496 -0.09030015 -0.0017216686 0.23790833 0.010619261 -0.15919061 -0.2171544 0.21074024 -0.084724404 -0.07470809 0.2061167 -0.1310817 -0.26632693 0.040296018 -0.12542158 -0.0043949517 0.07124887 0.0092138965 0.28515494 -0.0030167974 0.05041197 -0.12699997 -0.0476588 0.021187523 -0.093075715 0.08590469 -0.123795316 0.09552902 -0.1996954 0.25138536 -0.12301447 0.005650809 -0.08369259 -0.17288314 0.04627114 -0.33742428 -0.057009585 0.016956795 -0.027776191 0.15305147
42 -0.19585253 -0.21172504 -0.12431715 -0.14543195 0.08052299 -0.118417285 0.081562385 0.0036573717 0.03392417 -0.008191295 -0.04885145 0.21379437 -0.010917672 0.022894083 -0.018927086 -0.16833884 0.13336632 -0.025704417 0.16290884 0.24991816 0.04542742 -0.24203101 -0.03756155 -0.05286134 0.14547373 -0.11949391 -0.24873914 0.111301996 -0.028548807 -0.049603928 0.15458441 0.22745726 -0.08513759 0.021634791 0.07358815 0.068403214 -0.01609722 -0.02106586 0.029401682 0.04813937 -0.103609286 0.10637996 0.02532558 -0.12770648 -0.04855231 0.20276383 0.050347857 -0.051644515 -0.077367224 0.032182947 -0.057578992 0.0017402857 0.21735859 -0.07804047 -0.12716098 -0.09028472 0.1356491 0.18377805 -0.14570546 -0.071227424 -0.07941321 -0.041649595 -0.07075933 -0.06915575 -0.159619 -0.014485497 -0.019797511 -0.2624319 -0.005066231 0.0908685 0.1507907 -0.03449331 0.24187592 0.054455645 0.21921289 0.0095907785 -0.059522033 -0.026854856 0.18351918 0.019538745 0.14042856 -0.016285876 -0.2408405 -0.0016453807 0.0912506 0.03716921 0.131938 -0.068783455 -0.06678412 -0.033381503 -0.02374832 0.28444493 -0.17299944 -0.08581226 -0.25363687 0.08022202 -0.06616364 -0.04459194 0.28105277 -0.06791326 -0.16508758 0.017320689 -0.1343436 0.014389595 0.087280534 0.10041184 0.20860715 0.21065512 -0.08942583 0.06396559 -0.08617219 0.051857818 0.085255556 0.036660403 -0.12238422 -0.006728217 -0.038466547 -0.006702911 -0.012627004 0.1313574 -0.1072013 -0.019008694 -0.07481248 -0.0018667465 -0.009853832 0.10211364 0.045043834 0.03449014
70 -0.1902324 -0.18859488 -0.18403164 -0.19094148 0.108368754 -0.09192576 0.09651717 -0.0027958944 0.03574595 -0.053456604 -0.064109415 0.21567245 -0.019734178 0.10619344 -0.05037466 -0.17261122 0.18064626 0.029314164 0.18705635 0.3037953 -0.028518563 -0.30182368 -0.10735673 -0.08960846 0.19912736 -0.13945042 -0.30575016 0.14845744 -0.017050777 -0.10601315 0.186932 0.2614925 -0.082552604 0.010526742 0.0999491 0.13401319 -0.092597425 -0.06546827 0.018767612 0.100202695 -0.08654668 0.11420939 0.041430354 -0.23339617 -0.044847865 0.22134086 0.090244465 -0.071403794 -0.051637243 -0.0036963725 -0.076857395 -0.013532358 0.2542959 -0.09994578 -0.11385103 -0.0858806 0.19518155 0.2154101 -0.14730476 -0.086137354 -0.13752466 -0.030921873 -0.057923894 -0.11840612 -0.22470151 0.032407936 -0.011116942 -0.3376442 0.019222718 0.14348738 0.2136397 -0.050841052 0.3096198 0.078127064 0.22415915 -0.02434612 -0.07556495 -0.07725429 0.2521676 0.03334583 0.23239964 -0.0068007656 -0.29959965 0.02679408 0.19116902 -0.036393587 0.13574214 -0.027872268 -0.09321214 -0.01721253 -0.053686384 0.33381018 -0.2296951 -0.05864098 -0.30753675 0.061304595 -0.040015727 -0.024054522 0.33184358 -0.064906165 -0.1669836 0.014538737 -0.14722238 0.012528464 0.106686585 0.1433134 0.18404242 0.24768628 -0.12896389 0.09588793 -0.1369578 0.043003708 0.10488431 0.03986674 -0.13041387 -0.029753873 -0.010755415 -0.048673652 0.035365596 0.18452924 -0.10969935 0.017913358 -0.109655626 0.08971812 0.022576593 0.1161267 0.056284674 -0.015512186
29 -0.23285255 -0.30877623 -0.031366795 -0.040012747 0.02154662 -0.1815634 0.08609926 0.009287866 -0.005893184 0.08336894 -0.052363176 0.29333276 0.04023804 -0.1833851 0.02771185 -0.18670273 0.019385684 -0.14033714 0.092264615 0.15001589 0.20898606 -0.10328367 0.10008548 0.009250354 0.015298463 -0.060995415 -0.12843591 0.03381752 -0.008416887 0.054345243 0.09737956 0.15843011 -0.14970541 0.04252915 -0.023120603 -0.088166125 0.20472421 0.101359986 0.060291436 -0.050836675 -0.17418249 0.122193426 0.026018744 0.07000943 -0.109309986 0.19332342 0.0031861856 -0.049466074 -0.14772986 0.07941032 -0.056852065 0.06968681 0.1571092 -0.058842704 -0.1906964 -0.13703491 -0.021254001 0.12030692 -0.13851194 -0.047763053 0.087868236 -0.1843229 -0.07052858 0.06743171 -0.037434 -0.11612238 -0.08351274 -0.14378193 -0.006076214 -0.019867072 0.035698462 0.04068737 0.08415938 -0.0044004032 0.27986947 0.10423254 0.06218306 0.038110636 0.0737023 0.017052218 -0.032853678 -0.08398554 -0.08576722 -0.13419396 -0.13586728 0.24849041 0.10324311 -0.11838465 -0.009172402 -0.07664457 0.0058301496 0.2123081 -0.033536144 -0.13397135 -0.19290926 0.17662303 -0.10259538 -0.07450772 0.20533575 -0.10713824 -0.23847055 0.049178194 -0.10911551 0.011232878 0.05890356 0.03983641 0.26778424 0.06712848 0.011685983 -0.049563933 -0.038752843 0.039090425 -0.030994326 0.04241393 -0.119957976 0.050527576 -0.15630256 0.13855517 -0.09888204 0.026482388 -0.1089779 -0.13277589 0.012863721 -0.24698122 -0.05715071 0.065601975 -0.0034197143 0.117681675
30 -0.19298032 -0.2209799 -0.05660863 -0.05054346 0.05374451 -0.10261512 0.10951739 0.0037589525 -0.016221656 0.017873228 -0.047009706 0.28180364 0.025836758 -0.1088571 0.0033563126 -0.17358585 0.048797585 -0.053197768 0.074657455 0.1391766 0.08586369 -0.09386283 0.025883751 -0.008840585 0.031689163 -0.060964584 -0.12543784 0.061352212 0.0094178105 -0.01807373 0.094519585 0.12417943 -0.1472875 0.023017613 0.0047872677 -0.018865706 0.11895885 0.052095808 0.042537134 0.012058698 -0.13117489 0.10887888 0.10394345 -0.03075404 -0.10763687 0.17561352 0.07580377 -0.09459858 -0.09970892 0.022336883 -0.08688001 0.055976924 0.13788338 -0.07445597 -0.1688134 -0.14674005 -0.0040645567 0.116310745 -0.11022407 -0.05167828 0.04339725 -0.19533458 -0.022709621 0.030602625 -0.07777553 -0.052065447 -0.07878226 -0.20034055 0.047754686 0.002848067 0.0990917 0.04506377 0.10707587 0.028932946 0.26360014 0.037444938 0.08585397 -0.021205256 0.09081287 0.045098677 0.055963423 -0.07173242 -0.124195665 -0.10701972 -0.037853327 0.15941946 0.06981235 -0.032995425 -0.02839279 -0.023363335 -0.034657713 0.21439876 -0.054658514 -0.07577767 -0.22245082 0.13977773 -0.050348967 -0.049635347 0.21734501 -0.06645455 -0.19928896 0.015757233 -0.10860862 -0.010599826 0.0711069 0.057548717 0.20882653 0.066973835 -0.012203592 -0.053243864 -0.09217095 -0.0026151356 -0.03792718 0.030403024 -0.12138381 0.03627273 -0.12097483 0.10789801 -0.03514063 0.0656948 -0.09093569 -0.096368864 0.0078027914 -0.12096417 -0.024586737 0.060083658 0.009932634 0.057628907
27 -0.20769656 -0.26421446 -0.04972319 -0.04145935 0.03913584 -0.15353002 0.10916997 0.005398921 -0.020755103 0.050219763 -0.065045126 0.2895396 0.032128863 -0.12483669 0.02422212 -0.18088554 0.040645566 -0.09205397 0.08952425 0.14456803 0.14385773 -0.10228499 0.06273894 -0.009552335 0.032285392 -0.046143595 -0.13047563 0.05960668 0.015724113 0.016946942 0.0905053 0.15337583 -0.14473957 0.044221267 -0.009079653 -0.04960631 0.13883322 0.06068832 0.041303303 -0.017554708 -0.16282131 0.11430761 0.06131077 0.014955482 -0.10524539 0.18570699 0.04931637 -0.07014525 -0.12143034 0.041622162 -0.0686378 0.062327966 0.15213272 -0.06174421 -0.19568616 -0.15153572 0.00030474493 0.11771623 -0.11979837 -0.05709476 0.06749753 -0.17459087 -0.040184632 0.044675976 -0.056134388 -0.07905054 -0.08403735 -0.16446693 0.010728377 -0.007906053 0.08087815 0.044131506 0.0904046 0.010932159 0.27068815 0.070269436 0.07228016 -0.026209138 0.09465607 0.034782037 0.022514023 -0.08219442 -0.09968699 -0.11190695 -0.079482734 0.18915772 0.055441115 -0.063793354 -0.032404244 -0.05492609 -0.02819195 0.23046938 -0.042597152 -0.11349048 -0.21533492 0.15035358 -0.06471571 -0.052358728 0.21932532 -0.10167939 -0.2183704 0.027133793 -0.10601962 -0.008959956 0.07423189 0.04923138 0.23096293 0.05981781 0.0002912946 -0.061007373 -0.067999475 0.015207266 -0.045610856 0.051813263 -0.116635345 0.04539071 -0.12585293 0.13738704 -0.060237292 0.055294927 -0.09367572 -0.10673921 0.0042165476 -0.17896187 -0.03530257 0.050189387 0.007882025 0.08525939
72 -0.19193088 -0.22454354 -0.13715543 -0.19868447 0.061166286 -0.09928927 0.039762396 0.016100122 0.074159145 -0.010593065 -0.027427625 0.16224898 -0.013517424 0.025228566 -0.040682323 -0.15014945 0.15631202 -0.025770959 0.17117463 0.26846853 0.061650258 -0.28340676 -0.047588963 -0.041210294 0.17440395 -0.16659035 -0.29384923 0.09612108 -0.086749576 -0.05546456 0.18252891 0.24996075 -0.07807873 -0.0057757725 0.10894705 0.064849354 -0.0073386175 -0.0056074997 0.03950895 0.056155376 -0.09865744 0.105214424 -0.015520754 -0.12917927 -0.035718657 0.21518092 0.019051604 -0.028976109 -0.080825165 0.06357035 -0.048495032 -0.0034902967 0.23872319 -0.07435882 -0.081954256 -0.060685392 0.13425407 0.20894426 -0.16591118 -0.05740489 -0.12231508 -0.011205075 -0.10372216 -0.08547319 -0.17530507 -0.028900607 0.019228853 -0.2862417 -0.016185207 0.10918267 0.11702033 -0.06459649 0.3165635 0.04151732 0.2108534 0.002048025 -0.101493485 0.040815577 0.19286585 -0.016993854 0.13697411 0.007985492 -0.28138313 0.01587132 0.075357296 0.03336182 0.23710205 -0.118645355 -0.05654539 -0.024131527 0.018535286 0.2760707 -0.21104977 -0.076956555 -0.2643856 0.074048065 -0.09440381 -0.0830428 0.29588458 -0.034339845 -0.16720909 0.03609726 -0.13764076 0.053865887 0.06872885 0.123599336 0.23516443 0.27591354 -0.11580525 0.12671179 -0.07435884 0.09290078 0.16726075 0.009035487 -0.11886653 -0.024434866 -0.038734056 -0.055035662 -0.03853034 0.12786902 -0.13553058 -0.004207912 -0.08536343 -0.006520181 -0.039088525 0.14753239 0.039861474 0.053559594
49 -0.1916932 -0.20745172 -0.14355247 -0.16660303 0.07690985 -0.09917615 0.078215815 0.00057884154 0.0424397 -0.026311038 -0.043294955 0.20035745 -0.006817784 0.04055116 -0.036556397 -0.16359171 0.14082882 -0.008871255 0.15775344 0.26446077 0.03194709 -0.26183167 -0.05638739 -0.056500603 0.16327597 -0.13284916 -0.27560592 0.105458185 -0.03994319 -0.07356711 0.16179961 0.22781894 -0.08697391 0.009262315 0.08119616 0.0822194 -0.022645118 -0.021192482 0.031799972 0.06458527 -0.101204515 0.11204389 0.023585193 -0.15469718 -0.046862513 0.21233428 0.051821895 -0.053249676 -0.06885613 0.033836402 -0.06897358 0.00110093 0.22605754 -0.082201034 -0.11045118 -0.079899095 0.13448581 0.19276711 -0.14473979 -0.071371555 -0.09870674 -0.048997633 -0.06170574 -0.07578654 -0.17562728 -0.009460005 -0.0172876 -0.28931224 0.015145451 0.106011584 0.14829479 -0.04427113 0.27592948 0.048991166 0.2193759 0.0022790614 -0.05557132 -0.026026944 0.20227243 0.015283683 0.1568043 -0.004637509 -0.2527932 -0.002818234 0.09291343 0.022789663 0.15589057 -0.06501285 -0.06461432 -0.024018437 -0.019955637 0.2862653 -0.18795149 -0.07087305 -0.268192 0.08038613 -0.06494165 -0.04580936 0.29299107 -0.05454471 -0.16746514 0.025015373 -0.13025029 0.026005428 0.08157719 0.12619792 0.20800512 0.21852145 -0.09668873 0.08656068 -0.10866031 0.05917836 0.10529104 0.033691812 -0.120868914 -0.015131515 -0.040043246 -0.02466004 -0.0019292987 0.13646604 -0.121720806 -0.0017721085 -0.08711017 0.008910542 -0.003332447 0.11295515 0.04592106 0.021156646
54 -0.20081419 -0.18791062 -0.17595263 -0.20427911 0.100848585 -0.08117548 0.08183761 -0.0011513617 0.054670732 -0.06260532 -0.048688736 0.19587252 -0.015859848 0.097766064 -0.061248183 -0.16717288 0.18114008 0.028991226 0.18843828 0.29914376 -0.026738659 -0.3052683 -0.104032 -0.06649259 0.1996701 -0.16496292 -0.31625584 0.13547285 -0.047682025 -0.114946134 0.19329128 0.2595308 -0.082174405 -0.006394818 0.118839145 0.12996532 -0.08826009 -0.05329992 0.02931784 0.098530695 -0.07812499 0.11025804 0.038501605 -0.22815019 -0.038014337 0.22059534 0.07848064 -0.064714976 -0.045454912 0.017526222 -0.08213422 -0.018040169 0.24843462 -0.10055428 -0.09301256 -0.07912106 0.18318816 0.21740131 -0.14846411 -0.075843364 -0.15558736 -0.023281273 -0.06851633 -0.12027338 -0.22619039 0.019891798 0.0028886287 -0.3430434 0.024230247 0.15300326 0.19631866 -0.062449504 0.32946894 0.07824014 0.21300493 -0.03087925 -0.08668857 -0.042322785 0.23905675 0.016807955 0.22320129 0.008466207 -0.3096453 0.024647303 0.17696957 -0.038131703 0.18005651 -0.047640722 -0.08593727 -0.0047115055 -0.03495945 0.3143782 -0.23685105 -0.049824096 -0.30173603 0.06090659 -0.055799738 -0.045319878 0.32744986 -0.040536597 -0.15972377 0.013362769 -0.13960911 0.025790593 0.096167475 0.1433558 0.19901125 0.26796544 -0.13456997 0.12656738 -0.13391784 0.058657795 0.13763618 0.025442338 -0.1391567 -0.038447708 -0.0051738955 -0.07417678 0.02856299 0.17153212 -0.12054913 0.03146915 -0.11001007 0.08799499 0.009693162 0.13677123 0.05495653 -0.007057013
52 -0.21089764 -0.204422 -0.14883389 -0.18763058 0.09105599 -0.08897111 0.06838957 0.005083444 0.060007583 -0.0428932 -0.03672478 0.1882314 -0.022131292 0.058843024 -0.05241627 -0.16498996 0.16133213 0.013107818 0.17679423 0.26965827 0.009447084 -0.2746372 -0.07012408 -0.05956268 0.16761205 -0.14876021 -0.2846393 0.11872005 -0.05322791 -0.08685467 0.18703134 0.24288711 -0.08231102 9.2056085e-05 0.1209369 0.10103607 -0.058830664 -0.03297955 0.027116813 0.079329565 -0.076942876 0.11100394 0.03758221 -0.180212 -0.049720183 0.2081553 0.06597811 -0.053557325 -0.06129309 0.03158473 -0.06802328 -0.020175088 0.23283283 -0.09331749 -0.097881794 -0.07885748 0.16842684 0.20203112 -0.15374415 -0.06963795 -0.1403509 -0.010796962 -0.08205451 -0.11075627 -0.21302451 0.0024541346 0.017679807 -0.29507086 0.004674763 0.12855427 0.16838346 -0.057599623 0.29504296 0.067507036 0.20500891 -0.025648601 -0.07803011 -0.015755713 0.20944306 -0.0025861887 0.18617149 -0.00048064435 -0.2911248 0.017445816 0.15052097 -0.009901512 0.19182919 -0.06435999 -0.083188675 -0.0033054752 -0.027889753 0.28287512 -0.21881275 -0.057167582 -0.27667478 0.056001417 -0.06963614 -0.051966876 0.29630414 -0.025789628 -0.14680263 0.012087799 -0.13729474 0.024690205 0.10012193 0.11820938 0.20803073 0.26721722 -0.13139218 0.11105323 -0.101424195 0.0700721 0.13692665 0.008708647 -0.13490382 -0.030925138 -0.012065465 -0.059049264 -0.016428713 0.156204 -0.104989216 0.0018662567 -0.08975206 0.043985568 -0.009957918 0.13577648 0.040767893 0.008665118
26 -0.22667317 -0.27551535 -0.018295214 -0.03481229 0.041864306 -0.15119195 0.094007716 0.014171858 -0.011070817 0.05324282 -0.043108474 0.29813638 0.036297347 -0.18334043 0.019325824 -0.18023814 0.02272642 -0.10413735 0.07876585 0.124812864 0.16937824 -0.07373413 0.08760703 0.016004547 0.0007304634 -0.05973432 -0.11524544 0.036769006 -0.0060982015 0.023652084 0.09980038 0.13691115 -0.16767682 0.027775383 -0.004827633 -0.07877944 0.18819879 0.09069853 0.05043443 -0.023100438 -0.15857095 0.11340926 0.08507581 0.04083041 -0.13248554 0.18556833 0.041811686 -0.0744322 -0.13433656 0.059365254 -0.07193188 0.06825019 0.13952687 -0.06747229 -0.19100305 -0.16210333 -0.02539294 0.1129367 -0.13737899 -0.042314507 0.075501926 -0.19823691 -0.051840372 0.06092701 -0.056138646 -0.09299187 -0.07228545 -0.15925752 0.021267137 -0.022230122 0.062047597 0.0502064 0.078852296 0.009414151 0.2816704 0.067553625 0.08877103 0.020749683 0.061795786 0.020349314 -0.0024292972 -0.08525012 -0.10071526 -0.13401824 -0.10132244 0.22540793 0.09645488 -0.08280939 -0.0129105495 -0.04219932 -0.014818786 0.20239641 -0.031073553 -0.10268225 -0.20451248 0.1581331 -0.08165615 -0.07592802 0.20530833 -0.07219556 -0.22150503 0.02419562 -0.10883549 0.001412553 0.07360381 0.037058372 0.25706714 0.06851588 0.0071973805 -0.064523205 -0.057662755 0.025291137 -0.037135135 0.029735025 -0.12967373 0.049544107 -0.14170726 0.13568333 -0.08876491 0.032571636 -0.08858914 -0.13909002 0.030012801 -0.21743369 -0.060155094 0.06886088 -0.009119199 0.09612209
45 -0.18589275 -0.19632632 -0.13583371 -0.15335138 0.08303409 -0.0940619 0.0846619 0.006950049 0.038632866 -0.027092842 -0.046384513 0.21485943 -0.0026973856 0.031203521 -0.03375079 -0.16276819 0.13775676 -0.0016265865 0.15107055 0.24996765 0.021890305 -0.23853338 -0.054753613 -0.053555742 0.14390077 -0.12233759 -0.25551903 0.10470791 -0.030521184 -0.0684806 0.15877995 0.21879 -0.09783538 0.012707189 0.08067693 0.07846918 -0.023538567 -0.016506016 0.029352035 0.06522799 -0.09878989 0.10217432 0.044948746 -0.1507306 -0.056969754 0.19666894 0.06864476 -0.059590515 -0.06544891 0.024615115 -0.07084709 0.003140961 0.20370844 -0.08262481 -0.11477664 -0.09541075 0.12469889 0.18038462 -0.13691127 -0.06597019 -0.08732761 -0.05938677 -0.056495532 -0.068469904 -0.17005144 -0.00494725 -0.01792167 -0.27677616 0.01804488 0.09926359 0.15541896 -0.028131697 0.24781227 0.051832814 0.2203987 0.002304561 -0.037574075 -0.028381202 0.18886416 0.021499427 0.15577364 -0.014291125 -0.24036697 -0.005343891 0.09290115 0.026647082 0.14308476 -0.051733557 -0.06628309 -0.01998812 -0.02888513 0.27687195 -0.17556718 -0.064120226 -0.26649687 0.08182406 -0.052871633 -0.044971526 0.286361 -0.04490963 -0.16912527 0.013507707 -0.13304943 0.022863187 0.08382914 0.11024311 0.19928539 0.20403738 -0.08994053 0.070590794 -0.105436504 0.04986718 0.088282615 0.030014278 -0.121940896 -0.012849197 -0.03935602 -0.015430266 -0.0036332451 0.1330315 -0.10400248 -0.016379125 -0.06998363 0.012770879 -0.0065366565 0.10748555 0.03964785 0.01938791
19 -0.22909413 -0.29908848 -0.04914306 0.027061693 0.004269552 -0.2228714 0.1386632 -0.015678573 -0.046119392 0.08805295 -0.11590214 0.35625923 0.06817369 -0.16086343 0.04741526 -0.17791475 -0.025545213 -0.12700346 0.07763917 0.15803966 0.20045024 -0.09596182 0.11379852 -0.027148051 0.015403346 0.039264373 -0.082210205 0.05454869 0.08178737 0.043242875 0.044643283 0.16620295 -0.15568146 0.08230259 -0.080018215 -0.09369519 0.17148373 0.06751849 0.03853315 -0.05637874 -0.21719009 0.13239512 0.046635024 0.06880216 -0.11400927 0.18316273 0.045116384 -0.06314264 -0.13590166 0.016563103 -0.096414156 0.08004078 0.1695585 -0.09376976 -0.25051448 -0.17589492 -0.02797913 0.09470045 -0.099135056 -0.09986045 0.16146566 -0.24661723 -0.000923896 0.09806782 0.003178841 -0.104353815 -0.124513924 -0.1268671 0.00220867 -0.0314143 0.10362531 0.07424281 0.02698989 -0.0017657133 0.32080603 0.14503568 0.11803992 -0.08901932 0.11977503 0.06306747 -0.004953937 -0.13216695 -0.016521899 -0.19096944 -0.14699934 0.25497186 -0.05374909 -0.04102635 -0.03356482 -0.10264369 -0.03905678 0.27791297 0.0014140038 -0.15788203 -0.2204496 0.19230875 -0.045704916 -0.020877387 0.21447077 -0.17136945 -0.24409933 0.038679324 -0.119458996 -0.031838562 0.082491875 0.026677009 0.2140883 -0.030961405 0.0473473 -0.13677229 -0.08395967 -0.015227123 -0.12952116 0.11549295 -0.106913306 0.08872263 -0.16118757 0.24693729 -0.05252028 0.04574811 -0.074623875 -0.13022804 -0.0023928122 -0.26158646 0.0054497486 -0.01399809 -0.010924569 0.10145428
47 -0.19727306 -0.19661582 -0.16223033 -0.15987742 0.09318407 -0.100878686 0.09701711 -0.005516827 0.021740647 -0.03975198 -0.06149967 0.21559349 -0.008600056 0.07254997 -0.03317058 -0.16204858 0.15345062 0.014764588 0.16625111 0.27455315 -0.0077497317 -0.26292434 -0.08021611 -0.075790524 0.171539 -0.11445838 -0.26374057 0.13322663 -0.012635866 -0.08863258 0.1572125 0.23675598 -0.07662949 0.01775942 0.078623086 0.108605556 -0.06675278 -0.05018003 0.017742775 0.07846901 -0.08889058 0.11025792 0.03859931 -0.19050409 -0.04223974 0.20190202 0.07722039 -0.066560864 -0.056843974 0.0041724197 -0.07382978 -0.0027095308 0.22757572 -0.09592134 -0.12243409 -0.09255824 0.15824813 0.19069894 -0.12954687 -0.08506097 -0.10341824 -0.050422564 -0.049278613 -0.091445364 -0.18896863 0.010668674 -0.022443643 -0.29677683 0.014253857 0.12102018 0.18830769 -0.041273795 0.26474908 0.06987717 0.21577387 -0.011622464 -0.059275363 -0.07612829 0.2226165 0.032146774 0.19515614 -0.014696567 -0.2555739 0.0050860816 0.1456481 -0.0063681896 0.10460285 -0.028984321 -0.07876603 -0.027536916 -0.051729172 0.30876306 -0.19236216 -0.066804126 -0.27631187 0.069464505 -0.044178672 -0.02231669 0.2973316 -0.067395955 -0.16065463 0.014649738 -0.13417488 0.009285217 0.0954431 0.12505168 0.1772237 0.20892943 -0.104646936 0.07280176 -0.11928471 0.035647295 0.0802922 0.043139335 -0.12243975 -0.017351806 -0.022193054 -0.02370614 0.027416375 0.1575014 -0.10276919 0.008470939 -0.09845697 0.054283123 0.021486752 0.09968832 0.0462083 0.0011644473
18 -0.26413834 -0.32262403 -0.018949749 0.008202569 0.010406432 -0.19814615 0.10636759 0.01835114 -0.0059188395 0.09097323 -0.065060474 0.37070054 0.06342388 -0.24961257 0.048789944 -0.1840831 -0.039975997 -0.13509884 0.068385996 0.107642114 0.23825948 -0.04779373 0.14546953 0.024055148 -0.02886331 -0.0036823042 -0.06838991 0.016064102 0.033170454 0.04933373 0.06819045 0.14922225 -0.21041462 0.062538445 -0.029237881 -0.14581102 0.25469464 0.118846156 0.05206132 -0.043299146 -0.21926892 0.122866966 0.09981159 0.117672846 -0.15953091 0.19636962 0.051538847 -0.07777624 -0.16142131 0.049479153 -0.104550466 0.07924486 0.14815737 -0.088102795 -0.25311276 -0.20887008 -0.0792955 0.096955664 -0.1351091 -0.07012243 0.16589166 -0.26755074 -0.036012795 0.11603519 -0.004732799 -0.12558681 -0.09243543 -0.12966125 0.03002149 -0.054968946 0.06901819 0.07936008 0.042781066 -0.014108407 0.35074455 0.13604006 0.16349904 0.0076185586 0.058751233 0.01705091 -0.040411763 -0.12606242 -0.04000414 -0.21747199 -0.20068006 0.30571488 0.06473644 -0.08425422 -0.01845993 -0.058272246 -0.008409156 0.22986351 0.002688331 -0.1388066 -0.24238876 0.20166965 -0.07619116 -0.08520376 0.21353178 -0.09401965 -0.2596233 0.019320551 -0.12961935 -0.009907188 0.080229014 0.0030349805 0.2746088 0.01159389 0.04568209 -0.14557572 -0.05680693 0.016996723 -0.09357399 0.06589372 -0.1432882 0.0908585 -0.18792045 0.242276 -0.12241665 0.022348586 -0.07464599 -0.1820836 0.058752704 -0.31599778 -0.06723875 0.01635545 -0.032489482 0.13844943
31 -0.19271171 -0.2337221 -0.059061985 -0.045359276 0.048247837 -0.13848013 0.104396515 -0.008057417 -0.026597677 0.03502319 -0.05899877 0.27561384 0.033137985 -0.095237955 0.008346612 -0.17717189 0.04771825 -0.0708815 0.094024055 0.16532613 0.109584354 -0.12727809 0.03373824 -0.022842482 0.050950505 -0.049752828 -0.1408689 0.07500336 0.016118774 0.0012356407 0.09453572 0.16051689 -0.13016945 0.04168237 -0.005826949 -0.015510035 0.105926186 0.04043128 0.041286275 -0.011461559 -0.13883683 0.12161354 0.05660295 -0.031771332 -0.09667182 0.17684299 0.045522973 -0.0700116 -0.10326475 0.033047345 -0.07644109 0.055793338 0.16480261 -0.07324855 -0.1724673 -0.1337969 0.028809968 0.11852418 -0.1203851 -0.06817636 0.04171323 -0.16982634 -0.038440023 0.018709987 -0.080776475 -0.059359457 -0.08508213 -0.1894288 0.0100825615 0.015567747 0.09589546 0.031631254 0.10558325 0.02513709 0.25882673 0.05919202 0.049924716 -0.03874693 0.12122085 0.04925459 0.055204876 -0.07607738 -0.11866314 -0.09621495 -0.029172217 0.16124819 0.047408517 -0.05262344 -0.028853837 -0.059473418 -0.044781104 0.23799042 -0.058868907 -0.10650453 -0.21238261 0.13909876 -0.06273548 -0.038216975 0.21821587 -0.09864699 -0.21250239 0.03054681 -0.10539923 -0.0097374525 0.073853575 0.06442368 0.21312998 0.07409407 -0.013582009 -0.03876012 -0.08642719 0.004546753 -0.039019935 0.046751887 -0.11314913 0.032512147 -0.11906785 0.10753368 -0.037475992 0.069754235 -0.09538571 -0.08988052 -0.019412614 -0.13947436 -0.008726357 0.061971664 0.007545599 0.060024854
23 -0.23125888 -0.2940205 -0.0644794 0.0082517555 -0.012712294 -0.21550813 0.11122646 -0.0066839457 -0.02205595 0.09466101 -0.110613 0.31569502 0.07032901 -0.15568678 0.033248182 -0.16276258 -0.024108045 -0.12774682 0.085878 0.16835816 0.2127896 -0.12258879 0.11852883 -0.019423254 0.033042118 0.023290165 -0.103791654 0.040172506 0.05268586 0.05090601 0.05663499 0.18127671 -0.14848536 0.073022425 -0.06487074 -0.10161233 0.1709216 0.0615085 0.032289024 -0.06348453 -0.21967734 0.13373126 0.019341609 0.07515423 -0.099293046 0.18408448 0.02379031 -0.037153378 -0.13144699 0.0316436 -0.08526508 0.067027435 0.18904181 -0.103039615 -0.22792672 -0.16088188 -0.015374942 0.10243116 -0.11399837 -0.10465218 0.14371678 -0.22175993 -0.017381955 0.08268469 0.002397827 -0.10977892 -0.10271653 -0.118604 -0.010391278 -0.010732807 0.092665315 0.05354277 0.059526514 -0.010990177 0.3112841 0.15033646 0.09278969 -0.054400235 0.13444953 0.04876826 -0.007849634 -0.12724991 -0.021822136 -0.18497638 -0.14962868 0.2581024 -0.013699841 -0.066369146 -0.037372604 -0.102909535 -0.02153926 0.26962888 -0.028326223 -0.15633668 -0.22579078 0.18028507 -0.05871399 -0.035113636 0.21492466 -0.15711147 -0.24121124 0.04571821 -0.11161066 -0.022000259 0.07986233 0.027365534 0.21784866 0.0015986421 0.03497776 -0.10175534 -0.07596806 0.005908897 -0.096615344 0.106298655 -0.112262815 0.07693948 -0.16629602 0.22120744 -0.068425074 0.045121938 -0.076336816 -0.11864005 -0.016949544 -0.27301702 0.0037770658 0.0020836673 -0.010778415 0.111113936
28 -0.20740798 -0.253475 -0.061105922 -0.049543124 0.042171534 -0.14501898 0.10689811 -0.007093871 -0.027145827 0.041354373 -0.06955144 0.2759606 0.030385857 -0.08460038 0.010272402 -0.17635024 0.05192769 -0.08078658 0.09992056 0.1768959 0.116407424 -0.13319287 0.040702134 -0.029389506 0.05358652 -0.044457372 -0.15112604 0.07297235 0.019842772 0.0055116867 0.09585378 0.16847664 -0.121222556 0.047154468 -0.012215675 -0.02326628 0.109028205 0.042469777 0.041222326 -0.011397066 -0.15028603 0.11782894 0.046214473 -0.01653735 -0.0938418 0.178861 0.03728832 -0.062173206 -0.11107865 0.031178206 -0.0720452 0.053148422 0.17160335 -0.07134211 -0.17318106 -0.1311304 0.026048074 0.12019325 -0.12475449 -0.06802575 0.044217315 -0.1630907 -0.03245199 0.0261191 -0.069130145 -0.06601144 -0.08701389 -0.179619 0.003187795 0.008915684 0.09243883 0.03339869 0.10330833 0.017594462 0.260092 0.06879795 0.039526135 -0.037546847 0.11841412 0.05007216 0.04659983 -0.0802024 -0.11147024 -0.09203464 -0.040591605 0.16785714 0.04633243 -0.053743318 -0.029554551 -0.059630852 -0.031550553 0.23987539 -0.06349954 -0.116050124 -0.20526153 0.13829425 -0.06267882 -0.03370691 0.22003698 -0.11443716 -0.20975314 0.03813254 -0.110570304 -0.008055223 0.0759323 0.06616081 0.21986501 0.07500993 -0.011864363 -0.04231993 -0.0778039 0.013091234 -0.039814834 0.056735862 -0.11186587 0.03250107 -0.11891657 0.109115705 -0.037534468 0.06387189 -0.09485855 -0.08974144 -0.02027952 -0.14148009 -0.01287382 0.050293848 0.017189145 0.06961189
21 -0.266409 -0.30938712 -0.032232963 -0.008997257 -0.0056321938 -0.19610447 0.09375856 0.011066532 0.004171663 0.093316264 -0.07155821 0.34122008 0.06593765 -0.23600172 0.03229658 -0.16762902 -0.045186274 -0.13840832 0.07912067 0.11945281 0.24040699 -0.072170176 0.14427686 0.025375469 -0.013914729 -0.0058963867 -0.076102965 0.014192118 0.020183593 0.043554205 0.07688784 0.15207459 -0.19092137 0.047146406 -0.0320204 -0.14318565 0.23253332 0.112291336 0.049937677 -0.05082999 -0.21806875 0.125945 0.07492683 0.10528011 -0.1490113 0.18924308 0.045083158 -0.06007372 -0.14512925 0.05232109 -0.097563714 0.072392255 0.15979668 -0.10240695 -0.22578326 -0.18942432 -0.061211016 0.09657128 -0.13453172 -0.06776231 0.14224102 -0.24336867 -0.036932237 0.10514876 -0.0064596855 -0.12521483 -0.0795348 -0.11918816 0.012513449 -0.044360455 0.070565246 0.058707677 0.056008536 -0.012307287 0.3292515 0.12880427 0.13676314 0.013974718 0.072860405 0.017332193 -0.03897346 -0.124301866 -0.041521974 -0.21667124 -0.18394734 0.28912127 0.07355617 -0.09208018 -0.013961031 -0.065672114 0.0020080623 0.22160728 -0.021293828 -0.123369075 -0.23074324 0.18445182 -0.079918414 -0.08348061 0.20633504 -0.0931677 -0.24328515 0.023423623 -0.12694365 -0.009184468 0.08715653 0.010032354 0.260438 0.023995833 0.031712882 -0.11810834 -0.048094865 0.033019464 -0.07479102 0.06521201 -0.14048995 0.08666688 -0.18118481 0.22222315 -0.12307684 0.030425679 -0.067663476 -0.16216122 0.041877724 -0.3174975 -0.057940524 0.030651169 -0.026750853 0.13005622
20 -0.24446905 -0.31540462 -0.034851342 -0.0028268807 -0.014033861 -0.20862488 0.10103301 0.013155143 -0.0058525503 0.095421605 -0.077681355 0.32572886 0.06833727 -0.21483426 0.040715974 -0.16582394 -0.034556255 -0.14136164 0.074551985 0.12922959 0.24486646 -0.08627614 0.13812807 0.013398707 0.0007445715 -0.0008372871 -0.08654921 0.017289946 0.02626645 0.051655293 0.06454503 0.1631999 -0.17689343 0.05973996 -0.039563775 -0.1308818 0.23077534 0.09945838 0.045304533 -0.059925813 -0.22302288 0.11601573 0.039904103 0.11445047 -0.12140273 0.18764707 0.02578722 -0.048012685 -0.14976817 0.051023982 -0.0887865 0.07463564 0.16539328 -0.09230283 -0.22039686 -0.17207456 -0.05879516 0.09595701 -0.13023004 -0.07428124 0.15625572 -0.22820225 -0.034797404 0.104835175 0.0034483646 -0.12426329 -0.08731734 -0.11420379 -0.001279369 -0.037491035 0.05967909 0.06085448 0.058954746 -0.020254739 0.32140902 0.14681827 0.11559441 0.0029632046 0.08033291 0.021801282 -0.03906543 -0.12125419 -0.035102643 -0.19777738 -0.19178897 0.28756067 0.049657464 -0.09234806 -0.017996125 -0.079818934 0.010286552 0.23791762 -0.010304111 -0.14698236 -0.22171004 0.18803 -0.072834395 -0.07433394 0.20399508 -0.10989849 -0.24805182 0.03208493 -0.12296664 0.0043143407 0.066579826 0.018789044 0.25574034 0.0198564 0.044353757 -0.10627475 -0.0548534 0.028485501 -0.06992451 0.081837535 -0.12298891 0.08513916 -0.17600133 0.22550686 -0.10790987 0.024102405 -0.083927624 -0.14629453 0.026777308 -0.30584604 -0.04892894 0.019080132 -0.02259178 0.13815181
22 -0.24430382 -0.3244368 -0.03955989 -0.0011301852 -0.012548109 -0.21798082 0.105132595 0.0041134795 -0.017057894 0.10295029 -0.08922257 0.33701563 0.073087476 -0.20817985 0.043970175 -0.17784038 -0.031024992 -0.14998227 0.080455065 0.1503401 0.24751298 -0.09798305 0.13947652 0.003788313 0.006291535 0.0053769266 -0.099481374 0.022574307 0.03712096 0.06017944 0.065686375 0.1659272 -0.17502278 0.06529695 -0.057224452 -0.12940843 0.22885022 0.097677454 0.04846166 -0.064440615 -0.22161268 0.12712404 0.026367374 0.11084698 -0.11855559 0.19867717 0.013501052 -0.042950373 -0.1482506 0.051595796 -0.08633378 0.075245485 0.17250606 -0.09093984 -0.22286949 -0.16873299 -0.04964751 0.10536968 -0.1276696 -0.08580318 0.15903717 -0.23934485 -0.032651044 0.10968023 0.0062538683 -0.12382433 -0.1078148 -0.12024376 0.005064893 -0.032916747 0.060031854 0.06339172 0.059470177 -0.023667682 0.3362595 0.15457855 0.10679323 -0.007838027 0.09640155 0.032256886 -0.041505307 -0.12474347 -0.029707346 -0.2016156 -0.19260575 0.29123807 0.042521764 -0.094620384 -0.012560555 -0.091334485 0.0034516444 0.2494609 -0.0127434535 -0.16031417 -0.2264946 0.19679295 -0.07753509 -0.06388093 0.2157287 -0.13960141 -0.25675818 0.048723366 -0.11839738 0.0006721266 0.07088136 0.03032435 0.26022422 0.01188825 0.042945147 -0.10579453 -0.059485815 0.022038069 -0.08022827 0.094929874 -0.12218814 0.08761169 -0.1907221 0.22820953 -0.09903084 0.023577023 -0.0925174 -0.15086548 0.017347826 -0.30792582 -0.03391291 0.016487455 -0.011853967 0.13573693
34 -0.2510942 -0.31475526 -0.015443868 0.013866459 0.029696524 -0.19837739 0.121051006 0.0056863036 -0.029114379 0.08212967 -0.071347795 0.3528914 0.049322452 -0.21424384 0.04736289 -0.18387306 -0.007336559 -0.12386599 0.07700664 0.11840805 0.20598625 -0.052063435 0.12475862 -0.0006653166 -0.02133048 -0.014024861 -0.07263426 0.03651664 0.03943718 0.05144256 0.07316737 0.15009007 -0.18422 0.07210036 -0.036483575 -0.10562842 0.21803494 0.10210546 0.046333272 -0.037934963 -0.19978721 0.12042914 0.09158467 0.092773564 -0.14672716 0.17800462 0.04915993 -0.07860878 -0.15308356 0.046716344 -0.08640901 0.08088908 0.14744717 -0.07207052 -0.25144112 -0.19924742 -0.051907588 0.10231547 -0.12357056 -0.06509706 0.13854328 -0.22890775 -0.043725252 0.09565826 -0.021185558 -0.11425647 -0.09871961 -0.1360778 0.019415706 -0.04802154 0.073912576 0.07418207 0.027083214 0.0058514527 0.31614894 0.120000236 0.120072104 -0.01610857 0.06755497 0.028953485 -0.026486132 -0.12026402 -0.05322793 -0.18022624 -0.14968008 0.27112353 0.026172098 -0.07314522 -0.023530517 -0.06638562 -0.025854591 0.23454705 -0.00018307159 -0.14248037 -0.21003486 0.1859321 -0.072777845 -0.059278958 0.202248 -0.10707499 -0.24525145 0.015717356 -0.12579136 -0.016822478 0.076363765 0.01091568 0.26216218 0.01654321 0.032958124 -0.12715238 -0.050697353 0.008077104 -0.08774451 0.07169391 -0.12765938 0.07661345 -0.15786853 0.22236946 -0.10382618 0.033327013 -0.07471662 -0.1636379 0.04915726 -0.26157734 -0.054993175 0.0200571 -0.017235378 0.12153714
32 -0.24717207 -0.31413263 -0.010255131 0.0037581592 0.02541185 -0.18251525 0.11091332 0.014537227 -0.021011079 0.08121783 -0.05142932 0.35929814 0.049341146 -0.24130619 0.044008695 -0.18422948 -0.010625414 -0.13474335 0.06441891 0.10755702 0.21987051 -0.037218593 0.12185122 0.019481493 -0.034757182 -0.032971498 -0.08471701 0.031300858 0.020192975 0.048228122 0.07730105 0.14084655 -0.19226809 0.06006892 -0.03201691 -0.12125955 0.24944215 0.12534203 0.05415168 -0.04085422 -0.2021656 0.12068021 0.09477779 0.09855007 -0.15908436 0.18767579 0.047653653 -0.07901792 -0.16472338 0.05384328 -0.08622207 0.088294595 0.13360904 -0.06774458 -0.23943189 -0.20119645 -0.073793136 0.10264907 -0.131271 -0.053840842 0.13981129 -0.24225321 -0.05198352 0.10627318 -0.027366837 -0.12231744 -0.09700216 -0.13569906 0.02806282 -0.054853424 0.051510535 0.080377094 0.041767836 -0.0036900183 0.31761122 0.11783627 0.13339843 0.018267473 0.04670387 0.020955397 -0.035242002 -0.11240882 -0.057984818 -0.18111612 -0.1722287 0.2896367 0.07073887 -0.08833353 -0.008859197 -0.062561475 -0.009938132 0.22055298 0.006260904 -0.13704741 -0.21049988 0.1937709 -0.07993327 -0.08354639 0.19891742 -0.092818685 -0.25165477 0.015484761 -0.12507713 -0.0060460637 0.07227716 0.016569287 0.28392637 0.021256674 0.031963438 -0.117459044 -0.047230363 0.011742536 -0.07169114 0.054441277 -0.12794621 0.081076674 -0.17676729 0.21320039 -0.1116756 0.017655984 -0.086085595 -0.17825153 0.060461827 -0.27658287 -0.069223374 0.031235587 -0.028531086 0.13288088
68 -0.17400514 -0.12169575 -0.13412568 -0.15560035 0.11383613 -0.017916678 0.117058754 0.0014160617 0.00471302 -0.08534124 -0.032919604 0.2481769 0.005775437 0.039157685 -0.05585535 -0.16139925 0.12858146 0.053017076 0.11354913 0.20923324 -0.060005073 -0.18253307 -0.112606615 -0.031354062 0.11667283 -0.12582578 -0.23526102 0.11702158 -0.0024698041 -0.13031106 0.1526589 0.15573245 -0.12905253 -0.014219934 0.07827523 0.097393386 -0.023099143 -0.027919192 0.03400318 0.11220509 -0.06750417 0.10473704 0.13443622 -0.22876737 -0.07426602 0.18788916 0.14571136 -0.11096156 -0.039922982 -0.023454854 -0.11463729 0.011137913 0.16185927 -0.09189901 -0.11071224 -0.11725949 0.08565191 0.15483886 -0.10799999 -0.06115732 -0.08562366 -0.15143567 0.0017251698 -0.05224911 -0.18352497 0.04504616 -0.052594643 -0.33265454 0.106295794 0.1018979 0.17398432 0.0015087714 0.2437366 0.073490284 0.23652707 -0.040727485 0.045510687 -0.069512226 0.16712257 0.06264723 0.21329391 -0.012566568 -0.2375149 -0.03209505 0.12747486 0.0116717005 0.13338323 0.025329739 -0.050974626 0.031109689 -0.06653452 0.26512554 -0.15838225 -0.012124586 -0.308 0.087063104 -0.0072341347 -0.03618109 0.2839279 -0.016431674 -0.17761162 0.0010178492 -0.12338547 0.006064977 0.08793688 0.12939666 0.16662136 0.13388783 -0.07783721 0.041779164 -0.16543849 -0.00049067393 0.036159504 0.021271668 -0.14235249 -0.011102913 -0.058348365 -0.005145611 0.062370043 0.13691278 -0.1080823 -0.0063260514 -0.044599153 0.073166564 0.01705843 0.10116742 0.02751518 -0.027057167
58 -0.16939469 -0.12449446 -0.18200706 -0.15095058 0.115684606 -0.04077682 0.15969956 -0.01593191 -0.020946426 -0.0857866 -0.074123845 0.28580993 0.018954972 0.10799201 -0.055869624 -0.18920158 0.15070257 0.06982364 0.12532014 0.25992143 -0.09920062 -0.23986198 -0.14277545 -0.08464247 0.16569108 -0.098433375 -0.26146665 0.1537763 0.04725326 -0.14666675 0.14366366 0.18338469 -0.11204495 0.005915267 0.043334927 0.1410714 -0.075870946 -0.06877863 0.016251968 0.12273053 -0.09555177 0.12430864 0.1271574 -0.28733978 -0.06645224 0.20988376 0.16914009 -0.1261985 -0.020412289 -0.06875469 -0.13297513 0.013386128 0.20928518 -0.11335121 -0.14068668 -0.12588054 0.12868106 0.17096038 -0.09257674 -0.09541857 -0.07575767 -0.17810069 0.023616876 -0.06981628 -0.19670933 0.063987084 -0.08619446 -0.37502593 0.11111076 0.12931922 0.23147969 0.0061662714 0.2589846 0.08761144 0.2678078 -0.03900175 0.031088354 -0.16058165 0.24287139 0.10519174 0.26478934 -0.03842892 -0.23541164 -0.033826318 0.17587972 -0.009128655 0.050371896 0.06738194 -0.0785184 0.0037916137 -0.109489866 0.3313169 -0.17921722 -0.026522215 -0.33883843 0.100754306 0.016578238 0.0038433243 0.3305482 -0.08094393 -0.19193679 0.013552801 -0.12825054 -0.012934046 0.10488399 0.15817618 0.13023785 0.114753716 -0.07303096 0.027858974 -0.20979948 -0.04214811 -0.0013626484 0.06067873 -0.14292508 -0.010042146 -0.06093674 0.016494215 0.12235914 0.1647738 -0.104740664 0.021253066 -0.09562309 0.11385388 0.07174768 0.072812624 0.05412442 -0.049811132
61 -0.15035187 -0.10215887 -0.13446152 -0.19406773 0.10653311 0.01686965 0.103728905 0.012528025 0.024468271 -0.10189988 -0.010683164 0.2334428 0.00452168 0.0465602 -0.080166124 -0.16838539 0.15979956 0.0641191 0.10337177 0.21938843 -0.07299211 -0.2025249 -0.14524041 -0.018733978 0.1364669 -0.17018147 -0.26718667 0.11141799 -0.03296307 -0.15793061 0.16768295 0.14114037 -0.1441212 -0.046611838 0.08761269 0.10721639 -0.0025211708 -0.022315068 0.052238237 0.13046315 -0.06337047 0.09911008 0.13539223 -0.2514249 -0.069169395 0.20309032 0.13921413 -0.11266528 -0.028224872 -0.016488025 -0.11523285 0.01805306 0.16607347 -0.08629774 -0.07448484 -0.09847599 0.06442867 0.1654563 -0.120190226 -0.054255802 -0.11342948 -0.1740369 0.0031654444 -0.04683599 -0.20070061 0.050777603 -0.050338622 -0.37828422 0.13485768 0.11333707 0.14868613 0.0072167674 0.29666215 0.078021914 0.24415442 -0.053139575 0.038088012 -0.027995415 0.16376433 0.06336553 0.22825664 0.0021011108 -0.26289716 -0.028032392 0.10662039 0.008558759 0.20219888 0.014663406 -0.032666046 0.047922596 -0.049181756 0.25985444 -0.16795872 -0.003488495 -0.32701808 0.09962473 -0.005280579 -0.05870461 0.2974587 0.004838447 -0.19117488 0.020805499 -0.115050495 0.035671532 0.06789956 0.15065992 0.17413408 0.14109744 -0.074834146 0.07663428 -0.18780026 0.003764532 0.08023991 -0.000737212 -0.1462861 -0.012308637 -0.08699689 -0.030678127 0.07276495 0.12880541 -0.13791871 0.00081990915 -0.048561744 0.08288727 0.0022882435 0.12404097 0.030350473 -0.028843671
64 -0.15734608 -0.09862033 -0.12445749 -0.17978592 0.11386745 0.02759505 0.099857956 0.02296753 0.028733537 -0.11205288 0.00079791783 0.2357223 -0.0021182538 0.031018049 -0.067783095 -0.15400171 0.14092548 0.06959364 0.10160803 0.18994151 -0.07552082 -0.1692524 -0.13909608 -0.013487411 0.11161326 -0.16249058 -0.24054559 0.10222188 -0.032649245 -0.15531603 0.16346946 0.13111044 -0.14389609 -0.047076393 0.09968748 0.09578264 -0.001991599 -0.01638923 0.04113395 0.143922 -0.052391596 0.08863604 0.16385706 -0.24494831 -0.08646244 0.19464158 0.16197696 -0.12908979 -0.036809333 -0.022218786 -0.11680087 0.011764897 0.13868521 -0.08005503 -0.07443134 -0.11916773 0.05636324 0.15738587 -0.110746324 -0.041855913 -0.10927174 -0.15781003 -0.0039924914 -0.049315833 -0.2039455 0.056091305 -0.035166796 -0.3569974 0.13718197 0.09754175 0.15958247 0.007847593 0.27419162 0.078577206 0.23560882 -0.06878018 0.05588029 -0.020410942 0.14363638 0.04396288 0.22031817 0.004257815 -0.25615463 -0.029024392 0.12069352 0.0037485177 0.19964357 0.023288367 -0.037597746 0.06260496 -0.0545725 0.23349977 -0.16108255 0.0200384 -0.31390005 0.08416152 -0.0016624427 -0.06539442 0.27942893 0.032204438 -0.17192586 -0.0017931208 -0.12067516 0.020522892 0.07436846 0.13583948 0.16931792 0.1518041 -0.077016324 0.05389978 -0.16730002 0.0021346835 0.07812048 -0.012015143 -0.14848766 -0.016799083 -0.068970814 -0.028357841 0.059787244 0.132422 -0.11345604 -0.008336813 -0.030723402 0.09040661 -0.016823195 0.11223758 0.02718525 -0.028308177
60 -0.16905351 -0.14281595 -0.18203358 -0.16675648 0.11345851 -0.056551933 0.14066108 -0.00822924 -0.0003457594 -0.07896915 -0.0728889 0.25081787 0.00216622 0.11377131 -0.054483518 -0.17672642 0.16622622 0.05495243 0.14438114 0.27288038 -0.07495924 -0.2666182 -0.13377927 -0.08454103 0.17817971 -0.11642223 -0.2812246 0.15962277 0.023928713 -0.13322683 0.16201577 0.21957448 -0.09838974 0.009636452 0.06565332 0.14222977 -0.08155993 -0.06938199 0.02263214 0.118045576 -0.09156103 0.123159654 0.099140264 -0.27448344 -0.0567484 0.22216803 0.14113581 -0.11253208 -0.029148342 -0.04000115 -0.11183359 0.002345265 0.22762243 -0.10931186 -0.13174361 -0.11474168 0.15873693 0.18828678 -0.116843924 -0.09328777 -0.100179605 -0.123486586 -0.0061191074 -0.09211626 -0.21178067 0.055614147 -0.058228318 -0.36470774 0.07273161 0.13812442 0.22864296 -0.014201196 0.28370786 0.09162173 0.26145867 -0.035307895 -0.012124833 -0.13360207 0.24968502 0.085591644 0.2642976 -0.018669885 -0.2654605 -0.010426185 0.18675278 -0.022902321 0.07734497 0.037014313 -0.08817629 -0.0053002248 -0.08500416 0.34072778 -0.20232788 -0.045653813 -0.33397883 0.086613305 0.0021508571 -0.0058993297 0.33992407 -0.07165275 -0.18428035 0.010288071 -0.13687998 -0.0006686919 0.10981004 0.15229419 0.15192576 0.16680269 -0.09170572 0.052040458 -0.183659 -0.013956388 0.037215255 0.05380286 -0.13813084 -0.017507054 -0.03903396 -0.00875774 0.09581223 0.170461 -0.11554029 0.024263382 -0.098866336 0.11044826 0.05503868 0.08980331 0.0587686 -0.037597146
